{
    "version": "0.5.0",
    "architecture": "WaveNet",
    "config": {
        "layers": [
            {
                "input_size": 1,
                "condition_size": 1,
                "head_size": 8,
                "channels": 16,
                "kernel_size": 3,
                "dilations": [
                    1,
                    2,
                    4,
                    8,
                    16,
                    32,
                    64,
                    128,
                    256,
                    512
                ],
                "activation": "Tanh",
                "gated": false,
                "head_bias": false
            },
            {
                "input_size": 16,
                "condition_size": 1,
                "head_size": 1,
                "channels": 8,
                "kernel_size": 3,
                "dilations": [
                    1,
                    2,
                    4,
                    8,
                    16,
                    32,
                    64,
                    128,
                    256,
                    512
                ],
                "activation": "Tanh",
                "gated": false,
                "head_bias": true
            }
        ],
        "head": null,
        "head_scale": 0.02
    },
    "weights": [
        -0.0012376639060676098,
        0.5028741359710693,
        -0.6566665172576904,
        -0.49613338708877563,
        -0.029676053673028946,
        0.014258645474910736,
        0.014140293933451176,
        0.6984962821006775,
        0.0038908112328499556,
        0.09905140101909637,
        -0.0821482464671135,
        -0.22424767911434174,
        -1.0305960178375244,
        -0.4746512770652771,
        -0.11631793528795242,
        0.1355290561914444,
        0.20591846108436584,
        0.04174899309873581,
        -0.040052879601716995,
        -0.25190168619155884,
        0.014198514632880688,
        0.1196962371468544,
        0.14143748581409454,
        0.13541333377361298,
        -0.02858007699251175,
        0.19728848338127136,
        0.15926110744476318,
        -0.14193497598171234,
        0.09059753268957138,
        -0.005488303955644369,
        -0.0530022457242012,
        -0.06349346786737442,
        -0.11154541373252869,
        -0.05318604037165642,
        0.12954965233802795,
        -0.05882100760936737,
        -0.1244620606303215,
        -0.056480392813682556,
        0.03503795713186264,
        0.08102204650640488,
        0.28364306688308716,
        -0.01689903624355793,
        -0.01452586054801941,
        -0.3215663433074951,
        -0.12367470562458038,
        -0.04506829380989075,
        0.2757287919521332,
        0.10422851890325546,
        -0.09448511153459549,
        0.20522713661193848,
        0.14628610014915466,
        0.15741966664791107,
        0.2346016764640808,
        0.04554644972085953,
        0.08410415053367615,
        0.09800957888364792,
        0.05963165685534477,
        -0.11610879749059677,
        0.10627414286136627,
        -0.03968675062060356,
        0.04973258078098297,
        -0.13766145706176758,
        -0.12977780401706696,
        0.03497321158647537,
        -0.03261430934071541,
        0.06788972020149231,
        -0.12167172133922577,
        0.18489618599414825,
        -0.1742488592863083,
        0.3291245400905609,
        -0.2572987675666809,
        0.2118888944387436,
        -0.13007819652557373,
        -0.02448606863617897,
        0.37798425555229187,
        -0.06752260774374008,
        -0.11487525701522827,
        0.12087661027908325,
        -0.15820035338401794,
        0.05525394529104233,
        -0.34979161620140076,
        0.32696834206581116,
        -0.06234894320368767,
        -0.07428275793790817,
        -0.11054505407810211,
        0.11581239849328995,
        -0.28045207262039185,
        0.132121279835701,
        0.02099655196070671,
        0.23645013570785522,
        -0.11023947596549988,
        0.20795750617980957,
        -0.13522325456142426,
        0.25956565141677856,
        -0.26901933550834656,
        0.14474156498908997,
        -0.129129096865654,
        -0.12265203893184662,
        0.16009990870952606,
        -0.2696659564971924,
        -0.008697072975337505,
        0.3567655682563782,
        -0.26158976554870605,
        -0.1751599907875061,
        0.1247529461979866,
        -0.19127416610717773,
        -0.23351003229618073,
        0.13977830111980438,
        -0.21991509199142456,
        0.2474910318851471,
        -0.3578343093395233,
        0.295711487531662,
        -0.0406668484210968,
        0.045933738350868225,
        0.16846297681331635,
        -0.15911386907100677,
        0.09274250268936157,
        -0.1664789319038391,
        0.0539153590798378,
        -0.09172546118497849,
        0.23058831691741943,
        0.04571185261011124,
        -0.18924997746944427,
        0.24690404534339905,
        -0.09384637326002121,
        -0.20318560302257538,
        0.12541864812374115,
        -0.10476521402597427,
        0.06304537504911423,
        -0.2819024622440338,
        -0.04187104105949402,
        -0.08545917272567749,
        0.03360796719789505,
        -0.04613969475030899,
        0.2183465212583542,
        -0.20094454288482666,
        0.020376045256853104,
        -0.06315148621797562,
        0.31415653228759766,
        0.04577208682894707,
        0.23568227887153625,
        -0.11544763296842575,
        0.1797577142715454,
        -0.10940127819776535,
        0.0717969760298729,
        -0.021082144230604172,
        -0.028362886980175972,
        0.17552518844604492,
        -0.03585472330451012,
        -0.23088154196739197,
        0.04984591156244278,
        -0.08351743966341019,
        -0.14714361727237701,
        0.25829392671585083,
        0.11199918389320374,
        -0.2557973563671112,
        0.27839693427085876,
        -0.17099988460540771,
        0.10348933190107346,
        -0.2541576027870178,
        -0.017175450921058655,
        0.12674173712730408,
        -0.1567666083574295,
        0.002291100798174739,
        -0.2096758782863617,
        0.09795612841844559,
        -0.18567055463790894,
        0.24142417311668396,
        -0.2255527675151825,
        -0.13461509346961975,
        0.30630040168762207,
        -0.15998061001300812,
        -0.0035543269477784634,
        0.21898958086967468,
        -0.22281098365783691,
        0.21793612837791443,
        -0.17979295551776886,
        0.032741282135248184,
        -0.028564678505063057,
        -0.08802627772092819,
        -0.13521718978881836,
        0.09553259611129761,
        -0.07388748973608017,
        0.14747817814350128,
        -0.034292154014110565,
        0.20114408433437347,
        -0.1928875893354416,
        0.10168878734111786,
        -0.2822507321834564,
        0.20050480961799622,
        -0.010233807377517223,
        0.26211488246917725,
        -0.219511941075325,
        -0.13004232943058014,
        0.08526352792978287,
        -0.17633914947509766,
        -0.20753349363803864,
        0.2333984225988388,
        -0.18966329097747803,
        -0.12881040573120117,
        0.1853944957256317,
        -0.007849362678825855,
        -0.23005402088165283,
        0.077043816447258,
        -0.1938401162624359,
        0.2617955207824707,
        -0.2525531053543091,
        0.23298591375350952,
        -0.20283880829811096,
        -0.05163245275616646,
        0.038125939667224884,
        -0.09075389802455902,
        -0.11246759444475174,
        0.010838019661605358,
        0.05983290076255798,
        0.1423829346895218,
        -0.1659783273935318,
        -0.01566280610859394,
        0.2327244132757187,
        -0.174339160323143,
        0.026720687747001648,
        0.24647508561611176,
        0.005777517333626747,
        -0.046021152287721634,
        -0.22218072414398193,
        0.12303297966718674,
        -0.1504938006401062,
        0.06851282715797424,
        -0.048738837242126465,
        -0.0801502987742424,
        -0.11282320320606232,
        0.18566976487636566,
        0.017659500241279602,
        0.09860151261091232,
        -0.11132177710533142,
        -0.13530072569847107,
        -0.02263798378407955,
        -0.011997675523161888,
        -0.009438416920602322,
        0.1357981115579605,
        -0.03740056976675987,
        0.16816599667072296,
        0.09123697876930237,
        -0.030366627499461174,
        0.1352747231721878,
        -0.023033592849969864,
        0.039235085248947144,
        -0.05971866846084595,
        0.12102025747299194,
        -0.08148788660764694,
        -0.009810329414904118,
        0.1269771307706833,
        0.04726104438304901,
        -0.093900665640831,
        -0.22704407572746277,
        -0.034274276345968246,
        -0.1503642499446869,
        -0.10080362111330032,
        0.04362296313047409,
        -0.1927681267261505,
        0.08021557331085205,
        -0.004689705092459917,
        0.1659778356552124,
        -0.05168069526553154,
        0.13597410917282104,
        0.04581034183502197,
        -0.1974913775920868,
        0.13115105032920837,
        0.2105298489332199,
        -0.11800990998744965,
        0.013558450154960155,
        -0.1588689684867859,
        0.0143104437738657,
        -0.05645721033215523,
        0.060409411787986755,
        -0.08254925906658173,
        0.41731810569763184,
        -0.1888582408428192,
        0.13795164227485657,
        -0.05009489133954048,
        0.13404233753681183,
        -0.1408502608537674,
        0.12570616602897644,
        0.013290366157889366,
        0.1677287220954895,
        0.010613888502120972,
        0.04829432815313339,
        -0.1005050465464592,
        0.0708267092704773,
        0.10303474962711334,
        -0.2460104525089264,
        0.14706934988498688,
        0.13948428630828857,
        -0.1627441942691803,
        0.05752290040254593,
        0.0051154447719454765,
        -0.05682062357664108,
        -0.02030060440301895,
        0.15323378145694733,
        -0.20361460745334625,
        0.026946935802698135,
        -0.1049739196896553,
        0.09559992700815201,
        -0.08791378140449524,
        0.11134734004735947,
        -0.18085543811321259,
        0.07464122027158737,
        0.06513138115406036,
        0.19533401727676392,
        -0.21054022014141083,
        -0.12535753846168518,
        -0.15559184551239014,
        0.24302595853805542,
        -0.05665444955229759,
        -0.06992600858211517,
        0.2944237291812897,
        -0.06630665808916092,
        -0.12577635049819946,
        0.2374575287103653,
        0.006038378924131393,
        0.11797834187746048,
        -0.1733313500881195,
        -0.08545118570327759,
        -0.1565028727054596,
        0.1829775869846344,
        0.1339041143655777,
        0.20731954276561737,
        -0.18539132177829742,
        0.07209528237581253,
        -0.10130219906568527,
        0.17953018844127655,
        -0.13768541812896729,
        0.24112851917743683,
        -0.13675755262374878,
        -0.09291204065084457,
        -0.0442839078605175,
        0.33019113540649414,
        0.1456795334815979,
        -0.016519149765372276,
        0.3011031448841095,
        -0.03801146149635315,
        -0.17605143785476685,
        0.32445624470710754,
        0.07536034286022186,
        -0.2146809697151184,
        0.32452601194381714,
        0.05448450893163681,
        -0.04920284450054169,
        0.11763706803321838,
        0.01628432422876358,
        0.08707630634307861,
        -0.10929035395383835,
        0.0554339773952961,
        0.06743023544549942,
        0.14925934374332428,
        -0.09947706758975983,
        0.183714359998703,
        0.046961456537246704,
        0.05748211219906807,
        -0.20506861805915833,
        -0.07557166367769241,
        0.01700581982731819,
        -0.34121957421302795,
        0.1438867449760437,
        0.2277364432811737,
        -0.07093340903520584,
        0.13120058178901672,
        -0.2858762741088867,
        0.09005848318338394,
        -0.06218886375427246,
        -0.07270081341266632,
        0.16049176454544067,
        -0.05355820432305336,
        -0.2287963479757309,
        0.09295817464590073,
        -0.11318652331829071,
        0.12519969046115875,
        -0.1929280012845993,
        0.07578396052122116,
        -0.0361599363386631,
        0.3435884118080139,
        -0.06723708659410477,
        0.20542465150356293,
        -0.08637319505214691,
        0.076534703373909,
        0.3030887246131897,
        -0.16460783779621124,
        0.10912474989891052,
        0.10849620401859283,
        -0.16685140132904053,
        0.04514208808541298,
        0.12261755764484406,
        -0.316514790058136,
        -0.054583508521318436,
        0.030431577935814857,
        -0.12480568140745163,
        0.1400051862001419,
        -0.1946481317281723,
        0.20025737583637238,
        0.09303219616413116,
        0.10750950127840042,
        -0.05550031363964081,
        0.03452402353286743,
        0.06276049464941025,
        0.23285381495952606,
        -0.2524764835834503,
        0.19995200634002686,
        -0.06647875159978867,
        0.08677661418914795,
        0.1476299911737442,
        -0.2470247596502304,
        0.12474532425403595,
        0.19673173129558563,
        -0.15221261978149414,
        0.02440580353140831,
        -0.11845485121011734,
        0.1026839017868042,
        -0.17296990752220154,
        -0.06658783555030823,
        -0.10654257982969284,
        0.0063004568219184875,
        -0.15473254024982452,
        0.17278191447257996,
        -0.08372055739164352,
        0.0537375882267952,
        -0.3181619942188263,
        0.16543248295783997,
        -0.17195814847946167,
        0.09207896143198013,
        -0.11084287613630295,
        -0.04495950788259506,
        -0.10122042894363403,
        0.2793078124523163,
        0.08660915493965149,
        -0.2724362015724182,
        0.09298917651176453,
        0.09549665451049805,
        -0.2813941538333893,
        0.22220103442668915,
        -0.06500556319952011,
        -0.3072468042373657,
        0.005601704586297274,
        0.025351179763674736,
        -0.06529878824949265,
        0.02653638646006584,
        0.011355974711477757,
        0.13563767075538635,
        -0.12432791292667389,
        0.008748961612582207,
        -0.23699361085891724,
        0.15364967286586761,
        0.04549458622932434,
        0.29501307010650635,
        -0.06296924501657486,
        -0.0662727952003479,
        -0.025758184492588043,
        0.14452072978019714,
        0.09926645457744598,
        -0.25535762310028076,
        0.09972137957811356,
        -0.10434617847204208,
        -0.20035536587238312,
        0.14854878187179565,
        -0.15235331654548645,
        0.1648094207048416,
        -0.06014384329319,
        0.22819335758686066,
        -0.03949642926454544,
        0.15548349916934967,
        -0.07476816326379776,
        0.202101469039917,
        -0.004176346119493246,
        0.15370072424411774,
        -0.042410172522068024,
        0.32268619537353516,
        -0.18291319906711578,
        -0.005013636313378811,
        -0.09961631149053574,
        -0.04724887013435364,
        -0.05098246410489082,
        0.059440694749355316,
        -0.03231792151927948,
        -0.2741743326187134,
        0.21069738268852234,
        0.014827721752226353,
        -0.031031513586640358,
        0.23630964756011963,
        0.10884283483028412,
        -0.13877500593662262,
        0.09306610375642776,
        -0.015030472539365292,
        -0.12478651851415634,
        0.22167736291885376,
        -0.16521891951560974,
        0.28247061371803284,
        -0.17401324212551117,
        -0.18386085331439972,
        -0.067508764564991,
        0.024012034758925438,
        0.3112366795539856,
        -0.027259068563580513,
        0.12262794375419617,
        -0.09623012691736221,
        -0.009635785594582558,
        0.10910670459270477,
        -0.25105762481689453,
        -0.04879869520664215,
        0.04814798757433891,
        -0.21173985302448273,
        -0.041518911719322205,
        -0.062243618071079254,
        0.26503053307533264,
        0.04425470158457756,
        -0.040695276111364365,
        0.04555361717939377,
        0.11534073948860168,
        0.06106818839907646,
        0.1843673437833786,
        0.17728295922279358,
        -0.009226803667843342,
        -0.11108443140983582,
        -0.04795430228114128,
        0.13665227591991425,
        0.05999147519469261,
        -0.008323302492499352,
        -0.08798190206289291,
        -0.03195406123995781,
        -0.113998182117939,
        0.016807693988084793,
        -0.25651130080223083,
        0.02391079254448414,
        0.10470811277627945,
        -0.27886125445365906,
        -0.20914724469184875,
        -0.11377011984586716,
        -0.17364385724067688,
        -0.1340588927268982,
        -0.10732357203960419,
        -0.24064567685127258,
        -0.06695318222045898,
        -0.07763895392417908,
        0.1919824481010437,
        0.07874070852994919,
        -0.04222993552684784,
        0.06530792266130447,
        0.2527560591697693,
        -0.09509284794330597,
        0.06834660470485687,
        -0.09287164360284805,
        0.06927800923585892,
        -0.18398405611515045,
        -0.08900878578424454,
        0.22249281406402588,
        -0.14516697824001312,
        0.07538553327322006,
        0.06762201339006424,
        -0.0914679542183876,
        0.0101617481559515,
        0.1594417691230774,
        0.062152426689863205,
        -0.19509081542491913,
        -0.16396082937717438,
        -0.14104218780994415,
        -0.008269976824522018,
        -0.1023024320602417,
        0.18863852322101593,
        -0.07903239130973816,
        -0.10885597765445709,
        0.01997428759932518,
        0.06789655238389969,
        0.19662301242351532,
        0.13306820392608643,
        -0.09991133213043213,
        -0.19040793180465698,
        -0.06287337839603424,
        0.1735767126083374,
        0.048053011298179626,
        -0.20383644104003906,
        0.08621538430452347,
        0.19618205726146698,
        -0.09072951972484589,
        -0.06901528686285019,
        -0.04600466042757034,
        -0.01908954605460167,
        0.03238358721137047,
        0.003274017246440053,
        -0.04202466458082199,
        0.09620583802461624,
        0.19880078732967377,
        0.20663577318191528,
        -0.03149370104074478,
        -0.1614110767841339,
        -0.1310873180627823,
        0.06024860218167305,
        0.26768723130226135,
        -0.018781056627631187,
        0.030691634863615036,
        0.019479524344205856,
        0.21031495928764343,
        -0.032268453389406204,
        -0.018852168694138527,
        0.02494041994214058,
        -0.25069817900657654,
        0.2494421899318695,
        0.009674709290266037,
        -0.21124069392681122,
        0.1820422261953354,
        -0.13817360997200012,
        0.0669383779168129,
        -0.1278376579284668,
        -0.2964157462120056,
        -0.468280166387558,
        -0.0536939911544323,
        -0.1429453343153,
        0.20379146933555603,
        0.011835179291665554,
        0.05020421743392944,
        -0.16435161232948303,
        0.2051445096731186,
        -0.05767352879047394,
        0.07817361503839493,
        0.016568735241889954,
        0.1095314472913742,
        -0.28207555413246155,
        0.07644876837730408,
        -0.008551412262022495,
        -0.026624293997883797,
        0.0967441275715828,
        -0.05434591323137283,
        -0.1683615893125534,
        0.20083995163440704,
        0.11764807999134064,
        -0.10706386715173721,
        0.12505578994750977,
        0.11672570556402206,
        -0.19271087646484375,
        0.05795455724000931,
        -0.246163472533226,
        0.052908554673194885,
        -0.0852234736084938,
        -0.14778344333171844,
        0.0858081504702568,
        -0.0622926764190197,
        0.18673717975616455,
        -0.2045719474554062,
        0.20459027588367462,
        -0.24917671084403992,
        0.23508809506893158,
        -0.17671407759189606,
        -0.20632751286029816,
        0.18753661215305328,
        -0.1258459836244583,
        -0.055701661854982376,
        0.004121479578316212,
        -0.17614181339740753,
        0.10670530796051025,
        -0.07614464312791824,
        0.19716991484165192,
        -0.08110463619232178,
        0.1900026947259903,
        -0.017893139272928238,
        0.13964521884918213,
        -0.0019642834085971117,
        -0.04217080771923065,
        -0.07471376657485962,
        0.2725658118724823,
        -0.0975937470793724,
        0.2814476490020752,
        -0.1538323312997818,
        0.18270239233970642,
        -0.3032163381576538,
        0.08641977608203888,
        -0.08969375491142273,
        -0.1411423683166504,
        0.16107775270938873,
        0.03477657958865166,
        -0.19037331640720367,
        0.10889291763305664,
        0.03299320489168167,
        -0.21112075448036194,
        0.2348557859659195,
        -0.16374622285366058,
        -0.18912608921527863,
        0.09482820332050323,
        -0.010806703008711338,
        0.30964839458465576,
        -0.13729232549667358,
        -0.03247467055916786,
        0.18001540005207062,
        -0.021769028156995773,
        0.0002671852125786245,
        -0.24658149480819702,
        0.050444234162569046,
        0.25908362865448,
        0.15716290473937988,
        -0.09926412254571915,
        -0.024945951998233795,
        0.042113762348890305,
        0.06542129069566727,
        -0.10971272736787796,
        0.08463884145021439,
        0.08505645394325256,
        -0.24228966236114502,
        -0.11504686623811722,
        -0.10864697396755219,
        0.11629023402929306,
        0.12100467830896378,
        0.160146102309227,
        -0.15911076962947845,
        -0.0557972714304924,
        -0.05217459797859192,
        0.0651642456650734,
        0.07369743287563324,
        -0.0869305208325386,
        0.0012510076630860567,
        -0.17851543426513672,
        -0.010336696170270443,
        0.19210687279701233,
        0.23969131708145142,
        0.13922148942947388,
        -0.03748646005988121,
        0.06591668725013733,
        0.03423764184117317,
        -0.1928221434354782,
        0.0645066648721695,
        0.06648504734039307,
        0.0008087888709269464,
        0.03611966222524643,
        0.12576323747634888,
        -0.20010705292224884,
        0.14582929015159607,
        0.1568727046251297,
        -0.163421630859375,
        -0.15693311393260956,
        -0.16234800219535828,
        0.21688838303089142,
        0.23962731659412384,
        -0.09878475219011307,
        0.11100456118583679,
        -0.4404096007347107,
        0.30135640501976013,
        -0.03342609480023384,
        0.43621253967285156,
        -0.4644514322280884,
        0.10094498097896576,
        0.4501643478870392,
        -0.3150416314601898,
        -0.03303120285272598,
        0.31390342116355896,
        -0.4223730266094208,
        -0.08188439160585403,
        -0.33039960265159607,
        0.46765145659446716,
        0.062211789190769196,
        0.1766301542520523,
        -0.04491957277059555,
        0.01728815585374832,
        -0.21443624794483185,
        0.3565949499607086,
        -0.1453782021999359,
        0.29174673557281494,
        -0.32451575994491577,
        -0.024874404072761536,
        -0.18609057366847992,
        0.451383113861084,
        -0.14849932491779327,
        0.2707963287830353,
        -0.2752305269241333,
        -0.06992433965206146,
        0.3056671619415283,
        -0.37164413928985596,
        -0.08094404637813568,
        0.4052039682865143,
        -0.3493063449859619,
        0.13060756027698517,
        0.23171398043632507,
        -0.27496013045310974,
        -0.046940576285123825,
        0.4550458490848541,
        -0.5402494072914124,
        -0.06444773823022842,
        -0.34746307134628296,
        0.4661923944950104,
        -0.0732588991522789,
        0.0899856835603714,
        -0.08981017023324966,
        -0.06259435415267944,
        -0.09260771423578262,
        0.009201799519360065,
        0.014910710975527763,
        -0.05974103882908821,
        -0.019294526427984238,
        0.017293673008680344,
        0.11222496628761292,
        -0.21245750784873962,
        0.13466346263885498,
        0.00882798433303833,
        0.02783147618174553,
        -0.1239900067448616,
        -0.011860069818794727,
        0.45475563406944275,
        -0.22980442643165588,
        0.6189942359924316,
        -0.6001827120780945,
        0.0652860626578331,
        0.8155209422111511,
        0.7955430150032043,
        -0.6112806797027588,
        0.028720321133732796,
        -0.0233457051217556,
        -0.4611952006816864,
        -0.42979294061660767,
        0.1612793207168579,
        -0.628213107585907,
        0.29676687717437744,
        0.38773399591445923,
        -0.20587721467018127,
        0.3224089443683624,
        -0.16838884353637695,
        0.38002508878707886,
        0.1909811645746231,
        -0.2550477385520935,
        0.03627845644950867,
        -0.00853863824158907,
        -0.08849678188562393,
        -0.17797361314296722,
        0.0721820592880249,
        0.1027376726269722,
        -0.04975161701440811,
        0.3186721205711365,
        0.040354739874601364,
        -0.5188902020454407,
        0.2935660779476166,
        -0.14503219723701477,
        -0.1986847221851349,
        -0.000523714697919786,
        0.1003674790263176,
        -0.002597734797745943,
        -0.09443782269954681,
        -0.0819639340043068,
        0.05011603236198425,
        0.15715423226356506,
        -0.4119989573955536,
        -0.2897527515888214,
        0.09103110432624817,
        -0.17960959672927856,
        0.25307705998420715,
        0.047201696783304214,
        -0.0203230120241642,
        0.08723055571317673,
        0.1312400996685028,
        0.10627377033233643,
        -0.20073679089546204,
        -0.0024073098320513964,
        0.19252268970012665,
        -0.21361202001571655,
        -0.0010547537822276354,
        -0.040755514055490494,
        0.28742802143096924,
        -0.20624399185180664,
        0.13308298587799072,
        0.2231982946395874,
        0.08966188877820969,
        0.034658074378967285,
        0.145987406373024,
        -0.1632828712463379,
        0.03447889909148216,
        -0.3691401779651642,
        -0.15058954060077667,
        0.2687474489212036,
        0.06848617643117905,
        -0.14762842655181885,
        -0.14698249101638794,
        0.1632785201072693,
        0.08846704661846161,
        0.015942929312586784,
        0.13893118500709534,
        0.08867298811674118,
        -0.1955886036157608,
        0.08001601696014404,
        -0.19723600149154663,
        -0.23308400809764862,
        -0.15027861297130585,
        0.11430899798870087,
        0.14043395221233368,
        0.13747450709342957,
        0.1167336031794548,
        -0.19742125272750854,
        0.16555413603782654,
        0.23558703064918518,
        1.9845441784127615e-05,
        0.29611343145370483,
        -0.025760987773537636,
        0.16148145496845245,
        -0.34858617186546326,
        -0.07711746543645859,
        -0.21551083028316498,
        0.0533810593187809,
        0.1179986298084259,
        0.07165072113275528,
        0.22619518637657166,
        0.205540269613266,
        0.25625842809677124,
        0.010217609815299511,
        0.09003694355487823,
        -0.01677052304148674,
        -0.2406812608242035,
        -0.02651873044669628,
        -0.00514094065874815,
        -0.14123713970184326,
        -0.018414108082652092,
        0.125751331448555,
        0.08955921232700348,
        0.33205947279930115,
        0.10506714135408401,
        0.2987101674079895,
        -0.10281652957201004,
        -0.15904375910758972,
        -0.020127126947045326,
        -0.20066961646080017,
        -0.22075346112251282,
        -0.5063756704330444,
        -0.2235121726989746,
        0.014036856591701508,
        -0.17671138048171997,
        -0.005424364469945431,
        0.21931545436382294,
        -0.5927326083183289,
        0.2219076007604599,
        0.022509954869747162,
        0.28283894062042236,
        -0.18059584498405457,
        -0.21980157494544983,
        0.14490462839603424,
        0.2576799690723419,
        0.2321500927209854,
        0.21865223348140717,
        -0.19123728573322296,
        0.1480599194765091,
        -0.22531461715698242,
        0.1935773342847824,
        -0.22293922305107117,
        -0.05671567842364311,
        0.28811144828796387,
        -0.07336551696062088,
        -0.03934784606099129,
        -0.22488486766815186,
        -0.2654546797275543,
        0.09390143305063248,
        -0.06228254735469818,
        -0.1588783860206604,
        -0.021577920764684677,
        -0.14183522760868073,
        -0.15588949620723724,
        0.06462070345878601,
        0.013830052688717842,
        0.014866630546748638,
        -0.09285799413919449,
        0.1480391025543213,
        -0.10727733373641968,
        -0.3092986047267914,
        -0.07235219329595566,
        0.31558528542518616,
        -0.3171102702617645,
        -0.40909048914909363,
        0.07202103734016418,
        0.26686203479766846,
        -0.09420902281999588,
        0.11906864494085312,
        0.3237377405166626,
        0.35545462369918823,
        0.20915807783603668,
        0.1816428303718567,
        0.08057449758052826,
        -0.23285223543643951,
        0.2889654338359833,
        0.07890892773866653,
        0.26963239908218384,
        -0.21441274881362915,
        0.10165656358003616,
        -0.11435510963201523,
        -0.1684161126613617,
        0.06890267133712769,
        -0.11546218395233154,
        -0.010045823641121387,
        -0.18987810611724854,
        -0.132210835814476,
        -0.08392726629972458,
        -0.09124462306499481,
        0.20677931606769562,
        0.08456841856241226,
        -0.0016913247527554631,
        -0.1150427982211113,
        -0.09120400995016098,
        0.10512885451316833,
        0.05894053727388382,
        -0.09954079240560532,
        -0.21828360855579376,
        -0.01327102817595005,
        0.0006915724370628595,
        -0.004642830695956945,
        -0.1454351395368576,
        0.2435569167137146,
        0.07369693368673325,
        -0.17912429571151733,
        0.28641951084136963,
        -0.4187264144420624,
        -0.18034496903419495,
        -0.10982314497232437,
        -0.13944843411445618,
        0.1278814673423767,
        -0.09739633649587631,
        0.029707349836826324,
        -0.12792432308197021,
        0.054180990904569626,
        0.28182312846183777,
        0.23589235544204712,
        0.07162859290838242,
        0.002445831196382642,
        0.1546545922756195,
        0.0801238864660263,
        -0.23295333981513977,
        -0.1968652307987213,
        0.33382853865623474,
        -0.06896042823791504,
        -0.23335617780685425,
        0.001938504516147077,
        -0.03399836644530296,
        -0.21823473274707794,
        0.2429673969745636,
        0.2881695032119751,
        0.27621474862098694,
        0.05047100409865379,
        -0.033204495906829834,
        0.1384386122226715,
        -0.0005767553811892867,
        0.019379086792469025,
        -0.2012275606393814,
        -0.15376360714435577,
        0.5797551274299622,
        -0.16790355741977692,
        0.27441704273223877,
        -0.028133835643529892,
        -0.12195444107055664,
        0.11939687281847,
        0.035330239683389664,
        0.19948628544807434,
        0.15547510981559753,
        -0.20204918086528778,
        0.08646334707736969,
        -0.014019863680005074,
        -0.06160343438386917,
        0.1257326304912567,
        0.2665277123451233,
        -0.29275229573249817,
        -0.23666530847549438,
        0.2920675277709961,
        -0.039088789373636246,
        0.22680412232875824,
        -0.17481353878974915,
        -0.062037963420152664,
        0.2994338870048523,
        0.08991680294275284,
        0.3055473566055298,
        0.02343622036278248,
        -0.13707248866558075,
        -0.29310372471809387,
        -0.45401158928871155,
        0.13713113963603973,
        0.08397767692804337,
        0.11405981332063675,
        -0.13044385612010956,
        0.11060122400522232,
        -0.14274132251739502,
        0.1371796429157257,
        -0.08259071409702301,
        -0.0906960740685463,
        -0.004067886155098677,
        0.08925230801105499,
        -0.011479063890874386,
        0.008135591633617878,
        -0.04474935308098793,
        0.041760724037885666,
        0.040041934698820114,
        -0.010828658938407898,
        0.03253573179244995,
        -0.0025946253444999456,
        -0.010287114419043064,
        0.1262364536523819,
        -0.26751509308815,
        -0.13846513628959656,
        0.3817904591560364,
        -0.06324010342359543,
        0.10323241353034973,
        -0.15505415201187134,
        -0.12952713668346405,
        0.03378311172127724,
        -0.16734328866004944,
        -0.030606919899582863,
        -0.021916057914495468,
        -0.11021500825881958,
        -0.07744841277599335,
        0.014177937991917133,
        0.09482906013727188,
        0.14654795825481415,
        0.16508887708187103,
        0.09817223995923996,
        -0.21777965128421783,
        -0.014264047145843506,
        -0.08236948400735855,
        0.11581545323133469,
        -0.1305389702320099,
        0.15059153735637665,
        -0.06413622200489044,
        -0.06064755842089653,
        -0.34967392683029175,
        0.176727756857872,
        -0.07140754163265228,
        0.05987941846251488,
        -0.21477018296718597,
        -0.023514097556471825,
        -0.1924234926700592,
        -0.18542791903018951,
        0.08254621177911758,
        -0.2344963550567627,
        -0.07484729588031769,
        -0.06975205987691879,
        -0.28612956404685974,
        0.11024865508079529,
        -0.0370977520942688,
        -0.14351984858512878,
        -0.0924811065196991,
        -0.07553461939096451,
        0.4848925471305847,
        -0.007824688218533993,
        -0.05638488009572029,
        0.011445545591413975,
        -0.028789112344384193,
        0.16082915663719177,
        -0.18146565556526184,
        0.026841310784220695,
        -0.44457802176475525,
        -0.1616564393043518,
        -0.18135659396648407,
        0.16276611387729645,
        -0.4296831488609314,
        -0.15152499079704285,
        -0.27839767932891846,
        0.019880596548318863,
        -0.09893864393234253,
        0.2668085992336273,
        0.24235165119171143,
        0.17660990357398987,
        0.1795475333929062,
        0.13333624601364136,
        -0.3689267635345459,
        -0.21900902688503265,
        0.38212552666664124,
        0.18124301731586456,
        0.23937244713306427,
        -0.047547683119773865,
        -0.1419164538383484,
        -0.12828929722309113,
        0.21387389302253723,
        0.17852124571800232,
        0.13986070454120636,
        -0.09523307532072067,
        -0.1651598960161209,
        -0.27467408776283264,
        -0.43333593010902405,
        -0.41155797243118286,
        0.3150270879268646,
        -0.23827891051769257,
        -0.37183764576911926,
        0.08034491539001465,
        0.00693376874551177,
        0.250007688999176,
        0.2510979175567627,
        -0.3205813467502594,
        -0.342278391122818,
        -0.05794037505984306,
        0.16262337565422058,
        0.40115222334861755,
        -0.5864306688308716,
        -0.19860906898975372,
        -0.20045946538448334,
        0.056043483316898346,
        0.4892033040523529,
        0.15423105657100677,
        -0.07644057273864746,
        -0.18269065022468567,
        -0.04905154928565025,
        0.12002217024564743,
        0.1239951103925705,
        -0.05402471497654915,
        -0.07931168377399445,
        -0.034049227833747864,
        -0.11573551595211029,
        0.03585526719689369,
        0.10780537873506546,
        0.1968538463115692,
        0.14683163166046143,
        0.23955699801445007,
        -0.1385371834039688,
        -0.040920235216617584,
        -0.10098785161972046,
        0.06932005286216736,
        0.1246570572257042,
        0.12422268092632294,
        -0.15285757184028625,
        0.012179926037788391,
        -0.25927630066871643,
        0.20188872516155243,
        -0.11779217422008514,
        -0.019432272762060165,
        -0.2824873626232147,
        0.0682125836610794,
        -0.1605311930179596,
        -0.20540118217468262,
        0.11040794849395752,
        0.07942964136600494,
        -0.04991867393255234,
        -0.09557269513607025,
        -0.06775946170091629,
        -0.03999374434351921,
        0.08302009850740433,
        -0.22997988760471344,
        -0.07221049815416336,
        0.08376709371805191,
        0.32158544659614563,
        0.16737599670886993,
        0.14876869320869446,
        -0.2182314097881317,
        -0.25507161021232605,
        -0.31920626759529114,
        -0.3340933918952942,
        0.031503498554229736,
        0.024415554478764534,
        0.10024584084749222,
        -0.09520809352397919,
        -0.12212064117193222,
        0.05291309580206871,
        0.14473210275173187,
        -0.04454786330461502,
        -0.10451838374137878,
        -0.14763174951076508,
        -0.029267337173223495,
        -0.047429777681827545,
        0.09579110890626907,
        0.09759077429771423,
        -0.09121385961771011,
        0.010686083696782589,
        -0.1074443906545639,
        -0.011465613730251789,
        0.004952643066644669,
        0.1357387751340866,
        -0.022817613556981087,
        -0.16551269590854645,
        -0.12724044919013977,
        0.3218801021575928,
        -0.10788428038358688,
        0.1227678656578064,
        -0.05439664423465729,
        -0.14184285700321198,
        -0.08693556487560272,
        0.14378614723682404,
        0.14248263835906982,
        0.08776381611824036,
        0.14998944103717804,
        0.18385742604732513,
        -0.007606932893395424,
        0.09174913913011551,
        -0.043582454323768616,
        0.027563752606511116,
        -0.1508333534002304,
        -0.011437957175076008,
        0.08233100920915604,
        -0.22291380167007446,
        0.042522650212049484,
        0.06898968666791916,
        -0.1417420357465744,
        -0.15636536478996277,
        0.061798229813575745,
        0.3329015076160431,
        -0.04079105332493782,
        -0.01665263995528221,
        -0.31277284026145935,
        -0.003572906367480755,
        -0.009397238492965698,
        -0.18218310177326202,
        0.06300664693117142,
        0.08454423397779465,
        -0.18818582594394684,
        -0.01959635503590107,
        -0.18332231044769287,
        0.025367403402924538,
        0.1449463665485382,
        -0.1198095753788948,
        0.16744336485862732,
        -0.2572782337665558,
        -0.005236439872533083,
        0.09389594197273254,
        0.3160717487335205,
        0.10959146171808243,
        0.11215311288833618,
        -0.14233988523483276,
        0.03197937086224556,
        -0.1651442050933838,
        0.14912864565849304,
        0.023148445412516594,
        0.1603182554244995,
        -0.2514277994632721,
        0.008732869289815426,
        -0.2302209436893463,
        0.04311462864279747,
        0.18536248803138733,
        -0.4047779440879822,
        -0.2458246946334839,
        0.02505912072956562,
        -0.22822821140289307,
        0.013324132189154625,
        -0.0014261456672102213,
        -0.15073980391025543,
        -0.20156311988830566,
        -0.11525975167751312,
        0.40019622445106506,
        -0.14343035221099854,
        -0.09437738358974457,
        -0.025366956368088722,
        -0.04123351350426674,
        -0.02474209852516651,
        -0.28928062319755554,
        0.23770584166049957,
        0.09637780487537384,
        0.00974493008106947,
        -0.04704926162958145,
        -0.1454704850912094,
        0.002109644003212452,
        0.05501782149076462,
        -0.03549306467175484,
        -0.05780664458870888,
        -0.003896944224834442,
        -0.0014207899803295732,
        0.00689585180953145,
        -0.06307189166545868,
        0.06439865380525589,
        0.10212642699480057,
        -0.03148658573627472,
        -0.03192370757460594,
        0.0631239041686058,
        -0.21958836913108826,
        0.2589339315891266,
        0.14411914348602295,
        0.25804829597473145,
        -0.16003933548927307,
        0.16385287046432495,
        -0.27655866742134094,
        -0.01411527581512928,
        0.04338696971535683,
        0.188267782330513,
        -0.023148875683546066,
        0.14419908821582794,
        -0.13373231887817383,
        -0.13937073945999146,
        0.18580596148967743,
        0.07684632390737534,
        -0.13671615719795227,
        0.0006649020942859352,
        -0.2727572023868561,
        -0.07600679993629456,
        -0.050920985639095306,
        0.12335129827260971,
        -0.21183136105537415,
        -0.18401320278644562,
        0.16328632831573486,
        0.18280646204948425,
        0.1663733571767807,
        -0.18405282497406006,
        -0.03995627537369728,
        0.24483537673950195,
        0.10996437817811966,
        -0.037436358630657196,
        0.03950128331780434,
        -0.09703581035137177,
        0.18139280378818512,
        0.1739172637462616,
        0.05642034858465195,
        0.013348749838769436,
        -0.07921472936868668,
        0.14852111041545868,
        -0.009623751975595951,
        0.1361807882785797,
        0.3860721290111542,
        0.2231425940990448,
        0.2718660533428192,
        -0.18675540387630463,
        0.10482533276081085,
        -0.13712407648563385,
        0.20233581960201263,
        -0.0629153773188591,
        0.15023237466812134,
        -0.1818183958530426,
        0.014716394245624542,
        -0.04831530898809433,
        0.22185967862606049,
        0.010609096847474575,
        0.1667882651090622,
        -0.2562657296657562,
        0.05803428217768669,
        -0.01619560644030571,
        0.008232329040765762,
        0.07724708318710327,
        0.10906259715557098,
        0.22071905434131622,
        0.18150688707828522,
        -0.10060641914606094,
        0.1349344551563263,
        -0.14246238768100739,
        -0.049517691135406494,
        -0.173181414604187,
        -0.07303662598133087,
        0.12807850539684296,
        -0.10493291914463043,
        -0.022517738863825798,
        -0.10634324699640274,
        0.036949582397937775,
        0.0055956668220460415,
        0.1341850608587265,
        -0.13707104325294495,
        -0.06980598717927933,
        -0.11045665293931961,
        0.025817634537816048,
        0.19314652681350708,
        -0.07792679220438004,
        -0.08040377497673035,
        -0.05210408568382263,
        0.02976100705564022,
        -0.10246699303388596,
        -0.23356199264526367,
        0.14767755568027496,
        -0.11042026430368423,
        -0.020396629348397255,
        -0.017941594123840332,
        -0.15032802522182465,
        0.019134538248181343,
        0.11022751778364182,
        0.07779142260551453,
        -0.03196994587779045,
        -0.04234283044934273,
        -0.23634019494056702,
        0.23957902193069458,
        0.110196553170681,
        0.27623096108436584,
        -0.0641603097319603,
        0.08592246472835541,
        -0.2424740195274353,
        0.03786585479974747,
        0.08718814700841904,
        -0.042442724108695984,
        0.10861160606145859,
        -0.17225241661071777,
        -0.06605333834886551,
        0.025288240984082222,
        -0.18398301303386688,
        0.03966756537556648,
        -0.061963118612766266,
        0.16091902554035187,
        0.09313154965639114,
        0.08490728586912155,
        0.002073308452963829,
        -0.08766525238752365,
        -0.01949949562549591,
        0.29063504934310913,
        0.1457453817129135,
        -0.029005378484725952,
        -0.15126128494739532,
        -0.5683541297912598,
        -0.031525056809186935,
        0.20863503217697144,
        0.1415795534849167,
        0.2214374840259552,
        0.14717714488506317,
        0.07064010947942734,
        0.08073440194129944,
        0.07960584759712219,
        0.16455718874931335,
        0.12155067175626755,
        -0.2695084512233734,
        0.03133175149559975,
        -0.08278144896030426,
        0.011816796846687794,
        -0.12735091149806976,
        0.007197288330644369,
        -0.22748342156410217,
        -0.16209451854228973,
        -0.06899398565292358,
        -0.01132339145988226,
        -0.17671085894107819,
        0.08661435544490814,
        -0.06808281689882278,
        0.18746234476566315,
        -0.20360316336154938,
        0.16167587041854858,
        -0.11748144030570984,
        0.06732720136642456,
        0.0938645601272583,
        0.5256704092025757,
        0.22942401468753815,
        -0.007611225824803114,
        0.47737792134284973,
        0.10929553955793381,
        0.04206821322441101,
        -0.07090559601783752,
        0.014174248091876507,
        0.10422737896442413,
        0.01323008630424738,
        0.1100798174738884,
        0.020341508090496063,
        -0.5322088003158569,
        -0.011728115379810333,
        0.057316601276397705,
        0.20471304655075073,
        -0.15427972376346588,
        -0.0918738842010498,
        0.17913538217544556,
        0.01790413074195385,
        -0.20364567637443542,
        0.011634727008640766,
        -0.007405625656247139,
        -0.1792580932378769,
        0.0040587168186903,
        -0.10267758369445801,
        0.0701003223657608,
        -0.03750418871641159,
        0.03265959024429321,
        0.03263391926884651,
        -0.14194557070732117,
        0.13889139890670776,
        0.08590050041675568,
        0.038574278354644775,
        -0.03970102220773697,
        -0.009669151157140732,
        -0.01649497263133526,
        0.24611708521842957,
        -0.011783814057707787,
        0.2777528166770935,
        -0.09668749570846558,
        -0.06656205654144287,
        -0.22568726539611816,
        0.17269088327884674,
        -0.10282651335000992,
        0.18948334455490112,
        0.00578395277261734,
        -0.06693333387374878,
        0.015684178099036217,
        0.01856033131480217,
        -0.2718784511089325,
        -0.23916110396385193,
        -0.07675174623727798,
        -0.1740828901529312,
        0.01122834999114275,
        0.1562829315662384,
        -0.16511428356170654,
        -0.0953500047326088,
        0.07169751077890396,
        -0.09496709704399109,
        0.12261761724948883,
        -0.11911211907863617,
        -0.6425206065177917,
        0.5812955498695374,
        -0.11576884239912033,
        -0.24760374426841736,
        0.05256184935569763,
        -0.012662732042372227,
        -0.050184380263090134,
        0.22276507318019867,
        -0.023274492472410202,
        -0.024613915011286736,
        0.06664332002401352,
        0.03459882363677025,
        -0.061740726232528687,
        0.1961250901222229,
        -0.08011671155691147,
        0.2972095310688019,
        -0.30761730670928955,
        0.04980400204658508,
        -0.41350528597831726,
        0.3461415469646454,
        0.2152799814939499,
        0.046036649495363235,
        -0.18748332560062408,
        0.07953674346208572,
        -0.19445081055164337,
        0.1251903921365738,
        0.11628933995962143,
        0.11673276126384735,
        -0.3195192515850067,
        -0.09337619692087173,
        -0.08050186932086945,
        0.1800713837146759,
        -0.06782692670822144,
        -0.09147743135690689,
        0.23698690533638,
        -0.31215858459472656,
        0.23566405475139618,
        0.035341423004865646,
        0.006757151335477829,
        0.3838421702384949,
        -0.23038657009601593,
        -0.08959609270095825,
        -0.19382619857788086,
        0.34090548753738403,
        -0.10095086693763733,
        -0.03569750115275383,
        -0.22167092561721802,
        0.17753322422504425,
        -0.15533804893493652,
        0.039035614579916,
        -0.13409514725208282,
        0.21801739931106567,
        0.03747657686471939,
        -0.01651199348270893,
        -0.20486775040626526,
        0.04440828040242195,
        0.10357478260993958,
        0.1235802099108696,
        -0.045049190521240234,
        -0.05356723815202713,
        -0.00715991947799921,
        0.0005526493769139051,
        -0.15634258091449738,
        0.2392157018184662,
        0.12185811996459961,
        0.04193229228258133,
        -0.1562364548444748,
        0.03536257892847061,
        0.21019014716148376,
        0.15763993561267853,
        0.2594694197177887,
        0.035342536866664886,
        0.08165322989225388,
        -0.10293655842542648,
        0.06347744911909103,
        -0.2037932127714157,
        0.1800190657377243,
        -0.07278227061033249,
        -0.047485992312431335,
        -0.01679503172636032,
        -0.0038310708478093147,
        -0.20933133363723755,
        -0.05049023777246475,
        -0.019069690257310867,
        -0.08736040443181992,
        -0.27041181921958923,
        -0.032249849289655685,
        0.22113893926143646,
        -0.17357313632965088,
        -0.14444170892238617,
        0.00432041147723794,
        -0.017305871471762657,
        -0.1797318309545517,
        0.16246086359024048,
        0.09094490855932236,
        0.17122824490070343,
        -0.009753342717885971,
        -0.005640034563839436,
        -0.13308432698249817,
        0.042305298149585724,
        0.14678561687469482,
        -0.030879724770784378,
        0.1729038655757904,
        0.10485342890024185,
        -0.09677416831254959,
        0.025783345103263855,
        0.0811597928404808,
        -0.010738374665379524,
        0.09118128567934036,
        -0.09229417145252228,
        -0.09492381662130356,
        -0.15287473797798157,
        -0.09581120312213898,
        0.12400543689727783,
        -0.010886097326874733,
        -0.03570237010717392,
        -0.06595492362976074,
        -0.1614483743906021,
        -0.19583037495613098,
        0.08871926367282867,
        -0.044778529554605484,
        0.16131851077079773,
        0.05064469948410988,
        -0.019512487575411797,
        -0.10636614263057709,
        -0.09302643686532974,
        0.11543738096952438,
        0.2448946237564087,
        -0.026027824729681015,
        0.08569718152284622,
        -0.14913031458854675,
        -0.05599929392337799,
        0.07529585063457489,
        -0.048016615211963654,
        0.1362949013710022,
        -0.04969240352511406,
        -0.09189824014902115,
        -0.11276847869157791,
        0.07431904971599579,
        -0.1162511333823204,
        0.03637479245662689,
        0.00265506817959249,
        0.17950914800167084,
        0.06186829134821892,
        -0.38418063521385193,
        -0.25920695066452026,
        0.6708343625068665,
        0.0781836286187172,
        0.07198962569236755,
        -0.06901153177022934,
        0.07613849639892578,
        -0.18064860999584198,
        0.25627025961875916,
        -0.010209571570158005,
        -0.020808076485991478,
        0.08052469789981842,
        -0.14930395781993866,
        -0.042478371411561966,
        0.30619651079177856,
        0.02238377556204796,
        0.22382988035678864,
        -0.418362021446228,
        -0.24406863749027252,
        -0.11774225533008575,
        0.3028775453567505,
        0.0692640170454979,
        0.12472644448280334,
        -0.21245722472667694,
        0.03846779838204384,
        -0.1335204690694809,
        0.16956757009029388,
        0.10767640918493271,
        0.015639564022421837,
        0.08358410745859146,
        0.027372291311621666,
        -0.06385952979326248,
        0.12979397177696228,
        0.016068747267127037,
        0.11864609271287918,
        0.20589740574359894,
        0.15712037682533264,
        0.13489936292171478,
        -0.08750617504119873,
        0.2227925807237625,
        0.08331960439682007,
        -0.23486198484897614,
        -0.152767613530159,
        -0.2469656616449356,
        0.07668186724185944,
        -0.08554902672767639,
        -0.1570545881986618,
        -0.14693701267242432,
        0.0821107029914856,
        -0.1241563931107521,
        -0.23850107192993164,
        -0.017707407474517822,
        0.42431211471557617,
        0.06249045208096504,
        -0.21734564006328583,
        -0.17654357850551605,
        -0.17889642715454102,
        -0.07352332025766373,
        -0.09208597987890244,
        -0.03599216043949127,
        0.08657645434141159,
        0.12703008949756622,
        0.09216450899839401,
        0.04784158989787102,
        0.09425648301839828,
        0.1584579050540924,
        0.0984393060207367,
        0.12437751144170761,
        0.08730589598417282,
        0.05383220314979553,
        0.09977211803197861,
        0.08314394950866699,
        0.025215215981006622,
        -0.16948401927947998,
        -0.19916217029094696,
        -0.024822387844324112,
        -0.056870561093091965,
        0.23439297080039978,
        -0.07928044348955154,
        -0.0004936801269650459,
        -0.07570192217826843,
        0.1280965358018875,
        -0.416909784078598,
        -0.27097025513648987,
        -0.0050734044052660465,
        -0.1562964767217636,
        -0.10876980423927307,
        -0.21428801119327545,
        -0.15185201168060303,
        -0.0998072624206543,
        -0.20333123207092285,
        -0.24607034027576447,
        -0.34422075748443604,
        0.007800386752933264,
        0.26855382323265076,
        0.10481815040111542,
        0.04258635640144348,
        0.1106928139925003,
        0.03961118310689926,
        -0.11126721650362015,
        0.11065714061260223,
        0.082148477435112,
        0.1563701033592224,
        0.11559861898422241,
        -0.07991825044155121,
        0.047532908618450165,
        0.034841325134038925,
        -0.2812080681324005,
        0.041986577212810516,
        0.02773444354534149,
        0.016279323026537895,
        -0.14185495674610138,
        -0.08013980835676193,
        0.025985220447182655,
        0.0752270296216011,
        0.16457107663154602,
        -0.12420516461133957,
        -0.01336610410362482,
        -0.2704736292362213,
        -0.01723991520702839,
        -0.07097665965557098,
        0.04559367895126343,
        -0.06929737329483032,
        -0.06251505017280579,
        -0.03506925702095032,
        0.1893041878938675,
        0.001554778660647571,
        0.23779569566249847,
        -0.16041310131549835,
        0.009880895726382732,
        0.057112980633974075,
        -0.09179718047380447,
        -0.050302654504776,
        -0.08732637017965317,
        -0.2065313309431076,
        0.060316674411296844,
        0.02799096331000328,
        -0.3393363952636719,
        0.1206989511847496,
        -0.06604087352752686,
        -0.004600238986313343,
        -0.154241144657135,
        0.16342522203922272,
        0.18730977177619934,
        0.09622945636510849,
        0.23456953465938568,
        -0.021621285006403923,
        0.08921536803245544,
        -0.1869346797466278,
        0.11717696487903595,
        0.08856215327978134,
        0.07775154709815979,
        -0.07085762917995453,
        0.03925756365060806,
        0.05888460576534271,
        0.06521851569414139,
        0.10348910838365555,
        0.021411748602986336,
        0.036386072635650635,
        -0.016970587894320488,
        -0.2940293550491333,
        0.4632008373737335,
        0.37451520562171936,
        -0.598725438117981,
        0.2744481861591339,
        -0.7581692337989807,
        -0.35610753297805786,
        -0.3225557208061218,
        0.7264760136604309,
        -0.8096326589584351,
        -0.6491228938102722,
        -0.8259130716323853,
        0.08315341919660568,
        -0.8926931619644165,
        0.4885212481021881,
        -0.6228001117706299,
        -0.21202290058135986,
        -0.1503772735595703,
        0.07278323173522949,
        0.3227218985557556,
        0.15486738085746765,
        0.08682304620742798,
        -0.17144882678985596,
        -0.18477493524551392,
        -0.13736850023269653,
        0.04498748853802681,
        0.14042533934116364,
        0.09547751396894455,
        0.12422274798154831,
        -0.1440797597169876,
        -0.00724688358604908,
        0.06227249652147293,
        -0.18900269269943237,
        -0.03689074516296387,
        -0.002098305616527796,
        0.22702309489250183,
        -0.39688801765441895,
        0.39608097076416016,
        0.048282425850629807,
        -0.27967363595962524,
        0.020610861480236053,
        -0.22022150456905365,
        0.35752949118614197,
        0.20982912182807922,
        0.16610358655452728,
        0.046343471854925156,
        0.2448180615901947,
        0.10838807374238968,
        -0.31927552819252014,
        -0.04704486206173897,
        -0.18843401968479156,
        0.02244870364665985,
        -0.10303512960672379,
        0.3323703110218048,
        -0.2598910331726074,
        -0.06834964454174042,
        -0.08543530106544495,
        0.03999378904700279,
        0.05790475755929947,
        -0.33669978380203247,
        0.18972530961036682,
        0.0319688618183136,
        0.17443318665027618,
        0.11538989096879959,
        0.1480737179517746,
        0.16530756652355194,
        -0.2813311815261841,
        -0.21475158631801605,
        -0.23190701007843018,
        0.05064817890524864,
        -0.15524540841579437,
        -0.0308784618973732,
        -0.16085821390151978,
        0.09527898579835892,
        0.10619057714939117,
        0.45176398754119873,
        0.10817773640155792,
        -0.3763800263404846,
        -0.01615733839571476,
        0.10182997584342957,
        0.17993885278701782,
        -0.13106213510036469,
        -0.155487060546875,
        -0.012981978245079517,
        0.2726769745349884,
        -0.18704581260681152,
        -0.2095595747232437,
        0.2728832960128784,
        -0.05419289320707321,
        0.16423611342906952,
        -0.16813451051712036,
        0.12873657047748566,
        -0.14111827313899994,
        -0.1339685618877411,
        -0.2653281092643738,
        -0.09760567545890808,
        -0.25181278586387634,
        -0.11531674116849899,
        -0.5792375802993774,
        -0.2913595139980316,
        -0.033265452831983566,
        -0.23046112060546875,
        -0.4357844889163971,
        0.03683788329362869,
        0.0992359071969986,
        0.39597856998443604,
        0.003844704246148467,
        -0.2313063144683838,
        -0.278389036655426,
        -0.12941277027130127,
        0.07827430963516235,
        0.014828890562057495,
        0.41299551725387573,
        -0.15690401196479797,
        0.15349453687667847,
        -0.47488218545913696,
        0.2491818219423294,
        0.1543884426355362,
        -0.29454413056373596,
        -0.12159831821918488,
        0.14994993805885315,
        0.5139338374137878,
        -0.2659229636192322,
        0.1994284838438034,
        0.06754929572343826,
        -0.14985641837120056,
        -0.08778302371501923,
        0.3406359851360321,
        0.07950668036937714,
        -0.06295367330312729,
        0.10221422463655472,
        0.2546830177307129,
        0.21404622495174408,
        -0.2762467861175537,
        -0.20516915619373322,
        0.16207951307296753,
        0.22664375603199005,
        -0.04669097810983658,
        -0.24142688512802124,
        0.1211477741599083,
        -0.25659239292144775,
        0.2648269832134247,
        0.15432310104370117,
        -0.13959015905857086,
        -0.0091685950756073,
        0.1930941939353943,
        -0.1768311709165573,
        -0.22670164704322815,
        -0.23079411685466766,
        -0.012654674239456654,
        0.21753819286823273,
        -0.24319900572299957,
        0.10522372275590897,
        -0.04995211958885193,
        0.357302188873291,
        -0.17509323358535767,
        0.15404459834098816,
        0.14241617918014526,
        -0.0577450655400753,
        0.32163044810295105,
        -0.034093502908945084,
        -0.15879635512828827,
        0.10926631838083267,
        0.11146723479032516,
        0.20940566062927246,
        -0.3031691610813141,
        -0.006523916497826576,
        0.06093535199761391,
        -0.16581933200359344,
        -0.008089227601885796,
        0.04797999933362007,
        0.18516415357589722,
        0.042799901217222214,
        -0.17351104319095612,
        0.21325549483299255,
        -0.19239594042301178,
        0.015378943644464016,
        -0.017022255808115005,
        -0.0784522294998169,
        -0.09927257895469666,
        0.08245470374822617,
        -0.0009869199711829424,
        0.19830802083015442,
        -0.042798060923814774,
        0.13007999956607819,
        0.5145416855812073,
        -0.41500431299209595,
        -0.05359870567917824,
        0.18687981367111206,
        0.07180667668581009,
        0.008864425122737885,
        0.2749466300010681,
        -0.02717503160238266,
        0.30824464559555054,
        -0.3911009132862091,
        -0.10206335783004761,
        -0.2487918883562088,
        0.05762301757931709,
        -0.07285819202661514,
        0.030503394082188606,
        -0.7017297744750977,
        0.3012602925300598,
        0.3235670328140259,
        -0.13440555334091187,
        0.11071127653121948,
        -0.4664740562438965,
        0.12936542928218842,
        0.1417832225561142,
        0.17751668393611908,
        -0.14246222376823425,
        -0.19909316301345825,
        0.2764810025691986,
        0.13282491266727448,
        -0.040178582072257996,
        0.3768407702445984,
        0.20052412152290344,
        -0.13474664092063904,
        -0.025310341268777847,
        -0.3205212652683258,
        -0.13510183990001678,
        0.17619416117668152,
        -0.36199507117271423,
        -0.27119576930999756,
        0.025368331000208855,
        0.18856395781040192,
        0.17650096118450165,
        -0.05455084890127182,
        0.25608551502227783,
        -0.19459466636180878,
        0.08279239386320114,
        0.3165604770183563,
        0.05053803324699402,
        -0.0033437826205044985,
        -0.20118029415607452,
        0.02326994203031063,
        -0.044854093343019485,
        0.21952417492866516,
        0.08774815499782562,
        0.1379644274711609,
        -0.1773427426815033,
        -0.04572261497378349,
        0.35469743609428406,
        0.010560617782175541,
        -0.262983113527298,
        -0.2697555124759674,
        -0.07433707267045975,
        0.30343517661094666,
        -0.14524772763252258,
        0.23118944466114044,
        0.049736689776182175,
        -0.300076961517334,
        -0.21590077877044678,
        0.018354585394263268,
        0.28830686211586,
        0.28612464666366577,
        0.18201453983783722,
        -0.18405914306640625,
        -0.10109428316354752,
        -0.006232292857021093,
        0.3835478723049164,
        -0.3722265958786011,
        0.10393311083316803,
        -0.20247022807598114,
        0.122374527156353,
        0.33741772174835205,
        -0.488173246383667,
        0.3822021484375,
        0.1687169075012207,
        -0.2271440476179123,
        0.3199864625930786,
        0.0902813971042633,
        -0.5091249346733093,
        -0.06326153129339218,
        0.048383284360170364,
        -0.0034779885318130255,
        -0.1109442412853241,
        -0.07369095832109451,
        0.07507077604532242,
        0.16188944876194,
        0.15804864466190338,
        0.09391854703426361,
        0.11290077120065689,
        0.009029073640704155,
        -0.12814143300056458,
        0.007375284098088741,
        -0.17845173180103302,
        -0.1404358446598053,
        -0.06482337415218353,
        0.023961951956152916,
        0.03535016253590584,
        -0.12304488569498062,
        0.005784939508885145,
        -0.2925992012023926,
        -0.013629022985696793,
        0.09061463922262192,
        -0.16043570637702942,
        0.0699746310710907,
        0.12211894243955612,
        -0.13557280600070953,
        -0.15393909811973572,
        0.0962434709072113,
        0.14573155343532562,
        -0.08618541061878204,
        -0.11593002825975418,
        -0.04445216804742813,
        0.015225955285131931,
        -0.287257581949234,
        -0.10022936761379242,
        0.14675955474376678,
        -0.07974092662334442,
        0.06742282956838608,
        -0.06802049279212952,
        -0.03136245533823967,
        0.07562413811683655,
        -0.018668105825781822,
        0.08180422335863113,
        0.102029949426651,
        0.05939946323633194,
        -0.1895381361246109,
        -0.08157636225223541,
        0.18004575371742249,
        -0.12012112885713577,
        0.012926695868372917,
        -0.08102063089609146,
        0.07992638647556305,
        -0.17226509749889374,
        -0.05485491454601288,
        0.12858076393604279,
        -0.10154988616704941,
        0.14174605906009674,
        0.4591413140296936,
        0.1469205617904663,
        0.14391367137432098,
        0.21487192809581757,
        -0.12612774968147278,
        -0.12167951464653015,
        0.0011002132669091225,
        -0.1642819494009018,
        0.042843740433454514,
        -0.0861891433596611,
        0.10196031630039215,
        -0.1641988754272461,
        0.10693898051977158,
        0.031537991017103195,
        0.17818434536457062,
        -0.12682151794433594,
        -0.18293605744838715,
        -0.09102491289377213,
        0.196509450674057,
        -0.01605980284512043,
        0.03734595328569412,
        -0.1584080159664154,
        -0.012421583756804466,
        0.011545800603926182,
        -0.03207650035619736,
        -0.18745359778404236,
        0.18457087874412537,
        -0.15581925213336945,
        -0.06341969966888428,
        0.00862065702676773,
        0.06779894977807999,
        -0.015604753978550434,
        -0.1636316478252411,
        0.08989159762859344,
        0.1630115956068039,
        0.10263863205909729,
        0.14608697593212128,
        0.02668762020766735,
        0.08622719347476959,
        0.16851693391799927,
        -0.4224153161048889,
        0.14752072095870972,
        0.07347572594881058,
        0.03085295483469963,
        -0.0749310851097107,
        0.06145086884498596,
        0.0556250661611557,
        -0.08342169970273972,
        -0.08623704314231873,
        0.2917608320713043,
        0.1726871132850647,
        0.12920372188091278,
        0.19228529930114746,
        -0.06115472689270973,
        0.08812268078327179,
        -0.16506336629390717,
        -0.07870274037122726,
        -0.06138334795832634,
        0.13303016126155853,
        -0.09163765609264374,
        -0.06752613931894302,
        0.018852474167943,
        0.12574051320552826,
        -0.26960375905036926,
        -0.13460418581962585,
        0.11061155796051025,
        0.11688107997179031,
        -0.12032529711723328,
        0.10416077077388763,
        0.09131081402301788,
        0.5411794781684875,
        0.12676052749156952,
        0.32727888226509094,
        0.08613739162683487,
        -0.10795383155345917,
        0.0030602789483964443,
        0.19207549095153809,
        -0.020583132281899452,
        -0.08220688253641129,
        -0.02058006264269352,
        -0.005718370899558067,
        0.12261442095041275,
        0.08427368104457855,
        -0.05955357477068901,
        -0.04115113243460655,
        0.12438543140888214,
        0.03672533854842186,
        -0.21910393238067627,
        -0.19001348316669464,
        0.42387983202934265,
        -0.0736875906586647,
        -0.24411064386367798,
        0.1460990309715271,
        -0.5440855026245117,
        0.005590484011918306,
        0.34303686022758484,
        0.08269347250461578,
        -0.07830966264009476,
        -0.10998991131782532,
        -0.18458902835845947,
        0.26667946577072144,
        0.18987570703029633,
        -0.08346962928771973,
        -0.08378472179174423,
        0.04086615517735481,
        -0.0878155529499054,
        0.26905977725982666,
        -0.10445771366357803,
        0.010090033523738384,
        0.19299811124801636,
        -0.11186922341585159,
        -0.04268375411629677,
        -0.047565560787916183,
        -0.11130490154027939,
        0.058231960982084274,
        -0.11215570569038391,
        -0.011463876813650131,
        -0.19680741429328918,
        -0.03279264271259308,
        0.29644447565078735,
        0.15814152359962463,
        0.07006342709064484,
        -0.04732207953929901,
        -0.02563236467540264,
        0.02896726131439209,
        0.16398368775844574,
        -0.019932471215724945,
        0.0911359041929245,
        -0.03310036659240723,
        -0.12805548310279846,
        -0.1907779425382614,
        -0.07559455931186676,
        -0.06372612714767456,
        0.10576322674751282,
        -0.01333666406571865,
        -0.33817949891090393,
        -0.3568900227546692,
        -0.09378039091825485,
        0.008689512498676777,
        -0.1764838993549347,
        -0.08671975880861282,
        -0.07802432030439377,
        -0.03196986764669418,
        0.05976684391498566,
        -0.29971376061439514,
        0.21853025257587433,
        0.23495949804782867,
        0.15130676329135895,
        0.41947025060653687,
        0.09119967371225357,
        0.03514373302459717,
        0.0023275245912373066,
        -0.04753982648253441,
        0.025060614570975304,
        0.03803728148341179,
        0.06993633508682251,
        0.0696108415722847,
        0.06310873478651047,
        -0.18124540150165558,
        0.3002568781375885,
        0.24845384061336517,
        -0.14508938789367676,
        -0.13706806302070618,
        0.2027483582496643,
        0.011375409550964832,
        -0.19925351440906525,
        0.09046396613121033,
        0.09513270854949951,
        -0.031146546825766563,
        0.09309367835521698,
        -0.10154537111520767,
        -0.07697417587041855,
        -0.2501493990421295,
        0.10498405992984772,
        0.0024847297463566065,
        -0.11881051957607269,
        0.030316196382045746,
        0.007799640763550997,
        0.0013420424656942487,
        0.08094927668571472,
        -0.050676826387643814,
        0.1505710780620575,
        -0.04961303994059563,
        0.018824195489287376,
        0.2146536111831665,
        -0.16799554228782654,
        0.015006957575678825,
        0.29761019349098206,
        -0.12217339873313904,
        0.041335683315992355,
        -0.15019266307353973,
        0.06437472254037857,
        -0.10334095358848572,
        -0.08573854714632034,
        0.21172232925891876,
        -0.039601948112249374,
        -0.3102650046348572,
        -0.14888903498649597,
        -0.028531184419989586,
        -0.10170355439186096,
        -0.0329376719892025,
        0.07918671518564224,
        -0.1257321685552597,
        0.020572863519191742,
        0.16647787392139435,
        -0.2078661471605301,
        0.060756582766771317,
        0.08656550198793411,
        -0.013502327725291252,
        -0.0248685535043478,
        -0.09244146943092346,
        -0.012839500792324543,
        0.04554637521505356,
        -0.1340733766555786,
        0.00922363717108965,
        0.33951789140701294,
        -0.1663963943719864,
        -0.04558993875980377,
        0.1062302440404892,
        -0.20445163547992706,
        -0.06802009046077728,
        0.13103820383548737,
        0.21601906418800354,
        -0.051883526146411896,
        -0.057809483259916306,
        -0.15297216176986694,
        0.06211522966623306,
        -0.012333642691373825,
        0.10562103241682053,
        -0.08787380158901215,
        0.05953701585531235,
        0.1583753526210785,
        0.07442319393157959,
        -0.10635805875062943,
        0.41928422451019287,
        0.054154831916093826,
        -0.15434561669826508,
        0.14078664779663086,
        0.05133716017007828,
        0.03437868878245354,
        0.1670149862766266,
        -0.3646620213985443,
        0.20828725397586823,
        0.08494419604539871,
        -0.05066101998090744,
        0.09888117760419846,
        -0.08737536519765854,
        0.009740497916936874,
        -0.022463573142886162,
        -0.05878239497542381,
        0.1557285040616989,
        0.004069427028298378,
        0.04355616867542267,
        0.17659898102283478,
        -0.04375910386443138,
        -0.2385428100824356,
        0.36928921937942505,
        0.3090513050556183,
        0.011454571038484573,
        -0.16749365627765656,
        -0.04813670739531517,
        -0.11465940624475479,
        0.27265259623527527,
        -0.17148225009441376,
        -0.14602495729923248,
        -0.01284757535904646,
        0.1480727195739746,
        0.24237890541553497,
        0.03662217780947685,
        -0.13446976244449615,
        -0.23462381958961487,
        0.07556843757629395,
        0.11198529601097107,
        0.08646151423454285,
        0.12136295437812805,
        -0.06508731096982956,
        -0.19310669600963593,
        0.024240652099251747,
        -0.04274942725896835,
        -0.1916406750679016,
        0.04828304052352905,
        -0.09685107320547104,
        -0.17005352675914764,
        -0.1289834976196289,
        0.12826254963874817,
        0.003955315798521042,
        0.12125729769468307,
        0.09142229706048965,
        -0.2205055058002472,
        0.008076504804193974,
        -0.15519480407238007,
        0.13944785296916962,
        0.06772895902395248,
        -0.07505034655332565,
        -0.010229386389255524,
        -0.02742699347436428,
        -0.18577444553375244,
        0.2838161587715149,
        0.05892693251371384,
        -0.003444734262302518,
        0.15087051689624786,
        0.1048690602183342,
        -0.016100149601697922,
        -0.11750197410583496,
        -0.10732144117355347,
        -0.13569806516170502,
        -0.3475751280784607,
        -0.05296950042247772,
        -0.06313908845186234,
        -0.07324818521738052,
        0.056395310908555984,
        0.29309675097465515,
        0.17858299612998962,
        0.081013984978199,
        -0.05959426239132881,
        -0.16216567158699036,
        0.09666753560304642,
        0.11771676689386368,
        0.25075188279151917,
        0.15762607753276825,
        -0.11644122749567032,
        -0.3745168447494507,
        0.028288081288337708,
        -0.046314042061567307,
        0.23309338092803955,
        -0.20499075949192047,
        -0.09499268978834152,
        -0.022292381152510643,
        0.202021986246109,
        -0.021281834691762924,
        0.20453450083732605,
        -0.16038481891155243,
        -0.001154114492237568,
        -0.06716333329677582,
        -0.1507924348115921,
        -0.03703878074884415,
        -0.05997571349143982,
        -0.004940893966704607,
        -0.11299117654561996,
        -0.060315392911434174,
        -0.011329571716487408,
        -0.06495720893144608,
        -0.19883647561073303,
        -0.13767167925834656,
        -0.14220356941223145,
        0.006158130243420601,
        0.28962379693984985,
        0.06187371164560318,
        0.044467419385910034,
        0.38689985871315,
        0.032347533851861954,
        -0.05580803006887436,
        -0.00745505653321743,
        -0.07778270542621613,
        -0.22487793862819672,
        -0.31578099727630615,
        -0.13613548874855042,
        -0.17917746305465698,
        -0.016765739768743515,
        -0.13415026664733887,
        0.2527030408382416,
        0.029737139120697975,
        0.08396835625171661,
        0.023349035531282425,
        -0.12081893533468246,
        0.10588225722312927,
        0.30108585953712463,
        0.2758328914642334,
        0.1694498062133789,
        -0.13437747955322266,
        -0.1938406378030777,
        0.059924740344285965,
        0.022126125171780586,
        0.1152089387178421,
        -0.048948999494314194,
        0.005194680765271187,
        -0.24587096273899078,
        0.16373103857040405,
        -0.008715808391571045,
        0.016578420996665955,
        -0.0371524840593338,
        -0.06159161031246185,
        0.07819043099880219,
        0.0993821918964386,
        -0.06117002293467522,
        0.36406680941581726,
        0.05688954144716263,
        0.020593049004673958,
        0.413621723651886,
        -0.02340851165354252,
        -0.15380994975566864,
        0.12203385680913925,
        -0.11363513022661209,
        0.16198384761810303,
        0.06235705316066742,
        0.32244259119033813,
        -0.0028329535853117704,
        0.08308509737253189,
        0.25750482082366943,
        -0.17105916142463684,
        0.05096857622265816,
        -0.22065159678459167,
        -0.08519638329744339,
        0.04752426594495773,
        -0.0010979907820001245,
        -0.025348465889692307,
        0.024690622463822365,
        0.3646479547023773,
        -0.3829810619354248,
        -0.07047434151172638,
        -0.07329332828521729,
        0.1792578250169754,
        -0.19060474634170532,
        -0.23165073990821838,
        -0.17006100714206696,
        -0.12945358455181122,
        0.27406400442123413,
        0.2742437422275543,
        0.00026202405570074916,
        -0.12225202471017838,
        -0.07982546091079712,
        0.031488087028265,
        0.08960917592048645,
        -0.243043914437294,
        0.8559816479682922,
        -0.1994127631187439,
        -0.013226456008851528,
        0.08382521569728851,
        0.034779977053403854,
        -0.009832484647631645,
        -0.1918688863515854,
        0.022497842088341713,
        -0.02578616701066494,
        -0.022821392863988876,
        -0.34043726325035095,
        0.2167842537164688,
        -0.1312929093837738,
        0.311978280544281,
        -0.08027833700180054,
        -0.3387490212917328,
        0.0540614053606987,
        -0.09458997845649719,
        0.08441381901502609,
        0.04677761718630791,
        0.003931546118110418,
        -0.03256084397435188,
        0.05880332738161087,
        0.09510140866041183,
        -0.1724727600812912,
        0.06857660412788391,
        0.27018603682518005,
        -0.1431688666343689,
        0.048418112099170685,
        0.40209877490997314,
        -0.06209931895136833,
        -0.5252808928489685,
        0.15843524038791656,
        0.11655702441930771,
        0.040972258895635605,
        0.06855896860361099,
        0.1501309722661972,
        -0.11909707635641098,
        0.048876192420721054,
        0.11953305453062057,
        0.06596606969833374,
        0.004077326040714979,
        -0.08569272607564926,
        0.02379639632999897,
        0.11881350725889206,
        0.0517536960542202,
        0.23956124484539032,
        0.27306076884269714,
        -0.8037159442901611,
        -0.043242499232292175,
        -0.029790300875902176,
        -0.0629766434431076,
        0.18550023436546326,
        0.09383279085159302,
        -0.044423919171094894,
        0.113493911921978,
        0.21568593382835388,
        0.1360454261302948,
        -0.11392105370759964,
        0.0040702493861317635,
        0.15949298441410065,
        -0.1393725723028183,
        -0.13810588419437408,
        -0.1625531017780304,
        0.004879365209490061,
        -0.2006116658449173,
        -0.3299647867679596,
        -0.020101066678762436,
        -0.05940704792737961,
        -0.07737743854522705,
        0.11787714064121246,
        -0.2179667204618454,
        -0.0611097514629364,
        -0.03904249891638756,
        0.02253301627933979,
        0.0015994502464309335,
        -0.1455785185098648,
        -0.2625446617603302,
        -0.28317636251449585,
        -0.18683724105358124,
        -0.15358267724514008,
        0.06437062472105026,
        0.15175746381282806,
        0.37131834030151367,
        0.03504592180252075,
        0.06932761520147324,
        -0.2354801446199417,
        0.034874722361564636,
        -0.06475528329610825,
        0.1405831128358841,
        0.1660379022359848,
        -0.02322865091264248,
        -0.5259270071983337,
        -0.14264331758022308,
        -0.07084120064973831,
        0.3289586901664734,
        0.8880510926246643,
        0.35128653049468994,
        -0.22462742030620575,
        -0.07438336312770844,
        -0.012036189436912537,
        0.024739224463701248,
        -0.023695437237620354,
        0.27479422092437744,
        -0.06780792027711868,
        0.08267224580049515,
        0.17905963957309723,
        -0.07939748466014862,
        -0.3305566608905792,
        -0.3406031131744385,
        -0.33592554926872253,
        -0.1334427148103714,
        0.12511616945266724,
        0.014566769823431969,
        0.09849830716848373,
        0.02764342539012432,
        -0.023190179839730263,
        -0.10021433234214783,
        0.11915522813796997,
        -0.001511482405476272,
        -0.12599539756774902,
        0.0006421018624678254,
        0.19158761203289032,
        0.21653902530670166,
        0.03986377641558647,
        0.7364202737808228,
        0.18963293731212616,
        0.007631414569914341,
        0.006007983349263668,
        0.44058308005332947,
        -0.05619899556040764,
        0.24767372012138367,
        -0.2479628175497055,
        -0.26318255066871643,
        -0.006862929556518793,
        0.07406280189752579,
        0.23676425218582153,
        0.029928579926490784,
        -0.2102704495191574,
        -0.10946265608072281,
        -0.03374473378062248,
        0.3692466914653778,
        -0.014930921606719494,
        0.22648973762989044,
        -0.06357991695404053,
        0.18287508189678192,
        -0.21500569581985474,
        0.22951015830039978,
        0.26537561416625977,
        0.014708145521581173,
        -0.18427349627017975,
        0.229653000831604,
        0.3618451654911041,
        0.026594819501042366,
        -0.2970241606235504,
        0.23985426127910614,
        0.15653835237026215,
        0.2812972664833069,
        -0.1541944295167923,
        -0.22188203036785126,
        -0.10391321033239365,
        -0.17884865403175354,
        -0.18400293588638306,
        -0.1362568885087967,
        -0.135787695646286,
        -0.0019608931615948677,
        -0.09995673596858978,
        -0.2345106303691864,
        -0.07089277356863022,
        0.25355491042137146,
        -0.010525834746658802,
        0.0544048547744751,
        0.09427320212125778,
        0.041319508105516434,
        0.16745316982269287,
        -0.2612763047218323,
        0.2148742526769638,
        -0.026790037751197815,
        0.0340961255133152,
        0.3115353584289551,
        0.26317092776298523,
        -0.0342341884970665,
        -0.0587991364300251,
        0.03767765685915947,
        -0.010838344693183899,
        0.25627559423446655,
        0.057599641382694244,
        0.2538548707962036,
        -0.13524247705936432,
        -0.1735367327928543,
        -0.038625240325927734,
        -0.21165774762630463,
        -0.14062441885471344,
        0.3659895658493042,
        -0.2808922827243805,
        0.0046129110269248486,
        0.023675233125686646,
        -0.11615173518657684,
        0.09914303570985794,
        -0.04975258186459541,
        -0.26566094160079956,
        -0.14859063923358917,
        -0.07998864352703094,
        -0.24726936221122742,
        0.06749413907527924,
        -0.1291201412677765,
        0.11035312712192535,
        0.17557522654533386,
        0.20234613120555878,
        -0.23731862008571625,
        0.051480334252119064,
        0.00012087028881069273,
        -0.2875669598579407,
        0.11918115615844727,
        0.020177168771624565,
        -0.05874934419989586,
        -0.023243026807904243,
        0.06748700886964798,
        0.14102990925312042,
        -0.05509253218770027,
        -0.1433236449956894,
        -0.10589908063411713,
        0.055123452097177505,
        -0.19979488849639893,
        0.12106094509363174,
        -0.015580656006932259,
        -0.0654682144522667,
        0.10312611609697342,
        -0.11584258824586868,
        -0.005374121945351362,
        -0.12680254876613617,
        -0.059804197400808334,
        0.006437427364289761,
        0.2292122095823288,
        -0.09277626872062683,
        0.05010642111301422,
        -0.1355539709329605,
        0.043306462466716766,
        0.068888358771801,
        -0.24420559406280518,
        0.14030596613883972,
        -0.07322467118501663,
        -0.1423896998167038,
        0.0047373357228934765,
        -0.09913880378007889,
        -0.1806226670742035,
        0.0656329095363617,
        -0.06988900154829025,
        -0.3087940514087677,
        -0.03278641402721405,
        -0.1862308233976364,
        -0.268751323223114,
        0.19140687584877014,
        -0.15950094163417816,
        -0.0356375128030777,
        -0.07469384372234344,
        0.07615691423416138,
        0.01779322326183319,
        -0.21517330408096313,
        0.43353068828582764,
        -0.040729399770498276,
        -0.06898298859596252,
        0.16562020778656006,
        -0.07280194759368896,
        0.10600631684064865,
        0.16207867860794067,
        -0.02446160279214382,
        0.20210354030132294,
        -0.020461514592170715,
        0.4589387774467468,
        -0.11279216408729553,
        0.20638354122638702,
        0.1659250557422638,
        0.03486642986536026,
        0.007323077879846096,
        0.07089819014072418,
        0.11216011643409729,
        -0.028157683089375496,
        0.046389445662498474,
        -0.14458590745925903,
        0.12930618226528168,
        -0.09022659063339233,
        0.16768001019954681,
        -0.17784307897090912,
        0.03719661384820938,
        -0.15775589644908905,
        0.014193059876561165,
        0.0795145034790039,
        -0.05540360137820244,
        0.04603547602891922,
        -0.2105432152748108,
        0.3196794390678406,
        -0.06412997841835022,
        -0.1612989753484726,
        0.05332857370376587,
        -0.06772048771381378,
        0.3629242777824402,
        -0.3640313148498535,
        -0.35129934549331665,
        -0.20863665640354156,
        -0.5644131302833557,
        0.36054423451423645,
        0.07186299562454224,
        0.02026032656431198,
        0.040238358080387115,
        -0.10084101557731628,
        0.014284776523709297,
        0.019989749416708946,
        -0.034258075058460236,
        0.11988772451877594,
        0.34770628809928894,
        0.11350847035646439,
        0.07833452522754669,
        0.14281776547431946,
        -0.01087312400341034,
        0.2001427412033081,
        -0.011092656292021275,
        0.026645679026842117,
        0.34239450097084045,
        -0.4335678219795227,
        0.7123359441757202,
        0.12213566899299622,
        -0.47693589329719543,
        0.30752721428871155,
        -0.19422028958797455,
        0.10876166820526123,
        0.5354286432266235,
        -0.9977179169654846,
        0.9309724569320679,
        1.4046576023101807,
        -0.4385695457458496,
        -0.4727626144886017,
        0.049448881298303604,
        -0.622515857219696,
        0.4818251132965088,
        -0.41473057866096497,
        0.005681911483407021,
        -0.37023448944091797,
        0.328335165977478,
        0.4736595153808594,
        0.0035528112202882767,
        0.08096017688512802,
        0.04743383079767227,
        -0.031069092452526093,
        0.26890861988067627,
        0.0016034945147112012,
        -0.20468281209468842,
        -0.030978664755821228,
        -0.3226132392883301,
        -0.1557513177394867,
        0.3478361666202545,
        0.09324552118778229,
        -0.024685408920049667,
        0.052927806973457336,
        0.16417470574378967,
        0.3224145472049713,
        -0.09632984548807144,
        -0.19561578333377838,
        -0.2709123194217682,
        0.07469085603952408,
        -0.3538890779018402,
        -0.06551586836576462,
        0.0813230350613594,
        0.20443253219127655,
        0.0696093812584877,
        0.10465826094150543,
        -0.09905949234962463,
        -0.4461376667022705,
        0.0824924185872078,
        -0.3115577697753906,
        0.25201502442359924,
        -0.19040343165397644,
        -0.0011411960003897548,
        -0.16937397420406342,
        -0.2270047962665558,
        0.16477304697036743,
        -0.31679633259773254,
        0.21123890578746796,
        0.32590651512145996,
        -0.2599402666091919,
        -0.0016695910599082708,
        0.2795085608959198,
        0.03616427257657051,
        -0.14349979162216187,
        0.1615474671125412,
        -0.12453344464302063,
        0.3445133864879608,
        0.1928934007883072,
        -0.29011744260787964,
        0.30726492404937744,
        0.29334819316864014,
        0.08837106823921204,
        -0.19634120166301727,
        0.12809056043624878,
        0.1906844675540924,
        0.05491171032190323,
        -0.03159850463271141,
        -0.059530939906835556,
        -0.03995852544903755,
        -0.2848767638206482,
        0.18901538848876953,
        -0.040132779628038406,
        -0.05517931655049324,
        -0.1977272480726242,
        0.20314083993434906,
        -0.09898803383111954,
        0.14852014183998108,
        0.00184430624358356,
        -0.029670195654034615,
        0.18849875032901764,
        -0.08856399357318878,
        -0.15331239998340607,
        0.19867782294750214,
        -0.28256943821907043,
        -0.30170220136642456,
        -0.2579267919063568,
        0.0702851340174675,
        -0.024512287229299545,
        0.015984073281288147,
        -0.3744649589061737,
        0.5456158518791199,
        -0.19613471627235413,
        -0.19231626391410828,
        -0.21456801891326904,
        0.04534316062927246,
        0.10919183492660522,
        -0.10895800590515137,
        0.15592919290065765,
        0.4414540231227875,
        0.20320668816566467,
        -0.21427500247955322,
        -0.2881353199481964,
        0.09548885375261307,
        0.013791327364742756,
        0.6019538640975952,
        -0.148073211312294,
        -0.4212503433227539,
        -0.09381270408630371,
        -0.26531046628952026,
        -0.034858815371990204,
        0.06371444463729858,
        -0.1995583027601242,
        0.18653136491775513,
        0.14315348863601685,
        0.15791571140289307,
        0.13641181588172913,
        0.42008867859840393,
        0.12474987655878067,
        -0.24413584172725677,
        -0.11127965152263641,
        -0.06800699234008789,
        -0.07892277836799622,
        0.02563571184873581,
        -0.19351837038993835,
        0.05147797241806984,
        0.08392211049795151,
        0.1836557686328888,
        0.06671012938022614,
        -0.06460197269916534,
        0.07774923741817474,
        -0.007662784308195114,
        0.12090913951396942,
        -0.3508129119873047,
        0.2205398976802826,
        -0.11342782527208328,
        0.14919717609882355,
        0.2575695216655731,
        -0.014328640885651112,
        -0.1868252009153366,
        0.12579979002475739,
        -0.12454576790332794,
        0.04690796136856079,
        -0.1340547651052475,
        0.14019598066806793,
        -0.2853717505931854,
        -0.0461907796561718,
        0.08626475185155869,
        0.018302643671631813,
        0.515175998210907,
        -0.047749217599630356,
        -0.2286885380744934,
        0.07541365921497345,
        0.029160717502236366,
        0.36978328227996826,
        -0.30727940797805786,
        -0.12036260962486267,
        -0.10963081568479538,
        -0.16181984543800354,
        0.21673965454101562,
        -0.18873515725135803,
        -0.002884072484448552,
        -0.14641587436199188,
        -0.09481362253427505,
        -0.12397744506597519,
        0.15790978074073792,
        -0.23291313648223877,
        -0.05595856532454491,
        -0.22355543076992035,
        0.11894552409648895,
        -0.22235164046287537,
        -0.0017132381908595562,
        -0.0716697946190834,
        0.3164598345756531,
        0.032421328127384186,
        -0.5144551992416382,
        0.10635094344615936,
        -0.04053594172000885,
        -0.22072194516658783,
        0.203412264585495,
        -0.23696698248386383,
        0.03706936538219452,
        -0.21732015907764435,
        -0.19558189809322357,
        0.2322971671819687,
        0.33955830335617065,
        0.25037965178489685,
        0.5789088606834412,
        0.04487739875912666,
        0.012153255753219128,
        -0.08173340559005737,
        -0.28355246782302856,
        0.20157946646213531,
        -0.2564818561077118,
        -0.49911266565322876,
        0.15621823072433472,
        -0.1606293022632599,
        -0.37797120213508606,
        -0.047233518213033676,
        -0.12452572584152222,
        0.113487608730793,
        0.20609153807163239,
        0.10533169656991959,
        -0.35304442048072815,
        -0.20941561460494995,
        0.1911093145608902,
        -0.06079501658678055,
        -0.38902631402015686,
        -0.08230502158403397,
        -0.16634830832481384,
        0.20195439457893372,
        0.13183708488941193,
        -0.30773407220840454,
        -0.2937779724597931,
        0.26676931977272034,
        -0.19025695323944092,
        -0.03321606293320656,
        -0.0888088122010231,
        -0.23583661019802094,
        0.2022486925125122,
        -0.15183760225772858,
        0.045547861605882645,
        0.042025886476039886,
        0.06045960634946823,
        -0.36875882744789124,
        -0.01986590027809143,
        0.1675289422273636,
        -0.0702105388045311,
        -0.05485789105296135,
        -0.262200266122818,
        0.20598076283931732,
        -0.006256170105189085,
        0.16109810769557953,
        -0.22122323513031006,
        -0.28065329790115356,
        0.24924199283123016,
        -0.45218756794929504,
        0.1761614829301834,
        0.3537644147872925,
        0.07823797315359116,
        0.29748669266700745,
        -0.04139089956879616,
        0.1627434939146042,
        0.31205183267593384,
        -0.22728003561496735,
        -0.13578829169273376,
        0.012826893478631973,
        -0.11513198167085648,
        -0.3904024660587311,
        -0.24861140549182892,
        -0.08648690581321716,
        -0.01104783732444048,
        -0.2940346896648407,
        -0.11054853349924088,
        0.19455689191818237,
        0.1813255101442337,
        0.24090412259101868,
        -0.22586488723754883,
        -0.12117552757263184,
        -0.10483616590499878,
        0.34384429454803467,
        -0.01049493346363306,
        0.1592031717300415,
        0.11057590693235397,
        -0.08576378971338272,
        -0.0925072729587555,
        0.32184648513793945,
        0.21121975779533386,
        0.038674816489219666,
        -0.12260441482067108,
        -0.040341902524232864,
        -0.01285590510815382,
        0.11333725601434708,
        0.15351566672325134,
        0.08957662433385849,
        0.10340050607919693,
        0.018861304968595505,
        0.22568798065185547,
        -0.1507415473461151,
        -0.1140967383980751,
        -0.35848268866539,
        -0.38310229778289795,
        -0.1539308726787567,
        0.13248367607593536,
        -0.5332038402557373,
        0.03460908681154251,
        -0.03947001323103905,
        -0.01739596389234066,
        0.0708494633436203,
        0.12172817438840866,
        -0.03440764173865318,
        -0.09690668433904648,
        0.18021617829799652,
        0.08784479647874832,
        0.002085734624415636,
        0.25877535343170166,
        -0.1276884824037552,
        0.0825829729437828,
        -0.19833451509475708,
        0.09816308319568634,
        0.0825423076748848,
        -0.10109348595142365,
        -0.32878178358078003,
        -0.1208810955286026,
        -0.024970605969429016,
        0.24020564556121826,
        -0.03346503525972366,
        -0.17520803213119507,
        -0.6814303398132324,
        0.10805799812078476,
        0.32928699254989624,
        -0.21019288897514343,
        -0.02784215472638607,
        -0.24871020019054413,
        -0.20803380012512207,
        -0.16547603905200958,
        -0.04044972360134125,
        -0.08461296558380127,
        0.02915237285196781,
        -0.03960772603750229,
        -0.0851694792509079,
        0.10946007072925568,
        -0.16758503019809723,
        -0.11706427484750748,
        0.11461594700813293,
        -0.1276101917028427,
        0.28040415048599243,
        -0.1802256852388382,
        0.22891870141029358,
        -0.25620415806770325,
        0.07746205478906631,
        -0.14606520533561707,
        0.3793795704841614,
        -0.1315605640411377,
        -0.10237206518650055,
        0.20189641416072845,
        0.017699100077152252,
        0.03020159713923931,
        0.036844052374362946,
        0.13031043112277985,
        0.05129733681678772,
        -0.10382408648729324,
        0.08884795755147934,
        -0.34734171628952026,
        0.2980149984359741,
        -0.11043776571750641,
        0.12137720733880997,
        0.0321199968457222,
        -0.16440461575984955,
        0.006417902652174234,
        0.14748309552669525,
        -0.058308202773332596,
        0.1491793543100357,
        0.13255076110363007,
        0.039145711809396744,
        -0.04975857958197594,
        0.0838579535484314,
        0.031327199190855026,
        0.5728666186332703,
        0.10618004947900772,
        -0.1287754327058792,
        -0.10662015527486801,
        -0.0324491523206234,
        0.0308532752096653,
        -0.3146442174911499,
        -0.23969785869121552,
        0.02332899160683155,
        -0.13293832540512085,
        0.15092147886753082,
        0.11558298021554947,
        -0.19490765035152435,
        0.2138807475566864,
        -0.011591100133955479,
        -0.2250249981880188,
        -0.27311328053474426,
        -0.10624745488166809,
        -0.45682787895202637,
        0.2529815137386322,
        -0.17835433781147003,
        0.15066304802894592,
        0.2311147153377533,
        0.12905731797218323,
        0.15195943415164948,
        0.22810912132263184,
        -0.06778651475906372,
        0.12127522379159927,
        -0.0659642219543457,
        0.09809035062789917,
        0.014895673841238022,
        -0.3154498040676117,
        0.018397876992821693,
        0.09304368495941162,
        0.3685917556285858,
        -0.05697648599743843,
        0.11730651557445526,
        0.15644808113574982,
        0.14471378922462463,
        0.04847060889005661,
