{
    "version": "0.5.0",
    "architecture": "WaveNet",
    "config": {
        "layers": [
            {
                "input_size": 1,
                "condition_size": 1,
                "head_size": 8,
                "channels": 16,
                "kernel_size": 3,
                "dilations": [
                    1,
                    2,
                    4,
                    8,
                    16,
                    32,
                    64,
                    128,
                    256,
                    512
                ],
                "activation": "Tanh",
                "gated": false,
                "head_bias": false
            },
            {
                "input_size": 16,
                "condition_size": 1,
                "head_size": 1,
                "channels": 8,
                "kernel_size": 3,
                "dilations": [
                    1,
                    2,
                    4,
                    8,
                    16,
                    32,
                    64,
                    128,
                    256,
                    512
                ],
                "activation": "Tanh",
                "gated": false,
                "head_bias": true
            }
        ],
        "head": null,
        "head_scale": 0.02
    },
    "weights": [
        0.030332084745168686,
        0.5281878113746643,
        -0.8692418336868286,
        -0.582412838935852,
        -0.3231908082962036,
        0.03718354552984238,
        0.03414285555481911,
        0.6260303854942322,
        0.04439677298069,
        0.1858685314655304,
        -0.0949474349617958,
        -0.13603989779949188,
        -0.9364789128303528,
        -0.5629758238792419,
        -0.27472540736198425,
        0.019164754077792168,
        0.2339133620262146,
        0.017361802980303764,
        -0.15632006525993347,
        -0.23983649909496307,
        0.09064233303070068,
        0.19049544632434845,
        0.14041070640087128,
        0.06543851643800735,
        -0.10033123940229416,
        0.1820642501115799,
        0.08307833969593048,
        -0.2136082500219345,
        0.08340418338775635,
        -0.07987554371356964,
        -0.1314365565776825,
        -0.03822939097881317,
        -0.04119595140218735,
        0.014614148065447807,
        0.07670087367296219,
        -0.2053050398826599,
        -0.13391010463237762,
        -0.04590208828449249,
        0.10636613517999649,
        0.14450867474079132,
        0.1866462081670761,
        -0.12796533107757568,
        -0.03120148926973343,
        -0.2844686806201935,
        -0.040975552052259445,
        0.021658657118678093,
        0.2458377480506897,
        0.023794090375304222,
        -0.155443474650383,
        0.19456568360328674,
        0.07393058389425278,
        0.09483341127634048,
        0.2256099432706833,
        -0.024943755939602852,
        0.0192569587379694,
        0.08414506912231445,
        -0.015903184190392494,
        -0.18742629885673523,
        0.08388365805149078,
        -0.10597655922174454,
        0.003575563197955489,
        -0.03566966578364372,
        -0.3336651623249054,
        -0.24712522327899933,
        -0.031359314918518066,
        0.17008887231349945,
        -0.25356754660606384,
        0.08851000666618347,
        -0.10406825691461563,
        0.3358060121536255,
        -0.1645415872335434,
        0.14908844232559204,
        -0.14196361601352692,
        0.0683242678642273,
        0.3145962655544281,
        -0.06860069185495377,
        -0.02976873144507408,
        0.06745079159736633,
        -0.193060964345932,
        -0.027135252952575684,
        -0.3129381835460663,
        0.33416178822517395,
        0.0025659180246293545,
        0.0765969380736351,
        -0.21673691272735596,
        0.02653508260846138,
        -0.2086915820837021,
        0.12305188179016113,
        0.04383913055062294,
        0.22388385236263275,
        -0.10180730372667313,
        0.11590573191642761,
        -0.07985756546258926,
        0.24639151990413666,
        -0.19403401017189026,
        0.08293396234512329,
        -0.13024726510047913,
        -0.033521272242069244,
        0.06986146420240402,
        -0.2916751205921173,
        0.0847383663058281,
        0.2877579629421234,
        -0.2543207108974457,
        -0.0861172303557396,
        0.05397330969572067,
        -0.1900831162929535,
        -0.16508755087852478,
        0.07960037887096405,
        -0.20840632915496826,
        0.24211126565933228,
        0.262768417596817,
        0.04795928671956062,
        -0.14196144044399261,
        0.032150644809007645,
        0.2582327425479889,
        -0.06181138753890991,
        0.07879135757684708,
        -0.11790157854557037,
        -0.04070250317454338,
        -0.07895398139953613,
        0.18353652954101562,
        -0.049550291150808334,
        -0.17779240012168884,
        0.19731493294239044,
        -0.18901078402996063,
        -0.19263708591461182,
        0.0981968492269516,
        -0.02386723831295967,
        0.045576684176921844,
        -0.24940422177314758,
        0.024889055639505386,
        0.01796715520322323,
        0.10500352084636688,
        0.04872538149356842,
        0.2072504460811615,
        -0.1420406550168991,
        0.07050842046737671,
        0.04521134868264198,
        0.29951485991477966,
        0.1328371912240982,
        0.2217947095632553,
        -0.058776360005140305,
        0.10219915211200714,
        -0.089176245033741,
        0.022980358451604843,
        -0.13644082844257355,
        -0.028508685529232025,
        0.10967005789279938,
        -0.1309645026922226,
        -0.21899130940437317,
        -0.007960133254528046,
        -0.17695067822933197,
        -0.13241608440876007,
        0.20751285552978516,
        0.023156894370913506,
        -0.250393807888031,
        0.2167455554008484,
        0.05111166089773178,
        -0.0027217548340559006,
        0.0428624264895916,
        -0.08037789911031723,
        0.22350800037384033,
        -0.26833465695381165,
        -0.06109430268406868,
        -0.2290467768907547,
        0.12714573740959167,
        -0.1206059530377388,
        0.2687107026576996,
        -0.24904388189315796,
        -0.06770361959934235,
        0.33269667625427246,
        -0.18194912374019623,
        0.0556337833404541,
        0.2510032653808594,
        -0.26746317744255066,
        0.16342899203300476,
        -0.20161072909832,
        0.07585250586271286,
        -0.012939220294356346,
        0.058100324124097824,
        -0.20070487260818481,
        0.03259238228201866,
        -0.09323950856924057,
        0.16610659658908844,
        -0.02074323035776615,
        0.21233133971691132,
        -0.25911447405815125,
        0.026899926364421844,
        -0.3156512379646301,
        0.20923714339733124,
        0.04986906796693802,
        0.28633320331573486,
        -0.24072173237800598,
        -0.06594784557819366,
        0.09503047913312912,
        -0.2113296389579773,
        -0.14311455190181732,
        0.2544444501399994,
        -0.20764462649822235,
        -0.06578104943037033,
        0.20517152547836304,
        -0.031687766313552856,
        -0.17301924526691437,
        0.10393548011779785,
        -0.2124050408601761,
        0.09240233898162842,
        0.060522761195898056,
        0.07337870448827744,
        0.11133891344070435,
        0.09463866055011749,
        -0.107692189514637,
        -0.09284768998622894,
        -0.10820581018924713,
        0.01774788647890091,
        0.06067271530628204,
        0.14455311000347137,
        -0.1676587611436844,
        -0.01622811146080494,
        0.2354440689086914,
        -0.17460623383522034,
        0.045001089572906494,
        0.25820961594581604,
        -0.009590599685907364,
        -0.04930367320775986,
        -0.23663054406642914,
        0.13363617658615112,
        -0.09348610788583755,
        -0.012106074020266533,
        -0.16738565266132355,
        -0.07591061294078827,
        -0.11484786123037338,
        0.17568857967853546,
        -0.02115773595869541,
        0.10031299293041229,
        -0.13391868770122528,
        -0.1347990483045578,
        -0.034177038818597794,
        -0.023566871881484985,
        -0.02195550873875618,
        0.13482069969177246,
        -0.03638899326324463,
        0.17914430797100067,
        0.08580950647592545,
        -0.04381454363465309,
        0.13232702016830444,
        -0.019510863348841667,
        0.04905876889824867,
        -0.06293652206659317,
        0.1212100237607956,
        -0.0787590816617012,
        -0.019679870456457138,
        0.13919490575790405,
        0.06322859227657318,
        0.1055619940161705,
        0.1143839955329895,
        0.010596058331429958,
        -0.04249565303325653,
        -0.10497547686100006,
        0.11268226057291031,
        -0.20329277217388153,
        0.055307537317276,
        -0.10130448639392853,
        0.17600516974925995,
        -0.03579548001289368,
        0.23100319504737854,
        0.050609245896339417,
        -0.1815447062253952,
        0.22036650776863098,
        0.22961433231830597,
        -0.09949306398630142,
        0.1190720647573471,
        -0.17613045871257782,
        -0.013931975699961185,
        -0.15444816648960114,
        0.01815144345164299,
        -0.2728036642074585,
        0.29498663544654846,
        -0.19551882147789001,
        0.11695458739995956,
        -0.13801413774490356,
        0.0895390585064888,
        -0.21775124967098236,
        0.049723122268915176,
        0.02343483455479145,
        0.1629319190979004,
        -0.053831811994314194,
        0.04708796739578247,
        -0.08973333239555359,
        0.14240628480911255,
        0.11497407406568527,
        -0.20924261212348938,
        0.24653074145317078,
        0.14577966928482056,
        -0.1431323140859604,
        0.14575599133968353,
        0.012582080438733101,
        -0.03670286014676094,
        0.07104504108428955,
        0.1687919646501541,
        -0.1811949908733368,
        0.118318572640419,
        -0.05283764377236366,
        -0.26684820652008057,
        -0.06586845964193344,
        -0.22828754782676697,
        -0.18968883156776428,
        0.17043757438659668,
        0.33944353461265564,
        0.2092965692281723,
        -0.13069948554039001,
        -0.3900398313999176,
        -0.17071647942066193,
        0.170211523771286,
        -0.3162180483341217,
        -0.08521900326013565,
        0.21916188299655914,
        -0.3519531190395355,
        -0.14633196592330933,
        0.17604181170463562,
        0.25963249802589417,
        0.14213435351848602,
        -0.10479483008384705,
        -0.2919350862503052,
        -0.027703607454895973,
        0.23206134140491486,
        0.39178887009620667,
        0.2280666083097458,
        -0.09977767616510391,
        -0.042248230427503586,
        -0.05399611219763756,
        0.09960660338401794,
        0.1074628159403801,
        0.2591012418270111,
        -0.05433884635567665,
        -0.33258387446403503,
        -0.058306753635406494,
        0.24981440603733063,
        -0.1525895744562149,
        -0.04456301033496857,
        0.2026471495628357,
        -0.2981759011745453,
        -0.19400422275066376,
        0.24000631272792816,
        -0.18333113193511963,
        -0.23104524612426758,
        0.24895861744880676,
        -0.2054530680179596,
        -0.07560113072395325,
        0.017769819125533104,
        -0.09706250578165054,
        -0.21649080514907837,
        0.109685517847538,
        -0.14620572328567505,
        0.23151206970214844,
        -0.0629877895116806,
        0.19361868500709534,
        -0.16786065697669983,
        0.171445831656456,
        -0.22005441784858704,
        0.16309858858585358,
        -0.18876615166664124,
        -0.2636686861515045,
        0.010147551074624062,
        0.021095119416713715,
        -0.05961592122912407,
        0.25228726863861084,
        0.010958404280245304,
        0.008975761011242867,
        -0.20377257466316223,
        0.08926256000995636,
        -0.24493543803691864,
        0.25036486983299255,
        -0.2277170717716217,
        0.05377211049199104,
        -0.25879812240600586,
        0.014814320020377636,
        0.007024688180536032,
        0.2778967618942261,
        -0.007463110610842705,
        0.21966567635536194,
        -0.0050171115435659885,
        0.04573182761669159,
        -0.05108300596475601,
        0.2554357349872589,
        -0.040880847722291946,
        -0.0041796183213591576,
        0.17403796315193176,
        -0.029164457693696022,
        -0.1723659783601761,
        0.1942545771598816,
        -0.07664809376001358,
        -0.1579613983631134,
        0.04088011384010315,
        -0.17634214460849762,
        -0.24176329374313354,
        0.21284151077270508,
        -0.001001839293166995,
        -0.06243127956986427,
        -0.04432518407702446,
        0.06417375057935715,
        0.15331947803497314,
        -0.1624322235584259,
        0.09217822551727295,
        0.08022099733352661,
        0.20268473029136658,
        -0.25946852564811707,
        0.18152497708797455,
        -0.04409707337617874,
        0.09237696975469589,
        0.126117542386055,
        -0.22738470137119293,
        0.12434747815132141,
        0.18308240175247192,
        -0.13197843730449677,
        0.056689225137233734,
        -0.11239413917064667,
        0.08415697515010834,
        -0.19387231767177582,
        0.10930024087429047,
        -0.021237658336758614,
        0.17780788242816925,
        -0.13677597045898438,
        0.14679156243801117,
        -0.078691266477108,
        0.12944699823856354,
        -0.2870226502418518,
        0.17773321270942688,
        -0.14567367732524872,
        0.08138733357191086,
        -0.09641910344362259,
        -0.05692111328244209,
        -0.08204572647809982,
        0.2777228057384491,
        0.07422365248203278,
        -0.2251937985420227,
        0.11040171980857849,
        0.07674096524715424,
        -0.2559078633785248,
        0.2171422392129898,
        -0.08277320861816406,
        -0.2807697653770447,
        0.007185696624219418,
        0.02153978869318962,
        -0.04487843066453934,
        0.01414684858173132,
        0.2518881559371948,
        -0.017591923475265503,
        0.19279047846794128,
        0.07733260840177536,
        -0.3545081615447998,
        0.3281565308570862,
        0.035071153193712234,
        0.368219256401062,
        -0.07346156239509583,
        -0.05916108936071396,
        -0.11313200742006302,
        0.15142302215099335,
        0.1067076027393341,
        -0.3378244638442993,
        0.1041795164346695,
        -0.09262266010046005,
        -0.2774471938610077,
        0.18400712311267853,
        -0.16939660906791687,
        0.24716490507125854,
        -0.08446859568357468,
        0.14915737509727478,
        -0.2789739966392517,
        0.12911999225616455,
        -0.08334286510944366,
        0.2812633216381073,
        7.18253941158764e-05,
        0.18417039513587952,
        -0.18974189460277557,
        0.31608566641807556,
        -0.17907091975212097,
        0.08904403448104858,
        -0.08443047106266022,
        -0.03559522703289986,
        -0.1338581144809723,
        0.058265458792448044,
        -0.024779589846730232,
        -0.3364909887313843,
        0.22380203008651733,
        0.02199685014784336,
        -0.11374050378799438,
        0.23108460009098053,
        0.12015479803085327,
        -0.21613869071006775,
        0.09880265593528748,
        0.004477315582334995,
        -0.21016840636730194,
        0.21174965798854828,
        0.07358870655298233,
        0.13862834870815277,
        0.1462373286485672,
        -0.296795517206192,
        -0.07815249264240265,
        0.16789907217025757,
        0.3042702376842499,
        -0.11211402714252472,
        0.05415239930152893,
        -0.09251981973648071,
        0.07048560678958893,
        0.1780579537153244,
        -0.23987255990505219,
        0.03432019054889679,
        0.11674495786428452,
        -0.20841550827026367,
        0.03589244186878204,
        0.014193960465490818,
        0.2561489939689636,
        -0.02519276551902294,
        -0.1057843491435051,
        -0.09396754950284958,
        0.08337173610925674,
        -0.020509814843535423,
        0.17581583559513092,
        0.09818760305643082,
        -0.06919150054454803,
        -0.09912638366222382,
        -0.012867605313658714,
        0.11977519094944,
        0.03662779554724693,
        -0.09259472042322159,
        -0.15210255980491638,
        -0.011298974975943565,
        -0.03154755383729935,
        0.07587171345949173,
        -0.2667081654071808,
        0.09944138675928116,
        0.16377608478069305,
        -0.2715687155723572,
        -0.13025347888469696,
        -0.05297645181417465,
        -0.16335898637771606,
        -0.050447143614292145,
        -0.0388919897377491,
        -0.2241290658712387,
        0.005105413496494293,
        -0.030424723401665688,
        0.014208540320396423,
        0.0611356720328331,
        0.13117212057113647,
        0.029813461005687714,
        0.11781420558691025,
        -0.007487636525183916,
        0.043671615421772,
        0.005827582441270351,
        0.0933038666844368,
        -0.16607026755809784,
        -0.19681094586849213,
        0.19642075896263123,
        -0.11977353692054749,
        -0.023793574422597885,
        0.04410369321703911,
        -0.0662764310836792,
        -0.08737309277057648,
        0.14312389492988586,
        0.034792572259902954,
        -0.08953984081745148,
        -0.1420910805463791,
        -0.06788035482168198,
        0.03225094825029373,
        -0.026909364387392998,
        0.16401910781860352,
        0.021773284301161766,
        -0.07980524748563766,
        0.11365457624197006,
        0.025179127231240273,
        0.21908226609230042,
        0.10221733897924423,
        -0.004232630133628845,
        -0.16621267795562744,
        -0.025917496532201767,
        0.08520065993070602,
        0.026713183149695396,
        -0.17793715000152588,
        -0.004971695132553577,
        0.18194124102592468,
        -0.07002849876880646,
        -0.1740797907114029,
        -0.0768553838133812,
        0.006337042432278395,
        -0.06752628833055496,
        -0.02105073072016239,
        -0.008923393674194813,
        -0.00673602195456624,
        0.15873108804225922,
        0.14192914962768555,
        -0.06096974015235901,
        -0.021663783118128777,
        -0.10907376557588577,
        0.02049507200717926,
        0.19663837552070618,
        -0.0030334044713526964,
        -0.008013058453798294,
        0.049738045781850815,
        0.2034294158220291,
        0.007721689995378256,
        -0.040803246200084686,
        0.016229011118412018,
        -0.21104297041893005,
        0.22282616794109344,
        0.0040232110768556595,
        -0.18092751502990723,
        0.1633186638355255,
        -0.13333342969417572,
        0.030357329174876213,
        -0.107798270881176,
        -0.08389218151569366,
        -0.24378563463687897,
        0.284437894821167,
        -0.13850060105323792,
        0.16052159667015076,
        0.04210617020726204,
        0.05167316272854805,
        -0.09549324214458466,
        0.25562962889671326,
        -0.0664612427353859,
        0.02624504081904888,
        0.037394821643829346,
        0.1191597431898117,
        -0.2274685651063919,
        0.06287705153226852,
        -0.04280775785446167,
        0.007854776456952095,
        0.056129854172468185,
        -0.059263791888952255,
        -0.12336336821317673,
        0.17343051731586456,
        0.1101725772023201,
        -0.06777217984199524,
        0.0952024906873703,
        0.11690768599510193,
        -0.15410226583480835,
        0.021636338904500008,
        -0.36227473616600037,
        -0.3560400605201721,
        0.011282140389084816,
        -0.2520957291126251,
        0.14282888174057007,
        0.05994272604584694,
        0.19980470836162567,
        -0.16326722502708435,
        0.14839179813861847,
        -0.2656650245189667,
        0.19558696448802948,
        -0.11909612268209457,
        -0.21416190266609192,
        0.15598884224891663,
        -0.06228647753596306,
        -0.072987399995327,
        -0.03082825243473053,
        -0.13283753395080566,
        0.12085200846195221,
        -0.04455318674445152,
        0.1440182626247406,
        -0.25146186351776123,
        0.15590457618236542,
        -0.025859223678708076,
        0.15229502320289612,
        0.035701293498277664,
        -0.10234610736370087,
        -0.1676998883485794,
        0.2123265415430069,
        -0.044200558215379715,
        0.27660083770751953,
        -0.1324080526828766,
        0.10828927159309387,
        -0.310040682554245,
        0.06138773635029793,
        -0.022096173837780952,
        -0.16507752239704132,
        0.10243365913629532,
        0.07682506740093231,
        -0.2025829553604126,
        0.0695689395070076,
        0.09363426268100739,
        -0.22242802381515503,
        0.19865337014198303,
        -0.10417721420526505,
        -0.21030071377754211,
        0.054972585290670395,
        0.04567766562104225,
        0.01633021980524063,
        0.03589790686964989,
        -0.021444424986839294,
        0.29535794258117676,
        -0.01602652668952942,
        -0.039720047265291214,
        -0.3375040590763092,
        0.1029430404305458,
        0.2157384753227234,
        0.2520299553871155,
        -0.15288440883159637,
        0.012675533071160316,
        0.13021622598171234,
        0.012456095777451992,
        -0.0686085894703865,
        0.17939907312393188,
        0.035855215042829514,
        -0.2113918513059616,
        -0.20550766587257385,
        -0.07236245274543762,
        0.06966454535722733,
        0.21738727390766144,
        0.060765545815229416,
        -0.15781836211681366,
        -0.14675632119178772,
        -0.002230222336947918,
        0.017251839861273766,
        0.055084120482206345,
        -0.21082033216953278,
        0.00965502206236124,
        -0.2523113489151001,
        0.045728329569101334,
        0.14870008826255798,
        0.3171437084674835,
        0.08505158871412277,
        0.009771160781383514,
        0.16630801558494568,
        -0.010483592748641968,
        -0.14072532951831818,
        0.1562417894601822,
        0.01633467711508274,
        0.04784172400832176,
        0.1233307272195816,
        0.07050558179616928,
        -0.16110268235206604,
        0.22406645119190216,
        0.10852179676294327,
        -0.10651207715272903,
        0.14784543216228485,
        -0.12396746873855591,
        -0.015252931043505669,
        0.17276903986930847,
        -0.32445260882377625,
        0.06999452412128448,
        -0.28344783186912537,
        0.061111681163311005,
        -0.021843217313289642,
        0.282062292098999,
        -0.22676773369312286,
        0.0912860780954361,
        0.2918148636817932,
        -0.08818929642438889,
        -0.05341417342424393,
        0.16883017122745514,
        -0.2220398485660553,
        -0.08550834655761719,
        -0.18227402865886688,
        0.27384114265441895,
        0.08173877000808716,
        0.2183595895767212,
        -0.18106412887573242,
        -0.04603207856416702,
        -0.06075061857700348,
        0.11680293083190918,
        -0.12753130495548248,
        0.1841556429862976,
        -0.11815664917230606,
        -0.09091056138277054,
        -0.019431745633482933,
        0.246571347117424,
        -0.10950266569852829,
        0.12569357454776764,
        -0.06327968090772629,
        -0.09676631540060043,
        0.16505587100982666,
        -0.10162904113531113,
        -0.06946875900030136,
        0.24709098041057587,
        -0.10724541544914246,
        0.11292467266321182,
        0.07680466771125793,
        -0.035975050181150436,
        -0.059704434126615524,
        0.3242146074771881,
        -0.31120821833610535,
        -0.09409388899803162,
        0.14855067431926727,
        -0.1025228425860405,
        -0.0861811563372612,
        -0.0330062098801136,
        -0.13003948330879211,
        -0.26248201727867126,
        -0.05374789983034134,
        0.06967196613550186,
        0.04483267292380333,
        -0.3032974898815155,
        -0.01705791987478733,
        0.04442451521754265,
        0.028077734634280205,
        -0.1653454601764679,
        0.06462912261486053,
        -0.01884373463690281,
        -0.040569007396698,
        0.0202240739017725,
        0.024494783952832222,
        0.5176982879638672,
        -0.24148887395858765,
        0.68192458152771,
        -0.58533775806427,
        0.048512108623981476,
        0.7228143215179443,
        0.880772590637207,
        -0.48335060477256775,
        0.03558092936873436,
        -0.017280949279665947,
        -0.518285870552063,
        -0.3951525092124939,
        0.19553107023239136,
        -0.6866322755813599,
        0.2465970665216446,
        0.4048912525177002,
        -0.20390604436397552,
        0.07780763506889343,
        -0.14644300937652588,
        0.3317747116088867,
        0.32024136185646057,
        -0.05862873047590256,
        0.24612821638584137,
        0.23313164710998535,
        -0.027332019060850143,
        -0.04076522961258888,
        0.0669848769903183,
        0.029528627172112465,
        0.059461843222379684,
        0.2962360382080078,
        0.12231052666902542,
        -0.17962652444839478,
        0.23410126566886902,
        -0.09262308478355408,
        -0.14083357155323029,
        -0.13952872157096863,
        -0.003286375431343913,
        0.014595670625567436,
        -0.21889810264110565,
        -0.30456778407096863,
        0.07145163416862488,
        0.2693743109703064,
        -0.21809738874435425,
        -0.013348596170544624,
        0.24374139308929443,
        -0.2833523154258728,
        0.16049934923648834,
        0.3555927872657776,
        0.02946082316339016,
        0.017478426918387413,
        0.13809610903263092,
        0.09465817362070084,
        -0.10762560367584229,
        0.0375022329390049,
        0.2908196449279785,
        -0.3111918568611145,
        0.1027195006608963,
        -0.08183493465185165,
        0.1685027778148651,
        -0.1875680834054947,
        0.15892744064331055,
        0.18997123837471008,
        0.1092536598443985,
        0.025312313809990883,
        0.11364644020795822,
        -0.143094003200531,
        0.03289233520627022,
        -0.37239962816238403,
        -0.048118285834789276,
        0.16684727370738983,
        0.13407932221889496,
        0.027351798489689827,
        -0.028863629326224327,
        0.23331040143966675,
        0.0855843797326088,
        -0.19475285708904266,
        0.11636900156736374,
        0.050822459161281586,
        -0.2530950605869293,
        0.001826359424740076,
        -0.2574305236339569,
        -0.420945405960083,
        -0.15346798300743103,
        0.01848483830690384,
        0.12437605112791061,
        0.09613629430532455,
        0.291321337223053,
        -0.3637620210647583,
        0.2720740735530853,
        0.41069167852401733,
        -0.1297493577003479,
        0.29417797923088074,
        -0.0238452460616827,
        0.09208273142576218,
        -0.11527712643146515,
        0.15550297498703003,
        -0.005778288468718529,
        0.007284597493708134,
        0.0396551676094532,
        0.06622666120529175,
        0.32184290885925293,
        0.2552318572998047,
        0.22090907394886017,
        -0.177438884973526,
        0.116091787815094,
        -0.12539538741111755,
        -0.4335354268550873,
        -0.18670602142810822,
        -0.11809561401605606,
        -0.4620058238506317,
        0.3166467845439911,
        0.31692320108413696,
        0.18341143429279327,
        0.4384235441684723,
        0.05310088396072388,
        0.732372522354126,
        0.16283410787582397,
        -0.34841611981391907,
        0.22915443778038025,
        0.7068133354187012,
        -0.4847988486289978,
        -0.8624141812324524,
        -0.08961214125156403,
        -0.10653271526098251,
        -0.017387360334396362,
        0.15762144327163696,
        0.1110234409570694,
        -0.5154980421066284,
        0.2026415318250656,
        0.06671669334173203,
        0.16762195527553558,
        -0.08686459809541702,
        -0.09033995121717453,
        0.023474985733628273,
        0.13474152982234955,
        0.12650513648986816,
        0.10005287081003189,
        -0.24871177971363068,
        0.07757589221000671,
        -0.19026730954647064,
        0.038547784090042114,
        -0.20339879393577576,
        -0.03278331086039543,
        0.10509134083986282,
        -0.07145199924707413,
        -0.06078287214040756,
        -0.2180679887533188,
        -0.3343279957771301,
        0.08408971130847931,
        0.048582617193460464,
        -0.16616246104240417,
        -0.15348857641220093,
        -0.07095270603895187,
        -0.10171138495206833,
        0.07574738562107086,
        0.023991160094738007,
        0.1064218133687973,
        -0.1502988338470459,
        0.11346650868654251,
        0.014093589037656784,
        -0.22359806299209595,
        0.0026430056896060705,
        0.33345335721969604,
        -0.33679038286209106,
        -0.30524778366088867,
        -0.0647471621632576,
        0.2897932827472687,
        -0.2516672909259796,
        0.040202412754297256,
        0.3065773546695709,
        0.24740219116210938,
        0.17204239964485168,
        0.14917118847370148,
        0.0565095916390419,
        -0.23759181797504425,
        0.1039191335439682,
        0.153923898935318,
        0.3006443679332733,
        -0.19502156972885132,
        0.11888033151626587,
        -0.12860159575939178,
        -0.1699514091014862,
        0.1317557841539383,
        0.03383726626634598,
        -0.012059352360665798,
        -0.17864441871643066,
        -0.11869532614946365,
        -0.0886521190404892,
        -0.058647699654102325,
        0.2351493239402771,
        0.00981509406119585,
        0.06590293347835541,
        -0.026534976437687874,
        -0.16095887124538422,
        0.12847229838371277,
        0.08464492112398148,
        0.007280625402927399,
        -0.024395687505602837,
        0.05811290442943573,
        0.2828770875930786,
        -0.028938570991158485,
        -0.22763386368751526,
        0.17302587628364563,
        -0.08739954978227615,
        -0.10389544814825058,
        0.3032245934009552,
        -0.29806748032569885,
        -0.35032910108566284,
        -0.1926281601190567,
        -0.13545653223991394,
        0.17424865067005157,
        -0.06109636276960373,
        -0.06126529723405838,
        -0.049023792147636414,
        0.11998674273490906,
        0.09475596249103546,
        0.3563564717769623,
        0.07832732796669006,
        0.04998808726668358,
        0.22012826800346375,
        0.2326643168926239,
        -0.08996748924255371,
        -0.2067669928073883,
        0.02413477562367916,
        -0.08554401993751526,
        -0.1262892782688141,
        -0.08040657639503479,
        0.061351388692855835,
        -0.13449518382549286,
        0.17538487911224365,
        0.2832467257976532,
        0.0675768256187439,
        0.029638703912496567,
        -0.04015042632818222,
        0.08541804552078247,
        -0.05455147847533226,
        -0.15639765560626984,
        -0.08204367011785507,
        -0.20908227562904358,
        0.12833547592163086,
        -0.10712853074073792,
        0.09255212545394897,
        -0.06741007417440414,
        -0.06555185467004776,
        0.15659964084625244,
        0.18233436346054077,
        0.2732726037502289,
        0.03345727548003197,
        -0.10035455226898193,
        0.07712731510400772,
        0.00973282940685749,
        -0.12055682390928268,
        0.06884041428565979,
        0.22481651604175568,
        -0.11856594681739807,
        -0.06412243098020554,
        0.13502725958824158,
        0.1579030454158783,
        0.05799832567572594,
        -0.14304569363594055,
        0.007346772123128176,
        0.12705574929714203,
        -0.07861465960741043,
        0.2202889323234558,
        -0.10310165584087372,
        -0.13790391385555267,
        -0.14891257882118225,
        -0.3328052759170532,
        -0.013604767620563507,
        0.18775972723960876,
        0.0327455960214138,
        -0.15262755751609802,
        0.04822428524494171,
        -0.09375718235969543,
        0.23225165903568268,
        -0.027637112885713577,
        -0.12132531404495239,
        -0.007832813076674938,
        0.0961550697684288,
        -0.0945798009634018,
        0.07022979855537415,
        -0.2346523553133011,
        0.07849815487861633,
        0.06627325713634491,
        0.015826990827918053,
        0.11751863360404968,
        0.0425993986427784,
        0.08333735167980194,
        -0.12701250612735748,
        -0.1747276335954666,
        0.02226562239229679,
        0.45102837681770325,
        -0.12434898316860199,
        -0.003782699117437005,
        -0.10850932449102402,
        0.041834522038698196,
        0.12722148001194,
        -0.2741418480873108,
        -0.03491310402750969,
        -0.02772378735244274,
        -0.2974793016910553,
        -0.06116726994514465,
        -0.06252597272396088,
        0.27890899777412415,
        -0.016473760828375816,
        -0.033897172659635544,
        -0.14525601267814636,
        -0.25940239429473877,
        0.04336725175380707,
        -0.05996847152709961,
        0.013032038696110249,
        -0.15351718664169312,
        0.13301880657672882,
        -0.018883060663938522,
        -0.09820849448442459,
        -0.2869572937488556,
        0.16371028125286102,
        -0.0657038614153862,
        0.007206415291875601,
        -0.14504367113113403,
        -0.006221287418156862,
        -0.33071622252464294,
        -0.022068221122026443,
        0.24161508679389954,
        -0.22103460133075714,
        -0.01351808849722147,
        -0.018155312165617943,
        -0.29896146059036255,
        0.06405986845493317,
        -0.09116757661104202,
        -0.29659920930862427,
        0.05467872694134712,
        0.2217126041650772,
        0.3354635238647461,
        -0.11023039370775223,
        -0.03531814366579056,
        0.01824384368956089,
        -0.21536776423454285,
        0.16893161833286285,
        -0.15938076376914978,
        0.13812661170959473,
        0.06757061928510666,
        -0.1987607330083847,
        -0.14253836870193481,
        -0.029946157708764076,
        -0.16435392200946808,
        0.14044182002544403,
        -0.037468910217285156,
        0.037984006106853485,
        -0.013891560956835747,
        0.1251218169927597,
        -0.25269749760627747,
        -0.33107128739356995,
        -0.25089964270591736,
        0.267282098531723,
        -0.2511822283267975,
        0.052649885416030884,
        0.09671131521463394,
        -0.1333267092704773,
        -0.13693447411060333,
        -0.1576232761144638,
        0.02244100533425808,
        -0.0003910204104613513,
        0.10190141201019287,
        -0.01880933903157711,
        -0.22818274796009064,
        0.0542292557656765,
        -0.10250923037528992,
        -0.01726391911506653,
        0.08137793093919754,
        0.011395096778869629,
        0.20477627217769623,
        -0.1610526144504547,
        -0.0363127738237381,
        0.0029258776921778917,
        -0.07128308713436127,
        -0.02122596837580204,
        -0.04004620760679245,
        0.10810167342424393,
        -0.053227297961711884,
        0.06034322828054428,
        -0.05704319477081299,
        0.02131657861173153,
        -0.16552624106407166,
        -0.13819602131843567,
        -0.21739517152309418,
        5.765134119428694e-05,
        0.33421704173088074,
        0.12658317387104034,
        -0.0775461196899414,
        -0.1944963037967682,
        -0.044921472668647766,
        0.10291223973035812,
        0.1464543491601944,
        -0.007814017124474049,
        0.02250399813055992,
        0.08608800172805786,
        -0.10708992183208466,
        0.050847578793764114,
        -0.1458946317434311,
        0.037223707884550095,
        0.025232776999473572,
        0.10844127088785172,
        -0.1134248599410057,
        -0.0475696325302124,
        -0.06706658750772476,
        -0.014785305596888065,
        0.049589917063713074,
        0.040291376411914825,
        -0.19566473364830017,
        0.022657960653305054,
        -0.09110862761735916,
        0.21398259699344635,
        -0.13435448706150055,
        -0.11460041999816895,
        -0.2153434008359909,
        0.14077240228652954,
        0.0008823524112813175,
        -0.051901884377002716,
        0.12787719070911407,
        0.10758771747350693,
        -0.013072904199361801,
        0.08327055722475052,
        -0.17849107086658478,
        -0.10577455163002014,
        0.06422904133796692,
        -0.26018190383911133,
        -0.00893863383680582,
        0.12629038095474243,
        0.04915500804781914,
        0.1677275002002716,
        0.3101443946361542,
        -0.21079158782958984,
        -0.10083956271409988,
        -0.180606871843338,
        -0.28608301281929016,
        0.24199546873569489,
        0.11921291053295135,
        0.02510843053460121,
        -0.3107534945011139,
        -0.2605762481689453,
        0.12441664189100266,
        0.03796174377202988,
        -0.10119795054197311,
        0.002272938610985875,
        -0.06635911017656326,
        0.06567352265119553,
        0.10949685424566269,
        0.34152552485466003,
        -0.08751287311315536,
        0.004198468290269375,
        0.20408892631530762,
        -0.043307386338710785,
        -0.007985137403011322,
        0.07724280655384064,
        0.10815650969743729,
        -0.0952732264995575,
        -0.12462489306926727,
        -0.018449710682034492,
        0.31309160590171814,
        -0.21564792096614838,
        0.090761698782444,
        -0.033193301409482956,
        -0.13224348425865173,
        -0.12068390846252441,
        0.07784387469291687,
        -0.15516172349452972,
        0.029521867632865906,
        0.0780256912112236,
        -0.07594913989305496,
        -0.04665717855095863,
        0.19068890810012817,
        -0.26732081174850464,
        -0.17192162573337555,
        -0.07151050865650177,
        -0.13816465437412262,
        -0.004257261287420988,
        -0.17655985057353973,
        0.16350875794887543,
        -0.0073786587454378605,
        0.06888217478990555,
        -0.36385810375213623,
        -0.02177358791232109,
        0.35267776250839233,
        0.11390527337789536,
        -0.0508573092520237,
        -0.2978397011756897,
        0.021680129691958427,
        0.03161601722240448,
        -0.3357948362827301,
        0.012226482853293419,
        0.09932617843151093,
        -0.36238688230514526,
        0.025881875306367874,
        -0.19210484623908997,
        -0.1226240023970604,
        0.3327970802783966,
        -0.12446370720863342,
        0.31433773040771484,
        -0.4258410334587097,
        -0.054662998765707016,
        -0.017983125522732735,
        0.2511172890663147,
        0.18903523683547974,
        0.2477298080921173,
        -0.07629004865884781,
        -0.06751199811697006,
        -0.2791536748409271,
        0.12165869027376175,
        0.0984385758638382,
        0.2903040051460266,
        -0.1939355880022049,
        -0.026394598186016083,
        -0.17207466065883636,
        -0.06532972306013107,
        0.2253693789243698,
        -0.42154213786125183,
        -0.2556110620498657,
        0.06689292937517166,
        -0.20563188195228577,
        -0.01820160634815693,
        0.08475416153669357,
        -0.0410100594162941,
        -0.3578227758407593,
        -0.015131811611354351,
        0.4057829976081848,
        -0.1754792183637619,
        -0.0031981554348021746,
        -0.1616109311580658,
        -0.056724462658166885,
        0.0026410201098769903,
        -0.2978530824184418,
        0.19700674712657928,
        0.017603354528546333,
        0.05764056742191315,
        -0.06337442249059677,
        -0.01753375120460987,
        -0.007932323962450027,
        -0.019462835043668747,
        -0.018577096983790398,
        -0.022530242800712585,
        -0.011677366681396961,
        0.08199243247509003,
        0.23459479212760925,
        0.01871110498905182,
        0.05497027933597565,
        0.03719540685415268,
        -0.11215031892061234,
        -0.009249063208699226,
        0.08087989687919617,
        -0.16646791994571686,
        0.1709335744380951,
        0.11786158382892609,
        0.25213828682899475,
        -0.10283143818378448,
        0.12415122240781784,
        -0.25066593289375305,
        -0.044625118374824524,
        0.011671643704175949,
        0.09098882973194122,
        -0.023100735619664192,
        0.09383990615606308,
        -0.2081964910030365,
        -0.012136581353843212,
        0.1272866576910019,
        0.06267572939395905,
        -0.03590196371078491,
        0.08149561285972595,
        -0.14691568911075592,
        0.09483098983764648,
        -0.0804407075047493,
        0.04631530120968819,
        -0.16762356460094452,
        -0.1280064880847931,
        0.03734656795859337,
        -0.08872675150632858,
        0.017283916473388672,
        -0.18318356573581696,
        0.011945540085434914,
        0.16127029061317444,
        0.15406358242034912,
        -0.010359085164964199,
        -0.06600114703178406,
        -0.16842302680015564,
        0.0704006776213646,
        0.07985539734363556,
        0.0075189718045294285,
        0.015607714653015137,
        -0.1959034949541092,
        0.0793624222278595,
        -0.06266244500875473,
        -0.14036983251571655,
        0.047576628625392914,
        0.11976465582847595,
        0.151107057929039,
        -0.16444776952266693,
        0.10626614838838577,
        -0.03382575884461403,
        0.13819989562034607,
        -0.008785518817603588,
        0.058266911655664444,
        -0.15873947739601135,
        -0.06225341930985451,
        0.032679229974746704,
        0.17461034655570984,
        -0.0011023870902135968,
        0.14127616584300995,
        -0.2064775973558426,
        0.08115403354167938,
        0.02589258924126625,
        0.02822132222354412,
        0.011157744564116001,
        0.11663321405649185,
        0.0263482965528965,
        0.07212560623884201,
        -0.1478816419839859,
        -0.015441887080669403,
        -0.22558419406414032,
        -0.1215914785861969,
        -0.23898114264011383,
        -0.04412519931793213,
        0.15825942158699036,
        0.06789690256118774,
        0.13476353883743286,
        -0.1563318520784378,
        -0.050797101110219955,
        -0.08604950457811356,
        0.2218828648328781,
        -0.016684405505657196,
        -0.008140936493873596,
        -0.17373698949813843,
        -0.0553416982293129,
        0.08946286886930466,
        0.054272256791591644,
        -0.04771862179040909,
        -0.010616244748234749,
        0.17080864310264587,
        -0.0677325502038002,
        -0.08481729030609131,
        0.04887712746858597,
        0.03642803430557251,
        0.003139618318527937,
        -0.10391685366630554,
        -0.13700827956199646,
        -0.16826289892196655,
        0.040345415472984314,
        0.03248463198542595,
        -0.07646045088768005,
        0.04897661879658699,
        -0.19828012585639954,
        0.20969639718532562,
        0.13273538649082184,
        0.21818174421787262,
        -0.040892601013183594,
        0.09261851012706757,
        -0.1672799438238144,
        -0.015164509415626526,
        -0.07658923417329788,
        -0.10097251087427139,
        0.0395328663289547,
        -0.006766653154045343,
        -0.056890834122896194,
        -0.004481538198888302,
        -0.19676147401332855,
        -0.10480647534132004,
        -0.1873621642589569,
        -0.052507590502500534,
        -0.04419991746544838,
        -0.012594902887940407,
        -0.05429122596979141,
        -0.0013250502524897456,
        0.1039421334862709,
        0.0020353500731289387,
        0.2192104309797287,
        0.38499826192855835,
        -0.09784484654664993,
        -0.29768291115760803,
        -0.1838250607252121,
        0.3157488703727722,
        0.241394504904747,
        0.3064553141593933,
        0.10193502902984619,
        0.020530706271529198,
        -0.06360381096601486,
        0.07320250570774078,
        0.0805603414773941,
        0.10916295647621155,
        -0.04599050432443619,
        0.17255756258964539,
        -0.04741611331701279,
        -0.1868731826543808,
        -0.26986125111579895,
        0.34941962361335754,
        -0.29702553153038025,
        -0.1567394733428955,
        -0.018394099548459053,
        0.16177666187286377,
        -0.05942634120583534,
        0.187958762049675,
        -0.1134701818227768,
        0.14782553911209106,
        -0.2553958594799042,
        0.22131364047527313,
        0.014578539878129959,
        0.13038718700408936,
        -0.08329130709171295,
        -0.09873764216899872,
        0.26389768719673157,
        0.20633579790592194,
        0.3746499717235565,
        0.14580264687538147,
        0.04903703182935715,
        0.0483521930873394,
        -0.08867070078849792,
        -0.09111767262220383,
        -0.20049287378787994,
        0.5246592164039612,
        -0.058317434042692184,
        -0.2350561022758484,
        0.08463994413614273,
        0.0016593124018982053,
        0.12424851208925247,
        0.1664581000804901,
        -0.2350102812051773,
        -0.4349918067455292,
        0.0778803676366806,
        -0.14196473360061646,
        0.2605022192001343,
        -0.08603932708501816,
        -0.005242267623543739,
        0.3792092502117157,
        -0.06703152507543564,
        0.18984919786453247,
        0.23470526933670044,
        -0.15639787912368774,
        -0.12827906012535095,
        -0.7715450525283813,
        -0.029262006282806396,
        0.054450180381536484,
        -0.20373301208019257,
        0.2705070674419403,
        0.0066567957401275635,
        -0.04579869657754898,
        0.13545827567577362,
        -0.12201336026191711,
        0.10303255915641785,
        0.011975311674177647,
        0.035589635372161865,
        0.027402086183428764,
        0.01698191836476326,
        -0.2456066757440567,
        -0.1298704594373703,
        0.21254175901412964,
        0.2527224123477936,
        0.7514714002609253,
        0.19452495872974396,
        -0.1350191831588745,
        0.39228975772857666,
        -0.17018945515155792,
        -0.09694908559322357,
        0.2970038652420044,
        -0.04963969811797142,
        -0.0022168776486068964,
        0.1849588304758072,
        0.10194552689790726,
        0.09849834442138672,
        -0.11726552248001099,
        0.19547422230243683,
        0.029051292687654495,
        0.08068649470806122,
        -0.197503924369812,
        -0.5046509504318237,
        0.18836337327957153,
        -0.004612522665411234,
        0.06351542472839355,
        -0.03474806249141693,
        0.034026555716991425,
        -0.09126758575439453,
        -0.061050135642290115,
        -0.014126337133347988,
        -0.027175042778253555,
        -0.011268318630754948,
        0.00761990575119853,
        -0.1526147872209549,
        0.18011289834976196,
        0.2704928517341614,
        -0.0672018826007843,
        0.10724205523729324,
        0.026090040802955627,
        0.06508037447929382,
        0.04195099323987961,
        0.12773072719573975,
        -0.20101477205753326,
        0.06791169941425323,
        0.12084761261940002,
        0.1233011856675148,
        -0.240034818649292,
        -0.03202434629201889,
        0.029174260795116425,
        0.04096325486898422,
        -0.10201333463191986,
        0.37174105644226074,
        -0.08496856689453125,
        -0.2734963595867157,
        0.05024128034710884,
        -0.11743370443582535,
        -0.08088167011737823,
        0.25705334544181824,
        -0.04136928543448448,
        0.07534803450107574,
        0.17375406622886658,
        0.011720285750925541,
        -0.13200625777244568,
        -0.22954823076725006,
        -0.15071946382522583,
        -0.13148052990436554,
        0.17604845762252808,
        0.123642697930336,
        -0.05151915177702904,
        0.10172616690397263,
        -0.04949916899204254,
        0.007666243705898523,
        0.004475644789636135,
        0.24713055789470673,
        0.09933581948280334,
        0.03558484837412834,
        0.028429212048649788,
        -0.1340809017419815,
        0.034098826348781586,
        0.058145537972450256,
        -0.26104336977005005,
        -0.1389525830745697,
        0.1585509032011032,
        0.17375971376895905,
        -0.08644673228263855,
        -0.11109255254268646,
        0.16005468368530273,
        0.0669211819767952,
        0.16488847136497498,
        0.07731828838586807,
        0.1927056461572647,
        -0.22304008901119232,
        -0.08608362823724747,
        -0.2056235671043396,
        0.253495454788208,
        0.01957607828080654,
        0.04685794562101364,
        0.020545579493045807,
        0.021073507145047188,
        -0.06489847600460052,
        0.10502542555332184,
        -0.04694362357258797,
        -0.06053423509001732,
        -0.03118067979812622,
        -0.035106077790260315,
        0.09547746181488037,
        0.04081036522984505,
        -0.14632144570350647,
        0.19910281896591187,
        0.18529289960861206,
        -0.047511812299489975,
        -0.14128941297531128,
        -0.13416357338428497,
        0.07521971315145493,
        0.07477448135614395,
        0.08801471441984177,
        -0.2575623095035553,
        -0.001859788317233324,
        0.1381065845489502,
        -0.06371113657951355,
        -0.1311408132314682,
        -0.16622889041900635,
        -0.2122850865125656,
        -0.13943006098270416,
        -0.057570382952690125,
        -0.047308895736932755,
        -0.07467487454414368,
        -0.16399581730365753,
        -0.060330722481012344,
        -0.037379078567028046,
        -0.08354663848876953,
        0.0026162792928516865,
        0.17073410749435425,
        -0.03419195115566254,
        -0.1896354854106903,
        -0.09239016473293304,
        -0.09904554486274719,
        0.09747268259525299,
        -0.14837007224559784,
        0.09284210205078125,
        0.014911920763552189,
        -0.038459621369838715,
        -0.04715270921587944,
        -0.03066927380859852,
        0.12223780900239944,
        0.11732614785432816,
        -0.19724968075752258,
        0.13244099915027618,
        -0.22895899415016174,
        0.0053640371188521385,
        -0.0947539284825325,
        -0.2937350869178772,
        0.061472997069358826,
        -0.1964016705751419,
        -0.20410482585430145,
        -0.19776424765586853,
        0.09744443744421005,
        -0.119500070810318,
        -0.03645704686641693,
        0.11409970372915268,
        0.15590335428714752,
        -0.10627373307943344,
        -0.2282533198595047,
        0.10754261910915375,
        -0.035953424870967865,
        -0.004047823138535023,
        0.244319349527359,
        0.19820721447467804,
        0.10879071056842804,
        -0.17603799700737,
        -0.0018305457197129726,
        -0.07151318341493607,
        -0.08902066946029663,
        -0.05758345127105713,
        -0.06640467792749405,
        -0.15040692687034607,
        0.08645918220281601,
        0.05357849970459938,
        -0.004275572020560503,
        8.24916351120919e-05,
        -0.11916406452655792,
        0.2190026491880417,
        -0.04808193817734718,
        0.22289171814918518,
        0.055377792567014694,
        0.013415945693850517,
        -0.10155625641345978,
        2.7022057111025788e-05,
        0.12201748788356781,
        0.24633431434631348,
        -0.2065129280090332,
        0.1156759113073349,
        -0.16986459493637085,
        0.06216898560523987,
        -0.12285429239273071,
        -0.08639898896217346,
        -0.03495274484157562,
        -0.2254609614610672,
        -0.2003413438796997,
        -0.2060975283384323,
        -0.1322188824415207,
        0.15473109483718872,
        0.058916155248880386,
        -0.1557287573814392,
        -0.16722573339939117,
        -0.16293233633041382,
        -0.33755242824554443,
        -0.21838082373142242,
        0.004160957410931587,
        -0.04874258488416672,
        0.03966571018099785,
        0.08159813284873962,
        -0.0917186513543129,
        -0.026822302490472794,
        0.0891445130109787,
        -0.06978299468755722,
        -0.052323050796985626,
        0.11679554730653763,
        -0.04156713932752609,
        -0.08611202985048294,
        -0.03535596653819084,
        -0.06434525549411774,
        0.048630036413669586,
        0.1947329044342041,
        0.07214425504207611,
        0.08320845663547516,
        -0.06902971863746643,
        -0.08417953550815582,
        0.1257532238960266,
        0.16909395158290863,
        0.1379600167274475,
        -0.011686259880661964,
        -0.07205706089735031,
        -0.11040753126144409,
        0.04840423911809921,
        -0.12572365999221802,
        -0.08507861196994781,
        -0.12805572152137756,
        -0.1298292577266693,
        0.11481077969074249,
        0.02248561382293701,
        0.1346966177225113,
        0.05036555230617523,
        0.22677573561668396,
        0.20162731409072876,
        0.05350695550441742,
        0.15188062191009521,
        0.16143955290317535,
        0.09118326753377914,
        -0.02260042540729046,
        0.028484920039772987,
        -0.0656161904335022,
        0.00048368037096224725,
        0.1980065107345581,
        -0.04897104948759079,
        0.04624009132385254,
        -0.0672062337398529,
        -0.035379134118556976,
        0.01345495693385601,
        0.10338757932186127,
        -0.12222937494516373,
        -0.23961974680423737,
        0.06568063050508499,
        0.05059291422367096,
        0.27090004086494446,
        0.1520451456308365,
        -0.0514802522957325,
        0.14607274532318115,
        0.07272806763648987,
        -0.21745608747005463,
        -0.012569956481456757,
        -0.03273613750934601,
        -0.03312133252620697,
        -0.023696456104516983,
        -0.1780828833580017,
        0.07202427834272385,
        0.07818346470594406,
        0.10918572545051575,
        -0.10888735949993134,
        0.07566986232995987,
        -0.2213585525751114,
        -0.024423804134130478,
        -0.1760983020067215,
        0.06781785935163498,
        -0.10056453943252563,
        -0.05045166611671448,
        -0.023723121732473373,
        0.17433957755565643,
        -0.0787612795829773,
        0.15381820499897003,
        -0.18560577929019928,
        0.09262830764055252,
        0.015788761898875237,
        -0.046979550272226334,
        -0.028661055490374565,
        -0.11620692163705826,
        -0.11348620802164078,
        0.25287631154060364,
        0.1963271051645279,
        -0.1298016458749771,
        0.19396978616714478,
        -0.0923270583152771,
        -0.0946846455335617,
        0.016408300027251244,
        0.2602972686290741,
        0.11029911786317825,
        0.1762142926454544,
        -0.0068209124729037285,
        -0.0632994994521141,
        0.08046276867389679,
        -0.039462313055992126,
        0.16927377879619598,
        0.1229526698589325,
        0.05670272186398506,
        -0.015423542819917202,
        -0.08601759374141693,
        0.0954446867108345,
        0.15343531966209412,
        0.019304273650050163,
        0.052195996046066284,
        0.030681585893034935,
        0.05602754279971123,
        -0.3218059539794922,
        0.2734035849571228,
        0.22824855148792267,
        -0.5826349258422852,
        0.3059879243373871,
        -0.8005114197731018,
        -0.21538294851779938,
        -0.41179898381233215,
        0.7219962477684021,
        -0.8533049821853638,
        -0.4816679060459137,
        -0.8652669787406921,
        0.19197146594524384,
        -0.7789539694786072,
        0.3732239007949829,
        -0.648695170879364,
        -0.3443211317062378,
        -0.07839346677064896,
        -0.20079219341278076,
        0.3596550524234772,
        0.14798618853092194,
        -0.002204238437116146,
        -0.23630556464195251,
        -0.17694081366062164,
        -0.4867327809333801,
        -0.10334546118974686,
        0.33034634590148926,
        0.06328481435775757,
        0.16942349076271057,
        0.029573148116469383,
        0.14679810404777527,
        0.12045925855636597,
        -0.1234782263636589,
        0.0732228234410286,
        0.06262505799531937,
        0.08231638371944427,
        -0.31517156958580017,
        0.45189881324768066,
        0.30985426902770996,
        -0.3098348081111908,
        0.4080218970775604,
        -0.13130490481853485,
        0.2550709843635559,
        0.16909676790237427,
        0.05968145653605461,
        -0.1952822506427765,
        -0.22505728900432587,
        0.15416912734508514,
        -0.18195372819900513,
        -0.17532002925872803,
        -0.03984803706407547,
        0.2697150707244873,
        -0.12241603434085846,
        0.2671080231666565,
        -0.040273044258356094,
        0.06539788842201233,
        -0.058482278138399124,
        -0.014901254326105118,
        -0.21209076046943665,
        -0.3350202739238739,
        0.09356237202882767,
        0.17667298018932343,
        0.13930541276931763,
        0.03330206498503685,
        0.1041354238986969,
        0.2728085219860077,
        -0.5336719155311584,
        -0.34699493646621704,
        -0.09901771694421768,
        -0.12040833383798599,
        -0.10153668373823166,
        -0.1366824209690094,
        0.05127144977450371,
        0.08799534291028976,
        0.11827360838651657,
        -0.022692110389471054,
        0.1742619276046753,
        -0.3974211812019348,
        0.8319566249847412,
        0.264614999294281,
        0.27569785714149475,
        -0.1250303089618683,
        -0.13239391148090363,
        -0.22801564633846283,
        0.28407707810401917,
        -0.06493078917264938,
        -0.2671777009963989,
        0.22589680552482605,
        0.24359701573848724,
        -0.04723729193210602,
        -0.0865892618894577,
        0.3625417649745941,
        -0.2694813013076782,
        -0.08401066064834595,
        -0.23898543417453766,
        -0.12238559871912003,
        -0.250983864068985,
        -0.20515087246894836,
        -0.20223715901374817,
        -0.18478690087795258,
        0.03682146966457367,
        -0.20403389632701874,
        -0.016927657648921013,
        -0.2382602095603943,
        0.457154780626297,
        0.34219685196876526,
        -0.03267475217580795,
        -0.12540088593959808,
        -0.20927941799163818,
        -0.23791095614433289,
        -0.03146163746714592,
        0.024123316630721092,
        0.17792288959026337,
        -0.019218456000089645,
        -0.15896427631378174,
        -0.055103909224271774,
        0.29521286487579346,
        0.09684507548809052,
        -0.6700642108917236,
        -0.3363805413246155,
        0.03025578148663044,
        0.06352213770151138,
        -0.22655192017555237,
        0.04269438982009888,
        0.11147226393222809,
        -0.03146946430206299,
        0.5735664963722229,
        0.1027643084526062,
        0.0750504732131958,
        -0.009132642298936844,
        -0.033817969262599945,
        0.051383864134550095,
        0.04994386434555054,
        -0.11568638682365417,
        -0.15159684419631958,
        0.005792445968836546,
        0.2582869827747345,
        0.12667934596538544,
        -0.17666243016719818,
        -0.030616512522101402,
        -0.17308367788791656,
        -0.00874815322458744,
        -0.07214877754449844,
        0.03701243922114372,
        -0.21868868172168732,
        0.22148162126541138,
        -0.25890418887138367,
        -0.0715174674987793,
        -0.35324743390083313,
        -0.07373784482479095,
        -0.06775068491697311,
        -0.22286292910575867,
        0.14539524912834167,
        0.04007841274142265,
        0.22791743278503418,
        -0.2572321593761444,
        -0.008840756490826607,
        0.11120519042015076,
        0.060158662497997284,
        0.3133790194988251,
        -0.16847534477710724,
        0.18627797067165375,
        -0.08713377267122269,
        -0.07187218964099884,
        -0.06283436715602875,
        -0.20429323613643646,
        0.32717567682266235,
        0.002997273113578558,
        -0.02704159915447235,
        0.07302889972925186,
        0.22321949899196625,
        0.23710767924785614,
        0.07690031081438065,
        -0.205837681889534,
        0.11113569885492325,
        -0.10422010719776154,
        -0.12285763770341873,
        -0.16208823025226593,
        0.08534624427556992,
        0.1735105663537979,
        -0.06641572713851929,
        -0.11997517198324203,
        -0.21961773931980133,
        0.03806549310684204,
        -0.036010000854730606,
        0.23478925228118896,
        -0.3517664074897766,
        0.1637379229068756,
        0.23986877501010895,
        0.27484163641929626,
        0.06730124354362488,
        -0.15265029668807983,
        -0.010602806694805622,
        0.17467689514160156,
        -0.2255629003047943,
        0.01991582103073597,
        -0.34625497460365295,
        -0.053245048969984055,
        -0.07396651804447174,
        0.037556715309619904,
        -0.08975912630558014,
        0.13130754232406616,
        0.2562703788280487,
        -0.0464625284075737,
        0.11572357267141342,
        0.05947628989815712,
        0.18510109186172485,
        -0.02644212171435356,
        0.008642907254397869,
        -0.27995607256889343,
        -0.27032506465911865,
        0.2122701108455658,
        0.16861693561077118,
        -0.06756322830915451,
        -0.30257704854011536,
        0.145224466919899,
        -0.4550505578517914,
        -0.12037117779254913,
        -0.2647469937801361,
        -0.12555386126041412,
        0.1533273160457611,
        0.1663491427898407,
        0.11469367146492004,
        0.01610051840543747,
        0.261242538690567,
        0.09619957953691483,
        -0.15452468395233154,
        0.024025028571486473,
        -0.07498227059841156,
        0.1764344722032547,
        0.6757725477218628,
        0.20415444672107697,
        0.28634893894195557,
        0.19954007863998413,
        0.09183622896671295,
        -0.08614945411682129,
        0.25082170963287354,
        -0.23711508512496948,
        -0.05373845249414444,
        0.019503546878695488,
        -0.09319732338190079,
        0.284538596868515,
        -0.05166071280837059,
        -0.06844382733106613,
        -0.0873129665851593,
        -0.16028544306755066,
        0.05705639347434044,
        -0.020693164318799973,
        -0.1782844066619873,
        0.061749689280986786,
        -0.15293218195438385,
        -0.05661899968981743,
        -0.09164923429489136,
        0.20980076491832733,
        0.1747632473707199,
        0.2620829641819,
        -0.030438298359513283,
        -0.17021754384040833,
        -0.2360389530658722,
        0.10674440860748291,
        -0.3290621340274811,
        0.28287824988365173,
        -0.24862167239189148,
        -0.08233626186847687,
        0.054725222289562225,
        -0.260605126619339,
        0.422061026096344,
        -0.02256721816956997,
        -0.040426723659038544,
        0.3160100281238556,
        -0.11227577924728394,
        0.009545281529426575,
        -0.022269869223237038,
        0.04514087736606598,
        0.10236994922161102,
        -0.02919587679207325,
        -0.23692762851715088,
        0.018984351307153702,
        0.13800811767578125,
        0.04818403720855713,
        0.14881831407546997,
        -0.004214386455714703,
        0.08063410222530365,
        -0.06573858857154846,
        -0.002453346038237214,
        -0.1068195104598999,
        -0.09783861041069031,
        -0.018505876883864403,
        0.16320471465587616,
        -0.08522272109985352,
        0.01766926981508732,
        -0.11612111330032349,
        -0.06294096261262894,
        0.0549209788441658,
        0.013732966966927052,
        0.044525157660245895,
        0.09894393384456635,
        0.1378251016139984,
        -0.1694762408733368,
        0.03702923655509949,
        0.2120680958032608,
        0.044979676604270935,
        -0.08783162385225296,
        0.12087678909301758,
        0.11128897219896317,
        -0.001930002123117447,
        -0.08104025572538376,
        -0.26874881982803345,
        0.04982566833496094,
        0.16012908518314362,
        0.1912301927804947,
        -0.14232560992240906,
        -0.0656861662864685,
        0.1146153137087822,
        0.1066659539937973,
        0.12934429943561554,
        0.18780085444450378,
        -0.00047920079668983817,
        -0.11952398717403412,
        0.003954625688493252,
        0.05931413546204567,
        0.10687697678804398,
        -0.05042658746242523,
        -0.07707029581069946,
        -0.09969226270914078,
        -0.21628090739250183,
        -0.046231068670749664,
        -0.058314528316259384,
        0.26576724648475647,
        0.17495903372764587,
        0.23555618524551392,
        -0.118284672498703,
        -0.2720779478549957,
        0.09064092487096786,
        -0.04124687239527702,
        0.13059839606285095,
        -0.4749382436275482,
        -0.05020170658826828,
        -0.08363498747348785,
        -0.32824528217315674,
        -0.0063513461500406265,
        -0.07067769765853882,
        0.22969527542591095,
        0.1513635218143463,
        0.1867099106311798,
        -0.00695566413924098,
        -0.14356385171413422,
        -0.024868406355381012,
        0.152127206325531,
        -0.06537126004695892,
        -0.06400837004184723,
        0.09106124937534332,
        -0.019353577867150307,
        0.14975498616695404,
        0.20656655728816986,
        -0.12892445921897888,
        0.16600708663463593,
        0.060516394674777985,
        -0.08979732543230057,
        -0.1887015551328659,
        -0.05649809166789055,
        -0.047006912529468536,
        -0.031712066382169724,
        0.14612038433551788,
        0.13343508541584015,
        -0.16428516805171967,
        0.4548218846321106,
        0.01453640777617693,
        0.18540804088115692,
        0.10017320513725281,
        -0.12206786125898361,
        -0.3272581994533539,
        0.21606874465942383,
        0.23183763027191162,
        0.2761786878108978,
        -0.22988037765026093,
        -0.0929284617304802,
        -0.2344520390033722,
        0.07217711955308914,
        0.08811136335134506,
        -0.07253096997737885,
        -0.1493428349494934,
        -0.11798130720853806,
        -0.21420107781887054,
        -0.0325402207672596,
        -0.22035694122314453,
        0.1801467388868332,
        0.14264628291130066,
        0.26511645317077637,
        -0.1182536780834198,
        -0.0962308943271637,
        0.006608396302908659,
        0.07067617774009705,
        -0.09649769961833954,
        0.10875917226076126,
        0.06996459513902664,
        0.1679644137620926,
        -0.046914637088775635,
        0.1357499361038208,
        0.26183563470840454,
        0.25562626123428345,
        -0.019105330109596252,
        -0.059793926775455475,
        0.08477357029914856,
        -0.014316386543214321,
        -0.10387586057186127,
        -0.04026087373495102,
        0.05201073735952377,
        -0.034078892320394516,
        0.02137903869152069,
        -0.052247706800699234,
        0.049460723996162415,
        -0.011781536974012852,
        -0.07420847564935684,
        -0.37996038794517517,
        0.13760308921337128,
        0.07777174562215805,
        -0.26877859234809875,
        0.05657621845602989,
        0.09873366355895996,
        -0.10021822899580002,
        -0.023302355781197548,
        -0.042740095406770706,
        -0.0168914757668972,
        -0.014887657016515732,
        0.09200631827116013,
        0.03825104981660843,
        0.02953224629163742,
        -0.0386660136282444,
        0.04067501425743103,
        0.22797130048274994,
        0.2762540578842163,
        0.050311408936977386,
        -0.5482803583145142,
        0.26087453961372375,
        -0.14679135382175446,
        0.30493026971817017,
        0.015171323902904987,
        0.1401708424091339,
        0.004912889562547207,
        -0.10580157488584518,
        0.19163841009140015,
        -0.17954419553279877,
        -0.12474413961172104,
        -0.015773799270391464,
        0.06932349503040314,
        0.03468092903494835,
        0.062299396842718124,
        0.26717883348464966,
        -0.01644141972064972,
        0.5108376741409302,
        0.17345939576625824,
        -0.2139437198638916,
        -0.04273286461830139,
        0.05615099519491196,
        0.1292598396539688,
        0.046116363257169724,
        -0.01552349328994751,
        -0.039709873497486115,
        -0.20225538313388824,
        -0.13400407135486603,
        -0.005783620290458202,
        0.080192930996418,
        0.030985789373517036,
        -0.09680876135826111,
        0.30319470167160034,
        -0.18931688368320465,
        -0.18342331051826477,
        0.07011371850967407,
        -0.3329178988933563,
        -0.06990031152963638,
        0.08930785953998566,
        0.09295166283845901,
        0.14936532080173492,
        0.12764236330986023,
        -0.15204225480556488,
        -0.062310948967933655,
        0.009974864311516285,
        -0.003441345179453492,
        0.09800225496292114,
        0.11486402153968811,
        0.3158200979232788,
        -0.14201296865940094,
        0.14580117166042328,
        0.15380311012268066,
        -0.008090452291071415,
        0.314300537109375,
        0.18991556763648987,
        -0.024208031594753265,
        0.0772932767868042,
        0.22384078800678253,
        -0.087892547249794,
        -0.1307121366262436,
        0.011570343747735023,
        -0.00786534883081913,
        -0.06027242913842201,
        0.3442515730857849,
        0.3301143944263458,
        0.12202688306570053,
        -0.10352026671171188,
        0.1918691247701645,
        -0.2258819192647934,
        -0.11810703575611115,
        0.21929559111595154,
        0.1842171847820282,
        -0.08289863914251328,
        0.06092364341020584,
        -0.12036678940057755,
        0.15223544836044312,
        0.19702982902526855,
        0.1654779314994812,
        -0.11238117516040802,
        0.1490747034549713,
        0.1160314530134201,
        0.05450564622879028,
        -0.0074442727491259575,
        -0.0387890450656414,
        -0.00947870034724474,
        -0.08807452023029327,
        0.19344507157802582,
        -0.010865098796784878,
        -0.012325167655944824,
        0.019588056951761246,
        -0.12891976535320282,
        0.30399271845817566,
        0.3440050780773163,
        -0.0343935526907444,
        -0.13267336785793304,
        -0.1246149018406868,
        -0.06952522695064545,
        0.07526008039712906,
        0.02430150844156742,
        -0.041279278695583344,
        -0.11808601021766663,
        -0.06056101620197296,
        -0.16687612235546112,
        -0.2053532898426056,
        0.1289443075656891,
        -0.4998985528945923,
        -0.16384433209896088,
        0.1851271390914917,
        -0.026282545179128647,
        0.18846115469932556,
        -0.402274489402771,
        -0.6843336820602417,
        -0.41398346424102783,
        -0.2500339150428772,
        0.49351924657821655,
        0.003111561294645071,
        -0.07182668894529343,
        -0.021752038970589638,
        0.1935567408800125,
        0.10177155584096909,
        -0.18193760514259338,
        -0.39564740657806396,
        -0.11756043136119843,
        0.07800369709730148,
        0.25601449608802795,
        -0.36197739839553833,
        -0.03956975042819977,
        -0.45855167508125305,
        0.062447573989629745,
        -0.015063222497701645,
        -0.27566906809806824,
        0.08851879090070724,
        -0.30828115344047546,
        -0.1566590517759323,
        0.21680308878421783,
        0.06720496714115143,
        0.18999230861663818,
        0.06440411508083344,
        -0.2746359407901764,
        -0.2917671799659729,
        -0.0027983379550278187,
        -0.01522301696240902,
        -0.12847384810447693,
        0.11245503276586533,
        -0.032126933336257935,
        0.14914681017398834,
        -0.25550830364227295,
        -0.012929312884807587,
        0.01118865143507719,
        -0.06001385301351547,
        -0.03291504830121994,
        0.03356514126062393,
        0.13480249047279358,
        0.3335646390914917,
        0.15726269781589508,
        -0.2735811173915863,
        -0.14776872098445892,
        0.10037730634212494,
        -0.04137681797146797,
        0.24947233498096466,
        -0.1051088348031044,
        -0.3367985785007477,
        0.2324405312538147,
        -0.5204887390136719,
        0.31297287344932556,
        0.08392442762851715,
        -0.30131402611732483,
        -0.22301006317138672,
        0.05280226469039917,
        0.12257210910320282,
        0.2591504454612732,
        0.09453344345092773,
        -0.12971103191375732,
        -0.2296072095632553,
        0.5116567015647888,
        0.03810260444879532,
        0.40005242824554443,
        0.3394935131072998,
        -0.1411038637161255,
        -0.1611838936805725,
        -0.231291726231575,
        0.33817070722579956,
        -0.2584886848926544,
        0.03195533901453018,
        0.06491092592477798,
        0.22336162626743317,
        0.38922545313835144,
        -0.0306665301322937,
        -0.11285511404275894,
        -0.11086193472146988,
        -0.09695839881896973,
        0.15901894867420197,
        -0.18987877666950226,
        -0.0005412206519395113,
        0.1106940433382988,
        0.2214300036430359,
        0.03774052858352661,
        -0.1014423817396164,
        0.07907973229885101,
        0.02088869735598564,
        -0.09277069568634033,
        0.14193958044052124,
        0.00642906641587615,
        -0.10921609401702881,
        0.02423694357275963,
        0.07068504393100739,
        -0.043289557099342346,
        0.5069271326065063,
        0.0033255373127758503,
        0.1696866750717163,
        0.09243087470531464,
        0.05763527378439903,
        -0.17831319570541382,
        0.12457244843244553,
        0.015066530555486679,
        0.02289329469203949,
        0.10351451486349106,
        -0.22131626307964325,
        -0.3554549813270569,
        0.03169000893831253,
        -0.0360029861330986,
        0.30964353680610657,
        -0.06136339530348778,
        0.04194050282239914,
        -0.07571558654308319,
        -0.018820051103830338,
        -0.30601009726524353,
        0.024364294484257698,
        -0.25151732563972473,
        0.14874403178691864,
        0.05193505063652992,
        0.06834781914949417,
        0.16188135743141174,
        -0.020803462713956833,
        -0.12243977189064026,
        -0.09215231239795685,
        -0.1515757143497467,
        -0.15343491733074188,
        -0.026248784735798836,
        -0.45464733242988586,
        -0.841185986995697,
        0.427842915058136,
        0.04398789629340172,
        0.4504336416721344,
        0.18004269897937775,
        0.07555804401636124,
        0.19772157073020935,
        0.12734834849834442,
        0.20832577347755432,
        0.22891934216022491,
        -0.24409878253936768,
        -0.2687055766582489,
        -0.07078871876001358,
        -0.04690384492278099,
        -0.49030500650405884,
        0.10666168481111526,
        -0.6053587794303894,
        0.15286985039710999,
        0.13166263699531555,
        -0.02965458109974861,
        -0.02817327342927456,
        -0.16037264466285706,
        0.05886293575167656,
        0.27863842248916626,
        0.27010899782180786,
        0.016785800457000732,
        -0.14378473162651062,
        -0.18379129469394684,
        0.10995103418827057,
        -0.20815084874629974,
        -0.020877595990896225,
        -0.2630591094493866,
        -0.04900280013680458,
        0.0010165980784222484,
        -0.32770970463752747,
        -0.010336955077946186,
        -0.03957374393939972,
        -0.09362872689962387,
        0.07186482846736908,
        0.20228523015975952,
        0.006306941155344248,
        -0.0036079329438507557,
        -0.009788609109818935,
        -0.2969522476196289,
        -0.07444784045219421,
        0.15518204867839813,
        0.24363389611244202,
        -0.13344061374664307,
        0.22327545285224915,
        -0.36987778544425964,
        0.11925113201141357,
        -0.13028523325920105,
        0.0694158747792244,
        0.06378593295812607,
        0.01993727497756481,
        -0.07025723904371262,
        -0.11283919960260391,
        0.030299587175250053,
        -0.2253410965204239,
        -0.000941261590924114,
        0.05132633075118065,
        0.017086418345570564,
        0.02482537180185318,
        -0.3440122902393341,
        0.1453859508037567,
        -0.019259916618466377,
        -0.09758520871400833,
        -0.06810000538825989,
        0.10813678056001663,
        -0.1297757476568222,
        -0.051927510648965836,
        -0.11395367234945297,
        -0.23665215075016022,
        0.061404529958963394,
        0.20905710756778717,
        0.013989672996103764,
        -0.04998306557536125,
        0.21286942064762115,
        -0.14928074181079865,
        -0.1210341677069664,
        -0.19839037954807281,
        0.1512318104505539,
        -0.25583821535110474,
        -0.001375857274979353,
        0.17396776378154755,
        -0.10096424072980881,
        -0.1910051703453064,
        -0.23618574440479279,
        -0.1961478590965271,
        -0.09973948448896408,
        0.12486189603805542,
        -0.0759894996881485,
        0.1628435254096985,
        0.010317894630134106,
        -0.18420352041721344,
        -0.3053222894668579,
        -0.3438141644001007,
        0.016445649787783623,
        -0.1773635596036911,
        0.039859794080257416,
        0.14581045508384705,
        0.0158705897629261,
        0.10200313478708267,
        0.12472563982009888,
        -0.24530355632305145,
        -0.0842922106385231,
        0.019285429269075394,
        0.3274877667427063,
        -0.08731651306152344,
        0.020687079057097435,
        0.054207153618335724,
        0.23404563963413239,
        0.022440986707806587,
        -0.07314466685056686,
        0.08077400177717209,
        -0.042621515691280365,
        0.1256382316350937,
        0.0969662144780159,
        -0.0968143492937088,
        -0.06570425629615784,
        0.170369490981102,
        0.09104371815919876,
        -0.017548317089676857,
        -0.0547153539955616,
        -0.08817251771688461,
        0.12418141961097717,
        0.04223444312810898,
        0.08748398721218109,
        0.13067787885665894,
        0.01199919730424881,
        0.10321395099163055,
        0.17851020395755768,
        0.004068925976753235,
        0.10433175414800644,
        -0.20638345181941986,
        -0.2079302966594696,
        -0.1030764952301979,
        -0.036345891654491425,
        0.170402392745018,
        -0.19896651804447174,
        -0.16066747903823853,
        -0.2988749146461487,
        -0.16882571578025818,
        0.18093498051166534,
        0.22418855130672455,
        -0.1528453826904297,
        0.016149325296282768,
        -0.3898519277572632,
        0.11920716613531113,
        0.04600007086992264,
        -0.04124605655670166,
        0.13927854597568512,
        -0.258767694234848,
        0.07691972702741623,
        0.048884276300668716,
        0.041793666779994965,
        0.09446761757135391,
        0.07773791998624802,
        -0.20320583879947662,
        -0.5146660208702087,
        0.08764631301164627,
        0.23547765612602234,
        0.11248064786195755,
        0.2407129555940628,
        0.1841195821762085,
        -0.051714133471250534,
        -0.146772101521492,
        -0.26221394538879395,
        -0.030651569366455078,
        -0.07366331666707993,
        -0.015810836106538773,
        0.008947729133069515,
        -0.21844783425331116,
        0.046435367316007614,
        -0.2735185921192169,
        -0.03516661375761032,
        -0.1294083148241043,
        -0.15480929613113403,
        0.08784165233373642,
        0.05315084755420685,
        0.14689631760120392,
        0.019675640389323235,
        -0.2870766222476959,
        -0.2547721564769745,
        0.23952531814575195,
        -0.13477085530757904,
        -0.09504026919603348,
        0.21952097117900848,
        0.2095133364200592,
        -0.07687124609947205,
        -0.14747649431228638,
        -0.06924555450677872,
        0.09982454031705856,
        -0.003412115853279829,
        -0.018805554136633873,
        0.02861856110394001,
        -0.1700393557548523,
        -0.05244416370987892,
        -0.026894884184002876,
        -0.010006900876760483,
        0.22887389361858368,
        0.06863512098789215,
        -0.23373818397521973,
        0.037160225212574005,
        -0.06501676142215729,
        0.004280594177544117,
        -0.12427017092704773,
        -0.0038612710777670145,
        0.006916222628206015,
        0.08868270367383957,
        0.35073962807655334,
        -0.23219460248947144,
        0.029678570106625557,
        -0.16987711191177368,
        0.1359792947769165,
        0.11223595589399338,
        0.048616018146276474,
        0.05562794208526611,
        -0.14898687601089478,
        -0.1762038916349411,
        -0.01764504984021187,
        0.06334201246500015,
        0.2518728971481323,
        -0.20333291590213776,
        -0.030612995848059654,
        0.11782097071409225,
        0.10056179761886597,
        0.036503568291664124,
        0.1418328434228897,
        -0.155133455991745,
        -0.03768390789628029,
        0.11424745619297028,
        -0.06564349681138992,
        -0.09284831583499908,
        0.18598829209804535,
        -0.19933311641216278,
        0.19520649313926697,
        0.05688885226845741,
        0.0020574715454131365,
        -0.07440366595983505,
        -0.21604861319065094,
        0.12110923230648041,
        -0.03696552291512489,
        -0.005149205215275288,
        0.05392147973179817,
        0.03812805563211441,
        0.06369102001190186,
        -0.10867541283369064,
        0.007137259468436241,
        -0.03846394270658493,
        -0.04305069521069527,
        -0.01674646884202957,
        0.07573538273572922,
        0.028080057352781296,
        0.02250882051885128,
        0.15431904792785645,
        0.025064481422305107,
        0.28076088428497314,
        0.1792074292898178,
        -0.10498056560754776,
        0.005776301492005587,
        -0.047909483313560486,
        -0.11015487462282181,
        0.000893816992174834,
        0.13217613101005554,
        0.07545829564332962,
        -0.05945802107453346,
        -0.22391924262046814,
        0.041269976645708084,
        0.20035706460475922,
        0.16754165291786194,
        -0.13343317806720734,
        -0.12881438434123993,
        0.192806676030159,
        0.09311532229185104,
        0.08844717592000961,
        0.1250745803117752,
        -0.07405117899179459,
        -0.32673412561416626,
        0.041384268552064896,
        -0.2693178057670593,
        -0.0846426710486412,
        0.1544732302427292,
        0.007749256677925587,
        -0.11104214936494827,
        -0.005802723113447428,
        0.020184926688671112,
        0.20139934122562408,
        0.1591343730688095,
        -0.035847973078489304,
        -0.15679731965065002,
        -0.056172553449869156,
        0.004838819615542889,
        -0.15542060136795044,
        -0.022836871445178986,
        0.05271732062101364,
        0.011876811273396015,
        0.1303887814283371,
        -0.26545262336730957,
        -0.1565798670053482,
        -0.12670306861400604,
        -0.08392441272735596,
        -0.048094142228364944,
        0.06523466110229492,
        -0.33743101358413696,
        0.14563114941120148,
        0.12081967294216156,
        0.13818664848804474,
        0.13614702224731445,
        -0.010054059326648712,
        -0.11128762364387512,
        0.006200643256306648,
        -0.016867568716406822,
        0.0641096755862236,
        0.20799961686134338,
        -0.08535277098417282,
        -0.11327888071537018,
        -0.21770532429218292,
        -0.14882469177246094,
        0.17020753026008606,
        -0.013449113816022873,
        0.1807759553194046,
        -0.19939158856868744,
        0.01310301385819912,
        0.22519677877426147,
        0.022402040660381317,
        -0.2418675571680069,
        -0.11534451693296432,
        0.11385198682546616,
        0.017323961481451988,
        -0.05837838724255562,
        -0.12787103652954102,
        -0.27764278650283813,
        -0.09801731258630753,
        -0.1426195353269577,
        0.11785063147544861,
        -0.34259623289108276,
        0.07896046340465546,
        0.1021764799952507,
        -0.3645716905593872,
        0.3378581702709198,
        -0.04227085039019585,
        -0.11556044965982437,
        0.1052965521812439,
        -0.1616438925266266,
        0.06883767247200012,
        0.07686886191368103,
        -0.07963209599256516,
        0.2744639813899994,
        -0.1516881287097931,
        0.16888785362243652,
        -0.3009870946407318,
        -0.00499639892950654,
        0.020468611270189285,
        0.14322598278522491,
        0.013944700360298157,
        0.07091324031352997,
        0.18122340738773346,
        0.05691094323992729,
        0.05235199257731438,
        -0.23556207120418549,
        0.12132634967565536,
        -0.12722870707511902,
        0.10011883080005646,
        -0.11950377374887466,
        -0.12945574522018433,
        -0.147306427359581,
        -0.010783230885863304,
        -0.31782373785972595,
        -0.10876388847827911,
        -0.012124579399824142,
        -0.058351922780275345,
        0.1553850620985031,
        -0.1256769597530365,
        -0.0421740896999836,
        -0.11383119225502014,
        -0.1339847892522812,
        0.03994569554924965,
        -0.2337704747915268,
        -0.00759208295494318,
        -0.21762309968471527,
        -0.4607573449611664,
        0.2165447473526001,
        0.27514082193374634,
        0.06288181245326996,
        -0.0477144680917263,
        -0.1166859045624733,
        0.17668117582798004,
        0.046871427446603775,
        -0.18891073763370514,
        -0.034370794892311096,
        0.2997734546661377,
        0.07386168837547302,
        0.1089789941906929,
        0.06395881623029709,
        -0.027155395597219467,
        0.0881756842136383,
        0.026578938588500023,
        0.07387195527553558,
        -0.11787553876638412,
        -0.5842936038970947,
        0.7160533666610718,
        0.3851032853126526,
        -0.2692478895187378,
        0.3709496259689331,
        -0.43294352293014526,
        0.03153403848409653,
        0.6593634486198425,
        -0.7403088212013245,
        0.8968133330345154,
        0.6189388632774353,
        -0.0012182140490040183,
        -0.4887290298938751,
        0.028575129806995392,
        -0.6572781801223755,
        -0.1787833273410797,
        -0.43702688813209534,
        0.11948126554489136,
        -0.3475663661956787,
        0.33675116300582886,
        0.21560148894786835,
        0.03121994063258171,
        0.22352111339569092,
        0.03279361501336098,
        0.25086894631385803,
        -0.05984579026699066,
        0.10019483417272568,
        -0.02542979083955288,
        -0.06948602944612503,
        -0.36502721905708313,
        -0.21150845289230347,
        0.2627035677433014,
        -0.013385997153818607,
        -0.11058246344327927,
        0.03487716615200043,
        0.17463266849517822,
        0.13759581744670868,
        0.004657491110265255,
        -0.22409634292125702,
        -0.20937038958072662,
        0.014730153605341911,
        0.008606040850281715,
        -0.12113438546657562,
        -0.044153571128845215,
        0.10378498584032059,
        0.017611151561141014,
        0.10536707937717438,
        0.020602544769644737,
        -0.04907701164484024,
        0.013274142518639565,
        -0.27560630440711975,
        0.060802895575761795,
        -0.3239554166793823,
        0.1393369436264038,
        -0.3116927742958069,
        -0.11519241333007812,
        0.10213115811347961,
        -0.09569281339645386,
        0.19675178825855255,
        0.2881183624267578,
        -0.14072954654693604,
        0.14642378687858582,
        0.048853326588869095,
        -0.06757985055446625,
        0.01863720640540123,
        0.1044875979423523,
        0.125857412815094,
        0.017222700640559196,
        0.16361728310585022,
        -0.37058523297309875,
        0.07915693521499634,
        0.3804396390914917,
        -0.04034639522433281,
        0.05799919739365578,
        0.2711254060268402,
        0.24827861785888672,
        0.12185779958963394,
        0.1061752662062645,
        -0.026440249755978584,
        0.19246311485767365,
        -0.11011037230491638,
        0.17527589201927185,
        -0.059682078659534454,
        0.14604541659355164,
        0.023994948714971542,
        0.15903006494045258,
        -0.021347282454371452,
        0.1329956203699112,
        -0.08143219351768494,
        -0.12353515625,
        0.08600820600986481,
        -0.2353297472000122,
        -0.2427060753107071,
        0.09642928838729858,
        -0.14312684535980225,
        -0.2854650318622589,
        -0.13008666038513184,
        0.07035300880670547,
        -0.05894642323255539,
        -0.3731110095977783,
        0.03677689656615257,
        0.28355398774147034,
        0.009491413831710815,
        -0.06396903842687607,
        -0.09557705372571945,
        -0.09256149083375931,
        -0.07012709230184555,
        0.18261656165122986,
        0.31091615557670593,
        0.5780048370361328,
        0.03504251688718796,
        -0.22685885429382324,
        0.04616492986679077,
        0.0947263240814209,
        0.13866445422172546,
        -0.036822665482759476,
        -0.05958539992570877,
        -0.0638359859585762,
        -0.07225722819566727,
        -0.08822928369045258,
        -0.10224693268537521,
        0.11853329837322235,
        -0.3979716897010803,
        0.30183476209640503,
        0.040789201855659485,
        0.22851312160491943,
        0.09272072464227676,
        0.2555919587612152,
        0.19858896732330322,
        -0.17633342742919922,
        -0.03778798505663872,
        0.2989901900291443,
        -0.0776454284787178,
        -0.02204626053571701,
        0.05116584897041321,
        0.07615787535905838,
        -0.1106245219707489,
        -0.028126021847128868,
        0.10666345804929733,
        -0.10828495025634766,
        -0.09119231253862381,
        0.021639378741383553,
        0.14211943745613098,
        -0.2537114918231964,
        0.1830747425556183,
        -0.11996455490589142,
        0.09529024362564087,
        0.17310519516468048,
        -0.1703009158372879,
        -0.20861482620239258,
        0.010758107528090477,
        -0.14474159479141235,
        0.1340935081243515,
        -0.1698303371667862,
        0.2572784721851349,
        -0.11562568694353104,
        -0.10091467201709747,
        0.11232112348079681,
        -0.051739852875471115,
        0.42177215218544006,
        -0.18685480952262878,
        -0.15784186124801636,
        0.2789143919944763,
        0.12574568390846252,
        0.3481300473213196,
        -0.05146937817335129,
        -0.025314942002296448,
        -0.1342145949602127,
        -0.1520911455154419,
        0.1154002919793129,
        -0.14852184057235718,
        -0.2066013514995575,
        -0.1265755146741867,
        0.22394420206546783,
        -0.002732227323576808,
        0.15090230107307434,
        -0.45481881499290466,
        -0.1352883279323578,
        -0.3035581111907959,
        0.21823546290397644,
        -0.25187551975250244,
        0.12564179301261902,
        -0.20934633910655975,
        0.2630462944507599,
        0.05305112153291702,
        -0.2960648834705353,
        -0.056156136095523834,
        0.13860633969306946,
        -0.1635623723268509,
        -0.05269874632358551,
        0.043660201132297516,
        0.11720447242259979,
        0.0028142479714006186,
        -0.005394580774009228,
        -0.06837758421897888,
        -0.061612166464328766,
        0.06576558947563171,
        0.2545212507247925,
        0.07022608816623688,
        -0.2363128364086151,
        -0.07874545454978943,
        -0.14124703407287598,
        0.16580000519752502,
        -0.1689988672733307,
        -0.09320615977048874,
        0.0017688371008262038,
        -0.04384573921561241,
        -0.4147033989429474,
        0.036449134349823,
        -0.2621406018733978,
        0.076343834400177,
        0.19373010098934174,
        -0.07285907119512558,
        -0.15778957307338715,
        -0.21351751685142517,
        0.11779437959194183,
        0.04792582616209984,
        -0.03608328476548195,
        0.18614378571510315,
        0.2656524181365967,
        0.26731356978416443,
        0.3778297007083893,
        0.011777813546359539,
        -0.30823975801467896,
        0.06609251350164413,
        -0.030280860140919685,
        0.16225163638591766,
        -0.12943749129772186,
        -0.1690872758626938,
        0.032784197479486465,
        0.004612055141478777,
        0.2109062522649765,
        -0.17321255803108215,
        -0.019411936402320862,
        -0.42056941986083984,
        -0.0032398689072579145,
        0.21626988053321838,
        -0.28819969296455383,
        0.022294461727142334,
        -0.01826377399265766,
        0.39760440587997437,
        -0.20849013328552246,
        -0.17248456180095673,
        -0.24741390347480774,
        -0.2850900888442993,
        0.2071821689605713,
        -0.2241716980934143,
        0.1556248515844345,
        0.34759944677352905,
        0.42929112911224365,
        0.20806963741779327,
        0.044844694435596466,
        0.1505815088748932,
        0.29599612951278687,
        -0.15638604760169983,
        -0.13874733448028564,
        -0.05359729006886482,
        -0.05210621654987335,
        -0.39158597588539124,
        -0.15443521738052368,
        -0.15677712857723236,
        -0.025657329708337784,
        -0.2583327889442444,
        -0.006223905365914106,
        0.30189040303230286,
        0.11808934062719345,
        0.2919967770576477,
        -0.16259223222732544,
        -0.14702856540679932,
        -0.10490265488624573,
        0.1661256104707718,
        0.1196552962064743,
        0.06356717646121979,
        0.21827036142349243,
        0.04882202297449112,
        -0.1806240677833557,
        0.3135983943939209,
        0.20397889614105225,
        0.042569052428007126,
        -0.2175547033548355,
        -0.11011765897274017,
        -0.01327267661690712,
        0.1778215765953064,
        0.07013978809118271,
        0.08733109384775162,
        0.08340351283550262,
        0.022715697064995766,
        0.26862335205078125,
        -0.1610485166311264,
        0.07319571822881699,
        -0.17412875592708588,
        -0.08233516663312912,
        0.013356722891330719,
        0.21224857866764069,
        -0.35875335335731506,
        0.09413324296474457,
        0.14986665546894073,
        0.2150547057390213,
        0.17842209339141846,
        -0.08822570741176605,
        -0.10785234719514847,
        -0.015035589225590229,
        0.06676643341779709,
        -0.28322988748550415,
        -0.01562674529850483,
        0.3827997148036957,
        -0.10789530724287033,
        -0.08816761523485184,
        -0.22684592008590698,
        0.07677582651376724,
        0.002866744063794613,
        0.08641951531171799,
        -0.4553128778934479,
        0.0017226912314072251,
        -0.11069678515195847,
        0.2892153263092041,
        -0.13124878704547882,
        -0.12872640788555145,
        -0.35251250863075256,
        0.2232246994972229,
        0.014933144673705101,
        -0.03354000672698021,
        -0.05710500106215477,
        0.1930863857269287,
        -0.0903128981590271,
        -0.016712162643671036,
        -0.04895048961043358,
        -0.13215184211730957,
        -0.015688827261328697,
        -0.09998246282339096,
        -0.34086164832115173,
        -0.16876301169395447,
        -0.042218733578920364,
        -0.23361685872077942,
        -0.10018688440322876,
        -0.005748901516199112,
        0.14616703987121582,
        -0.1586725115776062,
        0.23186831176280975,
        -0.11216704547405243,
        0.27403396368026733,
        -0.137742817401886,
        -0.034251000732183456,
        0.17452192306518555,
        0.1645648330450058,
        0.5387603640556335,
        0.06382899731397629,
        -0.06377923488616943,
        0.03997396305203438,
        0.2968732714653015,
        -0.15492507815361023,
        -0.5336388349533081,
        0.2636532187461853,
        0.19925454258918762,
        -0.221917524933815,
        0.12021355330944061,
        -0.10130921006202698,
        0.006966961082071066,
        -0.05827511101961136,
        0.21786989271640778,
        0.22608476877212524,
        -0.09584496915340424,
        -0.15546110272407532,
        0.2124706357717514,
        0.22237078845500946,
        0.03991394117474556,
        0.18092016875743866,
        -0.033218760043382645,
        -0.2595147490501404,
        -0.07911547273397446,
        -0.250748872756958,
        -0.055284589529037476,
        -0.12650363147258759,
        -0.11837461590766907,
        -0.04951885715126991,
        0.1287737786769867,
        -0.11453460901975632,
        -0.13161735236644745,
        0.22633497416973114,
        0.28543800115585327,
        0.040910504758358,
        0.287356436252594,
        -0.00036159539013169706,
        -0.09263430535793304,
        -0.32198193669319153,
        0.02442891150712967,
        0.15895910561084747,
        -0.019802123308181763,
        0.020629342645406723,
        -0.028377998620271683,
        -0.30785903334617615,
        0.03081315942108631,
        -0.041714608669281006,
        -0.039010193198919296,
        -0.10056199878454208,
        0.1484915167093277,
        0.1275881677865982,
        0.017929766327142715,
        -0.2356286495923996,
        -0.09520865231752396,
        -0.15736818313598633,
        -0.10078226774930954,
        0.0025849363300949335,
        -0.17825070023536682,
        -0.2070024460554123,
        -0.12883785367012024,
        0.18640482425689697,
