{
    "version": "0.5.0",
    "architecture": "WaveNet",
    "config": {
        "layers": [
            {
                "input_size": 1,
                "condition_size": 1,
                "head_size": 8,
                "channels": 16,
                "kernel_size": 3,
                "dilations": [
                    1,
                    2,
                    4,
                    8,
                    16,
                    32,
                    64,
                    128,
                    256,
                    512
                ],
                "activation": "Tanh",
                "gated": false,
                "head_bias": false
            },
            {
                "input_size": 16,
                "condition_size": 1,
                "head_size": 1,
                "channels": 8,
                "kernel_size": 3,
                "dilations": [
                    1,
                    2,
                    4,
                    8,
                    16,
                    32,
                    64,
                    128,
                    256,
                    512
                ],
                "activation": "Tanh",
                "gated": false,
                "head_bias": true
            }
        ],
        "head": null,
        "head_scale": 0.02
    },
    "weights": [
        -0.006167052313685417,
        0.4234981834888458,
        -0.5918900966644287,
        -0.502151370048523,
        -0.10484367609024048,
        -0.001076658838428557,
        0.0001893339940579608,
        0.6040463447570801,
        -0.006825221702456474,
        0.05374076962471008,
        -0.040661029517650604,
        -0.004249447491019964,
        -0.9289726614952087,
        -0.40470823645591736,
        -0.11771247535943985,
        0.005821459926664829,
        0.0006593857542611659,
        -0.03013051301240921,
        -0.16998820006847382,
        -0.2035997360944748,
        0.009267349727451801,
        0.25717368721961975,
        0.11995921283960342,
        0.1510171890258789,
        -0.16237424314022064,
        0.16437189280986786,
        0.1641157567501068,
        -0.27354195713996887,
        0.048323486000299454,
        -0.009621186181902885,
        -0.17738434672355652,
        -0.041337426751852036,
        -0.05152077600359917,
        0.0636625662446022,
        -0.1910833865404129,
        -0.22056861221790314,
        -0.20990239083766937,
        -0.020650368183851242,
        0.02593202330172062,
        0.2142229974269867,
        0.1957586258649826,
        -0.04523276537656784,
        -0.032734982669353485,
        -0.24988098442554474,
        -0.13452781736850739,
        0.11360254883766174,
        0.21358227729797363,
        0.11014700680971146,
        -0.23760810494422913,
        0.10234037041664124,
        0.12462925910949707,
        0.023995909839868546,
        0.20538492500782013,
        0.06119344010949135,
        -0.043454039841890335,
        0.06864067167043686,
        0.0595267079770565,
        -0.2460525780916214,
        0.036123596131801605,
        -0.04574556276202202,
        -0.09070392698049545,
        0.002835193183273077,
        0.0012719399528577924,
        -0.06397838145494461,
        -0.030675576999783516,
        -0.010318062268197536,
        -0.10556062310934067,
        0.116546630859375,
        -0.09538013488054276,
        0.2871764600276947,
        -0.17268072068691254,
        0.1462887078523636,
        -0.07472508400678635,
        0.050394780933856964,
        0.30566468834877014,
        -0.014482767321169376,
        -0.050297170877456665,
        0.04668186977505684,
        -0.1218302920460701,
        -0.035101186484098434,
        -0.25700822472572327,
        0.29666781425476074,
        0.05753356218338013,
        -0.055079761892557144,
        -0.11464823782444,
        0.04689578711986542,
        -0.20440074801445007,
        0.07945346087217331,
        0.09331904351711273,
        -0.003743313020095229,
        -0.07258301973342896,
        0.13067030906677246,
        -0.09066955000162125,
        0.20984624326229095,
        -0.21128804981708527,
        0.08798238635063171,
        -0.08795425295829773,
        -0.08151178807020187,
        0.07326261699199677,
        -0.23100686073303223,
        0.06513703614473343,
        0.2854686975479126,
        -0.20337899029254913,
        -0.10308268666267395,
        0.04388677328824997,
        -0.13970521092414856,
        -0.18578475713729858,
        0.06539209187030792,
        -0.17040742933750153,
        0.08004597574472427,
        -0.1005532369017601,
        0.04720701649785042,
        -0.05701252445578575,
        0.14738860726356506,
        0.15982922911643982,
        -0.11062998324632645,
        0.102989561855793,
        -0.08250121027231216,
        -0.0002814308390952647,
        -0.11071427166461945,
        0.14183379709720612,
        -0.0086683863773942,
        -0.20446766912937164,
        0.15684999525547028,
        -0.14987070858478546,
        -0.20745709538459778,
        0.04496150091290474,
        -0.03153903782367706,
        0.00010355358972446993,
        -0.2163708209991455,
        -0.062418222427368164,
        -0.03795657679438591,
        -0.0686439797282219,
        0.005618056282401085,
        0.2398213893175125,
        -0.10742159932851791,
        0.06786693632602692,
        0.07336436957120895,
        0.244580939412117,
        0.08868633210659027,
        0.25051796436309814,
        -0.04450468346476555,
        0.13854797184467316,
        -0.1179906502366066,
        -0.0013961958466097713,
        -0.05954531952738762,
        -0.014313958585262299,
        0.09194149821996689,
        -0.08746005594730377,
        -0.2524353563785553,
        -0.04568169638514519,
        -0.1414845883846283,
        -0.16197432577610016,
        0.16330261528491974,
        0.06768409162759781,
        -0.261788547039032,
        0.1958436220884323,
        -0.15281689167022705,
        -0.05838970094919205,
        0.026685645803809166,
        -0.014285655692219734,
        -0.07336092740297318,
        -0.13153725862503052,
        -0.11578413099050522,
        -0.11859306693077087,
        0.1224009320139885,
        -0.05147595331072807,
        0.16826844215393066,
        -0.2322169840335846,
        -0.007985756732523441,
        0.22399039566516876,
        -0.1737363338470459,
        0.1113729178905487,
        0.1338379979133606,
        -0.24677181243896484,
        0.0950722023844719,
        -0.043540969491004944,
        0.063090480864048,
        0.14100852608680725,
        -0.13356266915798187,
        -0.0799073874950409,
        -0.030991679057478905,
        0.004989563953131437,
        0.15851107239723206,
        0.13283219933509827,
        0.016751792281866074,
        -0.08295226097106934,
        -0.049972351640462875,
        -0.22881543636322021,
        0.19015146791934967,
        0.11644277721643448,
        0.1922934204339981,
        -0.22347520291805267,
        -0.02667825296521187,
        -0.0194874070584774,
        -0.189113587141037,
        -0.07947706431150436,
        0.15411357581615448,
        -0.19897495210170746,
        -0.0015132584376260638,
        0.10169706493616104,
        -0.01879991590976715,
        -0.11125568300485611,
        -0.01047749724239111,
        -0.21235139667987823,
        0.009233000688254833,
        -0.0034463072661310434,
        0.1702900528907776,
        -0.010404571890830994,
        0.005518160294741392,
        -0.0785127729177475,
        -0.15284426510334015,
        -0.1330510824918747,
        -0.005531826987862587,
        0.12681108713150024,
        0.16574044525623322,
        -0.14864331483840942,
        0.05163957178592682,
        0.25742363929748535,
        -0.149217426776886,
        0.11179951578378677,
        0.27355557680130005,
        0.030167603865265846,
        -0.13712044060230255,
        -0.21008460223674774,
        0.06926229596138,
        -0.01644456945359707,
        0.07967568933963776,
        -0.006625473033636808,
        -0.14356517791748047,
        -0.14283372461795807,
        0.15677379071712494,
        -0.06795156002044678,
        0.05191292613744736,
        -0.09376984089612961,
        -0.1737518459558487,
        -0.04480123519897461,
        0.0009594968287274241,
        0.0324070081114769,
        0.15364448726177216,
        -0.03227609395980835,
        0.2045348882675171,
        0.06697607785463333,
        -0.03298954293131828,
        0.20036964118480682,
        0.00832621194422245,
        0.07006867229938507,
        0.011771640740334988,
        0.1423206627368927,
        -0.05202851817011833,
        0.03635072335600853,
        0.1495181918144226,
        0.07289433479309082,
        -0.005643540062010288,
        -0.06451243907213211,
        -0.2745001018047333,
        -0.1395106464624405,
        0.11656960844993591,
        0.0827140212059021,
        -0.12648001313209534,
        0.0014679009327664971,
        -0.0638880804181099,
        0.09156572818756104,
        0.013027576729655266,
        0.1851627230644226,
        -0.024256864562630653,
        -0.12957629561424255,
        0.18341420590877533,
        0.14759555459022522,
        -0.04734409227967262,
        0.06608538329601288,
        -0.09010244160890579,
        -0.07799583673477173,
        -0.12335124611854553,
        -0.1367338001728058,
        -0.16818159818649292,
        0.2258443832397461,
        -0.1179230585694313,
        0.07072535157203674,
        -0.1014489158987999,
        0.03551185503602028,
        -0.008623337373137474,
        0.0886857658624649,
        0.11741719394922256,
        0.11378887295722961,
        -0.009736703708767891,
        -0.03671599552035332,
        -0.042612817138433456,
        0.10350318998098373,
        0.04040692746639252,
        -0.15799804031848907,
        0.189206063747406,
        0.06920906156301498,
        -0.09435703605413437,
        0.10998402535915375,
        -0.06396543234586716,
        0.009632193483412266,
        0.030555471777915955,
        0.07891625910997391,
        -0.13046786189079285,
        0.07593754678964615,
        0.03228546306490898,
        -0.173689067363739,
        -0.10181070864200592,
        0.07375587522983551,
        -0.09236285835504532,
        0.08591790497303009,
        0.028861042112112045,
        0.19106729328632355,
        -0.16104756295681,
        -0.09842707961797714,
        -0.1624608039855957,
        0.18803420662879944,
        -0.028869319707155228,
        -0.072150319814682,
        0.2383880913257599,
        -0.0481504425406456,
        -0.11640162765979767,
        0.18902790546417236,
        0.024814408272504807,
        0.06596950441598892,
        -0.12309512495994568,
        -0.12314744293689728,
        -0.05489768832921982,
        0.1475701481103897,
        0.1012655571103096,
        0.21445445716381073,
        -0.12761130928993225,
        0.11920172721147537,
        -0.013063326478004456,
        0.09602096676826477,
        -0.16588951647281647,
        0.25795409083366394,
        -0.09802348911762238,
        -0.06182287260890007,
        -0.05204496160149574,
        0.2873678207397461,
        0.19375041127204895,
        0.009257430210709572,
        0.24559858441352844,
        -0.006451204884797335,
        -0.18657855689525604,
        0.26139476895332336,
        0.10078483074903488,
        -0.21343496441841125,
        0.26578930020332336,
        0.09901167452335358,
        -0.040733702480793,
        0.0683843344449997,
        -0.01678859256207943,
        -0.12316896766424179,
        0.18001985549926758,
        0.011097499169409275,
        -0.03994181379675865,
        -0.03315688297152519,
        0.12293856590986252,
        -0.07511651515960693,
        0.15162329375743866,
        -0.14696376025676727,
        0.07865288853645325,
        -0.15755213797092438,
        -0.19751617312431335,
        -0.08112605661153793,
        0.03952816501259804,
        0.014258841052651405,
        0.16194985806941986,
        0.033305563032627106,
        -0.0637315958738327,
        -0.11349667608737946,
        0.08593320846557617,
        0.009636367671191692,
        0.05210019648075104,
        -0.2124163657426834,
        -0.01599067635834217,
        -0.17206792533397675,
        -0.0074530052952468395,
        0.14572133123874664,
        0.0725790485739708,
        0.07321294397115707,
        0.12185268104076385,
        0.06887887418270111,
        -0.0023620910942554474,
        0.032470572739839554,
        0.1770104616880417,
        -0.005805053748190403,
        0.06573644280433655,
        0.10774880647659302,
        0.02237282320857048,
        -0.10378234088420868,
        0.10564965009689331,
        -0.05467589199542999,
        -0.09299412369728088,
        -0.044803112745285034,
        -0.15369611978530884,
        -0.16284310817718506,
        0.12711331248283386,
        0.02355271950364113,
        0.02104172669351101,
        -0.004524932708591223,
        0.22677752375602722,
        0.1361929327249527,
        0.07052351534366608,
        0.01168109755963087,
        0.1306924670934677,
        0.1907668113708496,
        -0.23989741504192352,
        0.1195608526468277,
        -0.04017992690205574,
        0.05876154452562332,
        0.07254647463560104,
        -0.2127223163843155,
        0.10154956579208374,
        0.12753525376319885,
        -0.11034020036458969,
        0.021693848073482513,
        -0.04052083194255829,
        0.014234157279133797,
        -0.18623948097229004,
        0.07224715501070023,
        0.16523493826389313,
        0.15333478152751923,
        -0.08274281024932861,
        0.13978207111358643,
        -0.05766899883747101,
        0.020198747515678406,
        -0.12226198613643646,
        0.11312710493803024,
        -0.09279768168926239,
        0.07690607756376266,
        -0.08626560866832733,
        -0.10689306259155273,
        -0.07116948813199997,
        0.2666832506656647,
        0.040447596460580826,
        -0.21516959369182587,
        0.08325741440057755,
        0.02185548096895218,
        -0.2494790107011795,
        0.1928645372390747,
        -0.14145472645759583,
        -0.269823282957077,
        -0.02051728591322899,
        -0.029653353616595268,
        -0.02425549179315567,
        0.008027251809835434,
        0.0313793309032917,
        -0.13294358551502228,
        0.04707822576165199,
        -0.011582988314330578,
        -0.1307663917541504,
        0.1587362289428711,
        0.08964801579713821,
        0.24570642411708832,
        -0.04329225793480873,
        -0.12012304365634918,
        0.009900310076773167,
        0.11727303266525269,
        0.04775083065032959,
        -0.21460871398448944,
        0.0731249451637268,
        -0.1555265486240387,
        -0.14714974164962769,
        0.1341504603624344,
        -0.07151482999324799,
        0.09194393455982208,
        -0.03357585519552231,
        0.007128668483346701,
        -0.16025689244270325,
        -0.07318208366632462,
        -0.027489716187119484,
        0.16398274898529053,
        0.02467607706785202,
        0.02423301711678505,
        -0.028937220573425293,
        0.17184314131736755,
        -0.1323544681072235,
        -0.030733969062566757,
        -0.07907423377037048,
        -0.0888017863035202,
        -0.015046045184135437,
        0.04075084254145622,
        -0.0480913408100605,
        -0.19308705627918243,
        0.20468834042549133,
        -0.03413724526762962,
        0.00504495482891798,
        0.20349188148975372,
        0.0561290867626667,
        -0.09388933330774307,
        0.06510011106729507,
        -0.04449630528688431,
        -0.07144633680582047,
        0.20227664709091187,
        -0.10894007980823517,
        0.05350267514586449,
        0.0011604239698499441,
        -0.04493977129459381,
        -0.09081517904996872,
        0.11425390094518661,
        0.08152434229850769,
        -0.016196541488170624,
        0.041153810918331146,
        0.10550054162740707,
        -0.038823481649160385,
        0.1723736822605133,
        -0.03851540759205818,
        -0.064517542719841,
        0.11715416610240936,
        0.009817459620535374,
        -0.0497300811111927,
        0.010710593312978745,
        0.08080634474754333,
        0.011197611689567566,
        -0.11608820408582687,
        0.060400594025850296,
        -0.006247551180422306,
        0.0027069682255387306,
        -0.029464365914463997,
        0.19596633315086365,
        -0.07818291336297989,
        0.053436581045389175,
        -0.04602953419089317,
        0.09863491356372833,
        -0.15015541017055511,
        0.025177180767059326,
        -0.17373356223106384,
        0.1818266063928604,
        -0.1405273973941803,
        0.09506930410861969,
        0.001830161432735622,
        0.031678855419158936,
        0.19514113664627075,
        -0.06782817840576172,
        -0.23468764126300812,
        -0.05273669585585594,
        0.03466210514307022,
        -0.14717504382133484,
        -0.04159324988722801,
        -0.0040752459317445755,
        -0.07540354132652283,
        0.005346414167433977,
        -0.012590581551194191,
        -0.061721041798591614,
        0.08569108694791794,
        0.01832525059580803,
        0.11864098906517029,
        -0.048122815787792206,
        0.3472958505153656,
        -0.006320170592516661,
        0.1306023895740509,
        -0.4605922996997833,
        -0.16591940820217133,
        0.17805616557598114,
        -0.42525649070739746,
        -0.009640137664973736,
        0.006622326094657183,
        -0.3660973608493805,
        -0.0670982077717781,
        0.0995873287320137,
        0.3591534197330475,
        -0.1229448989033699,
        -0.050940100103616714,
        -0.07241690158843994,
        0.03733154758810997,
        -0.13136330246925354,
        0.46663564443588257,
        0.009752851910889149,
        -0.04588231444358826,
        -0.038614701479673386,
        -0.004279241431504488,
        0.14462722837924957,
        0.35437116026878357,
        -0.03700556978583336,
        -0.1695086658000946,
        -0.3061913251876831,
        0.10311011224985123,
        -0.0012535298010334373,
        -0.45315757393836975,
        0.04780765622854233,
        0.16496074199676514,
        -0.37471628189086914,
        -0.15890660881996155,
        -0.10805706679821014,
        -0.3021649420261383,
        -0.04675658792257309,
        -0.0549396388232708,
        -0.29174667596817017,
        0.023522041738033295,
        0.1389126032590866,
        0.20757624506950378,
        0.02366839163005352,
        0.03710427135229111,
        -0.20995090901851654,
        -0.019844703376293182,
        0.010677419602870941,
        0.10758306086063385,
        0.01784716360270977,
        -0.00433711102232337,
        0.08648737519979477,
        -0.01668168604373932,
        0.014287958852946758,
        -0.1035902351140976,
        -0.2345360517501831,
        0.27580881118774414,
        -0.11396905034780502,
        -0.19416368007659912,
        0.19915862381458282,
        0.016316473484039307,
        0.028192736208438873,
        -0.11422141641378403,
        -0.10553337633609772,
        -0.30417928099632263,
        0.06089644506573677,
        -0.021530359983444214,
        0.18800672888755798,
        -0.018493520095944405,
        0.033504221588373184,
        -0.08083159476518631,
        0.18344330787658691,
        0.030058670789003372,
        0.0519913025200367,
        -0.04551807790994644,
        0.013434224762022495,
        -0.25484365224838257,
        0.12856583297252655,
        -0.12510670721530914,
        0.005627132952213287,
        0.11045488715171814,
        -0.1784888505935669,
        -0.1521323025226593,
        0.23093436658382416,
        -0.015578014776110649,
        -0.08980049192905426,
        0.14738284051418304,
        0.014336608350276947,
        -0.1660182923078537,
        0.08930777758359909,
        -0.04876221716403961,
        0.014151577837765217,
        0.21174892783164978,
        -0.10590433329343796,
        0.022614218294620514,
        0.04545207694172859,
        0.14494429528713226,
        -0.2251589149236679,
        0.2072848379611969,
        -0.19220209121704102,
        0.27427300810813904,
        -0.16006508469581604,
        -0.15724779665470123,
        0.21904952824115753,
        -0.12061140686273575,
        -0.019739991053938866,
        0.027890291064977646,
        -0.19235201179981232,
        0.08339027315378189,
        -0.08528003096580505,
        0.22389818727970123,
        -0.06538631021976471,
        0.08341386914253235,
        -0.07593894004821777,
        0.08935171365737915,
        -0.03196083754301071,
        -0.04903455451130867,
        -0.01152847707271576,
        0.14180640876293182,
        -0.05166201665997505,
        0.1900070160627365,
        -0.2045539915561676,
        0.1396855264902115,
        -0.2436700463294983,
        0.12478259950876236,
        -0.07010143995285034,
        -0.1076866164803505,
        0.18346191942691803,
        0.0480424202978611,
        -0.14096620678901672,
        0.13895204663276672,
        0.040648337453603745,
        -0.16371197998523712,
        0.2676537334918976,
        -0.1572934240102768,
        -0.141472727060318,
        0.12410225719213486,
        -0.0029610914643853903,
        0.07856345921754837,
        -0.09705361723899841,
        -0.09226631373167038,
        0.07417310774326324,
        0.19480663537979126,
        0.13271985948085785,
        -0.29286614060401917,
        -0.18346872925758362,
        0.06802063435316086,
        0.21375304460525513,
        0.1339401751756668,
        0.16052283346652985,
        0.10282605141401291,
        0.29678893089294434,
        0.08432314544916153,
        0.13618184626102448,
        0.2993777394294739,
        -0.05845978856086731,
        -0.18616598844528198,
        -0.26053768396377563,
        -0.05182952061295509,
        -0.009864992462098598,
        0.2510836124420166,
        -0.10256918519735336,
        -0.11272212862968445,
        -0.28773435950279236,
        -0.1282775104045868,
        0.06389763951301575,
        0.12218672782182693,
        0.23379293084144592,
        -0.19888748228549957,
        -0.24893420934677124,
        0.036785684525966644,
        0.2781309485435486,
        0.37457039952278137,
        0.13608713448047638,
        0.07188400626182556,
        0.24098967015743256,
        -0.014616329222917557,
        0.12346039712429047,
        0.3065360188484192,
        0.19934464991092682,
        0.09834558516740799,
        0.34905603528022766,
        -0.0073088244535028934,
        0.1669507920742035,
        0.3744700253009796,
        0.013949563726782799,
        0.06516072154045105,
        -0.15666043758392334,
        -0.17860564589500427,
        -0.03792411834001541,
        -0.13984911143779755,
        0.08163008838891983,
        -0.16127680242061615,
        0.11958097666501999,
        -0.08546455204486847,
        0.15091924369335175,
        -0.30046889185905457,
        0.13794760406017303,
        0.1718006432056427,
        -0.14369700849056244,
        0.010070506483316422,
        0.04279954731464386,
        -0.26670539379119873,
        -0.02438579685986042,
        -0.05992347374558449,
        0.28678569197654724,
        -0.006023327354341745,
        -0.019638415426015854,
        -0.030959568917751312,
        0.05684521421790123,
        0.059532519429922104,
        0.17987178266048431,
        -0.1873275190591812,
        -0.027817629277706146,
        -0.002734068315476179,
        -0.06224088370800018,
        0.11137782037258148,
        0.31254664063453674,
        -0.17062965035438538,
        0.006651498842984438,
        -0.11879216879606247,
        -0.026173505932092667,
        0.04182303696870804,
        -0.17796078324317932,
        -0.026394959539175034,
        0.12505552172660828,
        -0.172245055437088,
        0.17127597332000732,
        -0.04303579777479172,
        -0.09762351214885712,
        -0.0027450527995824814,
        0.19636714458465576,
        -0.3703584671020508,
        -0.02813171222805977,
        0.12916652858257294,
        0.10188985615968704,
        -0.025724533945322037,
        -0.08055059611797333,
        0.04474693909287453,
        -0.30839890241622925,
        -0.1026713028550148,
        0.30666378140449524,
        -0.009496863931417465,
        -0.19504085183143616,
        0.024357352405786514,
        0.0661623626947403,
        -0.011162364855408669,
        0.032594215124845505,
        -0.16567876935005188,
        -0.1096215769648552,
        0.03771553933620453,
        0.27248716354370117,
        -0.05986635759472847,
        0.5836915373802185,
        -0.28944703936576843,
        0.7151899337768555,
        -0.5885492563247681,
        0.030235530808568,
        0.7603575587272644,
        0.8574366569519043,
        -0.5045403838157654,
        0.060054630041122437,
        0.009141097776591778,
        -0.5215215682983398,
        -0.36500027775764465,
        0.13448457419872284,
        -0.6343144774436951,
        0.10052337497472763,
        0.3495313227176666,
        -0.04636094719171524,
        0.29886865615844727,
        -0.11491735279560089,
        0.13833169639110565,
        0.30024048686027527,
        -0.048749782145023346,
        0.04646976664662361,
        -0.05064692720770836,
        -0.10585027188062668,
        -0.06393568217754364,
        -0.03543141484260559,
        -0.1447785496711731,
        -0.03859851881861687,
        -0.022513853386044502,
        0.1129191592335701,
        -0.1305122971534729,
        0.05605017766356468,
        -0.3067072629928589,
        -0.16706989705562592,
        -0.12697340548038483,
        0.17493340373039246,
        0.02914675883948803,
        -0.053057365119457245,
        -0.14090782403945923,
        0.21313665807247162,
        0.25868868827819824,
        -0.03915577009320259,
        -0.366732656955719,
        0.11169350892305374,
        -0.4963831305503845,
        0.24258938431739807,
        0.4950277805328369,
        0.10176660865545273,
        -0.060745980590581894,
        0.17879600822925568,
        0.07233519852161407,
        -0.174013152718544,
        0.017999373376369476,
        0.2367786467075348,
        -0.37223488092422485,
        0.13326792418956757,
        -0.04902856796979904,
        0.20023870468139648,
        -0.25854048132896423,
        0.22552144527435303,
        -0.12199471890926361,
        0.005768968723714352,
        0.15772385895252228,
        0.15642733871936798,
        -0.09686462581157684,
        -0.0884687677025795,
        -0.32783299684524536,
        0.02923540212213993,
        0.13423766195774078,
        -0.010578671470284462,
        -0.040022917091846466,
        -0.13976061344146729,
        -0.010063163004815578,
        0.07957800477743149,
        0.027472248300909996,
        0.07237028330564499,
        0.17165987193584442,
        -0.14128483831882477,
        -0.017381779849529266,
        -0.17134001851081848,
        -0.26768001914024353,
        -0.218305304646492,
        0.052377138286828995,
        0.26980677247047424,
        0.05249251425266266,
        0.07883061468601227,
        -0.2287697046995163,
        0.11362910270690918,
        0.16060858964920044,
        -0.0709143579006195,
        0.23988807201385498,
        -0.037956178188323975,
        0.09571759402751923,
        -0.017863159999251366,
        0.20998048782348633,
        -0.2093580961227417,
        -0.0255745742470026,
        0.13150358200073242,
        0.007671247236430645,
        0.23347143828868866,
        0.22338132560253143,
        0.2570171356201172,
        0.04406982287764549,
        0.15345245599746704,
        -0.14557500183582306,
        -0.2994677424430847,
        -0.132419154047966,
        -0.058040060102939606,
        -0.37850746512413025,
        0.1500314623117447,
        0.16013486683368683,
        0.29038405418395996,
        0.2968785762786865,
        0.057626448571681976,
        0.3383994996547699,
        -0.13878217339515686,
        -0.17502784729003906,
        0.011410859413444996,
        0.2215006798505783,
        -0.192391037940979,
        -0.35143980383872986,
        -0.39510008692741394,
        0.3331039547920227,
        0.1704636663198471,
        0.14179815351963043,
        0.1685372143983841,
        -0.5350167155265808,
        0.0794077217578888,
        0.0032137997914105654,
        0.24560396373271942,
        -0.2166370153427124,
        -0.23301005363464355,
        0.06025725230574608,
        0.2314843237400055,
        0.10481756180524826,
        0.20639674365520477,
        -0.22309839725494385,
        0.16878120601177216,
        -0.22683845460414886,
        0.09196805953979492,
        -0.19231703877449036,
        -0.07091985642910004,
        0.1617470681667328,
        -0.05500504747033119,
        -0.011999716982245445,
        -0.2212732583284378,
        -0.23697438836097717,
        0.08846415579319,
        -0.04521350935101509,
        -0.14534232020378113,
        -0.06182481721043587,
        -0.1941365748643875,
        -0.14041294157505035,
        0.14189545810222626,
        0.022758441045880318,
        0.04853999987244606,
        -0.1875998079776764,
        0.0652058944106102,
        -0.028971238061785698,
        -0.2744494676589966,
        0.026086462661623955,
        0.341864675283432,
        -0.2044326364994049,
        -0.4321986734867096,
        -0.017912844195961952,
        0.2748070955276489,
        -0.06918776780366898,
        0.05002262815833092,
        0.19500379264354706,
        0.20466050505638123,
        0.3801228404045105,
        0.34583282470703125,
        0.3265634775161743,
        -0.3327138125896454,
        0.0038774488493800163,
        0.24031372368335724,
        0.2547321021556854,
        -0.2254178375005722,
        0.10765843093395233,
        -0.12342075258493423,
        -0.12052890658378601,
        0.07721521705389023,
        -0.06744758784770966,
        0.020473744720220566,
        -0.11039406061172485,
        -0.1663065254688263,
        -0.0013831109972670674,
        -0.05711674690246582,
        0.20887164771556854,
        -0.04322129487991333,
        0.09249383956193924,
        -0.11740228533744812,
        -0.04368530958890915,
        0.21811571717262268,
        0.006485348101705313,
        0.05168961361050606,
        -0.11154916882514954,
        -0.03058856539428234,
        0.034874267876148224,
        0.00869055651128292,
        -0.2271203249692917,
        0.04134582355618477,
        -0.2690456807613373,
        -0.1934218555688858,
        0.14379258453845978,
        -0.3188871443271637,
        -0.19946041703224182,
        -0.24385343492031097,
        -0.13241595029830933,
        0.10654645413160324,
        -0.05441388115286827,
        0.027936916798353195,
        -0.1600949913263321,
        0.037405963987112045,
        0.29843834042549133,
        0.356192022562027,
        0.0936715230345726,
        0.10545239597558975,
        0.14851440489292145,
        0.17532184720039368,
        -0.11407561600208282,
        -0.20346644520759583,
        0.13696257770061493,
        -0.05119916796684265,
        -0.2504763901233673,
        -0.12061378359794617,
        0.14269858598709106,
        -0.09565485268831253,
        0.17276129126548767,
        0.19250257313251495,
        0.11613939702510834,
        0.006745513062924147,
        -0.08245276659727097,
        0.03599756583571434,
        0.0061188251711428165,
        -0.1784345954656601,
        -0.03058377467095852,
        -0.19124172627925873,
        0.16683577001094818,
        -0.05505463480949402,
        0.2992125153541565,
        -0.03311117738485336,
        -0.14771617949008942,
        0.12305846810340881,
        0.09440701454877853,
        0.18146783113479614,
        0.10260596126317978,
        -0.29929184913635254,
        0.1877955198287964,
        -0.06161404773592949,
        -0.01976950839161873,
        0.11680769920349121,
        0.33815619349479675,
        -0.23366892337799072,
        -0.1802714765071869,
        0.2769171893596649,
        0.14446619153022766,
        0.18050214648246765,
        -0.08087527751922607,
        -0.13781298696994781,
        0.22556723654270172,
        0.09939070045948029,
        0.14959682524204254,
        -0.14642859995365143,
        -0.21554307639598846,
        -0.1181664913892746,
        -0.2777054011821747,
        0.07625329494476318,
        0.1868417114019394,
        0.0036614015698432922,
        -0.0549541674554348,
        0.1509588360786438,
        -0.14587940275669098,
        0.2135545164346695,
        -0.028059234842658043,
        -0.10720302909612656,
        -0.04652358964085579,
        0.124150350689888,
        -0.008119768463075161,
        0.04626269266009331,
        -0.1708151251077652,
        0.05355718731880188,
        0.022822771221399307,
        0.11871953308582306,
        0.11337549239397049,
        0.09975951910018921,
        0.05501982942223549,
        0.007445375435054302,
        -0.23565232753753662,
        -0.04660685360431671,
        0.6224907636642456,
        -0.2208051085472107,
        0.0792556181550026,
        0.003968097735196352,
        -0.1974974423646927,
        0.04743159934878349,
        -0.19858093559741974,
        -0.02450394630432129,
        -0.059623345732688904,
        -0.08380775153636932,
        0.04757777228951454,
        0.03933807462453842,
        0.4936616122722626,
        -0.2543463110923767,
        -0.016565633937716484,
        -0.18972229957580566,
        -0.07514458894729614,
        0.07812628895044327,
        0.13497115671634674,
        0.09019606560468674,
        -0.14583805203437805,
        -0.012283743359148502,
        -0.08483076840639114,
        -0.08200907707214355,
        -0.1701047569513321,
        0.228000670671463,
        -0.06724031269550323,
        -0.13174556195735931,
        -0.1620708405971527,
        0.02167804352939129,
        -0.31949323415756226,
        -0.280612051486969,
        -0.1049124002456665,
        -0.40233325958251953,
        0.10310029983520508,
        0.008394589647650719,
        -0.15554457902908325,
        0.11790929734706879,
        -0.10938867926597595,
        -0.33802497386932373,
        0.09945324063301086,
        0.016286946833133698,
        0.15796151757240295,
        -0.17625649273395538,
        -0.056151729077100754,
        -0.07408309727907181,
        0.09233408421278,
        0.1398957520723343,
        -0.1464691460132599,
        -0.05404497683048248,
        -0.013523461297154427,
        -0.13776803016662598,
        -0.2365381419658661,
        -0.11189642548561096,
        -0.10455341637134552,
        0.018865514546632767,
        -0.15620528161525726,
        0.1376585215330124,
        -0.15741118788719177,
        0.11540955305099487,
        3.8322992622852325e-05,
        -0.07333309948444366,
        0.06235869973897934,
        0.0699065774679184,
        -0.018340792506933212,
        -0.06858285516500473,
        0.16399645805358887,
        -0.1227748766541481,
        -0.00960977841168642,
        -0.18871280550956726,
        0.03764640539884567,
        -0.07617942243814468,
        0.19019727408885956,
        -0.06413858383893967,
        -0.13380864262580872,
        -0.01551599521189928,
        0.10118699073791504,
        -0.024009060114622116,
        -0.10272464901208878,
        -0.017810873687267303,
        0.20578153431415558,
        -0.20521162450313568,
        -0.16866928339004517,
        -0.1192522794008255,
        -0.02614281140267849,
        -0.07474317401647568,
        -0.0485934279859066,
        -0.06165709346532822,
        -0.02362748607993126,
        -0.0026026188861578703,
        -0.07421150803565979,
        0.17202644050121307,
        -0.10274987667798996,
        -0.0409165695309639,
        -0.22895964980125427,
        -0.01059142965823412,
        0.2697192132472992,
        0.208575040102005,
        -0.11550870537757874,
        0.052742429077625275,
        0.010825461708009243,
        -0.16800282895565033,
        0.2217717468738556,
        0.08402939885854721,
        -0.0006114270654506981,
        0.09104093164205551,
        0.014097250998020172,
        0.048824165016412735,
        -0.009587793610990047,
        0.07167103886604309,
        0.006835519801825285,
        0.1191718801856041,
        -0.19175991415977478,
        0.08056404441595078,
        -0.10566329956054688,
        -0.011780980974435806,
        0.09471596777439117,
        0.029284518212080002,
        -0.20788268744945526,
        -0.040583979338407516,
        -0.13392041623592377,
        0.2073555290699005,
        -0.11801546812057495,
        -0.09280013293027878,
        -0.20840053260326385,
        0.1299211084842682,
        0.03424856439232826,
        0.07559914141893387,
        0.09207724034786224,
        0.22277705371379852,
        -0.012974736280739307,
        -0.20976337790489197,
        -0.09894173592329025,
        -0.07657196372747421,
        -0.056613583117723465,
        -0.1309700310230255,
        -0.05513504520058632,
        0.10583958774805069,
        0.019326848909258842,
        0.17163525521755219,
        0.2249809354543686,
        -0.14716288447380066,
        0.026462296023964882,
        -0.0140256118029356,
        -0.28259217739105225,
        0.300860732793808,
        -0.047231823205947876,
        0.1383800208568573,
        -0.12021332234144211,
        -0.14405179023742676,
        0.08733535557985306,
        0.021965814754366875,
        -0.15333101153373718,
        0.0022471456322818995,
        -0.18636099994182587,
        -0.031660329550504684,
        -0.10338512063026428,
        0.34852299094200134,
        -0.006133823189884424,
        -0.023140767589211464,
        0.1272568702697754,
        -0.02130230888724327,
        -0.09748157858848572,
        0.04158194363117218,
        0.17568376660346985,
        0.006894406396895647,
        -0.09404484182596207,
        -0.06332392990589142,
        0.22098377346992493,
        -0.24573500454425812,
        0.10174760222434998,
        0.026987092569470406,
        -0.07568790763616562,
        -0.10196708887815475,
        0.1664166897535324,
        -0.06369540840387344,
        0.23347432911396027,
        0.3594212234020233,
        -0.07664553076028824,
        0.04631544277071953,
        0.2320288121700287,
        -0.20729969441890717,
        -0.05324242264032364,
        -0.07928060740232468,
        -0.1449911743402481,
        0.09946581721305847,
        -0.01217296626418829,
        0.19790512323379517,
        0.06855013221502304,
        -0.053126879036426544,
        -0.2598676383495331,
        -0.050817470997571945,
        -0.16151800751686096,
        0.2844976484775543,
        -0.12543320655822754,
        -0.3832635283470154,
        0.1816815882921219,
        -0.03260773792862892,
        -0.14962580800056458,
        0.096957728266716,
        0.1270422786474228,
        -0.127578467130661,
        0.11237586289644241,
        -0.1151500940322876,
        -0.3627181053161621,
        0.3103111982345581,
        -0.24513837695121765,
        0.3052695095539093,
        -0.3015272617340088,
        0.0979229211807251,
        0.020247960463166237,
        0.33077386021614075,
        0.1189955323934555,
        0.12765081226825714,
        -0.1120433658361435,
        -0.041933558881282806,
        -0.14988332986831665,
        0.10422035306692123,
        0.07718995958566666,
        0.21940989792346954,
        -0.22340022027492523,
        0.04185865446925163,
        0.012043621391057968,
        -0.0679209902882576,
        -0.08270704746246338,
        -0.3456314504146576,
        -0.1264633983373642,
        0.09572619944810867,
        -0.07776689529418945,
        0.08043676614761353,
        0.027888456359505653,
        0.14332495629787445,
        -0.3090650737285614,
        -0.12271306663751602,
        0.23580490052700043,
        -0.18282167613506317,
        -0.00930941291153431,
        -0.22988851368427277,
        0.05494581535458565,
        -0.09607522934675217,
        -0.7320650219917297,
        0.11598078906536102,
        0.19417890906333923,
        -0.11306966096162796,
        -0.2228248566389084,
        -0.16081690788269043,
        0.06278833746910095,
        0.0243515744805336,
        -0.02418556436896324,
        0.1531573385000229,
        -0.0640600323677063,
        0.07335226982831955,
        -0.2554596960544586,
        -0.1035320982336998,
        0.19934119284152985,
        0.10332054644823074,
        0.10692370682954788,
        -0.10192230343818665,
        0.12581422924995422,
        -0.22936087846755981,
        0.21859082579612732,
        -0.06970130652189255,
        0.23175133764743805,
        -0.14488011598587036,
        0.35397961735725403,
        -0.2345423847436905,
        -0.019929740577936172,
        -0.08370473980903625,
        0.16300319135189056,
        -0.02813287451863289,
        0.10094541311264038,
        -0.24001102149486542,
        0.07013975083827972,
        0.4611578583717346,
        -0.1364634484052658,
        -0.24989169836044312,
        0.15780828893184662,
        -0.2883087992668152,
        -0.012109985575079918,
        0.0636221170425415,
        0.19681639969348907,
        -0.2611408829689026,
        -0.2679120898246765,
        0.14074721932411194,
        0.07529547810554504,
        0.1417146921157837,
        -0.05786760896444321,
        0.03374325484037399,
        0.022910358384251595,
        0.09907969832420349,
        -0.07330825179815292,
        -0.1169685646891594,
        -0.08848675340414047,
        0.09870965033769608,
        0.13723231852054596,
        0.055261045694351196,
        0.0580974817276001,
        -0.19005391001701355,
        0.18319015204906464,
        -0.07815087586641312,
        0.021196844056248665,
        -0.005075978115200996,
        -0.0023633423261344433,
        0.2769012153148651,
        -0.06686680763959885,
        0.24335648119449615,
        -0.1141161173582077,
        0.13811229169368744,
        -0.06454754620790482,
        0.10819632560014725,
        -0.19478535652160645,
        -0.05457524210214615,
        -0.06125643849372864,
        0.1771833449602127,
        -0.018410643562674522,
        0.21940569579601288,
        -0.12832096219062805,
        0.14992651343345642,
        0.09258999675512314,
        0.051519572734832764,
        -0.004520163871347904,
        0.041775550693273544,
        0.25080594420433044,
        0.01829000934958458,
        -0.11273210495710373,
        0.12642961740493774,
        -0.17685934901237488,
        0.0030090720392763615,
        0.009724820032715797,
        0.022732384502887726,
        0.08394622057676315,
        -0.11898132413625717,
        0.039820391684770584,
        -0.06646648794412613,
        -0.017649726942181587,
        0.12638284265995026,
        -0.09065034240484238,
        -0.27547213435173035,
        -0.21947546303272247,
        -0.297602117061615,
        -0.16026976704597473,
        0.14453411102294922,
        0.05028090253472328,
        -0.054677560925483704,
        -0.019666174426674843,
        -0.033220939338207245,
        -0.0311683751642704,
        -0.16169317066669464,
        -0.048284608870744705,
        -0.19072993099689484,
        -0.18028125166893005,
        0.12036873400211334,
        -0.04791031777858734,
        0.0632975623011589,
        -0.013698841445147991,
        -0.06449108570814133,
        -0.07767495512962341,
        0.04828015714883804,
        -0.1695922166109085,
        0.15370766818523407,
        0.07926313579082489,
        0.16795696318149567,
        -0.04164881259202957,
        0.19393080472946167,
        -0.15214672684669495,
        0.05303683876991272,
        0.13158656656742096,
        -0.11766185611486435,
        0.12273645401000977,
        -0.13284365832805634,
        0.09039554744958878,
        0.0360308475792408,
        -0.15140517055988312,
        0.018641119822859764,
        -0.0737355500459671,
        0.21835462749004364,
        0.13594721257686615,
        0.18800443410873413,
        0.04802042245864868,
        -0.04188985005021095,
        0.1474134624004364,
        0.3257187604904175,
        0.1492139846086502,
        -0.014392259530723095,
        0.005511954892426729,
        0.11283097416162491,
        -0.10121601819992065,
        0.36561742424964905,
        0.29025405645370483,
        0.04893104359507561,
        0.21996207535266876,
        0.12765946984291077,
        0.037897419184446335,
        0.08677349239587784,
        0.10040904581546783,
        0.07567927986383438,
        -0.11709292978048325,
        0.21923042833805084,
        -0.18911148607730865,
        0.0312074963003397,
        -0.1403806358575821,
        0.16942228376865387,
        -0.37560129165649414,
        -0.14910998940467834,
        -0.08909294009208679,
        0.2149730771780014,
        -0.02932048588991165,
        0.24710053205490112,
        -0.22726912796497345,
        0.08412354439496994,
        -0.1866735965013504,
        0.29043155908584595,
        0.014704459346830845,
        0.09717316180467606,
        0.16721348464488983,
        0.21889781951904297,
        0.2014058232307434,
        0.22616977989673615,
        0.2572864294052124,
        0.14333167672157288,
        -0.010050247423350811,
        -0.029663320630788803,
        -0.14754319190979004,
        0.001424066023901105,
        -0.23347966372966766,
        0.04583107307553291,
        -0.0007476513274013996,
        -0.06336461752653122,
        -0.16025392711162567,
        0.01348040159791708,
        0.12690891325473785,
        -0.10071095079183578,
        -0.1634555459022522,
        -0.06430362910032272,
        0.17096014320850372,
        -0.2379126399755478,
        -0.08916950225830078,
        -0.025689423084259033,
        -0.036074697971343994,
        0.12406551092863083,
        -0.10463397204875946,
        0.1346047967672348,
        0.009794783778488636,
        -0.04130207747220993,
        -0.0833619087934494,
        -0.1279178410768509,
        0.23438440263271332,
        0.09360042959451675,
        0.0975707396864891,
        0.0614999420940876,
        -0.03978491574525833,
        -0.02437693439424038,
        0.2395840734243393,
        -0.1068362146615982,
        0.1560719907283783,
        -0.06384983658790588,
        -0.0026523428969085217,
        -0.1327970027923584,
        0.12283305078744888,
        -0.14917050302028656,
        0.07611332088708878,
        0.06689222157001495,
        0.3434358537197113,
        0.07945019751787186,
        0.05202370882034302,
        -0.24420621991157532,
        -0.1376826912164688,
        -0.20796066522598267,
        -0.18336400389671326,
        -0.02237403579056263,
        -0.010794100351631641,
        -0.08937099575996399,
        -0.09507126361131668,
        -0.1057652160525322,
        -0.05150865018367767,
        0.09438273310661316,
        0.021710878238081932,
        -0.21699510514736176,
        0.07159038633108139,
        -0.1769721359014511,
        -0.15913134813308716,
        -0.021353276446461678,
        -0.1574636846780777,
        -0.02101646363735199,
        0.2923136353492737,
        0.03817826882004738,
        -0.15161025524139404,
        0.10170859843492508,
        0.0497191920876503,
        0.05393704026937485,
        0.009117730893194675,
        -0.10392747819423676,
        0.09354191273450851,
        0.013240499421954155,
        0.04982104152441025,
        -0.14823201298713684,
        -0.036603398621082306,
        0.09598283469676971,
        0.06191011890769005,
        0.044623713940382004,
        0.15340204536914825,
        -0.17304515838623047,
        -0.0062420424073934555,
        0.05961998179554939,
        0.09760300815105438,
        -0.15112023055553436,
        -0.013541123829782009,
        -0.039546605199575424,
        -0.035880204290151596,
        -0.11911392956972122,
        -0.1313229203224182,
        0.2108500897884369,
        0.03053230047225952,
        -0.0008360964711755514,
        0.30215516686439514,
        -0.019457539543509483,
        0.09612992405891418,
        0.13642385601997375,
        0.07621168345212936,
        -0.07777953892946243,
        0.09115716814994812,
        -0.02291826158761978,
        -0.06854820251464844,
        -0.16459281742572784,
        -0.008902139961719513,
        0.23424680531024933,
        -0.1340007483959198,
        -0.13189327716827393,
        0.5439754724502563,
        0.08586614578962326,
        0.004211158957332373,
        0.11693874001502991,
        0.13088728487491608,
        0.11609897762537003,
        -0.04016873240470886,
        -0.015846753492951393,
        -0.08566409349441528,
        -0.12486457824707031,
        0.09566567093133926,
        -0.11548948287963867,
        0.33700498938560486,
        0.1537722945213318,
        0.020199859514832497,
        -0.12775732576847076,
        -0.20155924558639526,
        0.19229140877723694,
        0.1539631187915802,
        0.3168812692165375,
        0.0709957480430603,
        0.2757394313812256,
        -0.23443615436553955,
        -0.06395941227674484,
        -0.3090687394142151,
        0.27880755066871643,
        0.03591551259160042,
        0.02032153680920601,
        -0.08784624934196472,
        -0.04015287384390831,
        -0.10947708785533905,
        0.04509889706969261,
        -0.19133947789669037,
        -0.28141388297080994,
        -0.19966357946395874,
        -0.06170517951250076,
        0.01990407519042492,
        0.04227779060602188,
        -0.15285331010818481,
        -0.04288504272699356,
        -0.04886354133486748,
        -0.16678817570209503,
        0.03308996930718422,
        -0.0015243635280057788,
        0.16346906125545502,
        -0.14966712892055511,
        0.1250799149274826,
        -0.11317354440689087,
        0.10223792493343353,
        0.01222597062587738,
        -0.028280599042773247,
        0.09106689691543579,
        -0.12997077405452728,
        -0.0029594944790005684,
        -0.03587915375828743,
        -0.012295885942876339,
        -0.06050533056259155,
        0.23446151614189148,
        -0.07885527610778809,
        -0.0685402899980545,
        -0.002362521132454276,
        -0.21779845654964447,
        0.1764042228460312,
        -0.1282695084810257,
        0.048227280378341675,
        -0.10242482274770737,
        -0.037657398730516434,
        -0.14056584239006042,
        0.07559367269277573,
        -0.18711170554161072,
        0.1146969124674797,
        0.05921067297458649,
        0.08607832342386246,
        -0.037930119782686234,
        -0.07944617420434952,
        0.031103963032364845,
        0.20199045538902283,
        -0.011220047250390053,
        -0.14064009487628937,
        -0.34010130167007446,
        -0.005999118089675903,
        0.0741875171661377,
        -0.2399846613407135,
        0.23724599182605743,
        -0.014433218166232109,
        -0.11534170806407928,
        -0.10160678625106812,
        -0.021325569599866867,
        -0.03383805975317955,
        -0.02005695179104805,
        -0.04540306702256203,
        0.11093828082084656,
        0.00527380732819438,
        -0.34321075677871704,
        0.03342227265238762,
        0.1385527402162552,
        0.1542232483625412,
        -0.47862187027931213,
        0.12602978944778442,
        0.25933635234832764,
        -0.27143943309783936,
        0.0119162667542696,
        -0.030371898785233498,
        0.0739525556564331,
        -0.013407447375357151,
        0.18739446997642517,
        -0.023985950276255608,
        0.027644429355859756,
        0.08974748849868774,
        -0.5026006698608398,
        0.032396744936704636,
        -0.26341283321380615,
        0.3570941388607025,
        0.03358882665634155,
        0.288787305355072,
        -0.16198423504829407,
        0.030354754999279976,
        -0.22223611176013947,
        -0.05836943909525871,
        0.051697634160518646,
        0.3910306990146637,
        -0.14175671339035034,
        0.08379461616277695,
        -0.3248973488807678,
        0.1254875808954239,
        -0.07817485928535461,
        -0.2811118960380554,
        0.36624354124069214,
        0.5242732167243958,
        0.046036504209041595,
        0.2269422709941864,
        -0.21231935918331146,
        0.2093168944120407,
        0.09100989997386932,
        -0.19929586350917816,
        -0.2876347005367279,
        0.2416291981935501,
        -0.15180239081382751,
        -0.24585548043251038,
        0.022342845797538757,
        0.20790092647075653,
        -0.06692042201757431,
        -0.036953411996364594,
        -0.12850628793239594,
        -0.3222586512565613,
        0.21696370840072632,
        -0.06483858823776245,
        -0.11484897881746292,
        0.2072233408689499,
        -0.02917621098458767,
        0.08077862858772278,
        0.05815504118800163,
        0.060482628643512726,
        -0.005444115027785301,
        0.21465668082237244,
        0.05890033394098282,
        -0.09342558681964874,
        0.01894197426736355,
        -0.14685046672821045,
        0.12003426998853683,
        -0.042750246822834015,
        0.12885405123233795,
        -0.019468646496534348,
        0.0007353157270699739,
        -0.08564823120832443,
        0.010154318064451218,
        -0.14824342727661133,
        -0.09791477769613266,
        -0.10762467980384827,
        -0.08371515572071075,
        0.1085977628827095,
        0.08247674256563187,
        0.06346818059682846,
        0.13217513263225555,
        0.8439032435417175,
        0.08181808888912201,
        -0.3132481276988983,
        0.1473151296377182,
        0.1795479655265808,
        0.07956009358167648,
        0.006345692090690136,
        0.06886982172727585,
        -0.09445149451494217,
        -0.04753120616078377,
        -0.0772872269153595,
        -0.21366778016090393,
        0.1856553852558136,
        -0.13675598800182343,
        0.0055838050320744514,
        -0.21467797458171844,
        0.22090861201286316,
        -0.18077610433101654,
        0.01833653263747692,
        0.16046158969402313,
        0.18879130482673645,
        0.05285797268152237,
        0.014584660530090332,
        -0.059601008892059326,
        0.07077224552631378,
        0.03311484679579735,
        -0.20150277018547058,
        0.08840881288051605,
        -0.054092634469270706,
        0.036804135888814926,
        -0.0027739759534597397,
        -0.021351614966988564,
        0.19187809526920319,
        -0.02259530872106552,
        0.20133404433727264,
        -0.228890061378479,
        0.10307487100362778,
        -0.21952766180038452,
        -0.01467420719563961,
        -0.2304116189479828,
        0.06297777593135834,
        -0.09895121306180954,
        0.050675783306360245,
        -0.03427128866314888,
        0.19686740636825562,
        -0.11055537313222885,
        0.19347859919071198,
        -0.18065978586673737,
        -0.052351243793964386,
        -0.12840446829795837,
        -0.0690632238984108,
        -0.07640212029218674,
        -0.4100381135940552,
        -0.2053593248128891,
        0.05418877676129341,
        0.001811005175113678,
        -0.1586562544107437,
        -0.04206748306751251,
        -0.12926258146762848,
        -0.13696707785129547,
        -0.07000257074832916,
        0.2314058244228363,
        0.13730274140834808,
        0.13070139288902283,
        0.07302409410476685,
        -0.15337170660495758,
        0.16445788741111755,
        -0.08932370692491531,
        0.08372663706541061,
        0.08108256757259369,
        0.12207964807748795,
        -0.1655232459306717,
        -0.08748223632574081,
        0.08601276576519012,
        0.11113101243972778,
        0.10556405782699585,
        0.004538748878985643,
        0.035807136446237564,
        -0.09814411401748657,
        -0.2462330311536789,
        0.2528717517852783,
        0.3335508704185486,
        -0.560506284236908,
        0.19890928268432617,
        -0.7667656540870667,
        -0.26102232933044434,
        -0.4233193099498749,
        0.7845479846000671,
        -0.8041278123855591,
        -0.5496032238006592,
        -0.8091474175453186,
        0.16655635833740234,
        -0.8022139668464661,
        0.2640879452228546,
        -0.6341081857681274,
        -0.10448635369539261,
        -0.2016621083021164,
        0.0008295173174701631,
        0.2644592523574829,
        0.3682664930820465,
        0.0016273078508675098,
        -0.2377607375383377,
        -0.061514709144830704,
        -0.3372892141342163,
        -0.1056724265217781,
        0.20442432165145874,
        0.16840706765651703,
        0.11517035216093063,
        -0.04483948275446892,
        -0.004168306477367878,
        0.016075260937213898,
        0.022078251466155052,
        -0.2780565321445465,
        0.21249765157699585,
        0.016177965328097343,
        -0.3272857964038849,
        0.2966606616973877,
        -0.14687687158584595,
        -0.46130743622779846,
        0.072091244161129,
        -0.5349491834640503,
        0.2939276099205017,
        0.19151946902275085,
        0.21984396874904633,
        0.142286017537117,
        0.02243776060640812,
        0.037429191172122955,
        -0.1588928997516632,
        -0.05028648301959038,
        -0.09865087270736694,
        0.2934364080429077,
        -0.18264934420585632,
        0.45310527086257935,
        -0.16473734378814697,
        0.044061556458473206,
        -0.03798150643706322,
        0.042512182146310806,
        -0.23278570175170898,
        -0.4078930616378784,
        0.16835851967334747,
        0.1617140769958496,
        0.0480620414018631,
        0.0983501523733139,
        0.3280528485774994,
        0.17911681532859802,
        -0.3159688711166382,
        -0.07448253780603409,
        -0.12824402749538422,
        0.08642703294754028,
        -0.4004074037075043,
        -0.18711628019809723,
        -0.20251138508319855,
        0.13490192592144012,
        0.15211379528045654,
        0.38494420051574707,
        0.4280119836330414,
        -0.04701964929699898,
        -0.24347735941410065,
        0.341661661863327,
        0.32458367943763733,
        -0.06790224462747574,
        -0.16085359454154968,
        -0.20089134573936462,
        0.36508414149284363,
        -0.29624322056770325,
        -0.1710032969713211,
        0.07486286014318466,
        0.291880339384079,
        -0.11916506290435791,
        -0.00513926986604929,
        0.3331318497657776,
        0.044853731989860535,
        -0.2247442752122879,
        -0.1375429332256317,
        -0.12404906004667282,
        -0.5022276043891907,
        -0.15472280979156494,
        -0.22295553982257843,
        0.08184465020895004,
        0.350553959608078,
        -0.0707111582159996,
        0.07335271686315536,
        -0.17468078434467316,
        -0.024786027148365974,
        0.23613934218883514,
        -0.11607401072978973,
        -0.2583690881729126,
        -0.25316792726516724,
        -0.29990437626838684,
        0.47323378920555115,
        -0.012908474542200565,
        0.14187636971473694,
        0.5814778804779053,
        -0.09861329942941666,
        -0.2647128701210022,
        0.04158651456236839,
        0.15182390809059143,
        -0.6217881441116333,
        -0.04779062420129776,
        -0.07252516597509384,
        0.541981041431427,
        -0.5372362732887268,
        0.10124984383583069,
        0.17444586753845215,
        -0.13885273039340973,
        -0.415432333946228,
        0.4222332537174225,
        0.17883966863155365,
        0.09286607056856155,
        -0.013107862323522568,
        0.12199816107749939,
        0.1509522944688797,
        -0.2448371797800064,
        -0.1609468162059784,
        0.05068041756749153,
        -0.05161355808377266,
        0.08670338988304138,
        -0.1591714322566986,
        0.1209951713681221,
        -0.056228578090667725,
        0.0745236799120903,
        0.056963685899972916,
        0.07005110383033752,
        -0.04231194034218788,
        0.2043200135231018,
        -0.20327197015285492,
        -0.08266332745552063,
        -0.3930697441101074,
        0.026835113763809204,
        -0.10916533321142197,
        -0.16586646437644958,
        -0.026852520182728767,
        0.10142389684915543,
        0.23818130791187286,
        -0.1256125569343567,
        0.018238961696624756,
        0.22499215602874756,
        -0.11088941246271133,
        0.34770530462265015,
        -0.09625297039747238,
        0.028779953718185425,
        -0.0676981657743454,
        0.04796818643808365,
        0.3195207715034485,
        -0.2768239378929138,
        0.20451031625270844,
        -0.06790796667337418,
        0.02747056633234024,
        -0.030074216425418854,
        0.14922823011875153,
        0.21100348234176636,
        0.11505234986543655,
        -0.1704762876033783,
        0.039663489907979965,
        -0.22640199959278107,
        -0.2360454499721527,
        -0.08675308525562286,
        -0.08854556083679199,
        0.16258661448955536,
        0.030697932466864586,
        0.06498529762029648,
        0.009080111980438232,
        -0.07549399137496948,
        0.16331642866134644,
        0.33565154671669006,
        -0.3507188558578491,
        0.11194311082363129,
        -0.0015795532381162047,
        0.009360608644783497,
        0.07068323343992233,
        0.05774608626961708,
        0.049222126603126526,
        0.5055100917816162,
        -0.41582566499710083,
        0.12161627411842346,
        -0.20068052411079407,
        0.107752725481987,
        0.006782205309718847,
        0.28173407912254333,
        -0.39800161123275757,
        0.23652717471122742,
        0.34137824177742004,
        -0.21528057754039764,
        0.10398813337087631,
        0.027823474258184433,
        -0.04931200295686722,
        0.08623755723237991,
        0.05801630765199661,
        -0.37499868869781494,
        -0.23211313784122467,
        -0.0036973769310861826,
        0.28114819526672363,
        0.018646175041794777,
        -0.03218813240528107,
        0.13225944340229034,
        -0.13517098128795624,
        0.13822461664676666,
        -0.2814473509788513,
        0.07502095401287079,
        0.01247433666139841,
        -0.2880089581012726,
        -0.04066913574934006,
        0.2750641107559204,
        -0.0027283169329166412,
        0.07923637330532074,
        -0.126808762550354,
        0.2865402102470398,
        -0.023338334634900093,
        0.04606958106160164,
        -0.017398614436388016,
        -0.16241396963596344,
        0.03655753657221794,
        -0.03867541626095772,
        -0.0341939814388752,
        -0.010563023388385773,
        0.14634418487548828,
        0.0328320749104023,
        -0.020374426618218422,
        -0.20622456073760986,
        -0.0046364315785467625,
        0.38917073607444763,
        -0.2616245150566101,
        0.04119456931948662,
        -0.06543710827827454,
        -0.07355257868766785,
        0.028006795793771744,
        -0.12813453376293182,
        -0.03052920289337635,
        0.314492404460907,
        -0.1700286567211151,
        -0.06240294873714447,
        0.03345468267798424,
        0.12875382602214813,
        0.327833354473114,
        0.39481428265571594,
        0.039309848099946976,
        -0.22074204683303833,
        -0.055858314037323,
        -0.02925179712474346,
        -0.2755151093006134,
        0.17707328498363495,
        -0.16211068630218506,
        0.07752849906682968,
        0.15165995061397552,
        -0.3732970058917999,
        0.3154173493385315,
        0.037961576133966446,
        -0.12466513365507126,
        0.34968939423561096,
        -0.2034006416797638,
        -0.2961011230945587,
        -0.10897421091794968,
        -0.04248848930001259,
        0.009843849577009678,
        -0.04191027581691742,
        -0.17956656217575073,
        -0.05561753362417221,
        0.14143896102905273,
        0.19325613975524902,
        0.08248072862625122,
        0.10921812802553177,
        -0.014899585396051407,
        -0.13031336665153503,
        0.06380490958690643,
        -0.12962913513183594,
        0.0204788725823164,
        -0.033818963915109634,
        -0.06146813929080963,
        -0.29836976528167725,
        -0.25704798102378845,
        0.04490465298295021,
        0.02302495762705803,
        -0.16176645457744598,
        0.24407082796096802,
        0.08071977645158768,
        0.014770927838981152,
        0.07615939527750015,
        -0.07351543754339218,
        -0.15635846555233002,
        0.09538861364126205,
        0.08854342252016068,
        0.02288147434592247,
        0.018825693055987358,
        -0.03424016386270523,
        0.06861037760972977,
        -0.26120397448539734,
        -0.24183474481105804,
        0.05264204367995262,
        -0.011109362356364727,
        0.11669063568115234,
        -0.18598215281963348,
        -0.08463557064533234,
        0.07174424082040787,
        -0.017610911279916763,
        0.07772916555404663,
        0.07668890058994293,
        -0.07007792592048645,
        -0.1565985083580017,
        -0.10037848353385925,
        -0.06451937556266785,
        0.11716771125793457,
        -0.026450591161847115,
        0.11794154345989227,
        0.1911170929670334,
        0.2224711775779724,
        0.14588165283203125,
        0.0023105402942746878,
        0.14026154577732086,
        -0.2019091248512268,
        0.016855940222740173,
        -0.2501649260520935,
        -0.21630150079727173,
        0.017930299043655396,
        -0.18483710289001465,
        -0.10854190587997437,
        -0.09922205656766891,
        0.039439063519239426,
        -0.04480050876736641,
        0.4547630846500397,
        -0.4394512176513672,
        -0.041998885571956635,
        0.20738135278224945,
        -0.15957818925380707,
        0.23692218959331512,
        0.049524325877428055,
        -0.1989603489637375,
        -0.17406778037548065,
        0.11807382851839066,
        -0.010987087152898312,
        -0.12232600897550583,
        0.23703961074352264,
        -0.0602375864982605,
        0.2539968490600586,
        0.232317253947258,
        -0.270712673664093,
        0.12681692838668823,
        0.03504283353686333,
        0.0523853525519371,
        0.049537479877471924,
        0.061150141060352325,
        -0.1900683045387268,
        -0.08938945829868317,
        0.11339325457811356,
        0.3456932604312897,
        -0.028671402484178543,
        0.1791086345911026,
        -0.049221765249967575,
        0.033176489174366,
        -0.1755027323961258,
        -0.3727642297744751,
        -0.04938843473792076,
        0.3708052337169647,
        0.3516181707382202,
        0.009812231175601482,
        0.19862893223762512,
        -0.18341340124607086,
        -0.08637809753417969,
        -0.1306135505437851,
        -0.006316392216831446,
        0.028120584785938263,
        -0.08074206858873367,
        -0.2130655199289322,
        -0.15802419185638428,
        0.10396818816661835,
        -0.2711290419101715,
        -0.05291526019573212,
        -0.07955039292573929,
        0.24346767365932465,
        -0.030450625345110893,
        0.000838140316773206,
        -0.007130082696676254,
        0.23320063948631287,
        -0.08253060281276703,
        -0.08065644651651382,
        0.23898157477378845,
        0.08550119400024414,
        -0.04930197820067406,
        0.05653548240661621,
        0.0009995397413149476,
        -0.03779512271285057,
        0.09034348279237747,
        0.0012152005219832063,
        -0.128652885556221,
        0.2305181473493576,
        -0.07852626591920853,
        0.04028020799160004,
        -0.036326393485069275,
        0.06686128675937653,
        -0.0589357428252697,
        0.083423912525177,
        0.05445354804396629,
        0.046869099140167236,
        -0.14345712959766388,
        -0.14654722809791565,
        0.02488737739622593,
        0.06134519353508949,
        -0.02072862535715103,
        -0.17721347510814667,
        0.14964322745800018,
        0.06453950703144073,
        -0.14045225083827972,
        0.14082302153110504,
        -0.1488686352968216,
        -0.05646476149559021,
        0.14311742782592773,
        0.17628146708011627,
        -0.19302424788475037,
        0.031799331307411194,
        -0.019950969144701958,
        0.20033563673496246,
        0.05806393548846245,
        -0.2197999358177185,
        -0.3795913755893707,
        0.20733070373535156,
        -0.24467216432094574,
        0.17722585797309875,
        -0.10239800810813904,
        0.03734014183282852,
        0.03877134248614311,
        -0.31726738810539246,
        0.0009023211314342916,
        -0.37553825974464417,
        -0.0353199765086174,
        0.03884207457304001,
        -0.10865432769060135,
        0.09229006618261337,
        0.017361249774694443,
        -0.025973403826355934,
        0.11213748902082443,
        0.08253182470798492,
        -0.10486001521348953,
        -0.1780373752117157,
        0.04463592916727066,
        0.0986737459897995,
        0.11755600571632385,
        -0.022349044680595398,
        -0.08382993191480637,
        -0.08272932469844818,
        0.012001202441751957,
        0.009581797756254673,
        0.04704505577683449,
        0.002376068150624633,
        -0.09690257161855698,
        -0.049483295530080795,
        0.20911693572998047,
        -0.4709329307079315,
        -0.13858668506145477,
        0.015985960140824318,
        -0.333578497171402,
        0.18981631100177765,
        0.09271879494190216,
        -0.12842707335948944,
        0.09387961030006409,
        0.1097680926322937,
        -0.21578003466129303,
        0.06890594214200974,
        -0.07227356731891632,
        0.12493889778852463,
        -0.007997759617865086,
        0.18608029186725616,
        -0.04650450125336647,
        -0.21049602329730988,
        0.07560516148805618,
        0.17084579169750214,
        0.09337195754051208,
        0.3312859833240509,
        0.16852663457393646,
        -0.15561513602733612,
        -0.07200354337692261,
        0.23622532188892365,
        -0.11043928563594818,
        -0.2914820909500122,
        -0.008554557338356972,
        0.061130013316869736,
        0.07744970172643661,
        0.22583544254302979,
        -0.06171994283795357,
        -0.3399680554866791,
        0.2383108288049698,
        -0.05167701095342636,
        -0.15617360174655914,
        -0.02394878678023815,
        0.17507801949977875,
        0.11564356088638306,
        -0.15961052477359772,
        0.0182848758995533,
        -0.08017364889383316,
        0.14528869092464447,
        0.11325287073850632,
        0.019574711099267006,
        -0.023714667186141014,
        -0.07495717704296112,
        0.14028380811214447,
        0.007970825769007206,
        -0.11488385498523712,
        0.030883515253663063,
        0.11934851109981537,
        -0.15574301779270172,
        0.07180549204349518,
        -0.12292644381523132,
        -0.03478782996535301,
        0.027034275233745575,
        -0.1288793385028839,
        0.06781509518623352,
        0.17191888391971588,
        -0.24100561439990997,
        -0.15334726870059967,
        0.0071249352768063545,
        -0.2490093857049942,
        -0.10999733209609985,
        0.2028759866952896,
        -0.10971126705408096,
        -0.01522173173725605,
        0.07389957457780838,
        -0.14357027411460876,
        -0.030678443610668182,
        0.041401877999305725,
        -0.3292151093482971,
        -0.04378413036465645,
        0.005352573003619909,
        -0.10850979387760162,
        -0.01595410332083702,
        -0.19331170618534088,
        -0.29760634899139404,
        0.19563226401805878,
        -0.3660023808479309,
        -0.04889713600277901,
        -0.07458610087633133,
        -0.059262052178382874,
        -0.16477881371974945,
        0.08124630153179169,
        0.09388455003499985,
        -0.10958073288202286,
        -0.14889760315418243,
        -0.06589656323194504,
        0.07414476573467255,
        0.03878621757030487,
        -0.029275164008140564,
        -0.07436219602823257,
        0.025273434817790985,
        0.15362319350242615,
        0.006881349254399538,
        0.15537972748279572,
        0.28557732701301575,
        -0.14922043681144714,
        -0.11042474210262299,
        0.027604030445218086,
        0.05434933677315712,
        0.08855541795492172,
        0.02384505793452263,
        -0.1665080040693283,
        0.05792553350329399,
        0.09122183918952942,
        0.07798819988965988,
        -0.0029676477424800396,
        0.2377050518989563,
        0.05139724537730217,
        0.0505206398665905,
        0.07692059874534607,
        -0.1155695840716362,
        -0.11546827107667923,
        0.08407040685415268,
        -0.003026068676263094,
        -0.10575156658887863,
        0.17765238881111145,
        0.28568968176841736,
        0.03166591748595238,
        0.02964940294623375,
        -0.05281062051653862,
        0.05225859209895134,
        -0.08701688796281815,
        0.024635467678308487,
        0.05685999244451523,
        0.0022159884683787823,
        -0.012524177320301533,
        0.12767456471920013,
        0.22781911492347717,
        0.006311044562608004,
        -0.1326524317264557,
        -0.2844468355178833,
        -0.03038725070655346,
        0.07867390662431717,
        0.2921655774116516,
        0.23066169023513794,
        -0.07490407675504684,
        -0.36645299196243286,
        0.06642256677150726,
        9.315333591075614e-05,
        0.0723312646150589,
        0.13744758069515228,
        -0.12455497682094574,
        -0.09565751999616623,
        -0.026309821754693985,
        0.011289377696812153,
        -0.0015621006023138762,
        -0.04718918725848198,
        -0.0643058717250824,
        -0.23231135308742523,
        0.08963022381067276,
        -0.016422485932707787,
        -0.03211948275566101,
        -0.030117172747850418,
        -0.012156608514487743,
        -0.1610633283853531,
        0.0061210342682898045,
        -0.06982876360416412,
        -0.022046202793717384,
        0.03415076062083244,
        -0.004727537743747234,
        -0.010208488442003727,
        -0.0019960415083914995,
        -0.01137973740696907,
        -0.08668306469917297,
        -0.2709435224533081,
        -0.0854916125535965,
        -0.10300466418266296,
        0.016196124255657196,
        -0.1457754224538803,
        0.0015957513824105263,
        -0.0771988034248352,
        0.10191617906093597,
        -0.1443186104297638,
        -0.22975151240825653,
        0.14962710440158844,
        -0.0423441082239151,
        0.07111131399869919,
        0.005472403019666672,
        0.05478416383266449,
        0.025434130802750587,
        -0.08648151159286499,
        -0.23359046876430511,
        0.01331537589430809,
        -0.138311505317688,
        0.1260012537240982,
        -0.22413933277130127,
        0.05513452738523483,
        0.12237357348203659,
        -0.18146659433841705,
        -0.03607657179236412,
        0.20419295132160187,
        -0.15259838104248047,
        -0.02519514597952366,
        -0.12152238190174103,
        -0.11192124336957932,
        0.08421160280704498,
        0.17801916599273682,
        -0.20346540212631226,
        0.1733805239200592,
        -0.17439930140972137,
        0.015924405306577682,
        -0.027344059199094772,
        -0.34782901406288147,
        0.09871668368577957,
        -0.13035650551319122,
        -0.0355551615357399,
        -0.041407883167266846,
        0.04219464212656021,
        -0.0572572685778141,
        0.16531877219676971,
        0.08085960894823074,
        -0.22849053144454956,
        0.02919721230864525,
        0.015318135730922222,
        -0.0857539027929306,
        -0.15391160547733307,
        -0.0063209389336407185,
        0.21826210618019104,
        0.14853571355342865,
        -0.02244010753929615,
        0.08490198105573654,
        -0.08940733969211578,
        -0.18177960813045502,
        -0.03864853456616402,
        -0.17962408065795898,
        0.0009589102119207382,
        0.05415783077478409,
        0.0016891414998099208,
        0.02533962018787861,
        -0.1817135214805603,
        -0.05570198595523834,
        0.14268437027931213,
        0.2207881659269333,
        0.12831319868564606,
        -0.17933273315429688,
        -0.2939317226409912,
        0.14294154942035675,
        0.06614943593740463,
        -0.19832399487495422,
        -0.15427713096141815,
        -0.12846356630325317,
        -0.15912282466888428,
        0.0469733402132988,
        0.17941081523895264,
        0.15677650272846222,
        0.14746370911598206,
        0.03795606642961502,
        0.018448656424880028,
        0.08743549138307571,
        0.04628489539027214,
        -0.20897987484931946,
        0.15020859241485596,
        -0.02298598363995552,
        -0.11012013256549835,
        -0.12056832760572433,
        0.30231764912605286,
        -0.18283653259277344,
        -0.14761623740196228,
        0.1559731364250183,
        -0.1106797531247139,
        0.03040722757577896,
        -0.28672102093696594,
        0.10861191153526306,
        0.12884865701198578,
        0.018119890242815018,
        0.046266961842775345,
        -0.21775469183921814,
        0.3002600073814392,
        0.16599881649017334,
        0.06922344118356705,
        -0.2126239538192749,
        0.2082969844341278,
        -0.1433093547821045,
        -0.1264304518699646,
        -0.2382832020521164,
        -0.16772839426994324,
        0.0755714476108551,
        0.3505597412586212,
        -0.01956304721534252,
        -0.04388703778386116,
        0.014296225272119045,
        0.04693351686000824,
        0.10755116492509842,
        -0.3700273633003235,
        0.11776042729616165,
        -0.36935514211654663,
        0.0388675332069397,
        0.05612477660179138,
        -0.22661036252975464,
        -0.2454109638929367,
        -0.2798382043838501,
        -0.08725554496049881,
        -0.07093284279108047,
        0.12976039946079254,
        -0.28609392046928406,
        -0.14916706085205078,
        0.012427358888089657,
        -0.12885519862174988,
        -0.30758413672447205,
        -0.16293923556804657,
        -0.05432393401861191,
        0.0022450631950050592,
        0.2500957250595093,
        0.044132985174655914,
        -0.2309330254793167,
        0.10361547768115997,
        0.10013995319604874,
        0.07770272344350815,
        0.06919637322425842,
        0.07516855746507645,
        0.3956409692764282,
        -0.1106906533241272,
        0.055947769433259964,
        -0.049604326486587524,
        -0.02265779860317707,
        -0.0627589002251625,
        0.25410279631614685,
        0.2435472309589386,
        0.014296301640570164,
        0.19638389348983765,
        0.08574391156435013,
        -0.15200765430927277,
        -0.11085344851016998,
        0.18258820474147797,
        0.11132508516311646,
        0.14017412066459656,
        -0.022215591743588448,
        -0.01816519908607006,
        -0.029713086783885956,
        0.029504619538784027,
        0.18354153633117676,
        -0.19052758812904358,
        -0.027157030999660492,
        0.0938447043299675,
        -0.016713745892047882,
        -0.1653558909893036,
        0.05377700552344322,
        -0.05603748932480812,
        -0.14745104312896729,
        -0.0429072268307209,
        -0.17988798022270203,
        0.11342725157737732,
        -0.28391996026039124,
        -0.05062941834330559,
        -0.0303536094725132,
        0.07177094370126724,
        0.0084067452698946,
        0.17536002397537231,
        0.13843728601932526,
        -0.28831198811531067,
        -0.16853365302085876,
        0.0025512308347970247,
        0.005106747150421143,
        -0.016665272414684296,
        0.0758228749036789,
        -0.11576072871685028,
        0.16561387479305267,
        -0.011572577990591526,
        0.019478725269436836,
        0.04606015607714653,
        0.06293254345655441,
        -0.04920278489589691,
        -0.16231726109981537,
        -0.09852954000234604,
        0.2711707055568695,
        0.05272921174764633,
        -0.05583471432328224,
        0.15251484513282776,
        -0.07415738701820374,
        -0.1955336630344391,
        -0.12961210310459137,
        0.14586374163627625,
        -0.1607191562652588,
        -0.10888709872961044,
        -0.13235969841480255,
        -0.15635988116264343,
        -0.06670321524143219,
        -0.0391206257045269,
        -0.1177346408367157,
        0.19557927548885345,
        0.07616616785526276,
        -0.06699821352958679,
        -0.06066590175032616,
        0.023315224796533585,
        0.11488885432481766,
        -0.04876679182052612,
        -0.053938113152980804,
        0.049311377108097076,
        0.10871972143650055,
        -0.05643049255013466,
        -0.0648336187005043,
        -0.00014223941252566874,
        -0.008413540199398994,
        -0.07200644910335541,
        0.16639819741249084,
        -0.26824313402175903,
        0.08174446225166321,
        -0.40051597356796265,
        0.12751679122447968,
        -0.025152361020445824,
        -0.21658390760421753,
        -0.19742660224437714,
        -0.0006276813219301403,
        0.10579624772071838,
        -0.06497566401958466,
        0.021637551486492157,
        0.12206361442804337,
        0.08750426024198532,
        0.05918007344007492,
        -0.11140378564596176,
        -0.061886128038167953,
        -0.10547713935375214,
        0.011163388378918171,
        0.014217706397175789,
        -0.08099828660488129,
        -0.007062919903546572,
        0.0057678320445120335,
        0.032552268356084824,
        0.1482524573802948,
        -0.0851624459028244,
        0.14462906122207642,
        -0.25381842255592346,
        0.005616010632365942,
        -0.04681030288338661,
        0.00043371666106395423,
        0.043282173573970795,
        -0.0966363400220871,
        0.38407325744628906,
        -0.015127956867218018,
        0.22170135378837585,
        0.018589431419968605,
        -0.16870616376399994,
        0.038141462951898575,
        0.071920245885849,
        0.16566213965415955,
        0.13472123444080353,
        0.0041103302501142025,
        0.05585312098264694,
        -0.2410929948091507,
        0.3836213946342468,
        0.042945533990859985,
        0.18029624223709106,
        -0.06317230314016342,
        0.21005593240261078,
        0.02149791456758976,
        0.24758358299732208,
        0.15202131867408752,
        -0.09564335644245148,
        -0.053172290325164795,
        0.0033017408568412066,
        0.06743834167718887,
        -0.08083522319793701,
        -0.16857488453388214,
        0.024056004360318184,
        0.059417881071567535,
        0.08997105062007904,
        0.07391810417175293,
        -0.04409186542034149,
        -0.06038298085331917,
        0.15033826231956482,
        0.2945481240749359,
        -0.2860527038574219,
        0.0863194540143013,
        0.1758289784193039,
        -0.020647605881094933,
        -0.27514562010765076,
        -0.0541435070335865,
        0.06572633236646652,
        0.08927887678146362,
        0.18725423514842987,
        -0.0885842815041542,
        0.026693638414144516,
        -0.03920453414320946,
        -0.034444764256477356,
        0.0036686696112155914,
        -0.29437708854675293,
        0.028788825497031212,
        0.08461271226406097,
        -0.11118738353252411,
        0.011129012331366539,
        -0.07380572706460953,
        0.030277252197265625,
        0.13824281096458435,
        -0.07919331640005112,
        -0.04126342013478279,
        -0.1508675366640091,
        -0.052056584507226944,
        -0.18206098675727844,
        0.1488742083311081,
        0.030899545177817345,
        -0.02990543469786644,
        -0.10854503512382507,
        0.14417287707328796,
        -0.34127625823020935,
        -0.07688119262456894,
        0.030137082561850548,
        0.06652773916721344,
        -0.08681340515613556,
        0.14784885942935944,
        -0.1249566376209259,
        -0.16112682223320007,
        0.08048062771558762,
        -0.011190245859324932,
        -0.05321909487247467,
        -0.14048899710178375,
        0.20953942835330963,
        -0.1339166760444641,
        -0.1022355705499649,
        0.1066044494509697,
        -0.01860632747411728,
        0.011084530502557755,
        -0.10558463633060455,
        -0.13451489806175232,
        -0.002515546279028058,
        0.08045372366905212,
        -0.13827528059482574,
        0.032244231551885605,
        0.02327483519911766,
        -0.021714167669415474,
        0.10536814481019974,
        0.04340948536992073,
        0.04792797192931175,
        0.01284036971628666,
        -0.03717687353491783,
        0.03327931836247444,
        -0.09634072333574295,
        0.03822266310453415,
        -0.046807896345853806,
        0.013196105137467384,
        -0.05296318605542183,
        -0.01997077651321888,
        0.10114063322544098,
        0.1022171601653099,
        -0.22620294988155365,
        -0.09685665369033813,
        -0.024241182953119278,
        0.20694035291671753,
        -0.1412084847688675,
        0.001073074876330793,
        -0.01171310618519783,
        0.04797232896089554,
        0.06799548119306564,
        -0.1453925371170044,
        0.20209185779094696,
        -0.024968693032860756,
        0.20506122708320618,
        0.08447368443012238,
        -0.0286017544567585,
        0.361015647649765,
        0.22166629135608673,
        -0.14853695034980774,
        0.1329265534877777,
        -0.008160233497619629,
        0.04750615730881691,
        -0.05381765589118004,
        -0.20885628461837769,
        0.25345197319984436,
        0.217585489153862,
        0.161552295088768,
        -0.02177984081208706,
        0.22048281133174896,
        0.20585308969020844,
        0.1004476323723793,
        -0.04882373660802841,
        0.01614912785589695,
        -0.212180495262146,
        0.08816173672676086,
        -0.019758479669690132,
        0.04502285644412041,
        -0.20342060923576355,
        -0.03582657501101494,
        -0.03886793926358223,
        0.2291436344385147,
        0.20428022742271423,
        -0.030884815379977226,
        0.4148644506931305,
        -0.27126893401145935,
        0.0018242428777739406,
        0.12248168140649796,
        -0.01386011391878128,
        0.14985546469688416,
        0.01359972357749939,
        0.011830586940050125,
        -0.08987673372030258,
        -0.405632883310318,
        0.05376151204109192,
        0.1340983808040619,
        0.10334106534719467,
        -0.018208876252174377,
        -0.07784225046634674,
        0.11386041343212128,
        -0.0022634181659668684,
        -0.09945916384458542,
        -0.03270978480577469,
        0.062240876257419586,
        0.06179179251194,
        0.07973203808069229,
        0.03889905661344528,
        -0.0075980075635015965,
        0.05989706888794899,
        -0.04212825745344162,
        0.08042503893375397,
        -0.16286085546016693,
        -0.3441431224346161,
        0.7920517325401306,
        0.41233116388320923,
        -0.3415335416793823,
        0.31017667055130005,
        -0.14991582930088043,
        0.17815153300762177,
        0.508211612701416,
        -0.9176689982414246,
        0.8868670463562012,
        0.40506410598754883,
        -0.014390720054507256,
        -0.46541863679885864,
        0.16536593437194824,
        -0.6361699104309082,
        0.36032187938690186,
        -0.18345344066619873,
        -0.000508361030369997,
        -0.4147382974624634,
        0.06472113728523254,
        0.4225721061229706,
        0.13824668526649475,
        0.07546854019165039,
        0.14085108041763306,
        0.08618389815092087,
        -0.08421311527490616,
        -0.20251797139644623,
        -0.6131546497344971,
        0.15725326538085938,
        -0.1825072467327118,
        -0.20683133602142334,
        0.6470463871955872,
        0.12167835235595703,
        0.1520088165998459,
        0.027974165976047516,
        0.30850687623023987,
        0.09180518984794617,
        0.02041594870388508,
        -0.13039034605026245,
        -0.4027758240699768,
        -0.09342574328184128,
        0.007069903891533613,
        -0.4061768651008606,
        -0.0048700058832764626,
        0.32225528359413147,
        -0.08250624686479568,
        0.05908685550093651,
        0.132854625582695,
        -0.0026881908997893333,
        0.01637258753180504,
        -0.43326207995414734,
        0.17927998304367065,
        -0.22589229047298431,
        0.025305092334747314,
        -0.2090103030204773,
        -0.09753964096307755,
        -0.005630146246403456,
        -0.10480073094367981,
        0.2991509437561035,
        0.3239803910255432,
        -0.22117988765239716,
        0.061771705746650696,
        0.18095311522483826,
        0.05503464117646217,
        -0.19243216514587402,
        0.20508083701133728,
        0.0036371301393955946,
        -0.09010940790176392,
        -0.15465043485164642,
        -0.2801262140274048,
        0.21071285009384155,
        0.5054054260253906,
        -0.1564282327890396,
        0.16742382943630219,
        0.42729493975639343,
        -0.16459773480892181,
        0.27224594354629517,
        0.03337644040584564,
        -0.18528319895267487,
        -0.006923450622707605,
        -0.15255655348300934,
        0.29683226346969604,
        0.24633707106113434,
        -0.019451096653938293,
        -0.1969767063856125,
        0.17514407634735107,
        -0.054756712168455124,
        -0.02242868021130562,
        0.0682070329785347,
        -0.09780354052782059,
        0.27011096477508545,
        -0.03915051370859146,
        -0.14740799367427826,
        0.1035308688879013,
        -0.15846797823905945,
        -0.07276909053325653,
        0.16708597540855408,
        -0.13534337282180786,
        -0.4189092814922333,
        -0.17997141182422638,
        0.3162415027618408,
        0.15620404481887817,
        0.12127361446619034,
        -0.16324040293693542,
        -0.1655971258878708,
        0.22297537326812744,
        0.09406758099794388,
        0.05506961792707443,
        -0.08933474868535995,
        0.3187270164489746,
        -0.0373479388654232,
        -0.303329199552536,
        0.004138564225286245,
        -0.1870250552892685,
        -0.16099844872951508,
        0.12140020728111267,
        0.06562017649412155,
        0.016060087829828262,
        0.004937989171594381,
        -0.11172380298376083,
        0.019910233095288277,
        0.13843116164207458,
        -0.3636252284049988,
        -0.020675862208008766,
        0.033739909529685974,
        -0.16455641388893127,
        0.2391374409198761,
        0.13248683512210846,
        0.11634045839309692,
        -0.1554764360189438,
        -0.11556761711835861,
        0.22771118581295013,
        -0.3554869592189789,
        0.11253270506858826,
        -0.19169221818447113,
        0.2083248347043991,
        -0.025529414415359497,
        0.04992515593767166,
        0.24669986963272095,
        -0.10337119549512863,
        0.07091016322374344,
        0.12988470494747162,
        0.08250289410352707,
        -0.21300123631954193,
        0.2972097098827362,
        -0.1647682785987854,
        0.10696862637996674,
        0.21011528372764587,
        0.07331738620996475,
        -0.1816769540309906,
        0.019153345376253128,
        -0.11444475501775742,
        0.03971383720636368,
        -0.05000182241201401,
        0.16445578634738922,
        -0.15779948234558105,
        -0.09504829347133636,
        -0.1320400834083557,
        0.07148844003677368,
        0.18858130276203156,
        -0.13648462295532227,
        -0.10389592498540878,
        0.43167033791542053,
        0.09328605234622955,
        0.2330266833305359,
        -0.09515689313411713,
        -0.17979790270328522,
        -0.07458927482366562,
        0.006277451757341623,
        -0.01842164807021618,
        -0.04215298593044281,
        -0.023950647562742233,
        -0.20041067898273468,
        0.1932247430086136,
        -0.21144035458564758,
        0.030039364472031593,
        -0.19443464279174805,
        -0.35860395431518555,
        -0.4375990927219391,
        0.2141372710466385,
        -0.059886496514081955,
        -0.025446441024541855,
        -0.015149551443755627,
        0.42470768094062805,
        -0.0570196658372879,
        -0.2516232132911682,
        0.10970859229564667,
        0.012697973288595676,
        -0.39729610085487366,
        0.038105450570583344,
        0.0699777826666832,
        0.23205898702144623,
        0.13528460264205933,
        0.03809507191181183,
        -0.03453730791807175,
        -0.04381592199206352,
        0.14192408323287964,
        0.2922461926937103,
        0.09316642582416534,
        -0.042046044021844864,
        -0.16381008923053741,
        -0.12384927272796631,
        0.12916551530361176,
        -0.16770093142986298,
        -0.340121865272522,
        0.08867150545120239,
        -0.03005398064851761,
        -0.3492664694786072,
        -0.26244422793388367,
        -0.14564381539821625,
        -0.07930590957403183,
        -0.011390210129320621,
        -0.021806739270687103,
        -0.24797457456588745,
        -0.21757328510284424,
        0.15893957018852234,
        0.16863635182380676,
        -0.002067901659756899,
        0.04111483693122864,
        -0.10083280503749847,
        0.17818886041641235,
        0.3062014579772949,
        -0.1775541454553604,
        -0.2874739468097687,
        0.21525055170059204,
        -0.3928111493587494,
        -0.36088240146636963,
        0.09958044439554214,
        -0.21835188567638397,
        0.18122123181819916,
        -0.2780618965625763,
        0.2651638984680176,
        0.031378936022520065,
        0.12222473323345184,
        -0.3307146728038788,
        -0.3061690926551819,
        -0.03300340846180916,
        -0.30811411142349243,
        0.1532542109489441,
        -0.1977088749408722,
        0.06920699775218964,
        -0.12693080306053162,
        -0.46269407868385315,
        -0.2452378273010254,
        -0.2662833631038666,
        0.2205076366662979,
        -0.40991008281707764,
        0.1065276488661766,
        0.1957409381866455,
        0.28679412603378296,
        0.2236601561307907,
        -0.27192312479019165,
        0.15246042609214783,
        0.0451255701482296,
        -0.13074712455272675,
        -0.06414054334163666,
        0.1453794538974762,
        -0.07081501185894012,
        -0.36622175574302673,
        -0.23040825128555298,
        -0.2569195032119751,
        0.006931793410331011,
        -0.17639170587062836,
        -0.08486838638782501,
        0.3196146488189697,
        0.2583933174610138,
        0.23601573705673218,
        -0.14570769667625427,
        0.0486271046102047,
        0.03265552595257759,
        0.1387070268392563,
        0.09295828640460968,
        0.013327288441359997,
        0.07805108278989792,
        0.06396842747926712,
        -0.09047623723745346,
        0.11988084018230438,
        0.12063004076480865,
        0.07885225117206573,
        -0.21615339815616608,
        -0.10225379467010498,
        0.007151936646550894,
        0.1270216703414917,
        0.17158715426921844,
        0.12593808770179749,
        0.1223226860165596,
        0.012400485575199127,
        0.10410845279693604,
        0.1063736230134964,
        0.02196691371500492,
        -0.546597421169281,
        -0.0015332119073718786,
        -0.12083031982183456,
        0.03618580102920532,
        -0.36894690990448,
        0.019000697880983353,
        -0.046205323189496994,
        0.22677406668663025,
        0.049406688660383224,
        0.05540122464299202,
        -0.03179875388741493,
        -0.22636684775352478,
        -0.04029814526438713,
        0.10843249410390854,
        -0.15836840867996216,
        0.30425161123275757,
        -0.03685550391674042,
        -0.17381006479263306,
        -0.12591445446014404,
        -0.02060089446604252,
        0.008410878479480743,
        0.031985994428396225,
        -0.2410559356212616,
        0.0811183974146843,
        -0.0731392502784729,
        0.20495274662971497,
        -0.09928335249423981,
        0.03613193333148956,
        -0.13090644776821136,
        0.21135066449642181,
        0.0861072987318039,
        -0.48315656185150146,
        -0.07243051379919052,
        0.039404962211847305,
        0.18916530907154083,
        0.1346604973077774,
        0.031155962496995926,
        -0.4695395827293396,
        -0.0023461112286895514,
        -0.013567137531936169,
        -0.2692960798740387,
        -0.19216834008693695,
        -0.011613131500780582,
        -0.3278980255126953,
        -0.1283043920993805,
        0.21375030279159546,
        0.23295095562934875,
        0.1489885449409485,
        0.4681278169155121,
        -0.18491074442863464,
        0.10891592502593994,
        -0.038486648350954056,
        0.2673344016075134,
        -0.0004697190597653389,
        -0.0034913443960249424,
        0.05731196328997612,
        -0.006762743461877108,
        0.0022708731703460217,
        -0.13361792266368866,
        0.09854820370674133,
        -0.0023949870374053717,
        0.026295406743884087,
        -0.141557976603508,
        0.06138378754258156,
        -0.02281925268471241,
        0.027086449787020683,
        -0.008663076907396317,
        0.0010334779508411884,
        -0.05304977670311928,
        -0.13384734094142914,
        0.03697897121310234,
        -0.06842124462127686,
        0.0052980477921664715,
        0.05803142488002777,
        0.01803533174097538,
        -0.1446898877620697,
        0.29247766733169556,
        -0.02744838036596775,
        0.06815733760595322,
        -0.17568904161453247,
        -0.1252378523349762,
        -0.13302697241306305,
        0.08992244303226471,
        -0.007237027864903212,
        -0.13816310465335846,
        0.3435462415218353,
        0.051152732223272324,
        0.08599326014518738,
        0.20576338469982147,
        0.1916975975036621,
        0.041567061096429825,
        0.21226948499679565,
        0.08102848380804062,
        0.05382721871137619,
        -0.2728022336959839,
        0.03905938193202019,
        -0.13385242223739624,
        0.207054004073143,
        -0.08021949231624603,
        -0.2042931318283081,
        -0.3357389271259308,
        0.13106629252433777,
        -0.14098182320594788,
        0.3236152231693268,
        0.011930598877370358,
        0.0465819388628006,
        0.10357777029275894,
        0.036004163324832916,
        -0.14802099764347076,
        -0.5206111669540405,
        -0.038250893354415894,
        0.6019336581230164,
