{
    "version": "0.5.0",
    "architecture": "WaveNet",
    "config": {
        "layers": [
            {
                "input_size": 1,
                "condition_size": 1,
                "head_size": 8,
                "channels": 16,
                "kernel_size": 3,
                "dilations": [
                    1,
                    2,
                    4,
                    8,
                    16,
                    32,
                    64,
                    128,
                    256,
                    512
                ],
                "activation": "Tanh",
                "gated": false,
                "head_bias": false
            },
            {
                "input_size": 16,
                "condition_size": 1,
                "head_size": 1,
                "channels": 8,
                "kernel_size": 3,
                "dilations": [
                    1,
                    2,
                    4,
                    8,
                    16,
                    32,
                    64,
                    128,
                    256,
                    512
                ],
                "activation": "Tanh",
                "gated": false,
                "head_bias": true
            }
        ],
        "head": null,
        "head_scale": 0.02
    },
    "weights": [
        -0.15042831003665924,
        0.6223596334457397,
        -0.873384416103363,
        -0.8608524799346924,
        -0.43040430545806885,
        0.6817238330841064,
        0.02611401118338108,
        0.8146639466285706,
        -0.07889807224273682,
        0.37821340560913086,
        -0.28963255882263184,
        -0.47957566380500793,
        -1.0965862274169922,
        -0.6051016449928284,
        -0.5495104193687439,
        0.3070766031742096,
        -0.007520204409956932,
        0.42239323258399963,
        -0.01967514492571354,
        0.10153167694807053,
        -0.17715196311473846,
        0.1704649031162262,
        -0.1946621984243393,
        0.3382348120212555,
        -0.07450626790523529,
        -0.1517941653728485,
        0.3595443665981293,
        -0.1880555897951126,
        -0.24828104674816132,
        0.2013494372367859,
        -0.10232365131378174,
        0.29780033230781555,
        -0.3417831361293793,
        -0.024276936426758766,
        -0.024375824257731438,
        0.08949059993028641,
        0.08662687987089157,
        0.28956323862075806,
        -0.1627131849527359,
        0.12259896099567413,
        -0.1562918871641159,
        0.10962973535060883,
        -0.05650985613465309,
        0.039607927203178406,
        -0.32710468769073486,
        -0.014089932665228844,
        -0.08416344970464706,
        0.2960010766983032,
        -0.13058479130268097,
        -0.17509935796260834,
        0.3355787694454193,
        0.09836062043905258,
        -0.1089034453034401,
        0.24973297119140625,
        0.04535689949989319,
        -0.2488318383693695,
        0.2506214380264282,
        -0.16694149374961853,
        -0.2637992799282074,
        0.16088347136974335,
        0.01845192350447178,
        0.21538054943084717,
        -0.37934744358062744,
        0.05855745077133179,
        -0.10353855043649673,
        0.02491902746260166,
        -0.10510208457708359,
        0.15821769833564758,
        -0.050896041095256805,
        0.21016740798950195,
        -0.23089204728603363,
        0.09066297113895416,
        -0.013685515150427818,
        -0.00045202518231235445,
        0.2686331570148468,
        0.05826893076300621,
        -0.09736662358045578,
        0.0172280203551054,
        -0.05598444491624832,
        0.03646129369735718,
        -0.2752135097980499,
        0.20082929730415344,
        -0.11151434481143951,
        -0.3003714084625244,
        -0.24712897837162018,
        0.09531436115503311,
        -0.16584457457065582,
        0.003948048688471317,
        -0.07518917322158813,
        0.012486977502703667,
        -0.06540807336568832,
        0.19523334503173828,
        -0.036642856895923615,
        0.13041390478610992,
        -0.2659280002117157,
        0.037514835596084595,
        -0.008119108155369759,
        -0.10025764256715775,
        0.0279407799243927,
        -0.1591465324163437,
        0.01570191979408264,
        0.24154821038246155,
        -0.1306835561990738,
        -0.1558428555727005,
        0.003857670584693551,
        -0.07174263149499893,
        -0.23202650249004364,
        0.029004419222474098,
        -0.08441479504108429,
        0.10018636286258698,
        -0.19483281672000885,
        0.13992227613925934,
        -0.03621704503893852,
        -0.002745942445471883,
        0.14043983817100525,
        -0.2293630838394165,
        0.08401941508054733,
        -0.09542731940746307,
        0.12008196860551834,
        -0.0907963290810585,
        0.15413929522037506,
        0.1114727035164833,
        -0.19109611213207245,
        0.1674218773841858,
        -0.01978245936334133,
        -0.1993722766637802,
        0.0676041692495346,
        -0.17957304418087006,
        0.07065919041633606,
        -0.22129769623279572,
        -0.047455158084630966,
        -0.04741893708705902,
        -0.0980844646692276,
        -0.11010267585515976,
        0.22282657027244568,
        -0.11483895033597946,
        0.12464818358421326,
        -0.08500800281763077,
        0.17850704491138458,
        -0.020467177033424377,
        0.24798747897148132,
        -0.022858930751681328,
        0.24092824757099152,
        -0.11889134347438812,
        -0.019462689757347107,
        0.046594198793172836,
        -0.02234676666557789,
        0.10477729886770248,
        0.03032447025179863,
        -0.2330944836139679,
        -0.0374172143638134,
        -0.01747640036046505,
        -0.1465999037027359,
        0.1790926605463028,
        0.18052096664905548,
        -0.26242750883102417,
        0.19323143362998962,
        -0.19698382914066315,
        0.054767146706581116,
        -0.18571990728378296,
        0.025935836136341095,
        0.1793757975101471,
        -0.30450451374053955,
        -0.20506274700164795,
        -0.2824290692806244,
        0.17850273847579956,
        0.024859929457306862,
        0.320896178483963,
        -0.3017880320549011,
        0.0767647922039032,
        0.3878878355026245,
        -0.23290394246578217,
        0.20072335004806519,
        0.3061743974685669,
        -0.3100959360599518,
        -0.006935521960258484,
        -0.29125726222991943,
        0.11473563313484192,
        0.186721071600914,
        -0.01783033087849617,
        -0.06352502107620239,
        -0.11680475622415543,
        -0.1561298966407776,
        0.21443258225917816,
        0.15326832234859467,
        0.29144561290740967,
        -0.22918646037578583,
        -0.111079640686512,
        -0.37374162673950195,
        0.26518622040748596,
        0.19263528287410736,
        0.34231090545654297,
        -0.28935280442237854,
        0.09538862854242325,
        0.1691342294216156,
        -0.25878334045410156,
        0.004008556250482798,
        0.3113093376159668,
        -0.2581559419631958,
        0.07920052856206894,
        0.261802613735199,
        -0.08092496544122696,
        -0.014010120183229446,
        0.17271006107330322,
        -0.25688281655311584,
        -0.0170733742415905,
        -0.30434370040893555,
        0.3573921024799347,
        -0.01210520975291729,
        0.09216516464948654,
        -0.030673226341605186,
        -0.0007234188378788531,
        -0.08656693249940872,
        -0.011247370392084122,
        -0.020946532487869263,
        0.12771429121494293,
        -0.13055014610290527,
        -0.09921951591968536,
        0.222693532705307,
        -0.1366020143032074,
        -0.048191677778959274,
        0.24158258736133575,
        0.0283562820404768,
        0.027730116620659828,
        -0.23159590363502502,
        0.09339941293001175,
        -0.010960295796394348,
        0.05151413753628731,
        0.0017663673497736454,
        0.002520404988899827,
        -0.10305804759263992,
        0.13944752514362335,
        -0.0216665156185627,
        0.20077387988567352,
        0.02914968878030777,
        -0.06025271490216255,
        -0.03205154836177826,
        -0.06991524249315262,
        -0.08947626501321793,
        0.1386636346578598,
        0.016235023736953735,
        0.07990963011980057,
        0.05865221098065376,
        -0.022127455100417137,
        0.05205720290541649,
        -0.03245074301958084,
        0.08663090318441391,
        -0.14473925530910492,
        0.10605736821889877,
        -0.04475925490260124,
        -0.0967341810464859,
        0.12606865167617798,
        0.09810955077409744,
        -0.012244343757629395,
        -0.16773754358291626,
        0.021577391773462296,
        -0.10129711776971817,
        -0.07725176960229874,
        -0.06443338096141815,
        -0.15297894179821014,
        0.09948629140853882,
        0.08083509653806686,
        0.12555868923664093,
        -0.07660343497991562,
        0.04935338720679283,
        0.003484772751107812,
        -0.2232687920331955,
        0.04202575236558914,
        0.18314482271671295,
        -0.13647164404392242,
        -0.06431891769170761,
        -0.13025932013988495,
        0.036276377737522125,
        0.025793684646487236,
        0.025668952614068985,
        0.04112882539629936,
        0.3298144042491913,
        -0.1450110673904419,
        0.16524150967597961,
        0.041144076734781265,
        0.05944149196147919,
        -0.2387433499097824,
        -0.05048598721623421,
        0.06355570256710052,
        0.20526696741580963,
        0.10894368588924408,
        -0.005451601929962635,
        -0.1362048238515854,
        -0.021926213055849075,
        0.06461736559867859,
        -0.2595555782318115,
        0.05891859903931618,
        0.09713290631771088,
        -0.18748685717582703,
        -0.03614659234881401,
        -0.037572722882032394,
        -0.08189389854669571,
        -0.10708610713481903,
        0.1114138662815094,
        -0.2340344339609146,
        -0.0654563382267952,
        0.021051909774541855,
        0.09970405697822571,
        0.0019087680848315358,
        0.13702742755413055,
        -0.2471335232257843,
        0.02883238159120083,
        -0.1145266517996788,
        0.16349227726459503,
        -0.09258587658405304,
        0.04930585250258446,
        -0.13406294584274292,
        0.119359590113163,
        0.11951573938131332,
        -0.05283862724900246,
        0.1679314523935318,
        0.10530222207307816,
        -0.10503785312175751,
        0.13220493495464325,
        -0.17125771939754486,
        0.11615374684333801,
        -0.05687686428427696,
        -0.2992170751094818,
        -0.23387561738491058,
        -0.03921964019536972,
        -0.042006634175777435,
        0.19106057286262512,
        -0.05348602309823036,
        0.2665034234523773,
        -0.12305870652198792,
        0.004931130912154913,
        -0.3057790994644165,
        0.24249021708965302,
        0.005694609135389328,
        0.07295700907707214,
        -0.0406753234565258,
        0.19200094044208527,
        0.32963836193084717,
        0.01967046968638897,
        0.18750587105751038,
        0.13816986978054047,
        -0.16002941131591797,
        0.18887916207313538,
        0.2525843381881714,
        -0.19242031872272491,
        0.20231804251670837,
        0.2405279576778412,
        -0.0318111926317215,
        -0.01675773598253727,
        -0.1375546157360077,
        -0.0006244402611628175,
        0.0036606250796467066,
        0.09825125336647034,
        -0.17318926751613617,
        0.09354521334171295,
        -0.02817511558532715,
        0.2381346970796585,
        0.03436793014407158,
        -0.007797765079885721,
        -0.25031885504722595,
        -0.05655350163578987,
        -0.05256142467260361,
        -0.4029063284397125,
        0.15298907458782196,
        0.1651534140110016,
        -0.1527681052684784,
        0.15323098003864288,
        -0.22233903408050537,
        0.20291820168495178,
        -0.06487881392240524,
        0.04348107799887657,
        -0.0006326288566924632,
        -0.13803483545780182,
        -0.15992377698421478,
        0.1454816609621048,
        -0.1196545958518982,
        0.21338561177253723,
        -0.12733595073223114,
        0.13496799767017365,
        0.01568741351366043,
        0.414865642786026,
        -0.07664184272289276,
        0.1555638462305069,
        -0.15100562572479248,
        0.08561722189188004,
        0.24293415248394012,
        -0.21610568463802338,
        0.13751360774040222,
        0.03904550522565842,
        -0.219186469912529,
        0.05497799813747406,
        0.05376596748828888,
        -0.36287325620651245,
        -0.0438721738755703,
        -0.015537559054791927,
        -0.18779650330543518,
        0.14306718111038208,
        -0.13612930476665497,
        0.20552119612693787,
        0.058833446353673935,
        0.27899008989334106,
        -0.13803724944591522,
        -0.08469854295253754,
        -0.09419436007738113,
        0.233990877866745,
        -0.09283851087093353,
        0.36297285556793213,
        -0.063824363052845,
        -0.06960870325565338,
        0.3068613111972809,
        -0.25294092297554016,
        -0.03711661696434021,
        0.360186904668808,
        -0.15694348514080048,
        -0.11343620717525482,
        -0.2949594557285309,
        0.12297486513853073,
        -0.013925030827522278,
        0.08584540337324142,
        0.04531502723693848,
        -0.07331876456737518,
        -0.3137286603450775,
        0.17774927616119385,
        0.08318750560283661,
        0.32012835144996643,
        -0.22208605706691742,
        0.04186401888728142,
        -0.3334105610847473,
        0.10907454788684845,
        0.05706785246729851,
        0.11031999439001083,
        -0.11477774381637573,
        0.1190783903002739,
        0.26362916827201843,
        -0.25365808606147766,
        -0.057238269597291946,
        0.2559976577758789,
        -0.28560125827789307,
        0.05305460840463638,
        0.0925096943974495,
        -0.30734309554100037,
        -0.15356311202049255,
        0.20605304837226868,
        -0.06676004081964493,
        -0.14378736913204193,
        -0.09195782989263535,
        0.07925126701593399,
        0.04067790508270264,
        -0.009227761998772621,
        -0.2061431109905243,
        0.2583329379558563,
        0.14623458683490753,
        0.3030988872051239,
        -0.06644763052463531,
        -0.17336873710155487,
        -0.04602997004985809,
        0.1410709172487259,
        -0.006470165681093931,
        -0.27817416191101074,
        0.09265906363725662,
        -0.21247002482414246,
        -0.218793123960495,
        0.16403165459632874,
        -0.03175995126366615,
        0.21773497760295868,
        -0.06149838864803314,
        0.15458334982395172,
        0.05395578593015671,
        0.1486530750989914,
        0.030603453516960144,
        0.22543668746948242,
        0.008333425968885422,
        0.02305402234196663,
        -0.14555513858795166,
        0.2120334804058075,
        -0.07436695694923401,
        0.031705718487501144,
        -0.07953280210494995,
        -0.14246825873851776,
        -0.07359190285205841,
        0.04507685452699661,
        -0.1503443717956543,
        -0.2901797592639923,
        0.2127954661846161,
        -0.09135307371616364,
        -0.053637970238924026,
        0.22192594408988953,
        0.007137050852179527,
        -0.1546044647693634,
        0.08864540606737137,
        -0.11453226953744888,
        -0.15155412256717682,
        0.20511816442012787,
        -0.015996957197785378,
        0.2608197331428528,
        -0.18549804389476776,
        -0.21868497133255005,
        -0.19427524507045746,
        0.23449353873729706,
        0.2454499900341034,
        0.017331000417470932,
        -0.014673779718577862,
        -0.04917239397764206,
        -0.0736672580242157,
        0.23205800354480743,
        -0.19532519578933716,
        -0.10866095870733261,
        0.17090949416160583,
        -0.15710391104221344,
        -0.10532799363136292,
        0.07002028077840805,
        0.21924889087677002,
        0.1283925622701645,
        -0.16592800617218018,
        0.2093808948993683,
        0.23788297176361084,
        0.2606179416179657,
        0.12884584069252014,
        0.23660597205162048,
        -0.12691791355609894,
        -0.06615760922431946,
        -0.17678901553153992,
        0.16996173560619354,
        0.003927942365407944,
        0.05963483825325966,
        -0.19714581966400146,
        0.03300892934203148,
        -0.1729617714881897,
        0.12633274495601654,
        -0.19954337179660797,
        -0.024432392790913582,
        0.2485463172197342,
        -0.2258956879377365,
        -0.2709084153175354,
        0.002673436887562275,
        -0.11396076530218124,
        -0.1868492066860199,
        0.018205996602773666,
        -0.17794780433177948,
        -0.13590602576732635,
        0.03274698182940483,
        0.16868369281291962,
        0.12377254664897919,
        -0.21782219409942627,
        0.1520886868238449,
        -0.022481141611933708,
        -0.04482553154230118,
        -0.07778776437044144,
        0.1391172856092453,
        0.08690866827964783,
        -0.0564386360347271,
        -0.3328247368335724,
        0.19603225588798523,
        -0.009711803868412971,
        -0.16516530513763428,
        0.041462767869234085,
        0.054895494133234024,
        -0.22630029916763306,
        0.14349544048309326,
        -0.06735774874687195,
        0.06546960771083832,
        -0.13305705785751343,
        0.029797200113534927,
        -0.06224951520562172,
        -0.1478545218706131,
        0.054763540625572205,
        0.1603650003671646,
        -0.08002375066280365,
        0.21908873319625854,
        -0.08033741265535355,
        0.20946456491947174,
        -0.005063739139586687,
        0.14370517432689667,
        -0.15758948028087616,
        0.0853034108877182,
        -0.055399488657712936,
        0.020611397922039032,
        -0.053389571607112885,
        -0.143440842628479,
        0.19139410555362701,
        0.037802573293447495,
        -0.31553786993026733,
        -0.0795988142490387,
        0.11847289651632309,
        -0.20152291655540466,
        -0.019253944978117943,
        0.10698828101158142,
        -0.14336217939853668,
        0.16615039110183716,
        0.08012747019529343,
        0.1808127909898758,
        -0.16270089149475098,
        -0.06287379562854767,
        -0.02425428107380867,
        0.07935996353626251,
        -0.03501894697546959,
        0.020068272948265076,
        0.06517836451530457,
        0.22572113573551178,
        -0.021592652425169945,
        -0.05914453789591789,
        0.039653170853853226,
        -0.2470843344926834,
        0.2021639198064804,
        0.03831356763839722,
        -0.21260593831539154,
        0.14139454066753387,
        -0.16306175291538239,
        0.07822415977716446,
        -0.08076398074626923,
        -0.20328953862190247,
        -0.31435516476631165,
        0.03201443701982498,
        -0.15786433219909668,
        0.19746950268745422,
        0.05895485356450081,
        0.17358101904392242,
        -0.09271728992462158,
        0.22143468260765076,
        -0.0849333330988884,
        0.07085848599672318,
        0.057639773935079575,
        0.13562706112861633,
        -0.27578049898147583,
        0.03664407879114151,
        -0.0009427738841623068,
        -0.02530311979353428,
        0.04223256930708885,
        -0.03771126642823219,
        -0.15761074423789978,
        0.1554918885231018,
        0.13275481760501862,
        -0.09903255850076675,
        0.08012466877698898,
        0.14108356833457947,
        -0.18859784305095673,
        0.006834644824266434,
        -0.2545985281467438,
        -0.023868229240179062,
        -0.058624010533094406,
        -0.23857632279396057,
        0.08666530251502991,
        0.15490002930164337,
        0.18804199993610382,
        -0.1794794499874115,
        -0.01455631759017706,
        -0.2620818614959717,
        0.20100462436676025,
        0.03432253375649452,
        -0.2113010734319687,
        0.1605134755373001,
        0.08893993496894836,
        -0.06421280652284622,
        -0.02369929850101471,
        0.018301961943507195,
        0.12292052805423737,
        -0.043736424297094345,
        -0.014604616910219193,
        -0.06760423630475998,
        0.186578631401062,
        0.18777020275592804,
        0.14459849894046783,
        0.02391470968723297,
        -0.2601706385612488,
        -0.14901024103164673,
        0.20636029541492462,
        0.06762369722127914,
        0.2831110656261444,
        -0.1326039582490921,
        -0.033192697912454605,
        -0.30031347274780273,
        0.07078031450510025,
        0.11945144832134247,
        -0.15105324983596802,
        0.11717693507671356,
        0.2442384660243988,
        -0.19806401431560516,
        0.0781463235616684,
        0.25271379947662354,
        -0.21295879781246185,
        0.2106863111257553,
        0.050415705889463425,
        -0.1972295343875885,
        0.07061893492937088,
        0.20644918084144592,
        0.22122979164123535,
        -0.09388784319162369,
        -0.24880021810531616,
        0.07732097059488297,
        0.1125238910317421,
        -0.20972879230976105,
        -0.18162456154823303,
        -0.050019532442092896,
        0.3927868902683258,
        0.10269048064947128,
        0.010840311646461487,
        -0.1548684686422348,
        -0.016110708937048912,
        0.17944404482841492,
        -0.23208071291446686,
        0.03247467800974846,
        0.20617957413196564,
        -0.3710859417915344,
        -0.06888728588819504,
        -0.2633172571659088,
        0.2363014668226242,
        0.0002504073199816048,
        0.17275778949260712,
        -0.16867612302303314,
        0.001851652399636805,
        -0.1640167087316513,
        0.18317760527133942,
        -0.045140426605939865,
        0.004315539263188839,
        -0.05065806582570076,
        -0.12161765247583389,
        -0.13289687037467957,
        0.2965746819972992,
        0.1718997210264206,
        0.24972335994243622,
        -0.13971363008022308,
        -0.001448203343898058,
        0.1471548229455948,
        -0.32992270588874817,
        0.00972000788897276,
        0.1814991533756256,
        -0.11973882466554642,
        -0.025173507630825043,
        0.23027504980564117,
        -0.3233298063278198,
        0.06706737726926804,
        0.26873213052749634,
        -0.2780868709087372,
        -0.07758510112762451,
        -0.26324257254600525,
        0.3613783121109009,
        0.050211772322654724,
        0.10717744380235672,
        -0.13909827172756195,
        -0.17187434434890747,
        -0.2607496976852417,
        0.32517412304878235,
        0.18304085731506348,
        0.10798957198858261,
        -0.24679908156394958,
        0.1916446089744568,
        0.24628302454948425,
        -0.38854125142097473,
        0.05879059061408043,
        0.10987886041402817,
        -0.42240336537361145,
        -0.08428062498569489,
        -0.07037310302257538,
        0.43204548954963684,
        0.07501272857189178,
        0.2051972597837448,
        -0.018147550523281097,
        0.04185282066464424,
        -0.20934104919433594,
        0.2118634730577469,
        0.08861743658781052,
        0.24578343331813812,
        -0.35407331585884094,
        0.06993541866540909,
        -0.09281305968761444,
        0.2156011164188385,
        0.019344737753272057,
        0.2614646255970001,
        -0.42105230689048767,
        0.04769594967365265,
        0.2278451919555664,
        -0.42663681507110596,
        0.14629386365413666,
        0.22421467304229736,
        -0.22935111820697784,
        -0.026682637631893158,
        0.28935322165489197,
        -0.39497867226600647,
        0.21723249554634094,
        0.01891736127436161,
        -0.4327651560306549,
        0.03311210870742798,
        -0.1872919648885727,
        0.2777698338031769,
        -0.03009691834449768,
        -0.0397961363196373,
        -0.03897668421268463,
        -0.3695284128189087,
        0.0737883448600769,
        0.0596223920583725,
        0.020953357219696045,
        0.01104750670492649,
        0.07550415396690369,
        0.09959196299314499,
        -0.056273020803928375,
        0.008957327343523502,
        0.0057385447435081005,
        -0.12371177226305008,
        -0.0004754224210046232,
        0.09188621491193771,
        0.49407675862312317,
        -0.36470845341682434,
        0.7073123455047607,
        -0.5371253490447998,
        0.014027752913534641,
        0.9102694392204285,
        0.9309406876564026,
        -0.6190332770347595,
        0.20117290318012238,
        -0.006751077715307474,
        -0.5738217830657959,
        -0.3920632302761078,
        0.21239790320396423,
        -0.8500774502754211,
        0.4186204671859741,
        0.7515591979026794,
        -0.01332161482423544,
        0.07030291110277176,
        0.02834407240152359,
        0.28751933574676514,
        0.2625366151332855,
        0.06645147502422333,
        0.19741664826869965,
        0.0031251630280166864,
        0.008776107802987099,
        -0.1373549997806549,
        -0.1069832369685173,
        -0.10584394633769989,
        0.15512940287590027,
        -0.04313815385103226,
        0.2888782024383545,
        0.04629084840416908,
        0.05249648913741112,
        0.007984094321727753,
        -0.2589894235134125,
        0.042984042316675186,
        0.0797477662563324,
        -0.13804976642131805,
        -0.13585013151168823,
        0.034182108938694,
        -0.15682922303676605,
        0.11219964176416397,
        -0.16989314556121826,
        -0.22007574141025543,
        0.11753517389297485,
        0.06545716524124146,
        0.0560394823551178,
        0.12315700948238373,
        -0.1474073827266693,
        0.014734304510056973,
        0.13947807252407074,
        0.3198981285095215,
        -0.06119684875011444,
        -0.07294083386659622,
        0.13573114573955536,
        -0.062195323407649994,
        0.04590335115790367,
        -0.24519889056682587,
        0.03328073024749756,
        -0.18038268387317657,
        0.2568584084510803,
        0.24449995160102844,
        0.09050653129816055,
        0.010770847089588642,
        -0.4687754809856415,
        -0.3968091607093811,
        0.2676771879196167,
        -0.21574531495571136,
        -0.10540241748094559,
        0.34147587418556213,
        0.3410373628139496,
        0.3782811462879181,
        0.20652003586292267,
        0.07989300042390823,
        -0.1591215282678604,
        0.13122469186782837,
        0.3961753845214844,
        -0.04113898053765297,
        -0.12896008789539337,
        0.030313346534967422,
        0.04490356519818306,
        -0.16598746180534363,
        -0.16044193506240845,
        0.13073937594890594,
        0.12941934168338776,
        0.10581928491592407,
        0.061178192496299744,
        -0.07821565121412277,
        0.16369111835956573,
        0.34375306963920593,
        0.04036547243595123,
        0.3812427222728729,
        -0.01316111907362938,
        0.03256993740797043,
        -0.17008443176746368,
        0.06730617582798004,
        -0.1997140794992447,
        -0.2023458331823349,
        0.16765287518501282,
        -0.022979620844125748,
        0.18775857985019684,
        0.4807874262332916,
        0.36161094903945923,
        0.009402300231158733,
        0.2669908106327057,
        -0.02588689886033535,
        -0.3904692232608795,
        -0.15566156804561615,
        0.15053869783878326,
        -0.3922518491744995,
        0.33509933948516846,
        0.4641368091106415,
        -0.14547604322433472,
        -0.051486238837242126,
        0.26027312874794006,
        0.2447361797094345,
        -0.10683797299861908,
        -0.10509642958641052,
        0.0668407529592514,
        0.11519680917263031,
        0.18437184393405914,
        -0.3850908577442169,
        -0.41821157932281494,
        0.07806433737277985,
        0.15011319518089294,
        -0.3259572982788086,
        0.13042671978473663,
        -0.07121974229812622,
        -0.013366528786718845,
        0.025672154501080513,
        0.2936001121997833,
        -0.3012675344944,
        -0.328249454498291,
        -0.00226905127055943,
        0.22118255496025085,
        0.17561115324497223,
        0.035060614347457886,
        -0.11426275968551636,
        0.32228827476501465,
        -0.06290560960769653,
        0.16938911378383636,
        -0.05582529306411743,
        -0.2059578150510788,
        -0.03811120241880417,
        0.07182837277650833,
        0.0007444427465088665,
        -0.421560138463974,
        -0.17794445157051086,
        0.2333822250366211,
        -0.06490665674209595,
        -0.20855027437210083,
        -0.2799888849258423,
        -0.30192816257476807,
        -0.29843971133232117,
        -0.06459753215312958,
        -0.2659790813922882,
        -0.10499925911426544,
        -0.05086657404899597,
        0.1565127968788147,
        0.0929330363869667,
        0.06377433985471725,
        -0.12059351801872253,
        0.3665911555290222,
        -0.43339815735816956,
        -0.4114845097064972,
        0.17865495383739471,
        0.3806677460670471,
        -0.24322901666164398,
        0.20541270077228546,
        0.3822082579135895,
        0.09954855591058731,
        0.24058811366558075,
        0.308478444814682,
        -0.024064091965556145,
        0.09438677132129669,
        0.22593006491661072,
        0.21245820820331573,
        0.16054080426692963,
        -0.2070120871067047,
        0.17279237508773804,
        -0.11695589870214462,
        -0.11408675462007523,
        0.0899115726351738,
        -0.23737896978855133,
        -0.0008005168638192117,
        -0.13246119022369385,
        -0.22409743070602417,
        -0.07845275104045868,
        -0.05550934746861458,
        0.16371820867061615,
        0.12323097139596939,
        0.2719626724720001,
        -0.25217312574386597,
        -0.10986854135990143,
        0.17815332114696503,
        0.11714158952236176,
        0.031216736882925034,
        -0.17067652940750122,
        -0.021635930985212326,
        0.3029550015926361,
        0.09522616118192673,
        -0.1962629109621048,
        0.10890933126211166,
        -0.06485968083143234,
        -0.06038305535912514,
        0.2662355601787567,
        -0.37197887897491455,
        -0.4548946022987366,
        -0.24278771877288818,
        -0.10723909735679626,
        -0.004488345235586166,
        0.09428728371858597,
        0.24929958581924438,
        -0.1172356978058815,
        -0.06931545585393906,
        0.22824351489543915,
        0.2953062653541565,
        -0.10567525774240494,
        -0.274795264005661,
        -0.027082201093435287,
        0.009821339510381222,
        -0.2201080173254013,
        -0.1745406836271286,
        0.06359919905662537,
        0.26967155933380127,
        -0.1514434665441513,
        -0.08917266130447388,
        0.24218210577964783,
        -0.045204441994428635,
        0.32187414169311523,
        0.23310387134552002,
        -0.2310287058353424,
        0.032121676951646805,
        -0.2121243178844452,
        -0.2071194052696228,
        -0.21504247188568115,
        -0.13955934345722198,
        -0.1615198701620102,
        0.040017321705818176,
        0.344234436750412,
        -0.23210659623146057,
        0.10635663568973541,
        -0.0499790720641613,
        -0.19359882175922394,
        0.14165613055229187,
        -0.018781650811433792,
        0.11552590131759644,
        0.20166122913360596,
        -0.11798141896724701,
        0.2130488008260727,
        0.08395969867706299,
        0.04867428168654442,
        0.06817501038312912,
        0.2381182312965393,
        -0.30501335859298706,
        -0.2605510950088501,
        0.2813423275947571,
        -0.032843638211488724,
        0.1718919575214386,
        -0.1908719688653946,
        -0.16705967485904694,
        0.22900022566318512,
        0.08474124222993851,
        0.09981489181518555,
        -0.26797160506248474,
        -0.1411523073911667,
        -0.02369055524468422,
        -0.2814447283744812,
        0.11870468407869339,
        0.3477344214916229,
        0.0888734683394432,
        -0.009766051545739174,
        0.19933746755123138,
        -0.13370582461357117,
        0.24141843616962433,
        -0.04574607312679291,
        -0.12266653776168823,
        -0.09723475575447083,
        0.18402177095413208,
        -0.15392720699310303,
        0.10520879924297333,
        -0.24461595714092255,
        0.1298249065876007,
        0.10983427613973618,
        0.197014719247818,
        0.15198278427124023,
        0.17775486409664154,
        -0.1065850704908371,
        0.15536297857761383,
        -0.10454581677913666,
        0.17987897992134094,
        0.21576149761676788,
        -0.1871555894613266,
        0.09771429747343063,
        -0.09328141063451767,
        -0.13762781023979187,
        0.09898492693901062,
        -0.23555998504161835,
        0.029807545244693756,
        0.009898821823298931,
        -0.1262952834367752,
        -0.04710015654563904,
        0.0154237300157547,
        0.17071789503097534,
        0.053208429366350174,
        0.03662808984518051,
        -0.06321518868207932,
        0.05934823304414749,
        0.34483602643013,
        0.011091078631579876,
        0.060045573860406876,
        -0.27738142013549805,
        0.07128717005252838,
        -0.07246018201112747,
        -0.009077214635908604,
        -0.20991574227809906,
        0.17111119627952576,
        -0.2165086418390274,
        0.001742333173751831,
        -0.23221281170845032,
        0.16825716197490692,
        -0.11973623186349869,
        -0.2367922067642212,
        0.0898929089307785,
        -0.15204697847366333,
        0.018545100465416908,
        0.11595872789621353,
        -0.13647812604904175,
        0.01603793539106846,
        0.0631781592965126,
        -0.11651016026735306,
        -0.02190829999744892,
        0.08917710930109024,
        0.18419624865055084,
        -0.3341180086135864,
        -0.34621426463127136,
        -0.15474063158035278,
        -0.2382749319076538,
        0.20334163308143616,
        -0.0003039862203877419,
        0.004691210575401783,
        0.01524545717984438,
        -0.2743981182575226,
        -0.2187431901693344,
        0.4151690602302551,
        -0.1466248482465744,
        0.19191467761993408,
        -0.09093833714723587,
        0.08453280478715897,
        -0.075107641518116,
        0.11347740143537521,
        0.059962399303913116,
        0.10990355163812637,
        -0.3429874777793884,
        -0.050815001130104065,
        -0.049281034618616104,
        0.0009690636652521789,
        0.2977302074432373,
        0.15311114490032196,
        -0.26983702182769775,
        -0.23166735470294952,
        -0.21509864926338196,
        0.15785567462444305,
        0.24743355810642242,
        0.27105259895324707,
        -0.3874710202217102,
        -0.07395539432764053,
        -0.18766112625598907,
        0.2841815650463104,
        -0.25815582275390625,
        -0.2680280804634094,
        0.4352428913116455,
        -0.28284600377082825,
        -0.14542251825332642,
        0.31998997926712036,
        -0.26583510637283325,
        -0.12979847192764282,
        0.15909680724143982,
        -0.28459087014198303,
        -0.3600369989871979,
        0.23426951467990875,
        0.29540011286735535,
        0.2606176435947418,
        -0.2567843794822693,
        -0.048099469393491745,
        -0.07010215520858765,
        0.03934376314282417,
        0.11239930242300034,
        0.18492397665977478,
        -0.050063785165548325,
        -0.1768275946378708,
        -0.013631228357553482,
        0.04564438387751579,
        0.22994506359100342,
        0.08523593842983246,
        0.0700470507144928,
        0.12578195333480835,
        -0.0010097513440996408,
        0.09226115047931671,
        0.10599023848772049,
        0.10625841468572617,
        0.09283769875764847,
        0.21118147671222687,
        -0.05168395861983299,
        -0.08154039829969406,
        -0.038984838873147964,
        -0.07457856833934784,
        0.054865218698978424,
        -0.19769109785556793,
        -0.23168647289276123,
        -0.09369933605194092,
        0.015068267472088337,
        0.22931936383247375,
        -0.12661044299602509,
        -0.17548762261867523,
        -0.11702265590429306,
        0.08533599972724915,
        0.09540831297636032,
        -0.11798209697008133,
        0.12114057689905167,
        0.061419934034347534,
        0.015726812183856964,
        0.023061484098434448,
        -0.06916412711143494,
        -0.015464012511074543,
        0.015306860208511353,
        -0.23251165449619293,
        -0.053360115736722946,
        0.0992203876376152,
        -0.11468540132045746,
        0.13570576906204224,
        0.18045823276042938,
        -0.09385981410741806,
        -0.1449563205242157,
        -0.0802900418639183,
        0.027999302372336388,
        0.04237059876322746,
        0.15182380378246307,
        0.37703150510787964,
        -0.20456640422344208,
        -0.19081002473831177,
        0.15282051265239716,
        0.26682156324386597,
        -0.10164055228233337,
        0.04664507880806923,
        0.006181786768138409,
        0.06885648518800735,
        -0.1959448903799057,
        0.1832096427679062,
        0.014666607603430748,
        0.10036148130893707,
        0.11333317309617996,
        -0.08922164887189865,
        -0.3874950408935547,
        0.07729083299636841,
        0.134547159075737,
        0.1513359695672989,
        -0.40139061212539673,
        -0.07651689648628235,
        -0.06587911397218704,
        -0.055920910090208054,
        0.1386631727218628,
        0.27963611483573914,
        -0.2641541063785553,
        -0.014360121451318264,
        0.21826016902923584,
        0.026068540289998055,
        0.06413483619689941,
        0.23215585947036743,
        0.04773043096065521,
        -0.24840354919433594,
        0.22019200026988983,
        -0.1492542028427124,
        -0.17212414741516113,
        -0.06177043169736862,
        -0.17313338816165924,
        0.00892280600965023,
        -0.10752077400684357,
        -0.26039037108421326,
        0.25303879380226135,
        -0.19702568650245667,
        -0.08054743707180023,
        0.020308148115873337,
        0.07806302607059479,
        0.14319118857383728,
        0.18977825343608856,
        -0.21080362796783447,
        0.012840958312153816,
        -0.07180566340684891,
        0.03477500006556511,
        0.117624431848526,
        0.09409129619598389,
        0.12980389595031738,
        0.16550667583942413,
        -0.0016186730936169624,
        -0.00728001119568944,
        0.026476403698325157,
        -0.059679336845874786,
        0.14999517798423767,
        -0.16490499675273895,
        -0.04803022742271423,
        0.07092862576246262,
        0.10686127096414566,
        0.063765749335289,
        -0.20906676352024078,
        -0.23174569010734558,
        -0.06588004529476166,
        0.011942771263420582,
        0.012536328285932541,
        0.004116876516491175,
        0.05876997113227844,
        -0.11870908737182617,
        0.0969003215432167,
        -0.14051270484924316,
        0.04374252259731293,
        0.10649457573890686,
        -0.2427581548690796,
        -0.22422343492507935,
        0.06908433884382248,
        -0.02283615805208683,
        -0.04922821745276451,
        0.03229521960020065,
        -0.22738580405712128,
        -0.1932140737771988,
        -0.2114807516336441,
        -0.06992270052433014,
        -0.02761724591255188,
        0.0300807673484087,
        0.00046820161514915526,
        -0.002922546351328492,
        -0.055260710418224335,
        -0.24616143107414246,
        0.20811133086681366,
        -0.04282200336456299,
        0.07667917013168335,
        0.07695891708135605,
        -0.045435238629579544,
        0.31735682487487793,
        0.07727906107902527,
        -0.13790524005889893,
        0.053066451102495193,
        0.06407232582569122,
        0.11944814026355743,
        0.15933339297771454,
        -0.05088980123400688,
        0.06009553372859955,
        0.15047769248485565,
        -0.13355953991413116,
        -0.11685270816087723,
        0.03363197296857834,
        -0.17152130603790283,
        0.24785320460796356,
        -0.0163015928119421,
        0.16138654947280884,
        -0.2740136682987213,
        0.09130101650953293,
        -0.2325473576784134,
        0.09881941229104996,
        0.04429459944367409,
        0.18410049378871918,
        -0.06169525906443596,
        0.20206473767757416,
        -0.026654954999685287,
        -0.01892463117837906,
        0.2074471265077591,
        0.1219574436545372,
        -0.10077463835477829,
        0.04532403498888016,
        -0.06391818821430206,
        -0.00879709143191576,
        -0.12252893298864365,
        0.09496211260557175,
        -0.2760325074195862,
        -0.199031263589859,
        0.04093370959162712,
        0.09085240960121155,
        0.15419216454029083,
        0.061868879944086075,
        0.0862945094704628,
        0.1872912347316742,
        0.08821360766887665,
        0.02757696621119976,
        -0.17868685722351074,
        -0.16167262196540833,
        0.14411817491054535,
        0.019059911370277405,
        0.06907755881547928,
        0.021570907905697823,
        -0.21817634999752045,
        0.07967765629291534,
        -0.10669215768575668,
        0.3371066749095917,
        0.1674814075231552,
        0.12679190933704376,
        0.23447372019290924,
        0.005012839566916227,
        0.16944240033626556,
        0.026173658668994904,
        0.21437056362628937,
        -0.06995800137519836,
        0.06826301664113998,
        -0.13590417802333832,
        0.02814934402704239,
        0.0837094634771347,
        0.17613059282302856,
        -0.05547236651182175,
        0.13246797025203705,
        -0.19491896033287048,
        0.12503941357135773,
        -0.17307566106319427,
        -0.05896491929888725,
        0.008129620924592018,
        0.056745924055576324,
        0.1360943466424942,
        0.2545712888240814,
        -0.02592575177550316,
        0.05321226269006729,
        -0.0994829311966896,
        -0.24550092220306396,
        -0.029393276199698448,
        0.03412431851029396,
        0.04832174628973007,
        -0.028900140896439552,
        0.018477480858564377,
        -0.25992149114608765,
        0.13511857390403748,
        0.18173956871032715,
        0.05976100638508797,
        0.17379696667194366,
        -0.09473670274019241,
        -0.21253466606140137,
        -0.050833385437726974,
        0.17734770476818085,
        -0.15374182164669037,
        -0.06388889998197556,
        0.04378777742385864,
        0.023390095680952072,
        -0.16770771145820618,
        -0.12862876057624817,
        0.1339516043663025,
        0.08371653407812119,
        -0.06490232795476913,
        -0.20614813268184662,
        0.13449062407016754,
        0.1936917006969452,
        0.12167827785015106,
        0.005117898806929588,
        -0.11765868961811066,
        -0.01964309625327587,
        -0.11863904446363449,
        0.1491297334432602,
        0.17453303933143616,
        0.17652884125709534,
        -0.12357371300458908,
        0.004896002355962992,
        -0.08164218813180923,
        0.09915787726640701,
        -0.02960081771016121,
        -0.17933869361877441,
        0.14028653502464294,
        -0.1749563068151474,
        0.006362349726259708,
        0.12626302242279053,
        -0.3564510941505432,
        0.09184130281209946,
        -0.01232847385108471,
        0.0717521384358406,
        -0.10642106086015701,
        0.16270780563354492,
        0.0352480486035347,
        0.05033653974533081,
        -0.15923991799354553,
        0.309655100107193,
        0.1648709625005722,
        -0.13068202137947083,
        -0.2589433193206787,
        -0.27112916111946106,
        -0.09519065916538239,
        0.27209460735321045,
        0.1448477804660797,
        -0.055708713829517365,
        0.17483392357826233,
        0.09959698468446732,
        -0.062354277819395065,
        0.08053003996610641,
        0.07486662268638611,
        0.000490202393848449,
        -0.1525869071483612,
        -0.05293619632720947,
        0.2205476015806198,
        0.26009640097618103,
        -0.09500531107187271,
        -0.012711877003312111,
        -0.2531583309173584,
        -0.17978738248348236,
        0.3172777593135834,
        0.04843137785792351,
        -0.041752103716135025,
        0.007501594256609678,
        -0.13916771113872528,
        -0.05273181200027466,
        0.06762868165969849,
        0.12201354652643204,
        0.009736410342156887,
        -0.3229188621044159,
        0.06715740263462067,
        0.11815369874238968,
        -0.1349877268075943,
        0.16329148411750793,
        0.14064089953899384,
        -0.19200195372104645,
        0.2033020257949829,
        -0.08345145732164383,
        -0.2187378853559494,
        0.13546958565711975,
        0.13088089227676392,
        -0.13285356760025024,
        -0.23150062561035156,
        -0.02028355933725834,
        0.09910044819116592,
        -0.16196277737617493,
        0.005715472623705864,
        0.033150725066661835,
        -0.23769956827163696,
        0.1405639499425888,
        0.37917447090148926,
        -0.24514125287532806,
        0.2270275056362152,
        -0.09567317366600037,
        0.1489558219909668,
        -0.14367684721946716,
        -0.18265196681022644,
        0.2573082149028778,
        0.04497537016868591,
        -0.07947646081447601,
        -0.06397611647844315,
        -0.47706472873687744,
        0.14996787905693054,
        -0.019241726025938988,
        -0.3929568827152252,
        0.19326898455619812,
        0.006130014080554247,
        -0.19365714490413666,
        0.21342015266418457,
        -0.36004918813705444,
        0.353413462638855,
        -0.0579734668135643,
        0.09852878749370575,
        -0.344170480966568,
        0.08181537687778473,
        -0.39015260338783264,
        0.23407034575939178,
        0.138700932264328,
        -0.037754643708467484,
        0.3166733682155609,
        -0.04601720720529556,
        -0.1731574684381485,
        -0.07753213495016098,
        -0.2702641785144806,
        -0.36631882190704346,
        -0.18947669863700867,
        -0.11881253123283386,
        -0.13780494034290314,
        0.19246605038642883,
        -0.06172530725598335,
        -0.15171043574810028,
        0.32285815477371216,
        0.24722252786159515,
        -0.09391728043556213,
        -0.0017695745918899775,
        -0.22589753568172455,
        0.24518029391765594,
        0.2566290497779846,
        -0.010396069847047329,
        0.104157954454422,
        -0.14752699434757233,
        0.03999905288219452,
        -0.07242739945650101,
        -0.02636801451444626,
        0.0972396656870842,
        -0.02718663029372692,
        0.043166473507881165,
        -0.0299919955432415,
        0.01240617223083973,
        0.33264628052711487,
        0.04714072123169899,
        -0.09351276606321335,
        0.20170550048351288,
        0.09947794675827026,
        -0.12419641017913818,
        0.14017195999622345,
        0.1194322481751442,
        0.10852286219596863,
        -0.08620497584342957,
        0.05532953515648842,
        -0.13934557139873505,
        -0.11026836931705475,
        0.007297482341527939,
        0.2377595156431198,
        0.00578696234151721,
        -0.09642152488231659,
        0.14277410507202148,
        -0.14297784864902496,
        -0.10622849315404892,
        0.0881168395280838,
        -0.03358065336942673,
        -0.05057714134454727,
        0.0998341292142868,
        0.006913795601576567,
        0.01440400630235672,
        0.05069531500339508,
        -0.20894528925418854,
        -0.098000667989254,
        0.18303325772285461,
        -0.3256288766860962,
        0.0323895588517189,
        -0.03466799855232239,
        -0.15463802218437195,
        -0.16857141256332397,
        0.006850915960967541,
        -0.08946286886930466,
        -0.11506308615207672,
        -0.15664595365524292,
        -0.02934662066400051,
        0.06827254593372345,
        -0.02917705662548542,
        0.01614987850189209,
        0.017333563417196274,
        0.09225659817457199,
        0.12610584497451782,
        -0.03443918377161026,
        -0.0677938386797905,
        0.24951349198818207,
        0.048255253583192825,
        -0.176883727312088,
        -0.022541111335158348,
        0.24248987436294556,
        0.14663808047771454,
        0.2229326367378235,
        0.02786332555115223,
        0.1196911633014679,
        -0.33591535687446594,
        -0.15325653553009033,
        -0.13522964715957642,
        0.25396230816841125,
        0.0041329446248710155,
        -0.101690374314785,
        -0.14315879344940186,
        -0.07955925911664963,
        -0.047591276466846466,
        -0.06202532723546028,
        0.0026318326126784086,
        -0.16184429824352264,
        -0.12186186015605927,
        0.11569935828447342,
        -0.0450645349919796,
        -0.059347670525312424,
        -0.012431387789547443,
        0.1521189957857132,
        -0.10737941414117813,
        -0.17117397487163544,
        0.030850764364004135,
        -0.2201976478099823,
        -0.11864623427391052,
        -0.10432880371809006,
        -0.014290662482380867,
        -0.18207402527332306,
        0.13647574186325073,
        0.05035368353128433,
        -0.14850302040576935,
        0.21173228323459625,
        0.07419393956661224,
        -0.05684648081660271,
        -0.02057907171547413,
        0.08392353355884552,
        0.0006610637065023184,
        0.15632827579975128,
        -0.03095492348074913,
        -0.02315688133239746,
        -0.09795455634593964,
        -0.08844638615846634,
        0.10672378540039062,
        -0.0830223560333252,
        -0.09739291667938232,
        -0.08274862170219421,
        -0.15800391137599945,
        -0.05210849642753601,
        0.11513959616422653,
        -0.02645128220319748,
        -0.01094619370996952,
        -0.03092081844806671,
        -0.08558840304613113,
        0.03166860714554787,
        -0.05702603980898857,
        0.14695321023464203,
        0.05664384365081787,
        -0.07515354454517365,
        0.1406172215938568,
        -0.1708787977695465,
        -0.026182182133197784,
        0.12400779873132706,
        -0.11005683243274689,
        0.03039524331688881,
        0.03843613713979721,
        -0.046877410262823105,
        -0.12246374785900116,
        0.10423874109983444,
        -0.0992686003446579,
        0.006405139807611704,
        0.11383093148469925,
        0.05230429768562317,
        -0.0069902753457427025,
        -0.37032943964004517,
        -0.01863843761384487,
        0.1598530411720276,
        -0.02648288756608963,
        0.261227011680603,
        0.1255253255367279,
        0.05626089870929718,
        -0.24589712917804718,
        -0.033837661147117615,
        -0.16541017591953278,
        -0.22241877019405365,
        0.21652115881443024,
        0.012394780293107033,
        -0.09497638046741486,
        0.025844363495707512,
        -0.32734644412994385,
        0.13803674280643463,
        0.053179796785116196,
        -0.5885018110275269,
        0.072511687874794,
        0.258566290140152,
        0.1450512409210205,
        0.053522102534770966,
        -0.0007825506618246436,
        0.16968275606632233,
        0.07244857400655746,
        0.11937066167593002,
        0.16029708087444305,
        -0.08695541322231293,
        0.20869384706020355,
        -0.07103488594293594,
        0.17910218238830566,
        0.02186085656285286,
        0.014625444076955318,
        -0.08023423701524734,
        -0.16793414950370789,
        -0.26163947582244873,
        -0.09728534519672394,
        -0.050312064588069916,
        -0.2311086654663086,
        0.153670534491539,
        -0.030623527243733406,
        0.14497010409832,
        -0.1628814935684204,
        -0.21677115559577942,
        0.28472378849983215,
        0.002807701239362359,
        -0.19315080344676971,
        -0.10710079222917557,
        -0.40947970747947693,
        0.11972660571336746,
        0.22928749024868011,
        -0.018224680796265602,
        0.39426860213279724,
        -0.009856760501861572,
        0.2558352053165436,
        -0.28566670417785645,
        -0.3205370306968689,
        0.19173090159893036,
        -0.47635847330093384,
        0.06079396978020668,
        0.36853161454200745,
        -0.046373602002859116,
        0.06246882677078247,
        -0.5382210612297058,
        0.39511486887931824,
        -0.06891598552465439,
        -0.29700496792793274,
        0.10608905553817749,
        0.012348833493888378,
        -0.10443416237831116,
        0.15079867839813232,
        0.06310457736253738,
        -0.2626992464065552,
        -0.16563604772090912,
        -0.16960132122039795,
        -0.20606794953346252,
        0.22817476093769073,
        0.026818104088306427,
        0.00834745541214943,
        0.019468111917376518,
        0.13915836811065674,
        0.37379005551338196,
        -0.3219626247882843,
        -0.012719730846583843,
        0.026894932612776756,
        -0.28240400552749634,
        -0.10953661799430847,
        -0.2792540192604065,
        -0.10448861122131348,
        -0.1284385472536087,
        0.3358556926250458,
        -0.6160551309585571,
        0.19822260737419128,
        -0.055286042392253876,
        0.20858214795589447,
        0.021946629509329796,
        0.22229139506816864,
        -0.1055421307682991,
        0.03836684301495552,
        0.043495725840330124,
        -0.008323744870722294,
        0.18344441056251526,
        0.18240521848201752,
        0.012571051716804504,
        0.01110562589019537,
        0.09664252400398254,
        -0.1141059622168541,
        -0.08479257673025131,
        -0.040147118270397186,
        0.012491744942963123,
        -0.06095047667622566,
        -0.2234243005514145,
        0.07387227565050125,
        0.12478018552064896,
        0.07946419715881348,
        -0.16021986305713654,
        -0.016270224004983902,
        -0.19647955894470215,
        0.025765657424926758,
        -0.04598293453454971,
        -0.021506767719984055,
        -0.19164614379405975,
        -0.178782120347023,
        -0.019606303423643112,
        0.25803419947624207,
        0.06921781599521637,
        0.1323375105857849,
        -0.2710084915161133,
        -0.050324611365795135,
        0.0814666599035263,
        -0.10703889280557632,
        -0.019065139815211296,
        -0.13865789771080017,
        -0.12877342104911804,
        0.1879735291004181,
        0.1278507262468338,
        -0.15243376791477203,
        0.02398487739264965,
        0.04525766149163246,
        -0.06772264838218689,
        -0.0035092399921268225,
        0.20745070278644562,
        0.06800448149442673,
        0.17132826149463654,
        -0.024927331134676933,
        -0.05064905434846878,
        -0.008460684679448605,
        -0.2539009153842926,
        0.016854027286171913,
        0.16861777007579803,
        0.11167310178279877,
        0.02370161935687065,
        -0.14275802671909332,
        -0.03362664952874184,
        0.04120302200317383,
        0.046498458832502365,
        0.07624787837266922,
        -0.00021699565695598722,
        -0.012980339117348194,
        -0.49356427788734436,
        -0.12154614925384521,
        0.22850777208805084,
        -0.515353262424469,
        0.11568578332662582,
        -0.6932967901229858,
        -0.358784019947052,
        -0.5681210160255432,
        1.1924169063568115,
        -0.6839721202850342,
        -0.5362144112586975,
        -1.005489706993103,
        0.23127983510494232,
        -0.6665668487548828,
        0.8013780117034912,
        -0.5167038440704346,
        -0.12294404953718185,
        -0.17307071387767792,
        0.021625163033604622,
        0.7061388492584229,
        0.24061962962150574,
        -0.249635249376297,
        -0.28980904817581177,
        -0.16361291706562042,
        0.15023140609264374,
        -0.3432210385799408,
        0.40008601546287537,
        0.5377566814422607,
        0.30028611421585083,
        0.12748076021671295,
        0.14393186569213867,
        -0.1370050311088562,
        -0.270292192697525,
        -0.18903425335884094,
        -0.0783519521355629,
        0.2058253139257431,
        -0.21845921874046326,
        0.12239155173301697,
        -0.3188477158546448,
        -0.24861936271190643,
        0.27490586042404175,
        0.038979168981313705,
        0.18857331573963165,
        0.2103808969259262,
        0.2380516678094864,
        0.04740371182560921,
        0.05113467201590538,
        0.15157973766326904,
        -0.4127557575702667,
        -0.14385725557804108,
        -0.22425229847431183,
        0.4257616698741913,
        -0.043926239013671875,
        0.3259012699127197,
        -0.5263254642486572,
        -0.1956164687871933,
        0.10117724537849426,
        0.33201467990875244,
        -0.10545769333839417,
        -0.43921321630477905,
        0.3699868321418762,
        0.2660564184188843,
        -0.008917834609746933,
        0.2779032289981842,
        0.43123143911361694,
        0.27445170283317566,
        -0.3714909255504608,
        -0.5128592252731323,
        -0.15105009078979492,
        -0.20141427218914032,
        -0.05814250558614731,
        -0.00852706003934145,
        -0.2780756950378418,
        0.13071222603321075,
        -0.07535628229379654,
        0.2535787522792816,
        -0.02374906651675701,
        -0.10917972773313522,
        0.14877814054489136,
        0.22897452116012573,
        0.23547208309173584,
        0.14095745980739594,
        0.030868055298924446,
        -0.2674836218357086,
        0.35440948605537415,
        -0.06806422770023346,
        -0.06966899335384369,
        0.20468272268772125,
        0.06068259850144386,
        -0.04453282803297043,
        -0.33449938893318176,
        0.16129451990127563,
        -0.17523381114006042,
        -0.09269726276397705,
        -0.2589884400367737,
        -0.1825421005487442,
        -0.3079735040664673,
        -0.4743357002735138,
        -0.3128257095813751,
        0.06463855504989624,
        0.05060357600450516,
        -0.16809286177158356,
        -0.1635562628507614,
        -0.17667827010154724,
        0.34714019298553467,
        0.3894014358520508,
        0.17302705347537994,
        -0.26473307609558105,
        -0.008543184958398342,
        0.082408107817173,
        0.44471895694732666,
        0.11214195191860199,
        0.28930747509002686,
        0.015044689178466797,
        0.2404806911945343,
        -0.2052251547574997,
        0.0820765346288681,
        0.21627213060855865,
        -0.17372561991214752,
        -0.11511489003896713,
        -0.11766646802425385,
        -0.0012537171132862568,
        -0.40651795268058777,
        0.31548285484313965,
        -0.18614155054092407,
        -0.3426145613193512,
        0.05562828481197357,
        0.11145559698343277,
        0.11270526796579361,
        -0.057321492582559586,
        0.03318260610103607,
        0.0863879919052124,
        0.1257718950510025,
        -0.12500466406345367,
        -0.04916853830218315,
        0.16912493109703064,
        -0.05717746168375015,
        0.2850727438926697,
        -0.3019198179244995,
        0.13141268491744995,
        -0.18569986522197723,
        0.02220110036432743,
        0.25020933151245117,
        -0.09464117139577866,
        -0.14938125014305115,
        -0.19008609652519226,
        -0.4946843087673187,
        0.011251237243413925,
        -0.5524917244911194,
        0.007597814314067364,
        -0.1830603927373886,
        -0.35261809825897217,
        0.27120116353034973,
        0.16853080689907074,
        0.4369494915008545,
        -0.44643402099609375,
        0.32339605689048767,
        0.10062547773122787,
        0.02213519625365734,
        0.48960232734680176,
        0.039485689252614975,
        -0.004672647453844547,
        0.10299639403820038,
        -0.04714334011077881,
        0.1736944615840912,
        -0.35627228021621704,
        0.3939558267593384,
        0.16293200850486755,
        -0.06431002914905548,
        -0.07480859756469727,
        0.0045577301643788815,
        0.35640132427215576,
        -0.06298093497753143,
        -0.04996972531080246,
        0.2668144106864929,
        -0.4720022976398468,
        -0.22567857801914215,
        -0.17070649564266205,
        -0.2750371992588043,
        0.24685505032539368,
        -0.12081292271614075,
        0.14138852059841156,
        -0.10305685549974442,
        -0.1783641129732132,
        0.3163318336009979,
        0.34268277883529663,
        -0.06922926008701324,
        -0.04181317985057831,
        0.24647963047027588,
        -0.08043422549962997,
        0.15095405280590057,
        0.23622989654541016,
        0.2726259231567383,
        0.6325016617774963,
        -0.220278799533844,
        -0.1509130299091339,
        -0.13062742352485657,
        -0.16807548701763153,
        0.17059846222400665,
        0.31635645031929016,
        -0.4825124144554138,
        -0.03957824781537056,
        0.07794104516506195,
        0.0594957135617733,
        -0.05454505234956741,
        -0.2424372434616089,
        -0.30017977952957153,
        -0.14147904515266418,
        -0.21675537526607513,
        -0.22902370989322662,
        -0.2869107723236084,
        0.3839612901210785,
        -0.22289948165416718,
        0.0882769450545311,
        -0.25074198842048645,
        0.1601451337337494,
        -0.0766281858086586,
        0.039792630821466446,
        -0.037547849118709564,
        -0.21146813035011292,
        0.21752314269542694,
        0.010505891405045986,
        -0.07639320194721222,
        0.048603616654872894,
        0.14793220162391663,
        -0.004656186792999506,
        -0.24378524720668793,
        0.3661864995956421,
        -0.336105078458786,
        -0.05514957755804062,
        -0.028990598395466805,
        -0.06132400408387184,
        0.29361289739608765,
        0.22575697302818298,
        0.14469027519226074,
        -0.007051568012684584,
        0.25329601764678955,
        0.0035080588422715664,
        0.2627354860305786,
        -0.11334748566150665,
        -0.015440571121871471,
        0.5001898407936096,
        -0.13758711516857147,
        0.05637049302458763,
        -0.24170760810375214,
        -0.06821460276842117,
        0.028142523020505905,
        -0.017162330448627472,
        -0.16118735074996948,
        -0.02071336656808853,
        0.02376517280936241,
        -0.0704973042011261,
        0.11615963280200958,
        0.2029893398284912,
        -0.07471730560064316,
        0.22954697906970978,
        0.13505253195762634,
        -0.2231900691986084,
        -0.23775869607925415,
        0.23276691138744354,
        -0.17409975826740265,
        -0.1480596959590912,
        -0.42739492654800415,
        0.16424407064914703,
        0.10244333744049072,
        -0.3000871241092682,
        0.3021465241909027,
        0.3449612855911255,
        0.07456906884908676,
        0.6678687334060669,
        -0.32634642720222473,
        -0.2364795207977295,
        -0.015344989486038685,
        -0.12750284373760223,
        -0.11086771637201309,
        -0.029131844639778137,
        -0.34573400020599365,
        -0.0036272937431931496,
        0.2604028284549713,
        0.18465563654899597,
        0.3189985156059265,
        -0.035299383103847504,
        0.16366040706634521,
        -0.14286303520202637,
        0.21252278983592987,
        -0.16983775794506073,
        -0.06514450907707214,
        -0.10458718240261078,
        0.34711337089538574,
        -0.02105424366891384,
        -0.05245524272322655,
        0.18572339415550232,
        -0.12340929359197617,
        0.013692290522158146,
        0.03485678881406784,
        -0.08858136087656021,
        0.024520277976989746,
        0.1356886923313141,
        -0.23306123912334442,
        -0.06690388172864914,
        0.08918368816375732,
        0.0759492963552475,
        -0.057819124311208725,
        0.17057856917381287,
        -0.007472100201994181,
        0.12148572504520416,
        -0.3487808406352997,
        -0.12286358326673508,
        0.0011083934223279357,
        -0.1250440627336502,
        0.13376230001449585,
        -0.15608862042427063,
        0.03076525405049324,
        0.022166062146425247,
        0.08051667362451553,
        0.09316907823085785,
        0.09532543271780014,
        -0.04682810977101326,
        -0.06673908233642578,
        0.008565829135477543,
        0.024418000131845474,
        -0.16344384849071503,
        0.07815009355545044,
        -0.0385066457092762,
        0.029331538826227188,
        -0.15901286900043488,
        0.0719689354300499,
        -0.07720893621444702,
        0.10813924670219421,
        -0.018629012629389763,
        0.1837422400712967,
        0.050191450864076614,
        -0.13603124022483826,
        0.6762861013412476,
        -0.11442822217941284,
        -0.26229873299598694,
        -0.02062297612428665,
        0.19507457315921783,
        -0.05108097568154335,
        -0.0614684522151947,
        0.2665543854236603,
        -0.2709082365036011,
        0.180203378200531,
        0.24307437241077423,
        0.008969681337475777,
        -0.04292314872145653,
        -0.27380532026290894,
        0.2733966112136841,
        0.03739292174577713,
        -0.17962335050106049,
        0.07942604273557663,
        0.008136589080095291,
        0.5536942481994629,
        -0.43903008103370667,
        0.1199217438697815,
        -0.1675570011138916,
        0.1265624463558197,
        -0.1338423788547516,
        -0.07693687826395035,
        0.05289782956242561,
        0.1116786077618599,
        0.055906057357788086,
        -0.2821570634841919,
        0.045780472457408905,
        0.10580896586179733,
        0.189215287566185,
        0.22065386176109314,
        0.1749158352613449,
        -0.15038977563381195,
        -0.10915997624397278,
        -0.38861483335494995,
        0.07548226416110992,
        0.028607752174139023,
        0.15298594534397125,
        -0.17600250244140625,
        0.029131408780813217,
        0.11375655978918076,
        -0.24567091464996338,
        0.003869627369567752,
        0.012211167253553867,
        -0.030057989060878754,
        0.05010637640953064,
        0.22133100032806396,
        -0.1296793520450592,
        -0.019115369766950607,
        -0.18933963775634766,
        -0.6080033779144287,
        0.01226362120360136,
        -0.08832114934921265,
        -0.18059343099594116,
        -0.06854768097400665,
        -0.09719447046518326,
        0.13094404339790344,
        0.09617224335670471,
        -0.19006061553955078,
        0.10289855301380157,
        0.06837553530931473,
        -0.03268897533416748,
        0.1411004364490509,
        0.04619085416197777,
        -0.43639782071113586,
        -0.8475831747055054,
        -0.01571945659816265,
        0.08883622288703918,
        0.07877440005540848,
        0.10557103902101517,
        0.13085691630840302,
        -0.052856072783470154,
        -0.07164648920297623,
        -0.09326722472906113,
        0.05952315777540207,
        0.17273618280887604,
        0.1331639438867569,
        -0.24297218024730682,
        -0.29772594571113586,
        -0.03432414308190346,
        -0.02449828013777733,
        -0.06816450506448746,
        0.14424091577529907,
        0.5858919024467468,
        -0.07085974514484406,
        -0.0858493521809578,
        0.10160466283559799,
        -0.23301702737808228,
        -0.09833897650241852,
        0.048461269587278366,
        0.08974400162696838,
        -0.054577529430389404,
        0.37055253982543945,
        0.334719717502594,
        0.2071167528629303,
        0.07735911756753922,
        -0.14041242003440857,
        -0.15342919528484344,
        0.2833024263381958,
        -0.12125285714864731,
        0.3500707149505615,
        0.016201335936784744,
        0.04200148582458496,
        0.33350005745887756,
        -0.23989662528038025,
        0.19162820279598236,
        0.46676912903785706,
        -0.05830072984099388,
        0.15748576819896698,
        -0.07777781784534454,
        0.16703929007053375,
        -0.19241145253181458,
        1.054017424583435,
        -0.02686125971376896,
        -0.07442549616098404,
        0.0002748697006609291,
        -0.30341073870658875,
        -0.0835488885641098,
        0.0058464789763092995,
        0.13663801550865173,
        -0.04821893572807312,
        0.09208959341049194,
        -0.1869378685951233,
        -0.11074936389923096,
        -0.1442943513393402,
        0.03266878426074982,
        -0.0061649177223443985,
        0.2006087601184845,
        -0.12010988593101501,
        0.46523958444595337,
        -0.3519710898399353,
        -0.03634520247578621,
        -0.02021671272814274,
        0.05189035087823868,
        -0.21191762387752533,
        0.12470889091491699,
        0.13360385596752167,
        0.022666625678539276,
        0.15409114956855774,
        -0.06180505082011223,
        0.00019866530783474445,
        0.06509418040513992,
        -0.4213411509990692,
        0.1686970442533493,
        0.2478976547718048,
        0.05136941000819206,
        -0.05308279022574425,
        0.0020059889648109674,
        0.050801005214452744,
        0.015743261203169823,
        0.22219082713127136,
        -0.0433993898332119,
        -0.08397790789604187,
        0.48131853342056274,
        -0.0068024881184101105,
        -0.07135137170553207,
        -0.10477951914072037,
        0.05603077635169029,
        -0.015217509120702744,
        -0.049479417502880096,
        -0.09158250689506531,
        0.036392081528902054,
        0.1328589767217636,
        -0.04999134689569473,
        -0.028794391080737114,
        -0.082691490650177,
        -0.04039975628256798,
        0.06092418357729912,
        0.07727012038230896,
        -0.3030959367752075,
        0.08037462830543518,
        -0.1256161630153656,
        0.17572560906410217,
        0.1100037693977356,
        0.09650344401597977,
        -0.12314213812351227,
        -0.04701700434088707,
        0.29488661885261536,
        0.0921352431178093,
        -0.09580077230930328,
        0.09353405237197876,
        -0.014909403398633003,
        -0.10388050228357315,
        0.30618971586227417,
        -0.10982230305671692,
        0.04109184816479683,
        0.16572031378746033,
        -0.2460915893316269,
        0.2606835961341858,
        0.18087030947208405,
        -0.34065619111061096,
        -0.06934734433889389,
        0.5979489088058472,
        0.05438705161213875,
        -0.08013488352298737,
        0.3206990957260132,
        -0.031765252351760864,
        -0.06122549623250961,
        0.14946164190769196,
        -0.09990016371011734,
        -0.14922361075878143,
        -0.06302063912153244,
        -0.27209827303886414,
        0.028010664507746696,
        -0.05400896072387695,
        0.02228897251188755,
        0.20317097008228302,
        -0.14343701303005219,
        -0.04366384074091911,
        0.07812866568565369,
        -0.2201836258172989,
        -0.04727794975042343,
        -0.2258014976978302,
        -0.2545200288295746,
        -0.1047126054763794,
        0.14843226969242096,
        0.21792620420455933,
        -0.10757932811975479,
        -0.2553478479385376,
        -0.23871979117393494,
        0.042905278503894806,
        0.10716966539621353,
        0.2602410316467285,
        -0.050791654735803604,
        -0.14020226895809174,
        0.03412790969014168,
        0.11297035962343216,
        0.033473700284957886,
        0.291271448135376,
        -0.13325881958007812,
        -0.22405566275119781,
        0.24023787677288055,
        -0.013254392892122269,
        -0.07042843848466873,
        0.028031695634126663,
        -0.10630693286657333,
        -0.016655076295137405,
        0.46086928248405457,
        0.1929539144039154,
        0.23079976439476013,
        -0.252249151468277,
        0.13358086347579956,
        0.19840095937252045,
        0.03585227578878403,
        -0.046730414032936096,
        0.026382215321063995,
        0.0003399779961910099,
        -0.11458928883075714,
        -0.07646041363477707,
        0.0923241674900055,
        0.1252131164073944,
        0.1092430055141449,
        -0.04307202994823456,
        -0.04332807660102844,
        -0.044762082397937775,
        -0.028247235342860222,
        0.03574438765645027,
        0.06922129541635513,
        0.04485778510570526,
        0.05881737917661667,
        -0.03925034776329994,
        0.12341190874576569,
        0.09639809280633926,
        -0.1483202427625656,
        -0.059693146497011185,
        -0.08191163092851639,
        0.2215072363615036,
        0.028354063630104065,
        0.16939453780651093,
        -0.1022573783993721,
        -0.17637062072753906,
        0.04792356491088867,
        -0.00989431794732809,
        -0.13236553966999054,
        -0.10411065071821213,
        -0.08943614363670349,
        -0.15036413073539734,
        -0.08601748198270798,
        0.20024080574512482,
        -0.14395099878311157,
        -0.07483033835887909,
        0.0523015521466732,
        -0.14466151595115662,
        -0.015543283894658089,
        0.04740745946764946,
        -0.29382383823394775,
        0.030235083773732185,
        0.026135720312595367,
        0.3837417662143707,
        0.04491632059216499,
        -0.09061283618211746,
        0.2498127669095993,
        0.07161885499954224,
        0.036853715777397156,
        0.1092011034488678,
        0.14358147978782654,
        -0.11415044963359833,
        -0.05484155938029289,
        -0.2580307722091675,
        0.2869529724121094,
        -0.17111435532569885,
        0.1376083493232727,
        0.08601509034633636,
        0.05262720584869385,
        0.2370079904794693,
        0.262603759765625,
        -0.15652041137218475,
        -0.03997071087360382,
        -0.06739278882741928,
        -0.2425985038280487,
        0.06546208262443542,
        0.030626095831394196,
        0.09614568948745728,
        -0.016080718487501144,
        -0.23221154510974884,
        -0.23847918212413788,
        0.08169693499803543,
        -0.026166263967752457,
        0.2844522297382355,
        -0.12827523052692413,
        -0.10093263536691666,
        0.02190636470913887,
        0.045947156846523285,
        -0.2750023305416107,
        0.16656142473220825,
        0.009849061258137226,
        -0.018642250448465347,
        0.08333025872707367,
        -0.07743819802999496,
        -0.0761716216802597,
        0.06212775781750679,
        -0.18856662511825562,
        -0.13777941465377808,
        -0.09027708321809769,
        -0.1950303465127945,
        0.03971140831708908,
        -0.09248288720846176,
        -0.3772333562374115,
        -0.3726848363876343,
        0.08498488366603851,
        -0.1322537511587143,
        -0.15811482071876526,
        0.15716668963432312,
        0.029020899906754494,
        -0.14826002717018127,
        -0.14342100918293,
        0.04363296180963516,
        0.04157021641731262,
        -0.38900813460350037,
        -0.259628564119339,
        -0.16012662649154663,
        -0.33072254061698914,
        -0.10868380218744278,
        -0.12621116638183594,
        0.4636102020740509,
        0.26929280161857605,
        0.3322126567363739,
        -0.06595977395772934,
        -0.030851025134325027,
        0.08691337704658508,
        0.445520281791687,
        0.21714676916599274,
        0.16511276364326477,
        -0.16316935420036316,
        0.10693876445293427,
        0.13669157028198242,
        0.2934756875038147,
        -0.0027608012314885855,
        -0.17993520200252533,
        0.09515803307294846,
        -0.003374402644112706,
        -0.09499459713697433,
        0.28672531247138977,
        0.2174736112356186,
        -0.04280894994735718,
        0.20682302117347717,
        -0.17354418337345123,
        -0.01712166890501976,
        0.21378886699676514,
        0.02582358382642269,
        0.057253073900938034,
        0.293434202671051,
        0.18425412476062775,
        0.12860862910747528,
        -0.2776294946670532,
        -0.32454314827919006,
        -0.2248217612504959,
        -0.04720152169466019,
        -0.0038170081097632647,
        0.16147825121879578,
        -0.15332435071468353,
        -0.05970774590969086,
        0.18787017464637756,
        0.033456865698099136,
        0.10913155972957611,
        0.0005331296124495566,
        0.1883719116449356,
        0.12537221610546112,
        0.007778872270137072,
        -0.053030017763376236,
        -0.4283800721168518,
        0.06414801627397537,
        -0.1772564798593521,
        -0.016290418803691864,
        -0.03983364254236221,
        0.2020929455757141,
        -0.21875625848770142,
        -0.19256441295146942,
        -0.2677689492702484,
        -0.15022717416286469,
        0.18582797050476074,
        0.29639384150505066,
        -0.11341235041618347,
        -0.0776594951748848,
        -0.14533419907093048,
        -0.023670010268688202,
        0.06837113201618195,
        -0.04489980265498161,
        0.4259405732154846,
        0.09085588902235031,
        -0.20937348902225494,
        -0.02737835980951786,
        0.05751635134220123,
        -0.2015819400548935,
        -0.20918287336826324,
        0.1342518925666809,
        -0.1523406058549881,
        0.25920572876930237,
        -0.004236829001456499,
        0.2185400277376175,
        -0.18542668223381042,
        -0.3519130051136017,
        0.13282626867294312,
        0.023937707766890526,
        0.13520418107509613,
        0.08729001879692078,
        0.14706668257713318,
        0.2761281132698059,
        -0.04442157223820686,
        0.06068187579512596,
        0.11075491458177567,
        0.21889445185661316,
        -0.01746004819869995,
        0.0649031400680542,
        0.16120578348636627,
        -0.08661501109600067,
        0.07298420369625092,
        0.21143195033073425,
        0.16145844757556915,
        -0.15495628118515015,
        -0.14722555875778198,
        0.16221590340137482,
        -0.3836202919483185,
        0.11643410474061966,
        0.15756244957447052,
        -0.11401546001434326,
        -0.03738981857895851,
        0.030927754938602448,
        0.06811605393886566,
        0.10665659606456757,
        0.06531213968992233,
        -0.011951935477554798,
        -0.013189252465963364,
        0.07932797074317932,
        0.14484570920467377,
        -0.17119459807872772,
        -0.16274702548980713,
        0.10201101750135422,
        0.03409972041845322,
        -0.008729133754968643,
        0.04500020295381546,
        0.06987182796001434,
        -0.007133479230105877,
        0.04484572634100914,
        -0.14259015023708344,
        0.10479974746704102,
        -0.10137727856636047,
        0.3764786422252655,
        -0.523762583732605,
        -0.050492700189352036,
        0.19875143468379974,
        0.07558520883321762,
        0.37562328577041626,
        -0.051228780299425125,
        -0.07334059476852417,
        0.26388752460479736,
        -0.023861320689320564,
        0.060957007110118866,
        0.28222668170928955,
        -0.03978028520941734,
        0.00801650807261467,
        0.20713727176189423,
        0.32342293858528137,
        0.16032277047634125,
        0.07828694581985474,
        0.2781471908092499,
        -0.39536309242248535,
        0.1323203444480896,
        -0.1840849369764328,
        -0.02828884869813919,
        0.0023129398468881845,
        0.19875387847423553,
        -0.25272709131240845,
        -0.2946878969669342,
        -0.38352298736572266,
        0.07113714516162872,
        -0.07275062054395676,
        0.027958184480667114,
        -0.20945395529270172,
        -0.27168166637420654,
        -0.181983083486557,
        -0.022960936650633812,
        0.08707957714796066,
        -0.035923898220062256,
        0.017184024676680565,
        0.3279511630535126,
        -0.1364525407552719,
        -0.029689624905586243,
        0.04336857050657272,
        -0.183275043964386,
        -0.08101484924554825,
        0.318393737077713,
        -0.057385463267564774,
        0.011393493972718716,
        0.2603412866592407,
        0.08400453627109528,
        -0.1386338472366333,
        -0.38993850350379944,
        -0.08614490926265717,
        -0.1455172300338745,
        0.2890838086605072,
        0.01603049784898758,
        -0.017038730904459953,
        -0.05602821335196495,
        -0.19956344366073608,
        -0.2011454701423645,
        0.07774962484836578,
        0.012273289263248444,
        -0.13653960824012756,
        -0.07683257013559341,
        0.1893894374370575,
        0.152116596698761,
        0.020097624510526657,
        0.18217453360557556,
        -0.2862219214439392,
        0.15017634630203247,
        -0.028336917981505394,
        0.11063072830438614,
        -0.04802888259291649,
        0.18526016175746918,
        -0.10370537638664246,
        -0.0804312601685524,
        -0.14204002916812897,
        -0.1673751175403595,
        0.14620864391326904,
        0.019413456320762634,
        0.010308781638741493,
        -0.10997330397367477,
        -0.039057280868291855,
        0.13481922447681427,
        0.14591164886951447,
        -0.050655562430620193,
        0.03219462186098099,
        0.06487039476633072,
        -0.17738403379917145,
        0.051814332604408264,
        0.043361417949199677,
        0.027915561571717262,
        0.13827475905418396,
        0.2542784512042999,
        -0.12085041403770447,
        0.10640978813171387,
        -0.1334773451089859,
        -0.13766880333423615,
        -0.05747942626476288,
        0.06982653588056564,
        -0.15748330950737,
        0.11006411910057068,
        0.022712385281920433,
        0.1265837699174881,
        0.04609411954879761,
        -0.02020459808409214,
        0.13832814991474152,
        0.11114014685153961,
        -0.1289532631635666,
        -0.034802354872226715,
        -0.09032709151506424,
        -0.12531030178070068,
        -0.2630678415298462,
        -0.04054616391658783,
        0.03731479495763779,
        -0.13950300216674805,
        0.2614026367664337,
        -0.13047108054161072,
        0.1654280424118042,
        0.11449494957923889,
        -0.09766598790884018,
        -0.013047649525105953,
        0.09192143380641937,
        -0.014923238195478916,
        0.12250137329101562,
        0.04686819761991501,
        0.019536612555384636,
        -0.033848702907562256,
        -0.06412321329116821,
        0.17618036270141602,
        0.06883261352777481,
        0.08932522684335709,
        -0.1155799925327301,
        0.02970214933156967,
        -0.0838732123374939,
        -0.23104727268218994,
        0.003085119416937232,
        0.14486777782440186,
        -0.03707396611571312,
        0.06438235938549042,
        0.21800251305103302,
        -0.12762214243412018,
        0.20346865057945251,
        0.0542304702103138,
        0.017766470089554787,
        -0.25488704442977905,
        0.08151183277368546,
        0.36274078488349915,
        -0.13134895265102386,
        0.1872468739748001,
        -0.3983367681503296,
        -0.22725850343704224,
        -0.23175475001335144,
        0.020265845581889153,
        -0.3845193386077881,
        -0.20221275091171265,
        0.1913248896598816,
        -0.2977151870727539,
        -0.25175347924232483,
        0.04213213920593262,
        -0.11309702694416046,
        -0.21444234251976013,
        -0.3616335391998291,
        0.24811916053295135,
        -0.07479150593280792,
        -0.19473062455654144,
        -0.030997013673186302,
        0.15829311311244965,
        0.10433176904916763,
        0.27821508049964905,
        0.10119659453630447,
        -0.04991063103079796,
        0.08952704817056656,
        0.013751551508903503,
        0.3638218343257904,
        0.31321942806243896,
        0.09474451839923859,
        -0.1026206687092781,
        -0.18686023354530334,
        0.03226839378476143,
        0.28098756074905396,
        -0.26857274770736694,
        0.11275839060544968,
        -0.040990617126226425,
        -0.13886962831020355,
        0.01909995824098587,
        0.2486274242401123,
        -0.40077295899391174,
        -0.060373738408088684,
        0.14288243651390076,
        -0.22357188165187836,
        -0.09368975460529327,
        0.204807311296463,
        0.4209471642971039,
        0.3423663079738617,
        -0.16163568198680878,
        0.21873880922794342,
        -0.21276363730430603,
        0.04641325771808624,
        0.20407450199127197,
        -0.22677412629127502,
        0.07440055906772614,
        0.05778922140598297,
        -0.07484939694404602,
        0.04758066684007645,
        -0.339559942483902,
        0.1941443532705307,
        0.2076849341392517,
        -0.11428026109933853,
        0.18221604824066162,
        0.07789922505617142,
        0.4657670259475708,
        -0.4394740164279938,
        -0.14437557756900787,
        0.00856946874409914,
        0.10111716389656067,
        0.10397668182849884,
        -0.02626030519604683,
        0.12777933478355408,
        0.1389552503824234,
        0.12437023222446442,
        -0.15440529584884644,
        -0.06843908131122589,
        -0.12495245039463043,
        0.05863315984606743,
        0.021603988483548164,
        0.15784206986427307,
        -0.2865663170814514,
        -0.0063881478272378445,
        -0.5341650247573853,
        0.4236500859260559,
        0.0909348875284195,
        -0.017796911299228668,
        0.015170035883784294,
        -0.16329114139080048,
        0.1706593930721283,
        -0.041474804282188416,
        -0.055845487862825394,
        -0.18813271820545197,
        -0.045065876096487045,
        -0.026567013934254646,
        -0.018927043303847313,
        -0.5186519622802734,
        -0.11169508844614029,
        0.10348796844482422,
        0.03323350101709366,
        0.005309906788170338,
        -0.2896137535572052,
        0.05993868038058281,
        -0.039387304335832596,
        -0.031840141862630844,
        -0.12483096867799759,
        0.3514232039451599,
        -0.01749754138290882,
        0.021403368562459946,
        -0.2387411743402481,
        -0.15056836605072021,
        0.1689859926700592,
        0.15845859050750732,
        0.012522912584245205,
        -0.18653468787670135,
        -0.47386807203292847,
        0.638108491897583,
        0.37159961462020874,
        -0.3978172242641449,
        0.12825651466846466,
        -0.19998334348201752,
        -0.01865498162806034,
        0.5232341885566711,
        -0.7801806330680847,
        0.9451703429222107,
        0.5908046364784241,
        -0.004057670012116432,
        -0.3671635687351227,
        0.13609416782855988,
        -0.6609290242195129,
        0.19544826447963715,
        -0.18607668578624725,
        0.17665554583072662,
        -0.3345833122730255,
        0.22650684416294098,
        0.3707868158817291,
        0.05799113214015961,
        0.1563885658979416,
        0.2900714576244354,
        0.03136441484093666,
        0.16721150279045105,
        0.24331501126289368,
        -0.24385471642017365,
        0.034991517663002014,
        -0.10070764273405075,
        -0.38360074162483215,
        0.15931086242198944,
        -0.15570910274982452,
        0.11505195498466492,
        -0.1340404450893402,
        -0.015070420689880848,
        0.0003392207727301866,
        0.07799313962459564,
        -0.2815518379211426,
        -0.4026079475879669,
        0.10935232788324356,
        -0.07212569564580917,
        0.002218548208475113,
        0.23441006243228912,
        0.17559747397899628,
        0.3014083206653595,
        0.10251463949680328,
        0.10660216957330704,
        -0.40996938943862915,
        0.1487843543291092,
        -0.708443284034729,
        0.002164703095331788,
        -0.3240727186203003,
        0.042997535318136215,
        -0.31325870752334595,
        -0.28334394097328186,
        0.4627194106578827,
        -0.19667936861515045,
        0.7599892020225525,
        0.31355273723602295,
        -0.339905321598053,
        0.03234381601214409,
        -0.01876409538090229,
        0.42419373989105225,
        -0.05610920488834381,
        0.1710907369852066,
        -0.02820560336112976,
        -0.3888553977012634,
        0.19564291834831238,
        -0.3337758183479309,
        0.18264985084533691,
        0.28087636828422546,
        0.043086472898721695,
        0.12064563482999802,
        0.3954639434814453,
        0.06802332401275635,
        0.11123058944940567,
        0.04106477275490761,
        0.024537231773138046,
        0.10378946363925934,
        -0.03538453206419945,
        0.11452600359916687,
        0.08918832987546921,
        0.10603286325931549,
        -0.2543535828590393,
        0.15689316391944885,
        -0.058415625244379044,
        -0.04239290580153465,
        -0.030448095872998238,
        -0.1892498880624771,
        -0.008007322438061237,
        -0.07443417608737946,
        -0.31848448514938354,
        0.23716102540493011,
        -0.21353746950626373,
        -0.14885717630386353,
        -0.3199949264526367,
        0.12200941145420074,
        -0.44038423895835876,
        -0.20942379534244537,
        -0.3835156559944153,
        0.25122180581092834,
        -0.05956025794148445,
        -0.25851622223854065,
        0.07534167915582657,
        0.023983092978596687,
        0.22980250418186188,
        0.11774393916130066,
        0.006270329933613539,
        0.3699159324169159,
        -0.07830552756786346,
        0.16568756103515625,
        0.005738741718232632,
        -0.2145581990480423,
        0.11483536660671234,
        0.007350759580731392,
        -0.05485273525118828,
        -0.0004046437097713351,
        -0.023894401267170906,
        -0.23639623820781708,
        0.11599288880825043,
        0.2523126006126404,
        0.04288312420248985,
        0.22796866297721863,
        -0.004781530704349279,
        -0.16000157594680786,
        0.15689575672149658,
        0.17472830414772034,
        0.21829821169376373,
        -0.14778047800064087,
        0.05586549639701843,
        0.25282472372055054,
        -0.05677488446235657,
        0.04870982468128204,
        -0.08068881183862686,
        0.06773795932531357,
        -0.07894527167081833,
        0.07731510698795319,
        -0.04560932144522667,
        -0.04986472800374031,
        0.10771245509386063,
        0.12372833490371704,
        0.013654878363013268,
        -0.11913419514894485,
        0.24563199281692505,
        -0.14789658784866333,
        0.11916963756084442,
        0.05128641054034233,
        -0.08087068796157837,
        -0.3006521165370941,
        0.06332754343748093,
        -0.17535735666751862,
        0.27616649866104126,
        -0.26450514793395996,
        0.4508172571659088,
        -0.11350566148757935,
        -0.11219772696495056,
        -0.183735653758049,
        0.048148322850465775,
        0.1811140924692154,
        -0.33030444383621216,
        -0.10510089993476868,
        0.19831861555576324,
        -0.03873862326145172,
        0.09260506182909012,
        -0.04672488942742348,
        -0.19924631714820862,
        -0.08100952208042145,
        -0.06911906599998474,
        0.09583687782287598,
        -0.14979052543640137,
        0.09792299568653107,
        -0.06589995324611664,
        0.3837547302246094,
        -0.027646923437714577,
        0.3654375374317169,
        -0.19760464131832123,
        -0.12094265222549438,
        -0.3239605724811554,
        0.19495916366577148,
        -0.11517408490180969,
        0.025292444974184036,
        -0.03030129335820675,
        0.16744329035282135,
        0.2395581305027008,
        -0.13325080275535583,
        0.29078611731529236,
        0.06361188739538193,
        -0.1987481564283371,
        -0.0416160523891449,
        0.19465534389019012,
        0.10613588243722916,
        0.14514927566051483,
        -0.07755302637815475,
        0.07226330786943436,
        -0.10325149446725845,
        0.2041313797235489,
        0.18902549147605896,
        0.15211832523345947,
        -0.04178715497255325,
        -0.22172772884368896,
        -0.17788203060626984,
        0.28537943959236145,
        -0.307405948638916,
        -0.06550305336713791,
        -0.13166895508766174,
        0.03569234162569046,
        -0.38488778471946716,
        0.08848343789577484,
        -0.2093064785003662,
        0.09621234238147736,
        0.34545519948005676,
        0.11745919287204742,
        -0.3315574526786804,
        -0.0975223109126091,
        0.43110373616218567,
        0.02412610501050949,
        -0.28687140345573425,
        0.22088925540447235,
        -0.1907365769147873,
        0.1041766032576561,
        -0.09431309252977371,
        -0.010907217860221863,
        -0.6625639796257019,
        0.23029932379722595,
        -0.23294071853160858,
        0.1255325973033905,
        -0.04683893918991089,
        -0.236307293176651,
        -0.09211225062608719,
        0.01277824304997921,
        0.1863330900669098,
        -0.010573352687060833,
        -0.013683894649147987,
        -0.26803648471832275,
        -0.10814914852380753,
        0.29074597358703613,
        -0.4717576205730438,
        -0.20909136533737183,
        -0.02065490186214447,
        0.5162773728370667,
        -0.14194408059120178,
        0.1014159619808197,
        -0.3623714745044708,
        -0.4633429944515228,
        0.35095924139022827,
        -0.37400007247924805,
        -0.04943054914474487,
        0.536966860294342,
        -0.05305471271276474,
        0.4015888273715973,
        -0.0053711989894509315,
        -0.12737424671649933,
        -0.11305850744247437,
        -0.31320980191230774,
        0.019028248265385628,
        -0.11015868932008743,
        -0.005419437307864428,
        -0.5955328941345215,
        -0.2068510353565216,
        -0.01920471526682377,
        -0.10439176112413406,
        -0.1293352246284485,
        -0.017843589186668396,
        0.5104206800460815,
        0.11120247095823288,
        0.49444979429244995,
        -0.21642407774925232,
        -0.11928460001945496,
        -0.14283931255340576,
        0.1478368043899536,
        0.00724728312343359,
        -0.08932951837778091,
        0.010908694006502628,
        0.14324405789375305,
        -0.2592525780200958,
        0.12578293681144714,
        0.4209381937980652,
        0.10738642513751984,
        -0.07429735362529755,
        -0.3481072783470154,
        0.046288322657346725,
        0.20178839564323425,
        0.38393375277519226,
        0.0779208317399025,
        0.1914142519235611,
        0.025806019082665443,
        0.021278588101267815,
        -0.47137174010276794,
        -0.018110765144228935,
        -0.22143736481666565,
        -0.09926019608974457,
        -0.024837514385581017,
        0.09653240442276001,
        -0.19232648611068726,
        -0.05922848358750343,
        -0.05515584349632263,
        -0.20533709228038788,
        0.1411113142967224,
        -0.11278882622718811,
        -0.08615974336862564,
        -0.10020773112773895,
        -0.061155110597610474,
        -0.10975649207830429,
        -0.06259877979755402,
        0.42180514335632324,
        0.07151271402835846,
        0.041316889226436615,
        -0.17418968677520752,
        0.11709778755903244,
        0.051309045404195786,
        0.14921067655086517,
        -0.2497965693473816,
        0.003172531258314848,
        -0.10588786005973816,
        0.19290319085121155,
        -0.07852554321289062,
        -0.02281178906559944,
        -0.1121496856212616,
        0.1122133806347847,
        0.18844421207904816,
        -0.15887117385864258,
        -0.00682061817497015,
        -0.0642099678516388,
        -0.07345027476549149,
        -0.04877123236656189,
        0.10297539085149765,
        -0.1320834755897522,
        -0.08768443763256073,
        -0.12154851853847504,
        -0.14757885038852692,
        -0.06907344609498978,
        -0.03161662817001343,
        -0.09155486524105072,
        0.0113760931417346,
        0.06893198192119598,
        0.2643386125564575,
        -0.3159082531929016,
        -0.017636168748140335,
        -0.20680269598960876,
        0.005962904077023268,
        0.02073567360639572,
        0.11970682442188263,
        0.10834290832281113,
        -0.09718910604715347,
        0.08694181591272354,
        -0.12100601941347122,
        -0.09256331622600555,
        -0.11029567569494247,
        0.18876786530017853,
        0.039930298924446106,
        -0.2669101059436798,
        0.14026951789855957,
        0.18623429536819458,
        0.5918734669685364,
        0.0674140602350235,
        0.07370224595069885,
        -0.16819913685321808,
        0.0995163843035698,
        -0.05588230490684509,
        0.2956109046936035,
        -0.22603967785835266,
        0.010168956592679024,
        -0.04088950529694557,
        0.2171003520488739,
        -0.08918130397796631,
        0.13151001930236816,
        -0.07963910698890686,
        0.08031640201807022,
        0.2207876443862915,
        -0.14397883415222168,
        0.0441722646355629,
        0.15578530728816986,
        -0.06372116506099701,
        -0.07586156576871872,
        0.1729123443365097,
        -0.2694336175918579,
        -0.03550376743078232,
        0.19901752471923828,
        0.23899467289447784,
        -0.06558329612016678,
        0.2648729979991913,
        0.06873992085456848,
        -0.0015784605639055371,
        -0.6008838415145874,
        0.25189512968063354,
        0.039733849465847015,
        0.009625589475035667,
        -0.055162928998470306,
        0.02385268174111843,
        -0.017597468569874763,
        -0.16624939441680908,
        0.06119770556688309,
        0.2039576917886734,
        -0.028587810695171356,
        -0.049867697060108185,
        -0.11639654636383057,
        0.0062652393244206905,
        -0.3855588734149933,
        -0.25674059987068176,
        0.0952720120549202,
        0.6425555944442749,
        0.8006893396377563,
        -0.6533342599868774,
        -0.09052475541830063,
        -0.04791191220283508,
        0.2287551313638687,
        0.17196698486804962,
        0.05047709867358208,
