{
    "version": "0.5.0",
    "architecture": "WaveNet",
    "config": {
        "layers": [
            {
                "input_size": 1,
                "condition_size": 1,
                "head_size": 8,
                "channels": 16,
                "kernel_size": 3,
                "dilations": [
                    1,
                    2,
                    4,
                    8,
                    16,
                    32,
                    64,
                    128,
                    256,
                    512
                ],
                "activation": "Tanh",
                "gated": false,
                "head_bias": false
            },
            {
                "input_size": 16,
                "condition_size": 1,
                "head_size": 1,
                "channels": 8,
                "kernel_size": 3,
                "dilations": [
                    1,
                    2,
                    4,
                    8,
                    16,
                    32,
                    64,
                    128,
                    256,
                    512
                ],
                "activation": "Tanh",
                "gated": false,
                "head_bias": true
            }
        ],
        "head": null,
        "head_scale": 0.02
    },
    "weights": [
        0.0019264634465798736,
        0.4362126886844635,
        -0.5212118625640869,
        -0.5299391150474548,
        -0.12034238874912262,
        -0.05293196067214012,
        0.0006842489237897098,
        0.5874422192573547,
        0.007098119705915451,
        0.08297719806432724,
        -0.03833835572004318,
        -0.03779933974146843,
        -0.9984782338142395,
        -0.461130827665329,
        -0.08553644269704819,
        -0.02147587388753891,
        0.1551964432001114,
        0.05394864082336426,
        -0.007685105782002211,
        -0.1392747163772583,
        -0.003249172121286392,
        0.14415110647678375,
        0.041377101093530655,
        0.15471923351287842,
        -0.05437232181429863,
        0.09128203243017197,
        0.1744677573442459,
        -0.16804222762584686,
        -0.011302967555820942,
        0.009405182674527168,
        -0.08496587723493576,
        -0.0025916912127286196,
        -0.10688155144453049,
        -0.0050411950796842575,
        0.08697080612182617,
        -0.05414091795682907,
        -0.051850803196430206,
        0.04776567220687866,
        0.020126646384596825,
        0.10681921243667603,
        0.16809849441051483,
        0.002132314955815673,
        0.022162575274705887,
        -0.2032719850540161,
        -0.13311545550823212,
        -0.018571119755506516,
        0.1640438586473465,
        0.11393139511346817,
        -0.11855246871709824,
        0.07620508968830109,
        0.15975715219974518,
        0.13443760573863983,
        0.13135434687137604,
        0.06647714227437973,
        0.06341298669576645,
        -0.009693552739918232,
        0.07309408485889435,
        -0.1443430334329605,
        -0.01683759316802025,
        -0.0329551100730896,
        0.029430054128170013,
        0.033947739750146866,
        -0.0809357687830925,
        -0.04916422814130783,
        0.05638481676578522,
        0.0696135014295578,
        -0.08313930034637451,
        0.11614622175693512,
        -0.1326562762260437,
        0.31151652336120605,
        -0.18354135751724243,
        0.1687868982553482,
        -0.11002828925848007,
        0.047906991094350815,
        0.3391372561454773,
        -0.04787790775299072,
        -0.040896885097026825,
        0.09409115463495255,
        -0.15335632860660553,
        -0.060835544019937515,
        -0.3432826101779938,
        0.32164493203163147,
        0.06133873015642166,
        -0.037328463047742844,
        -0.1286766678094864,
        0.04333857074379921,
        -0.2404424250125885,
        0.10814587026834488,
        0.1009107306599617,
        0.12176469713449478,
        -0.05210632458329201,
        0.13382723927497864,
        -0.10496827214956284,
        0.22597678005695343,
        -0.2024037092924118,
        0.11146565526723862,
        -0.10174334794282913,
        -0.05940743535757065,
        0.11506801098585129,
        -0.24826882779598236,
        0.06289537250995636,
        0.32171228528022766,
        -0.23812034726142883,
        -0.11103738844394684,
        0.0739513635635376,
        -0.17894607782363892,
        -0.1756625920534134,
        0.10483154654502869,
        -0.1916855424642563,
        0.12140925973653793,
        -0.2479032427072525,
        0.11222419142723083,
        -0.06203477457165718,
        0.140705868601799,
        0.11570987105369568,
        -0.13021402060985565,
        0.05491285026073456,
        -0.14194926619529724,
        0.028112484142184258,
        -0.05149604752659798,
        0.20922723412513733,
        0.016407551243901253,
        -0.1525985151529312,
        0.22409550845623016,
        -0.12740455567836761,
        -0.16918645799160004,
        0.11383799463510513,
        -0.00784032791852951,
        0.026923876255750656,
        -0.216508686542511,
        -0.056645896285772324,
        -0.04329521954059601,
        -0.05240696296095848,
        -0.014145495370030403,
        0.1850505918264389,
        -0.17234301567077637,
        0.0808504968881607,
        0.03708702325820923,
        0.2557266056537628,
        0.07563997060060501,
        0.20401149988174438,
        -0.0816761776804924,
        0.1537061333656311,
        -0.07477319985628128,
        0.04001767560839653,
        -0.051883116364479065,
        0.008055961690843105,
        0.14135512709617615,
        -0.06525423377752304,
        -0.19609637558460236,
        0.02188953198492527,
        -0.11272245645523071,
        -0.11147411912679672,
        0.23378680646419525,
        0.0856470838189125,
        -0.21829453110694885,
        0.24851275980472565,
        -0.10472532361745834,
        0.016679445281624794,
        -0.057320114225149155,
        -0.017347244545817375,
        0.10563145577907562,
        -0.20545178651809692,
        -0.04896422103047371,
        -0.19872020184993744,
        0.149886354804039,
        -0.13188417255878448,
        0.231944739818573,
        -0.27075353264808655,
        -0.07968775928020477,
        0.299642950296402,
        -0.20616991817951202,
        0.054507553577423096,
        0.22397921979427338,
        -0.2782014012336731,
        0.13869313895702362,
        -0.2067819982767105,
        0.0810689926147461,
        -0.010483857244253159,
        -0.06043631583452225,
        -0.172249898314476,
        0.035758305341005325,
        -0.07130500674247742,
        0.18566088378429413,
        0.090481236577034,
        0.2050820142030716,
        -0.11722510308027267,
        0.03795846179127693,
        -0.2849728465080261,
        0.22724154591560364,
        0.045657966285943985,
        0.2610240578651428,
        -0.25205913186073303,
        -0.07811129838228226,
        0.07292217761278152,
        -0.22766314446926117,
        -0.15034498274326324,
        0.2311992347240448,
        -0.23077267408370972,
        -0.07722438126802444,
        0.17348827421665192,
        -0.05742576718330383,
        -0.1804955005645752,
        0.07447757571935654,
        -0.24047349393367767,
        0.1863064467906952,
        -0.1715994030237198,
        0.1924666166305542,
        -0.07263176888227463,
        -0.013641055673360825,
        -0.0523909330368042,
        -0.18423187732696533,
        0.019565396010875702,
        -0.07466026395559311,
        0.1438765525817871,
        0.003748998511582613,
        -0.08660230785608292,
        0.07580148428678513,
        0.09935086965560913,
        -0.09062206000089645,
        0.13962583243846893,
        0.13162052631378174,
        0.07834882289171219,
        -0.1584920883178711,
        -0.10580998659133911,
        0.0780915841460228,
        -0.10749493539333344,
        -0.04450077563524246,
        -0.11070045828819275,
        -0.16941219568252563,
        0.021083170548081398,
        0.0977620780467987,
        -0.005897726397961378,
        0.10246217995882034,
        -0.08645358681678772,
        -0.22293464839458466,
        0.09453686326742172,
        -0.09337514638900757,
        0.06964947283267975,
        0.012427086010575294,
        0.0418141707777977,
        0.2567485272884369,
        -0.04351618513464928,
        0.045700352638959885,
        0.22461172938346863,
        -0.15962037444114685,
        0.13046669960021973,
        0.033025868237018585,
        -0.010875795967876911,
        0.005050451494753361,
        0.07298875600099564,
        -0.0040961154736578465,
        0.13905134797096252,
        -0.1065194383263588,
        -0.1281728297472,
        -0.13731519877910614,
        -0.1947079449892044,
        -0.01949263922870159,
        -0.013983475044369698,
        -0.19437606632709503,
        0.050866786390542984,
        -0.0809624046087265,
        0.16640353202819824,
        -0.024941544979810715,
        0.21122899651527405,
        0.04485864192247391,
        -0.17233631014823914,
        0.2064695507287979,
        0.2116551548242569,
        -0.09388905018568039,
        0.08854727447032928,
        -0.07818271219730377,
        -0.00016418425366282463,
        -0.06138196960091591,
        0.023372352123260498,
        -0.1028059720993042,
        0.33180859684944153,
        -0.18382127583026886,
        0.11652141809463501,
        -0.12132978439331055,
        0.12161518633365631,
        -0.027144918218255043,
        0.07001091539859772,
        0.02903049811720848,
        0.15246717631816864,
        -0.04097948223352432,
        0.037247806787490845,
        -0.08166257292032242,
        0.12651506066322327,
        0.10245101153850555,
        -0.21383070945739746,
        0.21178008615970612,
        0.13893963396549225,
        -0.14019715785980225,
        0.13290748000144958,
        0.006650371477007866,
        -0.029306896030902863,
        0.05711744353175163,
        0.15183156728744507,
        -0.17987583577632904,
        0.09841519594192505,
        0.02317109704017639,
        -0.013379650190472603,
        0.0053477659821510315,
        0.1070297509431839,
        -0.17380742728710175,
        -0.07029954344034195,
        0.33182764053344727,
        0.19366207718849182,
        -0.05660431087017059,
        -0.38292932510375977,
        -0.14503882825374603,
        0.09920206665992737,
        -0.32218530774116516,
        -0.06562722474336624,
        0.1467391401529312,
        -0.33514103293418884,
        -0.1282549649477005,
        0.1022801548242569,
        0.12386911362409592,
        0.06991451978683472,
        -0.07875099033117294,
        0.011008912697434425,
        0.0019078453769907355,
        0.18021951615810394,
        0.3967535197734833,
        0.2020290195941925,
        -0.035905368626117706,
        0.23161031305789948,
        -0.04707787558436394,
        0.10916855186223984,
        0.11597561836242676,
        0.2436155080795288,
        0.013237429782748222,
        -0.33584901690483093,
        -0.04375343397259712,
        0.18247348070144653,
        -0.1095363199710846,
        -0.01581330969929695,
        0.14266031980514526,
        -0.3064499497413635,
        -0.1729126125574112,
        0.17015980184078217,
        -0.18961700797080994,
        -0.2105298787355423,
        0.17704109847545624,
        -0.19722937047481537,
        -0.04214739426970482,
        -0.038462597876787186,
        0.03986574336886406,
        0.055281780660152435,
        0.14774572849273682,
        -0.018956433981657028,
        0.07656028866767883,
        -0.09072717279195786,
        0.05902805179357529,
        0.14800767600536346,
        -0.0011259079910814762,
        -0.1003722995519638,
        -0.16330237686634064,
        -0.0277711134403944,
        -0.14258818328380585,
        -0.30661341547966003,
        0.1888946294784546,
        0.07214096933603287,
        -0.055268533527851105,
        0.1785449981689453,
        -0.14209255576133728,
        0.010222489014267921,
        -0.13052669167518616,
        -0.0805722251534462,
        0.040341854095458984,
        -0.16183723509311676,
        -0.068510502576828,
        0.05388253927230835,
        -0.1567276120185852,
        0.0756266862154007,
        0.04390266537666321,
        0.14068152010440826,
        0.1014857292175293,
        0.2971644103527069,
        -0.11669014394283295,
        0.06981246918439865,
        -0.04051109403371811,
        0.12712103128433228,
        0.14691048860549927,
        -0.12462367862462997,
        0.15173310041427612,
        -0.053986161947250366,
        -0.13342027366161346,
        0.08981253206729889,
        -0.031743407249450684,
        -0.27052465081214905,
        -0.004223329946398735,
        -0.11787346005439758,
        -0.09490952640771866,
        0.1767154335975647,
        0.00771807786077261,
        0.02547166496515274,
        0.15611477196216583,
        0.11541950702667236,
        0.0008665547356940806,
        0.036477308720350266,
        0.08911358565092087,
        0.21692058444023132,
        -0.27116554975509644,
        0.17203493416309357,
        -0.05174609646201134,
        0.10060249269008636,
        0.11786826699972153,
        -0.23627065122127533,
        0.13845603168010712,
        0.16157707571983337,
        -0.1470581293106079,
        0.057612817734479904,
        -0.07441679388284683,
        0.10741458833217621,
        -0.21925246715545654,
        -0.0425485260784626,
        -0.006150253117084503,
        0.07591012120246887,
        -0.12146351486444473,
        0.16458365321159363,
        -0.08977441489696503,
        0.10113317519426346,
        -0.1913146823644638,
        0.1554143875837326,
        -0.1379987895488739,
        0.0861193984746933,
        -0.11008444428443909,
        -0.0714937075972557,
        -0.0914018526673317,
        0.2853139638900757,
        0.0633467361330986,
        -0.25386789441108704,
        0.10832229256629944,
        0.06526418030261993,
        -0.2746190130710602,
        0.2302439659833908,
        -0.09076323360204697,
        -0.2896462678909302,
        0.02248786948621273,
        0.006254442036151886,
        -0.057713862508535385,
        0.03282679244875908,
        0.028275219723582268,
        0.01562761329114437,
        -0.044512249529361725,
        0.028471803292632103,
        -0.08688393980264664,
        0.2555259168148041,
        0.09382914006710052,
        0.3003882169723511,
        -0.06352688372135162,
        -0.11574307829141617,
        -0.035101305693387985,
        0.13935431838035583,
        0.04767978563904762,
        -0.26630425453186035,
        0.09626644104719162,
        -0.16045290231704712,
        -0.20550931990146637,
        0.16736705601215363,
        -0.06734982132911682,
        0.13382576406002045,
        -0.08922188729047775,
        0.15856482088565826,
        0.01942705363035202,
        0.16957400739192963,
        -0.020692767575383186,
        0.21551798284053802,
        0.00598908169195056,
        0.06223413348197937,
        -0.005026537925004959,
        0.2551053762435913,
        -0.1242275983095169,
        0.01407953817397356,
        -0.08182817697525024,
        -0.09767492860555649,
        -0.061448466032743454,
        0.048319894820451736,
        -0.07908462733030319,
        -0.2735899090766907,
        0.20989392697811127,
        -0.038338951766490936,
        -0.047226954251527786,
        0.22634567320346832,
        0.061679545789957047,
        -0.1445215344429016,
        0.09237861633300781,
        -0.055188193917274475,
        -0.1283750683069229,
        0.2166789174079895,
        -0.09198076277971268,
        0.16171345114707947,
        -0.0676584392786026,
        -0.13401271402835846,
        -0.16745446622371674,
        0.0298559982329607,
        0.2704662084579468,
        -0.0995321050286293,
        0.13847646117210388,
        -0.0576038584113121,
        0.06620233505964279,
        0.09751228988170624,
        -0.21420779824256897,
        0.026950357481837273,
        0.034633904695510864,
        -0.1750374585390091,
        0.02279011160135269,
        -0.06687478721141815,
        0.2590111792087555,
        0.026725808158516884,
        -0.002684419509023428,
        0.08694319427013397,
        0.07137009501457214,
        -0.0010154058691114187,
        0.14675766229629517,
        0.09962616860866547,
        0.005483387038111687,
        -0.02063995599746704,
        -0.15647535026073456,
        0.059780947864055634,
        0.015149462968111038,
        -0.07672904431819916,
        -0.07677307724952698,
        0.011352380737662315,
        -0.04825752228498459,
        0.00035489568836055696,
        -0.20637701451778412,
        0.09777854382991791,
        0.09127585589885712,
        -0.24234044551849365,
        -0.1318911761045456,
        -0.13211628794670105,
        -0.13835026323795319,
        -0.059450261294841766,
        -0.12230746448040009,
        -0.1870468258857727,
        0.012189004570245743,
        -0.09768371284008026,
        0.09211809188127518,
        0.09291408210992813,
        0.08237303793430328,
        0.10847417265176773,
        0.22886942327022552,
        -0.1018025353550911,
        0.07722048461437225,
        -0.01920218952000141,
        0.1446242481470108,
        -0.19591695070266724,
        -0.15963193774223328,
        0.15212008357048035,
        -0.15766648948192596,
        0.00730050029233098,
        -0.0034660284873098135,
        -0.10107936710119247,
        -0.05479368194937706,
        0.09842439740896225,
        0.09195871651172638,
        -0.15354788303375244,
        -0.11572250723838806,
        -0.015736423432826996,
        0.14561830461025238,
        -0.026865577325224876,
        0.2007492035627365,
        -0.012709050439298153,
        -0.03883008658885956,
        0.05283559113740921,
        0.01080100703984499,
        0.16383612155914307,
        0.1358279287815094,
        -0.04155856743454933,
        -0.13211511075496674,
        -0.06425053626298904,
        0.11765546351671219,
        -0.012390815652906895,
        -0.20437060296535492,
        0.014800304546952248,
        0.12317459285259247,
        -0.10514038056135178,
        -0.1414075344800949,
        -0.12277169525623322,
        -0.03139428421854973,
        -0.03517274186015129,
        -0.06646977365016937,
        -0.039718881249427795,
        0.03919225186109543,
        0.12480974942445755,
        0.16552449762821198,
        0.04815879836678505,
        0.010906578972935677,
        -0.1826687902212143,
        0.10509991645812988,
        0.15808835625648499,
        0.07651212811470032,
        -0.1006285771727562,
        0.06742732226848602,
        0.13458731770515442,
        0.10776858031749725,
        -0.05868847295641899,
        -0.05969667062163353,
        -0.11783994734287262,
        0.20343178510665894,
        -0.08279996365308762,
        -0.08225524425506592,
        0.1493125706911087,
        -0.007970473729074001,
        -0.028748221695423126,
        -0.10060305893421173,
        -0.14223513007164001,
        -0.18881414830684662,
        0.14303447306156158,
        -0.06244231387972832,
        0.07096253335475922,
        0.05913405120372772,
        -0.04705488681793213,
        -0.07289768010377884,
        0.25074103474617004,
        0.006696292199194431,
        -0.07011895626783371,
        0.044606372714042664,
        0.0411796048283577,
        -0.1419818103313446,
        0.04714120551943779,
        -0.12769578397274017,
        0.09512820094823837,
        0.04695671424269676,
        -0.13475774228572845,
        -0.030387036502361298,
        0.15632331371307373,
        0.03234286978840828,
        0.02437707409262657,
        0.07956311106681824,
        0.040826622396707535,
        -0.055082060396671295,
        0.010489914566278458,
        -0.07256858795881271,
        -0.06211266294121742,
        -0.07291071116924286,
        -0.11980512738227844,
        0.033917639404535294,
        0.019199300557374954,
        0.14165249466896057,
        -0.22286833822727203,
        0.24837997555732727,
        -0.20262891054153442,
        0.2558196783065796,
        -0.2169952690601349,
        -0.1590379923582077,
        0.21164122223854065,
        -0.16612565517425537,
        -0.009750613942742348,
        0.02740124985575676,
        -0.22670899331569672,
        0.06854694336652756,
        -0.08645186573266983,
        0.2213963270187378,
        -0.15342958271503448,
        0.1085687130689621,
        -0.0668056309223175,
        0.08789009600877762,
        -0.03007690981030464,
        -0.007379839662462473,
        -0.08498246222734451,
        0.14314678311347961,
        -0.07464855164289474,
        0.22623707354068756,
        -0.1780347228050232,
        0.2144533395767212,
        -0.25488635897636414,
        0.10865245014429092,
        -0.12491809576749802,
        -0.09627944976091385,
        0.1772657334804535,
        -0.0009197797044180334,
        -0.14201070368289948,
        0.13627955317497253,
        -0.0048860167153179646,
        -0.16762025654315948,
        0.2543007731437683,
        -0.2073158323764801,
        -0.14505703747272491,
        0.12283986061811447,
        -0.04913131892681122,
        0.2176256775856018,
        -0.059044353663921356,
        -0.11862281709909439,
        0.09863104671239853,
        0.010717242024838924,
        0.04591931775212288,
        -0.25985103845596313,
        -0.011190933175384998,
        0.19568407535552979,
        0.17707344889640808,
        -0.04340195283293724,
        0.032116033136844635,
        0.06347633898258209,
        0.12253966927528381,
        -0.05040165036916733,
        0.1034371480345726,
        0.1445075422525406,
        -0.19254070520401,
        -0.1622091829776764,
        -0.1441120058298111,
        0.09001602232456207,
        0.126285120844841,
        0.17243406176567078,
        -0.14185763895511627,
        -0.07703428715467453,
        -0.10702461749315262,
        0.006599393207579851,
        4.2341725929873064e-05,
        -0.04101288318634033,
        0.029419714584946632,
        -0.19010518491268158,
        -0.06645672023296356,
        0.136154904961586,
        0.25505194067955017,
        0.19570524990558624,
        0.020724888890981674,
        0.0649401918053627,
        0.09383129328489304,
        -0.12955114245414734,
        0.08751114457845688,
        0.12600649893283844,
        0.06459503620862961,
        0.05451388657093048,
        0.180001899600029,
        -0.14351359009742737,
        0.14792107045650482,
        0.2025446891784668,
        -0.104514479637146,
        -0.06062028184533119,
        -0.15826648473739624,
        0.03966020792722702,
        0.11155790090560913,
        -0.24534103274345398,
        0.11248952895402908,
        -0.2767465114593506,
        0.23174358904361725,
        -0.097406767308712,
        0.2745150923728943,
        -0.3937782645225525,
        0.16287949681282043,
        0.28828558325767517,
        -0.24964158236980438,
        0.02751166559755802,
        0.14945414662361145,
        -0.38772985339164734,
        -0.013575409539043903,
        -0.20642858743667603,
        0.4397839605808258,
        -0.04682718589901924,
        0.09863888472318649,
        -0.060905154794454575,
        0.05819815397262573,
        -0.04973543807864189,
        0.2897706925868988,
        -0.20099890232086182,
        0.1454797238111496,
        -0.2776753902435303,
        -0.06263995915651321,
        -0.017271658405661583,
        0.3916584849357605,
        -0.19721245765686035,
        0.11687520146369934,
        -0.21083271503448486,
        -0.011428872123360634,
        0.14219097793102264,
        -0.3023640513420105,
        -0.021627796813845634,
        0.2417328655719757,
        -0.2866465747356415,
        0.18839724361896515,
        0.07545820623636246,
        -0.1980973482131958,
        0.019484929740428925,
        0.308933824300766,
        -0.488932341337204,
        -0.014955701306462288,
        -0.1916024088859558,
        0.2887410521507263,
        -0.044796478003263474,
        0.030313793569803238,
        -0.04992999881505966,
        -0.14326615631580353,
        -0.09387402981519699,
        0.06466453522443771,
        0.038247961550951004,
        -0.38024479150772095,
        0.08930651843547821,
        0.033236805349588394,
        0.09155507385730743,
        -0.16228745877742767,
        0.01914978213608265,
        0.0013589357258751988,
        0.0562969371676445,
        0.08953764289617538,
        -0.025501955300569534,
        0.4773719608783722,
        -0.25283849239349365,
        0.6452758312225342,
        -0.5577012896537781,
        -0.02901717834174633,
        0.7371817231178284,
        0.9478362202644348,
        -0.6543895602226257,
        0.02056330256164074,
        -0.013943339698016644,
        -0.44190603494644165,
        -0.35241153836250305,
        0.21031635999679565,
        -0.589084804058075,
        0.23392292857170105,
        0.3303898870944977,
        -0.1570834070444107,
        0.1828165352344513,
        -0.08520417660474777,
        0.22768330574035645,
        0.21731586754322052,
        -0.12944579124450684,
        0.20626913011074066,
        0.12877580523490906,
        -0.03088708221912384,
        -0.0796486958861351,
        0.05227315053343773,
        -0.09529805183410645,
        0.019271228462457657,
        0.10648567229509354,
        0.16509467363357544,
        -0.03696364536881447,
        0.13466912508010864,
        -0.18703141808509827,
        -0.18195688724517822,
        -0.20356760919094086,
        0.22585566341876984,
        0.0728730857372284,
        -0.21608944237232208,
        -0.09082688391208649,
        0.20196522772312164,
        0.19410131871700287,
        -0.303941011428833,
        -0.1872161477804184,
        0.07406611740589142,
        -0.36434265971183777,
        0.24857677519321442,
        0.3640408515930176,
        0.06929319351911545,
        0.08891865611076355,
        0.06418740749359131,
        0.1999209076166153,
        -0.14758045971393585,
        -0.04757443815469742,
        0.2115744650363922,
        -0.3971181809902191,
        -0.040941882878541946,
        -0.09559957683086395,
        0.21528451144695282,
        -0.2101658582687378,
        0.1330641806125641,
        0.20385614037513733,
        0.07477178424596786,
        -0.020181026309728622,
        0.16738954186439514,
        -0.15953822433948517,
        -0.00017095917428378016,
        -0.32026439905166626,
        -0.15872503817081451,
        0.20440825819969177,
        0.03942185640335083,
        0.017606573179364204,
        -0.13478483259677887,
        0.13999034464359283,
        0.07817774266004562,
        0.12236825376749039,
        0.06814476102590561,
        0.18794693052768707,
        -0.20981170237064362,
        0.12436027824878693,
        -0.015017497353255749,
        -0.2369317263364792,
        -0.21526364982128143,
        0.10738351941108704,
        0.2753185033798218,
        0.10683076828718185,
        0.173334002494812,
        -0.148695707321167,
        0.12622109055519104,
        0.28135231137275696,
        -0.16991567611694336,
        0.13378837704658508,
        -0.17071327567100525,
        0.10560600459575653,
        -0.0038249781355261803,
        0.1216425821185112,
        -0.17113198339939117,
        -0.0589400976896286,
        0.09709515422582626,
        -0.07324761152267456,
        0.35799458622932434,
        0.24417656660079956,
        0.21125401556491852,
        0.20389284193515778,
        0.2705513536930084,
        0.03624081611633301,
        -0.3423146903514862,
        -0.20155829191207886,
        -0.08920472860336304,
        -0.31515541672706604,
        0.17119747400283813,
        0.07729660719633102,
        0.19024178385734558,
        0.31699255108833313,
        0.06121215224266052,
        0.44979187846183777,
        -0.14742977917194366,
        -0.2611577808856964,
        0.15197224915027618,
        -0.14715078473091125,
        -0.24190208315849304,
        -0.5435764193534851,
        -0.20314165949821472,
        0.07257328182458878,
        0.08970517665147781,
        0.09156318753957748,
        0.22088605165481567,
        -0.48304352164268494,
        0.2367229014635086,
        0.07458996772766113,
        0.22602011263370514,
        -0.1882607787847519,
        -0.1779993176460266,
        0.0814565047621727,
        0.17549678683280945,
        0.05385167524218559,
        0.11276887357234955,
        -0.2143213152885437,
        0.12681886553764343,
        -0.21540382504463196,
        0.0704914778470993,
        -0.1901361644268036,
        -0.08464542776346207,
        0.03156263008713722,
        -0.09784356504678726,
        -0.010785996913909912,
        -0.20380191504955292,
        -0.20402808487415314,
        0.09935937076807022,
        -0.05021386221051216,
        -0.1123088002204895,
        -0.12921376526355743,
        -0.17244373261928558,
        -0.19431377947330475,
        0.12764205038547516,
        0.02476796880364418,
        0.012206911109387875,
        -0.1825675666332245,
        0.08982578665018082,
        -0.033537812530994415,
        -0.20382389426231384,
        -0.024294067174196243,
        0.30745643377304077,
        -0.2565344274044037,
        -0.39335036277770996,
        -0.002547450130805373,
        0.3084582984447479,
        -0.05894686281681061,
        0.059434760361909866,
        0.22966402769088745,
        0.3096710443496704,
        0.23635509610176086,
        0.15865211188793182,
        0.1279987245798111,
        -0.289209246635437,
        0.24117299914360046,
        0.09977369755506516,
        0.26382702589035034,
        -0.22331221401691437,
        0.16870252788066864,
        -0.1480253040790558,
        -0.17410731315612793,
        0.13413338363170624,
        -0.17212159931659698,
        0.0023769899271428585,
        -0.17800657451152802,
        -0.11091549694538116,
        -0.03220127522945404,
        -0.04242224991321564,
        0.21436293423175812,
        0.009588407352566719,
        0.11160540580749512,
        0.09659308195114136,
        -0.0293329656124115,
        0.10863795131444931,
        -0.006327377632260323,
        0.01243794895708561,
        -0.06096843630075455,
        0.025298094376921654,
        -0.03199208900332451,
        -0.06004395708441734,
        -0.19768139719963074,
        0.06537045538425446,
        -0.24011708796024323,
        -0.21798568964004517,
        0.1425802856683731,
        -0.14097298681735992,
        -0.11978602409362793,
        -0.1504303514957428,
        -0.19764959812164307,
        0.16305901110172272,
        -0.17317736148834229,
        0.025147024542093277,
        -0.13031524419784546,
        0.1317317932844162,
        0.4270929992198944,
        0.3666648268699646,
        0.09947730600833893,
        0.0008355191093869507,
        0.16538962721824646,
        0.059101395308971405,
        -0.26138922572135925,
        -0.24041254818439484,
        0.4318561851978302,
        0.048836614936590195,
        -0.10093829780817032,
        -0.16860230267047882,
        0.16406364738941193,
        -0.08649696409702301,
        0.13132385909557343,
        0.23192942142486572,
        0.00636198790743947,
        -0.15276983380317688,
        -0.1327105164527893,
        0.028967060148715973,
        -0.04195741191506386,
        -0.20538394153118134,
        -0.08475695550441742,
        -0.13074511289596558,
        0.1515497863292694,
        -0.14598724246025085,
        0.34634190797805786,
        -0.11049255728721619,
        0.03425425663590431,
        0.052229538559913635,
        -0.12004299461841583,
        0.21128781139850616,
        0.1609908640384674,
        -0.4031004309654236,
        0.08365661650896072,
        0.015342660248279572,
        0.007487632799893618,
        0.11329233646392822,
        0.5850144624710083,
        -0.20152321457862854,
        -0.4599725902080536,
        0.21403002738952637,
        0.09831152856349945,
        0.1611378788948059,
        -0.1269998550415039,
        -0.0019586062990128994,
        0.23004691302776337,
        0.04527483135461807,
        0.2143343985080719,
        -0.04307195544242859,
        -0.19656503200531006,
        -0.1925966888666153,
        -0.3643941879272461,
        -0.020966583862900734,
        0.14426390826702118,
        0.0627455934882164,
        -0.07197991013526917,
        0.11305373162031174,
        -0.14428700506687164,
        0.18460741639137268,
        -0.0031681046821177006,
        -0.027619268745183945,
        -0.016996748745441437,
        0.16772498190402985,
        0.010355343110859394,
        0.03889221325516701,
        -0.1022653803229332,
        0.06509202718734741,
        0.0669507384300232,
        -0.002749514998868108,
        0.11014505475759506,
        0.04816146567463875,
        0.007073837332427502,
        0.16280783712863922,
        -0.060146357864141464,
        0.036863893270492554,
        0.20366916060447693,
        -0.0001802786428015679,
        0.22871366143226624,
        0.029937468469142914,
        -0.07543046772480011,
        0.09448627382516861,
        -0.12755334377288818,
        0.021481523290276527,
        0.002939357189461589,
        -0.10635523498058319,
        -0.06916788220405579,
        0.030881362035870552,
        -0.040839362889528275,
        -0.031454846262931824,
        0.003426890354603529,
        0.03008636273443699,
        -0.16707463562488556,
        0.14326106011867523,
        -0.10515576601028442,
        -0.09351582825183868,
        -0.34129467606544495,
        0.0744023397564888,
        0.06982984393835068,
        0.05677910894155502,
        -0.28079837560653687,
        0.03843694180250168,
        -0.24048765003681183,
        -0.0045400261878967285,
        -0.07171636819839478,
        0.1493852138519287,
        -0.04750881716609001,
        -0.08688513934612274,
        0.07820461690425873,
        -0.13093964755535126,
        0.12381275743246078,
        0.09377622604370117,
        -0.12900803983211517,
        0.04094017297029495,
        -0.1632329672574997,
        0.06750976294279099,
        0.08025984466075897,
        0.06571783870458603,
        0.2238832414150238,
        -0.053721122443675995,
        0.014702302403748035,
        -0.039276670664548874,
        0.08947829157114029,
        -0.024631252512335777,
        -0.2522931694984436,
        0.09459280967712402,
        0.10209788382053375,
        -0.15972141921520233,
        -0.058586880564689636,
        -0.23300135135650635,
        -0.1792638599872589,
        -0.12025255709886551,
        -0.2488904595375061,
        0.13921579718589783,
        -0.17503461241722107,
        -0.04882900044322014,
        -0.10722313076257706,
        -0.3391369879245758,
        0.2550731897354126,
        0.08275845646858215,
        0.04571476951241493,
        -0.13859499990940094,
        0.13915996253490448,
        -0.12244980782270432,
        0.10585154592990875,
        -0.16847532987594604,
        0.03944994509220123,
        -0.0638209655880928,
        0.18381327390670776,
        -0.05373005196452141,
        -0.13185039162635803,
        0.0012860321439802647,
        0.14495150744915009,
        -0.10084730386734009,
        -0.1402917355298996,
        -0.21254253387451172,
        -0.09651349484920502,
        -0.3870775103569031,
        -0.09253677725791931,
        0.04761931300163269,
        0.031023219227790833,
        -0.15985995531082153,
        -0.12719866633415222,
        -0.08218805491924286,
        -0.016052337363362312,
        -0.2542027235031128,
        -0.13711027801036835,
        0.2240542620420456,
        -0.20474474132061005,
        -0.004622593056410551,
        -0.1926855593919754,
        0.03678558021783829,
        0.39308205246925354,
        0.12704893946647644,
        -0.0870659351348877,
        -0.03354530781507492,
        -0.029184026643633842,
        0.10534752160310745,
        0.06892616301774979,
        -0.07944972068071365,
        -0.06142265349626541,
        0.04619738459587097,
        -0.09126617014408112,
        -0.008363010361790657,
        0.19132302701473236,
        0.11653292179107666,
        0.08821985125541687,
        0.23176759481430054,
        -0.16641338169574738,
        -0.05637140944600105,
        -0.11679676175117493,
        -0.007661003619432449,
        0.10269150882959366,
        0.09368900209665298,
        -0.17798319458961487,
        -0.014815432019531727,
        -0.2265263795852661,
        0.20106758177280426,
        -0.12034493684768677,
        -0.06507966667413712,
        -0.25289037823677063,
        0.05430007353425026,
        0.10595231503248215,
        -0.015549135394394398,
        0.18154993653297424,
        0.15916785597801208,
        -0.07035265117883682,
        -0.16051612794399261,
        -0.08686123043298721,
        -0.12542834877967834,
        -0.00892474502325058,
        -0.13470453023910522,
        -0.1089104637503624,
        0.11536602675914764,
        0.1601947396993637,
        0.0839553028345108,
        0.18018554151058197,
        -0.005043727345764637,
        -0.07338450103998184,
        -0.015287568792700768,
        -0.1893935203552246,
        0.1977015882730484,
        0.036795876920223236,
        0.3674052953720093,
        -0.23373033106327057,
        -0.19524353742599487,
        0.11621935665607452,
        0.011273055337369442,
        -0.0954536646604538,
        -0.008523532189428806,
        -0.11635512113571167,
        0.031154636293649673,
        -0.22648057341575623,
        0.41958385705947876,
        0.07311709225177765,
        0.17075598239898682,
        0.19322432577610016,
        0.06364650279283524,
        -0.18971747159957886,
        0.022473467513918877,
        0.106847383081913,
        0.13814842700958252,
        -0.07571850717067719,
        0.01610441692173481,
        0.09806694090366364,
        -0.23344846069812775,
        0.05044370889663696,
        0.1816556453704834,
        -0.09394333511590958,
        -0.07154207676649094,
        0.08955398947000504,
        -0.02220424823462963,
        0.20507997274398804,
        0.1728411763906479,
        0.13650989532470703,
        -0.028501391410827637,
        0.11840405315160751,
        -0.24576614797115326,
        -0.08875419944524765,
        -0.012914772145450115,
        -0.1275416612625122,
        0.05424261838197708,
        0.037567730993032455,
        0.19927917420864105,
        0.125471293926239,
        0.03164888545870781,
        -0.18932728469371796,
        0.018834082409739494,
        0.29455241560935974,
        0.11301826685667038,
        -0.1141231432557106,
        -0.01874939352273941,
        -0.25211477279663086,
        0.14808444678783417,
        -0.2333003282546997,
        -0.052921973168849945,
        0.12694932520389557,
        -0.09460201114416122,
        0.10875152051448822,
        -0.09992904961109161,
        -0.18889065086841583,
        0.6962264776229858,
        -0.255279541015625,
        0.22391165792942047,
        -0.3318157494068146,
        -0.01737399399280548,
        -0.024648485705256462,
        0.3335290551185608,
        0.17528744041919708,
        0.25118300318717957,
        -0.08631012588739395,
        -0.08227935433387756,
        -0.27592262625694275,
        0.06964651495218277,
        0.10478377342224121,
        0.24795494973659515,
        -0.2631371021270752,
        -0.05656835809350014,
        -0.1940488964319229,
        -0.05178023502230644,
        0.22639381885528564,
        -0.6185227036476135,
        -0.3687421679496765,
        0.07937303930521011,
        -0.06540413945913315,
        0.0800466388463974,
        0.12105875462293625,
        0.025263790041208267,
        -0.4634103775024414,
        -0.07377214729785919,
        0.31739211082458496,
        -0.09292850643396378,
        -0.09530521929264069,
        -0.11687158793210983,
        0.018365932628512383,
        -0.10296866297721863,
        -0.3073391020298004,
        0.20738203823566437,
        0.05114806815981865,
        0.025296468287706375,
        0.06698547303676605,
        -0.09704504907131195,
        0.021967848762869835,
        -0.00789866503328085,
        -0.08071886748075485,
        0.07415442913770676,
        -0.038027942180633545,
        0.06498567759990692,
        0.12071555852890015,
        -0.18468859791755676,
        0.12621596455574036,
        0.03614572063088417,
        0.0405452623963356,
        -0.047152988612651825,
        0.12366432696580887,
        -0.2138521373271942,
        0.20641908049583435,
        0.03689245507121086,
        0.2734489142894745,
        -0.10647618770599365,
        0.2473958134651184,
        -0.2531697154045105,
        -0.01046207919716835,
        -0.004014943260699511,
        0.2078905701637268,
        0.03255855292081833,
        0.13542644679546356,
        -0.12414862215518951,
        -0.005919140297919512,
        0.26852160692214966,
        -0.16122643649578094,
        -0.140174999833107,
        0.029170868918299675,
        -0.23538003861904144,
        0.043240126222372055,
        -0.06933839619159698,
        0.19833214581012726,
        -0.2536506652832031,
        -0.17354747653007507,
        0.14438048005104065,
        0.022626619786024094,
        0.09111937880516052,
        -0.06729527562856674,
        -0.021094655618071556,
        0.1865292340517044,
        0.10869359225034714,
        -0.034210629761219025,
        0.04298759624361992,
        -0.20774607360363007,
        0.13226938247680664,
        0.19576993584632874,
        -0.012708962894976139,
        -0.00608067074790597,
        -0.12464562058448792,
        0.07075589895248413,
        -0.061031848192214966,
        -0.2473713755607605,
        0.07311808317899704,
        -0.037156201899051666,
        0.20684553682804108,
        -0.16113930940628052,
        0.11762665957212448,
        -0.08823300153017044,
        0.19702862203121185,
        -0.03985225409269333,
        0.07143599539995193,
        -0.21323369443416595,
        -0.0707986056804657,
        -0.02795901894569397,
        0.1974509358406067,
        0.013740790076553822,
        0.15406562387943268,
        -0.20420756936073303,
        0.07442943006753922,
        -0.08548402786254883,
        0.06235862523317337,
        0.07333765923976898,
        -0.05467658489942551,
        0.07754934579133987,
        0.14897845685482025,
        -0.10411649197340012,
        0.0418732725083828,
        -0.1750391721725464,
        0.05058383569121361,
        -0.08233258873224258,
        -0.027577903121709824,
        0.027742639183998108,
        -0.16527287662029266,
        -0.056849777698516846,
        -0.12191352248191833,
        -0.040219832211732864,
        0.03292939439415932,
        0.21124127507209778,
        -0.08078880608081818,
        -0.08568320423364639,
        -0.26398754119873047,
        -0.11047183722257614,
        0.03668488562107086,
        -0.0478111132979393,
        -0.08878260850906372,
        -0.03892819583415985,
        -0.10818802565336227,
        -0.13643597066402435,
        -0.10691747814416885,
        0.05050789564847946,
        -0.06974057853221893,
        -0.06658026576042175,
        0.02696840465068817,
        -0.17571894824504852,
        0.0012145711807534099,
        0.0409177727997303,
        0.044095151126384735,
        -0.021462302654981613,
        0.05973854288458824,
        -0.2294936329126358,
        0.14081241190433502,
        0.045473042875528336,
        0.22794456779956818,
        -0.030215105041861534,
        0.11287586390972137,
        -0.2254635989665985,
        -0.009822031483054161,
        0.008135145530104637,
        -0.04861098527908325,
        0.12201094627380371,
        -0.20703040063381195,
        -0.06243526190519333,
        0.016399452462792397,
        -0.2661048173904419,
        -0.0511673241853714,
        -0.13492682576179504,
        0.09715443104505539,
        -0.0068158418871462345,
        0.08360549807548523,
        0.03632475435733795,
        -0.0610174834728241,
        0.014107526279985905,
        0.1614704132080078,
        0.12141919136047363,
        0.13144272565841675,
        -0.1219470426440239,
        -0.20878370106220245,
        -0.1463443785905838,
        -0.024740509688854218,
        0.1248508021235466,
        0.3210150897502899,
        0.17641344666481018,
        0.11619582027196884,
        -0.05570007860660553,
        0.12335605919361115,
        0.029476793482899666,
        0.00808283593505621,
        -0.173772394657135,
        0.29662737250328064,
        -0.20294474065303802,
        -0.08775671571493149,
        -0.18568654358386993,
        0.13875225186347961,
        -0.26195594668388367,
        -0.04812190309166908,
        0.006473868153989315,
        0.10867481678724289,
        -0.08870930969715118,
        0.2247924953699112,
        -0.10070052742958069,
        0.13112090528011322,
        -0.19294647872447968,
        0.11564452946186066,
        -0.08355432003736496,
        0.06336728483438492,
        0.06037402153015137,
        0.25144457817077637,
        0.28798815608024597,
        0.39811259508132935,
        0.5365554690361023,
        -0.295003205537796,
        0.013692240230739117,
        0.1431652456521988,
        -0.06585100293159485,
        -0.034033965319395065,
        -0.11314225196838379,
        0.11691359430551529,
        -0.11449134349822998,
        -0.2124585658311844,
        -0.11184671521186829,
        0.029125092551112175,
        0.2561179995536804,
        -0.11249320954084396,
        -0.26521527767181396,
        0.08323527127504349,
        0.058068349957466125,
        -0.1906442493200302,
        0.17201660573482513,
        -0.035923756659030914,
        -0.07754161953926086,
        0.1266680806875229,
        -0.07727108895778656,
        0.12771399319171906,
        0.0051285019144415855,
        -0.19399739801883698,
        -0.16309913992881775,
        -0.09815999120473862,
        0.06820009648799896,
        -0.012585473246872425,
        0.08332031965255737,
        0.08690538257360458,
        -0.009719832800328732,
        0.03202934190630913,
        0.23886194825172424,
        -0.17239056527614594,
        0.13587111234664917,
        -0.08723673969507217,
        0.08730700612068176,
        -0.13129228353500366,
        0.1121813952922821,
        -0.19549328088760376,
        0.11094725131988525,
        0.06064106896519661,
        0.01672968827188015,
        -0.016354916617274284,
        -0.023607399314641953,
        -0.48201265931129456,
        -0.09902866929769516,
        -0.14785237610340118,
        -0.0856572613120079,
        0.10117021203041077,
        -0.16558101773262024,
        -0.09998852014541626,
        0.032125070691108704,
        0.03348536416888237,
        -0.23627644777297974,
        0.15793785452842712,
        -0.03469179943203926,
        -0.22596375644207,
        0.10906942188739777,
        -0.24502702057361603,
        -0.2603817284107208,
        0.11707863211631775,
        -0.10137751698493958,
        -0.05424795299768448,
        0.06869417428970337,
        -0.08704305440187454,
        -0.11631274223327637,
        -0.06144379451870918,
        -0.05887022614479065,
        0.07218547910451889,
        -0.0698014423251152,
        -0.05806967243552208,
        0.3786766231060028,
        -0.252239853143692,
        0.18595874309539795,
        -0.23147588968276978,
        0.22958742082118988,
        0.033077921718358994,
        0.06464067101478577,
        -0.02289346419274807,
        0.17443649470806122,
        -0.18556731939315796,
        0.07724471390247345,
        0.03174302354454994,
        0.13058701157569885,
        -0.25767165422439575,
        0.03997493162751198,
        -0.03845785930752754,
        0.08888368308544159,
        -0.159005269408226,
        0.07059323042631149,
        -0.023913821205496788,
        -0.23356537520885468,
        0.2965061366558075,
        -0.2204529345035553,
        0.014601549133658409,
        0.15442289412021637,
        -0.17272190749645233,
        0.02323627471923828,
        -0.11122410744428635,
        0.09225110709667206,
        -0.1786661297082901,
        -0.13150714337825775,
        -0.03389795124530792,
        0.0013488876866176724,
        0.16451223194599152,
        -0.05952807515859604,
        -0.06541135907173157,
        0.23820924758911133,
        0.01843949966132641,
        0.005794163793325424,
        -0.1662314087152481,
        0.14014141261577606,
        0.24348053336143494,
        -0.1008751317858696,
        -0.05967848002910614,
        -0.09139316529035568,
        -0.06803975999355316,
        -0.045075226575136185,
        -0.03759472072124481,
        0.28548088669776917,
        0.03713841363787651,
        0.24043072760105133,
        -0.023189114406704903,
        -0.14163202047348022,
        0.1353430300951004,
        0.1414441168308258,
        0.25688880681991577,
        0.1277276873588562,
        0.2292081117630005,
        -0.1862950474023819,
        -0.07310084253549576,
        -0.28858035802841187,
        0.24447602033615112,
        0.036634888499975204,
        -0.002283320529386401,
        -0.054175157099962234,
        -0.006886930670589209,
        -0.0842970684170723,
        0.05590206757187843,
        -0.04441051185131073,
        -0.09105532616376877,
        -0.22170867025852203,
        -0.08398617058992386,
        0.021991848945617676,
        -0.10324163734912872,
        0.041904266923666,
        -0.011057383380830288,
        -0.12858732044696808,
        -0.2680206000804901,
        0.15141411125659943,
        0.011705192737281322,
        0.1863258332014084,
        -0.12868653237819672,
        -0.024017861112952232,
        -0.17449362576007843,
        -0.0837513655424118,
        0.13729898631572723,
        -0.0505833737552166,
        0.20429380238056183,
        -0.11712934076786041,
        -0.1638244241476059,
        0.09521163254976273,
        0.05850205570459366,
        -0.09331835806369781,
        0.34334421157836914,
        -0.0035554259084165096,
        -0.14804032444953918,
        -0.12716376781463623,
        -0.03631242737174034,
        -0.020305270329117775,
        -0.1549418568611145,
        -0.13139963150024414,
        -0.011587440967559814,
        -0.05574189871549606,
        -0.11151839047670364,
        0.09671612083911896,
        -0.22831441462039948,
        0.08749686926603317,
        0.0478985458612442,
        0.14580650627613068,
        -0.004260691348463297,
        -0.052819497883319855,
        0.04117346182465553,
        0.1095496118068695,
        -0.0021761138923466206,
        0.12310415506362915,
        -0.257124125957489,
        -0.041330210864543915,
        0.1131853386759758,
        -0.12243696302175522,
        0.05625811219215393,
        0.09654146432876587,
        -0.1677880436182022,
        -0.23663628101348877,
        0.08143965154886246,
        -0.14683066308498383,
        -0.010302884504199028,
        -0.11359863728284836,
        0.1241588443517685,
        -0.019692935049533844,
        0.0694022849202156,
        0.059878792613744736,
        0.1281917244195938,
        -0.17175798118114471,
        0.27416709065437317,
        0.0864381268620491,
        0.3848361670970917,
        -0.12276039272546768,
        -0.142471581697464,
        0.041704751551151276,
        -0.04058356583118439,
        -0.13520115613937378,
        -0.08891471475362778,
        -0.02790938690304756,
        -0.02236437052488327,
        -0.31305983662605286,
        0.2684209644794464,
        0.21024474501609802,
        0.0990523174405098,
        0.23210804164409637,
        0.028261562809348106,
        -0.00780036486685276,
        -0.08218777179718018,
        0.05591479688882828,
        0.047394536435604095,
        0.09747905284166336,
        0.09924101829528809,
        0.09478755295276642,
        -0.3195480704307556,
        0.10067351907491684,
        0.04482021927833557,
        0.11535342782735825,
        -0.1461893916130066,
        0.08452212810516357,
        0.04286905378103256,
        -0.061852313578128815,
        -0.025083616375923157,
        -0.12432332336902618,
        -0.35491567850112915,
        0.17661990225315094,
        0.10865551978349686,
        -0.19610267877578735,
        0.18943297863006592,
        -0.07249140739440918,
        -0.32301679253578186,
        -0.03943869471549988,
        0.1632358878850937,
        0.12718600034713745,
        -0.0021992975380271673,
        0.043948158621788025,
        -0.22774386405944824,
        -0.13204267621040344,
        0.24931015074253082,
        -0.1557726114988327,
        -0.01123904250562191,
        0.006666210480034351,
        0.008432304486632347,
        0.06983891874551773,
        -0.12622512876987457,
        0.1746019870042801,
        0.07700234651565552,
        0.2519187927246094,
        0.03176019713282585,
        -0.4039853811264038,
        0.23642432689666748,
        -0.17897988855838776,
        0.1341172307729721,
        0.15257519483566284,
        0.01677415333688259,
        -0.15086674690246582,
        0.016964633017778397,
        -0.07592547684907913,
        0.11058414727449417,
        -0.09901207685470581,
        -0.15136589109897614,
        -0.13950607180595398,
        -0.13911201059818268,
        0.19749735295772552,
        0.10702389478683472,
        0.12935762107372284,
        -0.05728578940033913,
        0.1936415135860443,
        -0.025942066684365273,
        -0.0009298611548729241,
        -0.21461746096611023,
        -0.06565101444721222,
        0.387136310338974,
        -0.14014455676078796,
        -0.030866410583257675,
        -0.17311327159404755,
        -0.006470514927059412,
        -0.15947957336902618,
        -0.07277459651231766,
        0.09720443189144135,
        0.09474369138479233,
        -0.09478121250867844,
        -0.12158236652612686,
        0.19150155782699585,
        -0.1635303795337677,
        -0.11628388613462448,
        0.1467503011226654,
        0.0712597668170929,
        0.12386712431907654,
        0.16902856528759003,
        -0.015410645864903927,
        0.0384175181388855,
        0.04528047516942024,
        -0.20935110747814178,
        -0.0019077147589996457,
        -0.026460742577910423,
        -0.04669492691755295,
        -0.028683559969067574,
        -0.01629098691046238,
        0.11375628411769867,
        0.022601060569286346,
        0.2275213748216629,
        -0.19761693477630615,
        0.06972190737724304,
        -0.24850501120090485,
        -0.054246384650468826,
        -0.1867237389087677,
        0.0842713713645935,
        -0.059042274951934814,
        0.018930139020085335,
        -0.043792009353637695,
        0.1706048548221588,
        -0.038136228919029236,
        0.24509668350219727,
        -0.1287814974784851,
        -0.04663669690489769,
        -0.0488404780626297,
        -0.06333521753549576,
        0.055997833609580994,
        -0.14600259065628052,
        -0.10495630651712418,
        0.09266688674688339,
        0.1109127625823021,
        -0.1557164341211319,
        0.03645438700914383,
        -0.022451383993029594,
        -0.03945615142583847,
        -0.10570907592773438,
        0.2600610554218292,
        0.10835880041122437,
        0.0984521210193634,
        0.1239490807056427,
        -0.04831724613904953,
        0.14508645236492157,
        -0.0016913223080337048,
        0.11233146488666534,
        0.08519792556762695,
        0.06194046512246132,
        -0.05876166746020317,
        -0.0025752768851816654,
        0.026765678077936172,
        0.08088751137256622,
        0.05411063879728317,
        0.14475171267986298,
        0.07905558496713638,
        -0.03945698216557503,
        -0.5032471418380737,
        0.3494396209716797,
        0.2909310460090637,
        -0.6117841601371765,
        0.2652910351753235,
        -0.7349416017532349,
        -0.27664613723754883,
        -0.3522927761077881,
        0.8840539455413818,
        -0.7912693023681641,
        -0.5198392271995544,
        -0.7738187909126282,
        0.1970454603433609,
        -0.7080197334289551,
        0.17326754331588745,
        -0.6647124290466309,
        -0.22481776773929596,
        -0.12658390402793884,
        0.1959443837404251,
        0.18275654315948486,
        0.24937401711940765,
        0.1589871644973755,
        -0.28497767448425293,
        -0.17748816311359406,
        -0.4850507378578186,
        -0.11404833197593689,
        0.33502259850502014,
        0.21231509745121002,
        0.14785100519657135,
        0.0029641790315508842,
        -0.13382893800735474,
        0.05792064592242241,
        -0.18548165261745453,
        -0.15770280361175537,
        0.09456166625022888,
        0.10171974450349808,
        -0.48299121856689453,
        0.38521608710289,
        0.030801162123680115,
        -0.27111154794692993,
        0.11423376202583313,
        -0.229789599776268,
        0.21377995610237122,
        0.16065065562725067,
        0.06002106890082359,
        0.05222310870885849,
        -0.0038349281530827284,
        0.16864517331123352,
        -0.25650477409362793,
        0.01925067789852619,
        -0.2062162160873413,
        0.2600689232349396,
        -0.131292462348938,
        0.4182291328907013,
        -0.20435543358325958,
        -0.06818895787000656,
        0.1456579864025116,
        0.1472916454076767,
        -0.16166609525680542,
        -0.5755025744438171,
        0.23990708589553833,
        0.2286801040172577,
        0.1838492900133133,
        0.21548014879226685,
        0.04447554051876068,
        0.22044317424297333,
        -0.3021358549594879,
        -0.39651578664779663,
        -0.24267594516277313,
        0.09471139311790466,
        -0.32090115547180176,
        0.08840901404619217,
        -0.0975247472524643,
        0.10683128237724304,
        0.22490057349205017,
        0.42299598455429077,
        -0.03559226170182228,
        -0.3190622925758362,
        -0.21275383234024048,
        0.08522497862577438,
        0.2608671486377716,
        0.06282618641853333,
        -0.3320326805114746,
        -0.26543134450912476,
        0.2498673051595688,
        -0.05760692432522774,
        -0.3344331383705139,
        0.2539735436439514,
        0.029350358992815018,
        0.027984997257590294,
        0.12868168950080872,
        0.3108292818069458,
        -0.030491309240460396,
        -0.22473861277103424,
        -0.1774207502603531,
        -0.10457294434309006,
        -0.13150140643119812,
        -0.11700815707445145,
        -0.4428263008594513,
        -0.03596462309360504,
        0.03130072355270386,
        -0.12253737449645996,
        0.14805451035499573,
        -0.04165305569767952,
        0.14622950553894043,
        0.33153650164604187,
        -0.1700032502412796,
        -0.31155818700790405,
        -0.17615094780921936,
        -0.01958804950118065,
        0.19954948127269745,
        0.25062495470046997,
        0.10874728858470917,
        -0.04182815924286842,
        0.29258066415786743,
        -0.5198699235916138,
        0.035460881888866425,
        -0.007791794370859861,
        -0.6212700605392456,
        -0.1572798639535904,
        0.27723366022109985,
        0.3133738040924072,
        -0.30551138520240784,
        0.3314017951488495,
        -0.31736987829208374,
        -0.17105542123317719,
        -0.059460122138261795,
        0.38351479172706604,
        0.1542104035615921,
        0.023852653801441193,
        -0.1891506165266037,
        0.09666112065315247,
        0.17356643080711365,
        -0.09368344396352768,
        -0.07048283517360687,
        0.03483256325125694,
        -0.02897556498646736,
        0.2501177489757538,
        -0.12897798418998718,
        -0.1858169138431549,
        0.04526647925376892,
        -0.0023546642623841763,
        0.1520373374223709,
        0.1320824772119522,
        -0.1293063759803772,
        0.1957997828722,
        -0.17506897449493408,
        -0.18938033282756805,
        -0.3249925971031189,
        -0.05326336622238159,
        -0.052663031965494156,
        -0.11498112976551056,
        0.10440269857645035,
        0.15397164225578308,
        0.18405292928218842,
        -0.07184097170829773,
        -0.16365228593349457,
        0.15373052656650543,
        -0.054885994642972946,
        0.33344870805740356,
        -0.03413278982043266,
        0.018427425995469093,
        -0.06577248126268387,
        -0.012258864939212799,
        0.1361599713563919,
        -0.2743600904941559,
        0.16978593170642853,
        -0.024844566360116005,
        0.14318035542964935,
        -0.05238717794418335,
        0.05642137676477432,
        0.265456885099411,
        0.12336438149213791,
        -0.11372760683298111,
        -0.10140101611614227,
        -0.23261286318302155,
        -0.2348954677581787,
        -0.005570352077484131,
        -0.15164805948734283,
        0.26362547278404236,
        0.09081339091062546,
        0.02668931894004345,
        -0.05142201855778694,
        -0.2181534469127655,
        0.23115922510623932,
        0.2617177963256836,
        -0.2215498685836792,
        0.01658584736287594,
        0.14195966720581055,
        0.2251938283443451,
        0.1978478878736496,
        0.1051788404583931,
        -0.04363814741373062,
        0.46109190583229065,
        -0.37533870339393616,
        -0.1882486790418625,
        -0.25631192326545715,
        0.17989160120487213,
        -0.1696600466966629,
        0.1189497709274292,
        -0.3863852620124817,
        0.23999334871768951,
        0.43879321217536926,
        -0.19433020055294037,
        -0.05174041911959648,
        -0.05756700783967972,
        0.1202378049492836,
        0.11000077426433563,
        -0.1440058797597885,
        -0.2409200668334961,
        0.010008435696363449,
        0.22540917992591858,
        0.07806237041950226,
        -0.0337248370051384,
        0.16388212144374847,
        0.07260575890541077,
        0.04027969390153885,
        -0.17803609371185303,
        -0.25164034962654114,
        -0.11402349174022675,
        0.0018415390513837337,
        -0.15335944294929504,
        0.14289015531539917,
        -0.024130599573254585,
        -0.09379978477954865,
        0.3680899739265442,
        -0.2182290107011795,
        0.19328665733337402,
        0.07574708014726639,
        0.10973653942346573,
        0.028025168925523758,
        0.007554621435701847,
        0.1272841840982437,
        0.1881854236125946,
        0.1728534996509552,
        -0.03173167258501053,
        0.21652504801750183,
        0.08842699229717255,
        0.27158892154693604,
        -0.13525716960430145,
        -0.10614749789237976,
        0.3840208649635315,
        -0.0691363587975502,
        -0.05804575979709625,
        -0.05882519111037254,
        -0.09680252522230148,
        0.09619105607271194,
        -0.0380316786468029,
        -0.2046470046043396,
        0.3066561222076416,
        -0.09255802631378174,
        0.011162551119923592,
        -0.08538766950368881,
        0.29736024141311646,
        0.4548783302307129,
        0.320652037858963,
        -0.03436202183365822,
        -0.34744083881378174,
        -0.15397511422634125,
        0.13896888494491577,
        -0.4091351330280304,
        0.2091565728187561,
        -0.0830908790230751,
        0.1205146387219429,
        0.39148470759391785,
        -0.30373305082321167,
        0.20458123087882996,
        0.037077635526657104,
        -0.14143280684947968,
        0.30778154730796814,
        -0.27493372559547424,
        -0.1623712182044983,
        -0.046337299048900604,
        0.031245900318026543,
        0.0032044239342212677,
        -0.048734504729509354,
        -0.0269838385283947,
        0.12982387840747833,
        0.07771440595388412,
        0.11286063492298126,
        0.11502934992313385,
        0.1193423867225647,
        -0.007761965971440077,
        -0.09710121154785156,
        0.05160243809223175,
        -0.16485464572906494,
        -0.041965238749980927,
        -0.016585595905780792,
        0.257982075214386,
        -0.2785833775997162,
        -0.1105775535106659,
        0.11116818338632584,
        -0.11705639213323593,
        -0.012173599563539028,
        -0.2698397934436798,
        -0.0639694556593895,
        -0.0770442932844162,
        0.4675741195678711,
        -0.11783723533153534,
        -0.11455681174993515,
        0.30172932147979736,
        -0.015810532495379448,
        -0.005003634840250015,
        -0.005600535310804844,
        -0.11636297404766083,
        -0.04532468691468239,
        0.06238876283168793,
        -0.002996938768774271,
        -0.132692351937294,
        -0.13021229207515717,
        -0.03834943473339081,
        -0.015585883520543575,
        0.038454439491033554,
        0.13033196330070496,
        0.013872488401830196,
        0.05423257499933243,
        0.051786862313747406,
        0.047263871878385544,
        -0.356012225151062,
        0.0439150296151638,
        -0.20179910957813263,
        0.4141586720943451,
        0.05421184003353119,
        0.13895265758037567,
        0.0472588911652565,
        -0.12802013754844666,
        -0.3057803809642792,
        -0.13132533431053162,
        0.09521221369504929,
        0.11337898671627045,
        -0.2168334573507309,
        -0.008102129213511944,
        -0.12600263953208923,
        0.09498368948698044,
        -0.1773485541343689,
        -0.03585575520992279,
        -0.25227484107017517,
        -0.16441448032855988,
        -0.03414540737867355,
        -0.13392959535121918,
        0.05809132382273674,
        -0.10891484469175339,
        0.09444750100374222,
        -0.057158686220645905,
        0.23345133662223816,
        0.06710834801197052,
        -0.21773694455623627,
        -0.17997387051582336,
        0.20734696090221405,
        -0.05090970918536186,
        -0.04183737188577652,
        0.21401086449623108,
        -0.23954877257347107,
        0.13262724876403809,
        -0.15153127908706665,
        -0.07570195943117142,
        -0.05776883661746979,
        -0.003077106084674597,
        -0.04219711944460869,
        0.025334063917398453,
        0.06477434188127518,
        -0.1485873907804489,
        -0.14305980503559113,
        0.16519658267498016,
        0.22571484744548798,
        0.10635311901569366,
        0.04390627145767212,
        -0.03942166641354561,
        0.10726627707481384,
        0.09804385155439377,
        -0.3440359830856323,
        -0.13401007652282715,
        0.0910303145647049,
        -0.14010849595069885,
        0.01671314612030983,
        0.24778322875499725,
        -0.09671778231859207,
        0.21368280053138733,
        0.10314235091209412,
        0.0228339321911335,
        -0.07046832889318466,
        -0.05524018034338951,
        -0.00400413665920496,
        -0.07103174924850464,
        0.020495673641562462,
        0.034340281039476395,
        -0.06370551139116287,
        0.054892633110284805,
        0.0827636569738388,
        -0.17287415266036987,
        -0.11387640237808228,
        -0.06631557643413544,
        0.16401880979537964,
        -0.0662783607840538,
        -0.10852754861116409,
        0.08148489892482758,
        0.09719235450029373,
        -0.15494446456432343,
        0.04792153090238571,
        -0.051574282348155975,
        -0.04824061691761017,
        -0.18574947118759155,
        0.1903468817472458,
        -0.12537206709384918,
        -0.05716906487941742,
        -0.04250159487128258,
        0.10716118663549423,
        -0.10491157323122025,
        0.04828563332557678,
        -0.032408393919467926,
        0.04996350035071373,
        0.08150648325681686,
        0.09512506425380707,
        -0.12984426319599152,
        -0.35195261240005493,
        -0.09078580141067505,
        0.0016558673232793808,
        0.021872825920581818,
        -0.064021036028862,
        0.04870334640145302,
        0.012136268429458141,
        -0.035472430288791656,
        0.37782639265060425,
        -0.2892528474330902,
        -0.044657714664936066,
        0.150104358792305,
        -0.05174599960446358,
        -0.30974552035331726,
        -0.05436289310455322,
        -0.10393105447292328,
        0.17248716950416565,
        0.1420869380235672,
        -0.11759483069181442,
        -0.6240731477737427,
        0.2355000227689743,
        -0.20134326815605164,
        0.24821166694164276,
        -0.016434043645858765,
        0.09161946177482605,
        0.026818694546818733,
        0.0014526901068165898,
        0.04886499047279358,
        -0.1615830659866333,
        -0.28917232155799866,
        0.008754689246416092,
        -0.04915228858590126,
        -0.17088845372200012,
        -0.004089358262717724,
        0.11699416488409042,
        0.2583842873573303,
        0.2922923266887665,
        0.09106135368347168,
        -0.26429370045661926,
        0.058600325137376785,
        -0.02397170290350914,
        0.26728755235671997,
        0.040108900517225266,
        0.05368925631046295,
        -0.018462710082530975,
        -0.08396068960428238,
        -0.19077958166599274,
        -0.032960955053567886,
        0.031035616993904114,
        0.016754528507590294,
        0.02849847637116909,
        0.144766703248024,
        -0.4712364077568054,
        -0.23902428150177002,
        -0.12703630328178406,
        0.09919721633195877,
        -0.021282333880662918,
        0.02534598298370838,
        -0.29487937688827515,
        0.13741956651210785,
        0.2760281264781952,
        -0.36750859022140503,
        0.1473245471715927,
        -0.050522927194833755,
        0.34136396646499634,
        0.053153716027736664,
        0.23856358230113983,
        -0.2004140317440033,
        -0.10913975536823273,
        0.07937227934598923,
        0.1329071819782257,
        0.09289918839931488,
        -0.0624755397439003,
        -0.025123095139861107,
        -0.09192566573619843,
        0.05233484134078026,
        0.16175809502601624,
        -0.042261235415935516,
        -0.1016344502568245,
        -0.044225677847862244,
        -0.025294117629528046,
        -0.058827053755521774,
        -0.004234823863953352,
        0.24128443002700806,
        -0.027657868340611458,
        -0.19963835179805756,
        0.035892464220523834,
        -0.168094202876091,
        -0.169987753033638,
        0.10829928517341614,
        0.01518479734659195,
        -0.15629446506500244,
        0.13662555813789368,
        -0.008757228031754494,
        0.12807044386863708,
        0.06621059030294418,
        -0.05197710171341896,
        -0.0298856683075428,
        0.04264335706830025,
        -0.11126061528921127,
        -0.01368580013513565,
        -0.09890419244766235,
        0.1617697924375534,
        0.16218601167201996,
        -0.011430162936449051,
        -0.12716630101203918,
        -0.07740414142608643,
        0.21641719341278076,
        -0.05901975557208061,
        -0.1850540190935135,
        0.17623460292816162,
        0.064571812748909,
        -0.14553441107273102,
        -0.10176850110292435,
        0.24274425208568573,
        -0.3616134226322174,
        -0.31830447912216187,
        0.08490481972694397,
        -0.011350119486451149,
        -0.13705608248710632,
        -0.0904473215341568,
        -0.20742391049861908,
        -0.047341443598270416,
        -0.07143400609493256,
        -0.15226081013679504,
        -0.07908062636852264,
        -0.07808073610067368,
        -0.10207568854093552,
        0.10265941917896271,
        -0.4993737041950226,
        0.02104242332279682,
        0.19351837038993835,
        -0.3545185327529907,
        0.0013827558141201735,
        0.22350019216537476,
        -0.13661646842956543,
        -0.09655261039733887,
        0.031225718557834625,
        0.10496354848146439,
        -0.03565201535820961,
        -0.13011515140533447,
        0.037758685648441315,
        0.09768354892730713,
        0.03159025311470032,
        -0.09098505228757858,
        -0.04220263287425041,
        0.21224366128444672,
        0.09060076624155045,
        0.07982511818408966,
        -0.10220318287611008,
        0.22389021515846252,
        -0.012723547406494617,
        0.03964956849813461,
        -0.0688796192407608,
        0.19928698241710663,
        0.17169496417045593,
        -0.2633984684944153,
        -0.1559794545173645,
        0.018318137153983116,
        0.13122022151947021,
        -0.10252450406551361,
        0.005777046084403992,
        -0.03340768814086914,
        -0.013801389373838902,
        0.003342387964949012,
        0.1040390208363533,
        0.07209409028291702,
        -0.09400727599859238,
        0.02535548433661461,
        0.13538531959056854,
        -0.15686394274234772,
        0.04438092187047005,
        0.24766096472740173,
        -0.07793492823839188,
        -0.019103320315480232,
        -0.16855835914611816,
        -0.02981332503259182,
        -0.150263711810112,
        0.1819106936454773,
        -0.28665056824684143,
        -0.08770964294672012,
        0.13350926339626312,
        -0.1420793980360031,
        0.024791356176137924,
        -0.0008484892314299941,
        -0.09619975835084915,
        -0.16681595146656036,
        0.14592166244983673,
        0.008814943954348564,
        0.10230323672294617,
        0.04022272303700447,
        -0.024064483121037483,
        -0.1901950240135193,
        0.23571553826332092,
        -0.0572265088558197,
        -0.07059796154499054,
        0.13873390853405,
        -0.1901901215314865,
        0.0698687955737114,
        -0.23805861175060272,
        -0.08447869122028351,
        -0.19531778991222382,
        0.057912591844797134,
        -0.07315925508737564,
        -0.3930984139442444,
        0.18800173699855804,
        -0.035454943776130676,
        0.21744617819786072,
        -0.015891944989562035,
        -0.09740396589040756,
        -0.07687705010175705,
        0.0354204997420311,
        0.018174583092331886,
        0.2029455304145813,
        0.07216879725456238,
        -0.02710426226258278,
        0.27210915088653564,
        0.12356851994991302,
        -0.040592316538095474,
        -0.444552481174469,
        -0.14767736196517944,
        -0.07028144598007202,
        -0.370169997215271,
        0.038554947823286057,
        0.014240066520869732,
        0.05227774381637573,
        0.1262865960597992,
        0.18324792385101318,
        -0.3037030100822449,
        -0.03143501281738281,
        0.03976614400744438,
        -0.050141286104917526,
        0.09774588793516159,
        0.13968949019908905,
        0.1032395288348198,
        0.11440987139940262,
        -0.11610787361860275,
        -0.4401772916316986,
        -0.0530354343354702,
        -0.12582054734230042,
        0.27814170718193054,
        -0.16013404726982117,
        -0.057912565767765045,
        -0.22045567631721497,
        -0.09026717394590378,
        -0.17576856911182404,
        -0.015000199899077415,
        -0.01764843799173832,
        -0.08797165751457214,
        0.1450561285018921,
        -0.0726979598402977,
        -0.004857893101871014,
        0.1845887452363968,
        -0.08153045922517776,
        0.09604644775390625,
        -0.04308906942605972,
        -0.1079384833574295,
        -0.0631253570318222,
        -0.299193412065506,
        -0.17597781121730804,
        -0.018559109419584274,
        -0.09297391027212143,
        0.3694136440753937,
        0.10444927960634232,
        0.15387390553951263,
        0.41720905900001526,
        0.20263703167438507,
        0.05505014955997467,
        0.1872664839029312,
        -0.012751788832247257,
        -0.19154280424118042,
        -0.14953632652759552,
        -0.06072284281253815,
        -0.1613902747631073,
        0.01089425478130579,
        -0.201820507645607,
        0.297036349773407,
        0.16819581389427185,
        -0.1189359799027443,
        -0.1040201187133789,
        -0.42779338359832764,
        -0.10572341829538345,
        0.21539685130119324,
        0.20122157037258148,
        0.09493837505578995,
        -0.1329525262117386,
        -0.28601402044296265,
        -0.04582904279232025,
        0.06140732765197754,
        0.19945698976516724,
        -0.0065810964442789555,
        0.1946559101343155,
        0.1276111751794815,
        -0.16678862273693085,
        -0.23576344549655914,
        0.17568349838256836,
        -0.2494693100452423,
        -0.06718742102384567,
        -0.09115056693553925,
        0.09147346019744873,
        0.2090548425912857,
        0.3178800046443939,
        -0.052801623940467834,
        0.13351108133792877,
        0.5432649254798889,
        0.23196518421173096,
        -0.23060819506645203,
        -0.09422699362039566,
        -0.3100443482398987,
        0.17678315937519073,
        0.0011608389904722571,
        0.08952519297599792,
        0.07949633151292801,
        -0.09628446400165558,
        -0.006636453792452812,
        -0.09150991588830948,
        -0.1048603281378746,
        -0.1096770390868187,
        0.007946424186229706,
        -0.003691493533551693,
        0.056480567902326584,
        0.27335554361343384,
        -0.04681582748889923,
        -0.022342855110764503,
        -0.25170421600341797,
        -0.23970435559749603,
        0.018338166177272797,
        0.07205495238304138,
        -0.02418496645987034,
        -0.12995295226573944,
        -0.12215664237737656,
        -0.2872374653816223,
        0.07934383302927017,
        0.18895471096038818,
        0.12038364261388779,
        -0.013272088021039963,
        0.11559206247329712,
        -0.07019934803247452,
        0.00014799060591030866,
        -0.18594898283481598,
        0.15647464990615845,
        -0.05339858680963516,
        0.2685873508453369,
        -0.20705245435237885,
        -0.23631760478019714,
        0.2401868849992752,
        -0.1336745321750641,
        0.06085946783423424,
        0.16803783178329468,
        0.08231967687606812,
        -0.049061913043260574,
        0.2294546365737915,
        -0.026528310030698776,
        -0.024054426699876785,
        -0.3377659320831299,
        -0.16427022218704224,
        -0.07150337845087051,
        -0.05512775480747223,
        0.1425326019525528,
        0.11565843969583511,
        0.029760535806417465,
        -0.10504566878080368,
        0.18154694139957428,
        -0.04920538142323494,
        -0.10395073890686035,
        0.17553870379924774,
        0.14713212847709656,
        -0.1395138055086136,
        0.002340169856324792,
        0.05344656854867935,
        -0.005196761805564165,
        -0.3179093301296234,
        -0.1275855451822281,
        -0.06684839725494385,
        0.0523659884929657,
        0.10407306998968124,
        0.12429538369178772,
        -0.19764582812786102,
        -0.0744604766368866,
        0.014893628656864166,
        0.10079195350408554,
        0.1629418581724167,
        0.036183446645736694,
        -0.027915671467781067,
        0.0679660439491272,
        -0.03389454632997513,
        0.2427205741405487,
        -0.02582552842795849,
        -0.18651625514030457,
        0.14725300669670105,
        0.19358094036579132,
        0.12939344346523285,
        0.27395567297935486,
        0.2518211007118225,
        -0.13878892362117767,
        0.08065743744373322,
        -0.10250695794820786,
        -0.08283429592847824,
        0.046770401298999786,
        0.027647895738482475,
        -0.046278949826955795,
        -0.014848049730062485,
        0.2984703481197357,
        -0.22478680312633514,
        0.08147776871919632,
        0.14695490896701813,
        -0.5281417369842529,
        0.21387799084186554,
        0.07514090836048126,
        -0.20801565051078796,
        0.26561665534973145,
        -0.19485615193843842,
        -0.07882913202047348,
        0.03229348361492157,
        0.08095435053110123,
        0.10006249696016312,
        -0.07181663811206818,
        -0.11728467047214508,
        -0.2870958745479584,
        0.02731652371585369,
        0.15879060328006744,
        -0.08579958975315094,
        0.12645195424556732,
        0.13877540826797485,
        0.10068883746862411,
        -0.1931132972240448,
        -0.19025225937366486,
        -0.16019055247306824,
        -0.07428192347288132,
        -0.10790301859378815,
        0.10900235176086426,
        -0.20918770134449005,
        0.012955604121088982,
        -0.1422615647315979,
        0.11360816657543182,
        -0.006245892960578203,
        -0.11161019653081894,
        0.11626236140727997,
        -0.11638463288545609,
        0.18483424186706543,
        -0.0003610867424868047,
        0.03626762703061104,
        -0.06924791634082794,
        0.40469053387641907,
        0.027887798845767975,
        0.11352955549955368,
        0.13850028812885284,
        0.1890462338924408,
        -0.3941413462162018,
        0.008989942260086536,
        -0.030026724562048912,
        0.027931751683354378,
        0.3825048506259918,
        0.01361576747149229,
        0.03146251291036606,
        -0.13647516071796417,
        -0.1756410300731659,
        -0.01641610823571682,
        0.06134139373898506,
        -0.14324024319648743,
        -0.07975983619689941,
        0.014622969552874565,
        0.2131519913673401,
        0.06949170678853989,
        0.022737672552466393,
        -0.07445783913135529,
        -0.048888981342315674,
        0.04489612206816673,
        0.27569806575775146,
        0.21737194061279297,
        -0.19923225045204163,
        0.12061560153961182,
        -0.07162146270275116,
        0.09009063243865967,
        0.012954537756741047,
        -0.03686778247356415,
        0.1169777512550354,
        -0.2022465169429779,
        -0.046815697103738785,
        0.022526144981384277,
        0.038061559200286865,
        0.15152011811733246,
        -0.12578362226486206,
        -0.18256768584251404,
        -0.06164897605776787,
        0.22351112961769104,
        -0.42417794466018677,
        -0.2508496940135956,
        -0.15358774363994598,
        -0.24331340193748474,
        0.08895692229270935,
        0.05240073427557945,
        0.08175943046808243,
        0.0874330922961235,
        -0.27604082226753235,
        0.19890160858631134,
        0.2001613974571228,
        0.0250632893294096,
        -0.28240999579429626,
        -0.40076956152915955,
        -0.22446192800998688,
        -0.1864360272884369,
        0.05915629118680954,
        0.055035557597875595,
        0.1462857723236084,
        -0.00851698499172926,
        -0.005335566587746143,
        -0.1039535254240036,
        -0.15431194007396698,
        0.09151392430067062,
        0.014638880267739296,
        0.0715586394071579,
        0.07591553032398224,
        0.0903446301817894,
        0.08742363750934601,
        -0.06659901887178421,
        0.03739333897829056,
        -0.10680415481328964,
        0.06495480984449387,
        0.21128709614276886,
        -0.02744835615158081,
        -0.10163210332393646,
        0.03654675558209419,
        0.10768686980009079,
        0.0861433893442154,
        0.17991706728935242,
        -0.12041167914867401,
        0.04377833753824234,
        -0.12522661685943604,
        -0.05218036472797394,
        -0.06208690628409386,
        0.10950294882059097,
        0.0004505626857280731,
        0.08497492223978043,
        -0.28468769788742065,
        0.07720805704593658,
        -0.048899006098508835,
        0.0943312719464302,
        -0.03726746141910553,
        0.11636989563703537,
        0.09066756069660187,
        -0.2764083445072174,
        -0.0038172942586243153,
        -0.18562699854373932,
        0.19622112810611725,
        0.019033359363675117,
        0.029460113495588303,
        0.11350987106561661,
        0.12788709998130798,
        -0.10752704739570618,
        -0.004093764815479517,
        0.10038027912378311,
        0.005798972211778164,
        0.09396567940711975,
        -0.00621865363791585,
        -0.11569090932607651,
        -0.005274805705994368,
        -0.004609416238963604,
        -0.041253965348005295,
        -0.06705175340175629,
        -0.15927782654762268,
        0.0340813510119915,
        0.02478005364537239,
        -0.32958367466926575,
        0.16181319952011108,
        0.06739211082458496,
        -0.08051611483097076,
        0.13475936651229858,
        -0.007149734068661928,
        -0.08091122657060623,
        0.03183751925826073,
        -0.04489201307296753,
        0.01682634837925434,
        0.15849669277668,
        -0.03400407359004021,
        0.09607867896556854,
        -1.086299198505003e-05,
        0.07538061589002609,
        -0.0013301038416102529,
        -0.04644344747066498,
        0.1907312572002411,
        -0.31993457674980164,
        -0.38959255814552307,
        0.024503251537680626,
        0.0485801137983799,
        -0.23006322979927063,
        -0.13160370290279388,
        -0.16641688346862793,
        0.026723800227046013,
        -0.13917049765586853,
        -0.3185202479362488,
        -0.1240149587392807,
        0.06259863823652267,
        -0.06188555806875229,
        0.19546283781528473,
        -0.11400464177131653,
        -0.0151768634095788,
        0.01769467070698738,
        -0.1692693531513214,
        0.40256112813949585,
        -0.026224015280604362,
        0.05712634697556496,
        0.06374718248844147,
        0.029430460184812546,
        0.20922264456748962,
        0.2919721007347107,
        -0.06995029747486115,
        0.20139126479625702,
        0.04502693936228752,
        -0.01124395988881588,
        0.18314331769943237,
        -0.029540948569774628,
        0.2392067015171051,
        -0.3270277678966522,
        0.047048188745975494,
        0.011807214468717575,
        0.203124538064003,
        -0.05027710273861885,
        0.07298517227172852,
        -0.11916354298591614,
        0.20082026720046997,
        -0.12632769346237183,
        0.15905554592609406,
        -0.16023793816566467,
        -0.01069773081690073,
        -0.2451971471309662,
        -0.04358753189444542,
        0.07280135154724121,
        0.37285929918289185,
        0.2959482669830322,
        -0.4081619083881378,
        0.3395528197288513,
        -0.33894607424736023,
        -0.15545184910297394,
        0.41004860401153564,
        -0.2930198609828949,
        0.1487606018781662,
        0.12571319937705994,
        0.028107287362217903,
        -0.0972941666841507,
        -0.4485815167427063,
        0.3471545875072479,
        0.05889708548784256,
        0.012018161825835705,
        0.04233897849917412,
        -0.038413748145103455,
        0.06808485835790634,
        0.014002298004925251,
        -0.041155241429805756,
        0.027388542890548706,
        0.13827495276927948,
        0.021330388262867928,
        -0.012781365774571896,
        0.019778266549110413,
        -0.053159281611442566,
        0.05751286447048187,
        0.013253956101834774,
        0.0076367505826056,
        0.042814239859580994,
        -0.3646587133407593,
        0.664920449256897,
        0.4866516888141632,
        -0.3493402302265167,
        0.12431519478559494,
        -0.2663242518901825,
        0.14942647516727448,
        0.3058362305164337,
        -0.8676634430885315,
        0.7702122926712036,
        0.723385214805603,
        0.11497905105352402,
        -0.5640747547149658,
        0.16621015965938568,
        -0.7660923600196838,
        -0.07110225409269333,
        0.0951409861445427,
        0.037163157016038895,
        -0.32817965745925903,
        0.5334659814834595,
        0.45089977979660034,
        0.20183801651000977,
        0.2117006480693817,
        0.17278315126895905,
        0.24308647215366364,
        0.19079041481018066,
        0.03484516963362694,
        -0.473402202129364,
        -0.06889596581459045,
        -0.23740968108177185,
        -0.13819536566734314,
        0.3482288122177124,
        -0.17468048632144928,
        0.14174720644950867,
        0.02595335617661476,
        0.5305894017219543,
        0.31445634365081787,
        0.052799150347709656,
        -0.23085615038871765,
        -0.15775153040885925,
        -0.09863000363111496,
        0.06414134055376053,
        -0.150210902094841,
        -0.14954426884651184,
        0.182001993060112,
        0.07773385941982269,
        0.12079420685768127,
        0.22224672138690948,
        -0.500088632106781,
        0.0026969467289745808,
        -0.32079628109931946,
        0.06135135143995285,
        -0.21409285068511963,
        0.0662703812122345,
        -0.1365232914686203,
        -0.07992009073495865,
        -0.20344384014606476,
        -0.2600398063659668,
        0.21048012375831604,
        0.15222930908203125,
        -0.25079545378685,
        0.048098064959049225,
        0.12245171517133713,
        0.0935722142457962,
        0.05716393515467644,
        -0.05657784268260002,
        -0.06457153707742691,
        -0.3931696116924286,
        0.15671327710151672,
        -0.2619726061820984,
        0.295195072889328,
        0.3664637506008148,
        0.02791329100728035,
        -0.005917385686188936,
        0.3621608018875122,
        -0.06425825506448746,
        0.3429780900478363,
        0.275020569562912,
        0.011261943727731705,
        0.09277775138616562,
        0.045027777552604675,
        0.2686598002910614,
        -0.0807533785700798,
        0.1742245852947235,
        -0.05176810547709465,
        0.1678234189748764,
        -0.19299238920211792,
        0.13886719942092896,
        -0.27645036578178406,
        -0.12284647673368454,
        0.10304652899503708,
        -0.14872916042804718,
        -0.3352395296096802,
        0.19343651831150055,
        -0.08598297089338303,
        -0.02379053831100464,
        -0.1218404471874237,
        -0.0408882200717926,
        -0.28537648916244507,
        -0.21207301318645477,
        -0.26513758301734924,
        0.18056894838809967,
        -0.09515861421823502,
        -0.1281721293926239,
        -0.17035825550556183,
        0.06686625629663467,
        -0.043939776718616486,
        -0.2990863621234894,
        0.39090704917907715,
        0.2052670121192932,
        0.084435373544693,
        -0.10533126443624496,
        -0.06919711083173752,
        -0.15134182572364807,
        0.09546932578086853,
        0.16845637559890747,
        0.03895369917154312,
        -0.1053854450583458,
        -0.15842881798744202,
        -0.16394948959350586,
        -0.01161353662610054,
        0.09198470413684845,
        -0.17675568163394928,
        0.2637979984283447,
        0.11015576124191284,
        -0.104085773229599,
        0.14896388351917267,
        0.26971402764320374,
        0.08362415432929993,
        -0.20165906846523285,
        -0.2343050092458725,
        0.010556308552622795,
        -0.021703042089939117,
        0.06469366699457169,
        -0.2356509268283844,
        0.13148126006126404,
        0.0654246062040329,
        0.11475306749343872,
        0.31613510847091675,
        -0.1784314066171646,
        0.030205585062503815,
        0.22313952445983887,
        0.04291325435042381,
        -0.19499433040618896,
        0.10159844905138016,
        -0.16652058064937592,
        0.12950454652309418,
        0.10257032513618469,
        0.11504051089286804,
        -0.1526380479335785,
        0.14417538046836853,
        -0.1694774478673935,
        0.12498515844345093,
        -0.14400812983512878,
        0.11829094588756561,
        -0.19550804793834686,
        -0.03302757441997528,
        -0.024422436952590942,
        -0.012886015698313713,
        0.19102609157562256,
        0.07737988233566284,
        -0.20843186974525452,
        0.18695004284381866,
        0.086092509329319,
        0.26430270075798035,
        -0.28927743434906006,
        -0.19304731488227844,
        -0.15520071983337402,
        0.012094404548406601,
        0.04432820528745651,
        -0.13051027059555054,
        -0.019495651125907898,
        -0.13934136927127838,
        0.08620524406433105,
        -0.1492525041103363,
        0.12082617729902267,
        -0.29595711827278137,
        -0.21761678159236908,
        -0.15014119446277618,
        0.11869173496961594,
        -0.23261317610740662,
        -5.196859274292365e-05,
        0.11527977138757706,
        0.3071925640106201,
        0.001260624616406858,
        -0.27310627698898315,
        -0.05669134482741356,
        0.02230926789343357,
        -0.19262057542800903,
        0.04477890953421593,
        0.08805283159017563,
        0.17327731847763062,
        -0.14614471793174744,
        -0.14826031029224396,
        -0.0706106498837471,
        -0.24553808569908142,
        0.4081728756427765,
        0.3361319303512573,
        0.07073584944009781,
        -0.06766653805971146,
        -0.30726882815361023,
        -0.2797122299671173,
        -0.12737296521663666,
        -0.40947678685188293,
        -0.1985122412443161,
        0.21926240622997284,
        -0.04790734872221947,
        0.06830063462257385,
        -0.2635470926761627,
        -0.10411696881055832,
        -0.018099237233400345,
        0.056546650826931,
        -0.0999622493982315,
        -0.13961991667747498,
        -0.20062796771526337,
        0.0777873620390892,
        -0.09527134150266647,
        -0.2174743413925171,
        -0.13991647958755493,
        0.12470085173845291,
        0.06956737488508224,
        0.040016114711761475,
        -0.033884454518556595,
        -0.30944332480430603,
        -0.026108425110578537,
        -0.30791229009628296,
        -0.09609182178974152,
        -0.3990105390548706,
        -0.3600311279296875,
        0.31036829948425293,
        -0.03643380478024483,
        0.06995637714862823,
        -0.02090490609407425,
        0.10024668276309967,
        -0.2965657711029053,
        -0.07015645503997803,
        0.34437790513038635,
        0.29165253043174744,
        -0.014337624423205853,
        -0.08621835708618164,
        0.07261756807565689,
        0.02279798500239849,
        -0.04639606922864914,
        -0.054351042956113815,
        -0.03869231790304184,
        0.24848316609859467,
        -0.44502919912338257,
        0.1175137311220169,
        0.22179120779037476,
        0.17592154443264008,
        0.17002931237220764,
        0.019135436043143272,
        0.13606037199497223,
        0.34816914796829224,
        0.04056541994214058,
        -0.21681472659111023,
        -0.06701014190912247,
        -0.06840959191322327,
        -0.32408568263053894,
        -0.33958899974823,
        -0.033559683710336685,
        -0.026317451149225235,
        -0.19797256588935852,
        -0.08791657537221909,
        0.23725005984306335,
        0.27907973527908325,
        0.32298141717910767,
        -0.14870736002922058,
        0.02765856310725212,
        -0.07573486864566803,
        0.08952995389699936,
        0.02484753541648388,
        0.09337644279003143,
        0.11026661098003387,
        -0.027440711855888367,
        -0.08080526441335678,
        0.2089771181344986,
        0.09648348391056061,
        0.029642609879374504,
        -0.18490749597549438,
        -0.045440591871738434,
        0.03324560075998306,
        0.17834873497486115,
        0.17991535365581512,
        0.12308021634817123,
        0.08929366618394852,
        0.011732290498912334,
        0.051738377660512924,
        -0.003265023697167635,
        -0.02554318867623806,
        -0.27305248379707336,
        -0.192213773727417,
        0.02378634177148342,
        0.15582811832427979,
        -0.5804202556610107,
        -0.07718289643526077,
        0.18713879585266113,
        0.46844759583473206,
        0.2045651376247406,
        0.11960092931985855,
        -0.004728615749627352,
        -0.1387590914964676,
        0.04280460253357887,
        -0.1556207239627838,
        0.04032393917441368,
        0.04414425417780876,
        0.008481420576572418,
        -0.1782381534576416,
        -0.044025760143995285,
        0.09565304219722748,
        0.03528345748782158,
        -0.18560972809791565,
        -0.24894635379314423,
        0.022857731208205223,
        0.00543532008305192,
        0.2590278089046478,
        -0.036200929433107376,
        -0.04959644004702568,
        -0.29050007462501526,
        0.14268140494823456,
        0.1444484442472458,
        -0.15627211332321167,
        -0.021544860675930977,
        -0.1979866474866867,
        0.01746138371527195,
        0.012199588119983673,
        0.038907669484615326,
        -0.16994750499725342,
        -0.10598546266555786,
        -0.04761470481753349,
        -0.09825525432825089,
        -0.04402963072061539,
        -0.06493755429983139,
        -0.22598236799240112,
        -0.019105644896626472,
        0.1633736938238144,
        -0.18448194861412048,
        0.18230777978897095,
        -0.08879808336496353,
        -0.32569730281829834,
        0.16757194697856903,
        0.023002052679657936,
        0.5738135576248169,
        0.11030061542987823,
        -0.10323184728622437,
        0.023294387385249138,
        -0.35147514939308167,
        0.0021619643084704876,
        -0.07168614864349365,
        0.16733931005001068,
        0.05661584809422493,
        -0.06447053700685501,
        0.03501365706324577,
        -0.2513607144355774,
        -0.1057501956820488,
        0.2446795105934143,
        0.05683997645974159,
        0.06523887068033218,
        -0.20329880714416504,
        0.09425033628940582,
        0.1553620845079422,
        -0.07857096195220947,
        0.11292116343975067,
        0.21889914572238922,
        0.04121024161577225,
        -0.0769287645816803,
        0.09630356729030609,
        0.05434130132198334,
        0.3071734309196472,
        0.18756400048732758,
        -0.3303350508213043,
        -0.15209083259105682,
        -0.1407710760831833,
        -0.03422309458255768,
        -0.11617813259363174,
        -0.08134566247463226,
        0.06281695514917374,
        0.1433611959218979,
        0.24809680879116058,
        0.3724018931388855,
        -0.09219878911972046,
        0.2977662980556488,
        -0.112897589802742,
        0.21479611098766327,
        0.0301517266780138,
        -0.04047514125704765,
        0.12900696694850922,
        -0.1451379358768463,
        0.027401026338338852,
        -0.08264998346567154,
        -0.06035182252526283,
        0.15344351530075073,
        0.061844561249017715,
        -0.11239651590585709,
        -0.007527422625571489,
        0.09800945967435837,
        0.11591153591871262,
        -0.001904333010315895,
        -0.07666399329900742,
        -0.0623694583773613,
        0.07077067345380783,
        -0.06744468957185745,
        0.04853270575404167,
        -0.11967220157384872,
        0.014860431663691998,
