{
    "version": "0.5.0",
    "architecture": "WaveNet",
    "config": {
        "layers": [
            {
                "input_size": 1,
                "condition_size": 1,
                "head_size": 8,
                "channels": 16,
                "kernel_size": 3,
                "dilations": [
                    1,
                    2,
                    4,
                    8,
                    16,
                    32,
                    64,
                    128,
                    256,
                    512
                ],
                "activation": "Tanh",
                "gated": false,
                "head_bias": false
            },
            {
                "input_size": 16,
                "condition_size": 1,
                "head_size": 1,
                "channels": 8,
                "kernel_size": 3,
                "dilations": [
                    1,
                    2,
                    4,
                    8,
                    16,
                    32,
                    64,
                    128,
                    256,
                    512
                ],
                "activation": "Tanh",
                "gated": false,
                "head_bias": true
            }
        ],
        "head": null,
        "head_scale": 0.02
    },
    "weights": [
        0.02477288246154785,
        0.45511290431022644,
        -0.8412685394287109,
        -0.5364288091659546,
        -0.24315610527992249,
        -0.02522648684680462,
        0.022462453693151474,
        0.5892328023910522,
        0.04578361660242081,
        0.13233768939971924,
        -0.16892050206661224,
        -0.12829986214637756,
        -0.8661080598831177,
        -0.4249095320701599,
        -0.17982225120067596,
        0.02106478437781334,
        0.20857886970043182,
        0.0004249807680025697,
        -0.14798051118850708,
        -0.23871007561683655,
        0.07236111164093018,
        0.1690760999917984,
        0.14150242507457733,
        0.08240726590156555,
        -0.07978396862745285,
        0.18173520267009735,
        0.10121943056583405,
        -0.19240260124206543,
        0.08102121949195862,
        -0.06218435987830162,
        -0.10653004050254822,
        -0.03563745692372322,
        -0.021087434142827988,
        -0.02417132630944252,
        0.025870587676763535,
        -0.23212112486362457,
        -0.13604480028152466,
        -0.04313149303197861,
        0.08938414603471756,
        0.12597452104091644,
        0.14333955943584442,
        -0.1557220220565796,
        -0.051227085292339325,
        -0.27659741044044495,
        -0.05440091714262962,
        0.008060258813202381,
        0.2446317821741104,
        0.044381044805049896,
        -0.134315624833107,
        0.17829427123069763,
        0.08148477971553802,
        0.10993943363428116,
        0.22533908486366272,
        -0.006500983610749245,
        0.03907722234725952,
        0.0860973671078682,
        0.0045458488166332245,
        -0.16221576929092407,
        0.0674368217587471,
        -0.0991055965423584,
        0.015723127871751785,
        0.1039770096540451,
        -0.21023023128509521,
        -0.05137922987341881,
        0.09203416109085083,
        0.07967786490917206,
        -0.19254805147647858,
        -0.02505248226225376,
        -0.07850426435470581,
        0.2991357743740082,
        -0.05101233720779419,
        0.12620344758033752,
        -0.1155102476477623,
        0.17914676666259766,
        0.2883850038051605,
        -0.038883522152900696,
        0.07883753627538681,
        0.03617221489548683,
        -0.15385642647743225,
        -0.16234125196933746,
        -0.25439515709877014,
        0.2737106680870056,
        0.12272384017705917,
        -0.043778195977211,
        -0.12908640503883362,
        -0.08287858217954636,
        -0.1852784901857376,
        0.09944051504135132,
        0.13448664546012878,
        0.04239042103290558,
        -0.12088619917631149,
        0.02288268692791462,
        -0.045731719583272934,
        0.2366100549697876,
        -0.09348404407501221,
        0.05777498334646225,
        -0.10769961029291153,
        0.07820936292409897,
        0.05417082831263542,
        -0.23963895440101624,
        0.19685059785842896,
        0.26299557089805603,
        -0.2296050637960434,
        0.0249433983117342,
        0.028865370899438858,
        -0.16128869354724884,
        -0.05908273905515671,
        0.04778279736638069,
        -0.17311158776283264,
        -0.023771202191710472,
        0.030215241014957428,
        -0.1280761957168579,
        -0.10668200999498367,
        0.13152261078357697,
        0.22048203647136688,
        -0.04739418253302574,
        -0.005470914300531149,
        -0.11693855375051498,
        -0.054537661373615265,
        0.009663086384534836,
        0.1884208768606186,
        -0.06293364614248276,
        -0.0933944433927536,
        0.19836148619651794,
        -0.20751835405826569,
        -0.11076213419437408,
        0.08852902799844742,
        -0.005763340275734663,
        -0.01806820183992386,
        -0.18362945318222046,
        -0.009888316504657269,
        0.02333100140094757,
        -0.0034105803351849318,
        0.06319854408502579,
        0.12537841498851776,
        -0.14608782529830933,
        0.0372115783393383,
        0.03981827571988106,
        0.19896194338798523,
        0.13955749571323395,
        0.1340804547071457,
        -0.06558722257614136,
        0.08396179229021072,
        -0.012742916122078896,
        0.020759977400302887,
        -0.13904120028018951,
        0.0635887160897255,
        0.11191774904727936,
        -0.14421413838863373,
        -0.1332748383283615,
        -0.0022405891213566065,
        -0.19332930445671082,
        -0.053325459361076355,
        0.2049662172794342,
        0.014379031956195831,
        -0.1611604243516922,
        0.21586287021636963,
        -0.12308142334222794,
        -0.07725647836923599,
        -0.023839453235268593,
        -0.08221260458230972,
        0.12051580846309662,
        -0.26189589500427246,
        -0.07809875905513763,
        -0.15880762040615082,
        0.10643835365772247,
        -0.09305091202259064,
        0.21007639169692993,
        -0.21998941898345947,
        -0.04433579370379448,
        0.2687499523162842,
        -0.15623041987419128,
        0.07331246882677078,
        0.17885717749595642,
        -0.2448084056377411,
        0.15886850655078888,
        -0.12760622799396515,
        0.0830688402056694,
        0.043279338628053665,
        -0.01676730439066887,
        -0.15788482129573822,
        0.007119991350919008,
        -0.03341341391205788,
        0.14026206731796265,
        -0.0003413926751818508,
        0.16406135261058807,
        -0.18647179007530212,
        -0.0029634081292897463,
        -0.2622278928756714,
        0.17771370708942413,
        0.0770268365740776,
        0.23493903875350952,
        -0.20767179131507874,
        -0.06550880521535873,
        0.014355674386024475,
        -0.20366542041301727,
        -0.11782043427228928,
        0.1923646330833435,
        -0.181969553232193,
        -0.043422631919384,
        0.1408810317516327,
        -0.0068434919230639935,
        -0.1627773493528366,
        0.024389144033193588,
        -0.20021101832389832,
        0.1744220107793808,
        0.15514451265335083,
        0.09809257835149765,
        0.13836731016635895,
        0.07602804154157639,
        -0.10868293792009354,
        -0.14364780485630035,
        -0.11943916976451874,
        0.03651807829737663,
        0.1159520223736763,
        0.15941749513149261,
        -0.1884251832962036,
        0.036035094410181046,
        0.24745778739452362,
        -0.19447621703147888,
        0.09322956949472427,
        0.2683173418045044,
        -0.0248822383582592,
        -0.11411280184984207,
        -0.21467700600624084,
        0.13296112418174744,
        -0.033960916101932526,
        0.004595630336552858,
        -0.14142239093780518,
        -0.12980374693870544,
        -0.1282023936510086,
        0.1977943480014801,
        0.06288015097379684,
        0.13978765904903412,
        -0.08275742083787918,
        -0.1763395518064499,
        -0.03604060783982277,
        0.008889827877283096,
        0.030117955058813095,
        0.1508762240409851,
        -0.05233846232295036,
        0.21639896929264069,
        0.09111994504928589,
        -0.06117949262261391,
        0.18585284054279327,
        -0.007261301856487989,
        0.025769704952836037,
        -0.007309796754270792,
        0.1361207813024521,
        -0.09562606364488602,
        0.022207438945770264,
        0.14268487691879272,
        0.040775083005428314,
        0.03873377665877342,
        -0.0012250167783349752,
        -0.14089448750019073,
        -0.06324812024831772,
        -0.005102231167256832,
        0.135615274310112,
        -0.15881173312664032,
        0.01622781902551651,
        -0.11646359413862228,
        0.1290244609117508,
        0.0019038078607991338,
        0.2495766431093216,
        0.003928822465240955,
        -0.14182941615581512,
        0.23369573056697845,
        0.18450075387954712,
        -0.05813585966825485,
        0.1325996220111847,
        -0.11831369996070862,
        -0.08112308382987976,
        -0.12713931500911713,
        -0.09290001541376114,
        -0.26011592149734497,
        0.21571402251720428,
        -0.14778032898902893,
        0.07932880520820618,
        -0.15108589828014374,
        0.06829185038805008,
        -0.14401982724666595,
        0.01595407724380493,
        0.06694985926151276,
        0.12089232355356216,
        -0.06699854135513306,
        0.007146609481424093,
        -0.050534430891275406,
        0.16249233484268188,
        0.07377785444259644,
        -0.17425893247127533,
        0.25758829712867737,
        0.09845475107431412,
        -0.10372747480869293,
        0.16204191744327545,
        -0.03552721068263054,
        0.0025506792590022087,
        0.08008377254009247,
        0.12054922431707382,
        -0.14027060568332672,
        0.12340598553419113,
        0.07285965234041214,
        -0.1311936229467392,
        0.11530476063489914,
        -0.09561420232057571,
        -0.13184837996959686,
        0.14733953773975372,
        0.33772164583206177,
        0.2113606333732605,
        -0.111972875893116,
        -0.3926941454410553,
        -0.1728866547346115,
        0.15714336931705475,
        -0.317241907119751,
        -0.0875314474105835,
        0.20016168057918549,
        -0.3470075726509094,
        -0.1487598419189453,
        0.1540430188179016,
        0.15916407108306885,
        0.06158289313316345,
        -0.061806611716747284,
        -0.21356412768363953,
        -0.05661308765411377,
        0.13409842550754547,
        0.3928949534893036,
        0.2282145768404007,
        -0.08387444168329239,
        0.0040601696819067,
        -0.06064489856362343,
        0.044963687658309937,
        0.10101895034313202,
        0.25273922085762024,
        -0.04286136105656624,
        -0.3403315544128418,
        -0.06512562185525894,
        0.23147335648536682,
        -0.1344686895608902,
        -0.03722284361720085,
        0.1893663853406906,
        -0.30016979575157166,
        -0.19532746076583862,
        0.22408564388751984,
        -0.18668954074382782,
        -0.2353488653898239,
        0.22585788369178772,
        -0.1884688138961792,
        -0.0665857270359993,
        0.004062456078827381,
        0.0491006076335907,
        -0.06381233781576157,
        0.1952810287475586,
        -0.11014028638601303,
        0.279304176568985,
        -0.14967800676822662,
        0.1403874158859253,
        -0.19891460239887238,
        0.22963279485702515,
        -0.15901054441928864,
        0.20016570389270782,
        -0.23958246409893036,
        -0.20612119138240814,
        0.039599739015102386,
        -0.03411199524998665,
        -0.010310092940926552,
        0.27857545018196106,
        -0.0526408925652504,
        0.003866196610033512,
        -0.22806446254253387,
        0.20528143644332886,
        -0.17383256554603577,
        0.31126201152801514,
        -0.295183002948761,
        -0.003370577935129404,
        -0.28652670979499817,
        0.06893129646778107,
        0.0035240119323134422,
        0.27415287494659424,
        -0.10660065710544586,
        0.16214466094970703,
        -0.03138760104775429,
        0.10545484721660614,
        0.0010774418478831649,
        0.28091996908187866,
        -0.10304220765829086,
        0.036424074321985245,
        0.20336446166038513,
        -0.09507208317518234,
        -0.1138637438416481,
        0.22390690445899963,
        -0.12997987866401672,
        -0.10384099930524826,
        0.06508045643568039,
        -0.23181520402431488,
        -0.19603313505649567,
        0.23275448381900787,
        -0.0670265480875969,
        0.011646106839179993,
        0.18649372458457947,
        0.014205061830580235,
        0.13053038716316223,
        -0.12446919083595276,
        0.1327863335609436,
        0.11824334412813187,
        0.19007477164268494,
        -0.27681824564933777,
        0.1363682597875595,
        -0.041926540434360504,
        0.10467506945133209,
        0.083808533847332,
        -0.21908265352249146,
        0.13682976365089417,
        0.14585146307945251,
        -0.11867263913154602,
        0.07389373332262039,
        -0.10388372838497162,
        0.054014675319194794,
        -0.22602568566799164,
        0.050125304609537125,
        0.005669870413839817,
        0.18730133771896362,
        -0.09381840378046036,
        0.1400209665298462,
        -0.09026329964399338,
        0.1167498379945755,
        -0.24070458114147186,
        0.1830638349056244,
        -0.10349002480506897,
        0.07579140365123749,
        -0.1094541996717453,
        -0.096865713596344,
        -0.07763367146253586,
        0.2894781827926636,
        0.05134474113583565,
        -0.20625315606594086,
        0.13557647168636322,
        0.03233864903450012,
        -0.2491728514432907,
        0.22902989387512207,
        -0.12411276251077652,
        -0.27141013741493225,
        0.01722797192633152,
        -0.007290614768862724,
        -0.023374425247311592,
        0.03749678656458855,
        0.1748036891222,
        -0.16429376602172852,
        0.23101264238357544,
        0.08023159205913544,
        -0.27290740609169006,
        0.34195125102996826,
        0.04815816134214401,
        0.3130439817905426,
        -0.05728858336806297,
        -0.07562119513750076,
        -0.06195453554391861,
        0.13574115931987762,
        0.08793357759714127,
        -0.2842867374420166,
        0.08356152474880219,
        -0.10428780317306519,
        -0.221013143658638,
        0.16907629370689392,
        -0.14884211122989655,
        0.17665636539459229,
        -0.07520069181919098,
        0.12846721708774567,
        -0.17270752787590027,
        0.13960382342338562,
        -0.06539597362279892,
        0.22635126113891602,
        0.019427886232733727,
        0.150181382894516,
        -0.10420404374599457,
        0.2651813328266144,
        -0.15914183855056763,
        0.035094261169433594,
        -0.06565534323453903,
        -0.054382164031267166,
        -0.08537163585424423,
        0.03558915853500366,
        -0.0179759431630373,
        -0.2746899127960205,
        0.2187694013118744,
        0.0038166188169270754,
        -0.059135958552360535,
        0.21284154057502747,
        0.10177024453878403,
        -0.15948529541492462,
        0.07531452924013138,
        0.0036719264462590218,
        -0.13689666986465454,
        0.2038402557373047,
        0.0028609863948076963,
        0.0596376396715641,
        0.1853550225496292,
        -0.22540651261806488,
        -0.08980797976255417,
        0.1804456263780594,
        0.2638431489467621,
        -0.06923098117113113,
        0.039637647569179535,
        -0.05564805865287781,
        0.027226582169532776,
        0.1933077871799469,
        -0.2026432603597641,
        -0.008243695832788944,
        0.13207897543907166,
        -0.16434112191200256,
        -0.0033843619748950005,
        0.027141107246279716,
        0.2392682582139969,
        -0.0013356541749089956,
        -0.0857367292046547,
        -0.007493871264159679,
        0.07650729268789291,
        0.009595883078873158,
        0.1358606517314911,
        0.13797667622566223,
        -0.08863718807697296,
        -0.033393409103155136,
        -0.016514860093593597,
        0.16358648240566254,
        -0.007727702148258686,
        -0.0577903613448143,
        -0.17846764624118805,
        0.027615776285529137,
        -0.07394067198038101,
        0.0929751768708229,
        -0.20581041276454926,
        0.0716826468706131,
        0.18892738223075867,
        -0.23326373100280762,
        -0.1717754304409027,
        -0.03477415814995766,
        -0.12759976089000702,
        -0.09479974210262299,
        -0.02743559144437313,
        -0.17031680047512054,
        -0.02516311965882778,
        -0.004905384965240955,
        -0.06595459580421448,
        -0.03513370826840401,
        -0.000233073064009659,
        -0.0778828039765358,
        0.12770916521549225,
        -0.06156974658370018,
        0.1666070967912674,
        -0.0036266406532377005,
        0.12436904013156891,
        -0.2902756929397583,
        -0.1846858710050583,
        0.16966523230075836,
        -0.23990678787231445,
        -0.011625820770859718,
        0.01715986430644989,
        -0.18500709533691406,
        -0.07661407440900803,
        0.11008217930793762,
        0.15109367668628693,
        -0.11104615777730942,
        -0.09190262109041214,
        -0.08557408303022385,
        0.07987607270479202,
        -0.06357772648334503,
        0.282640278339386,
        0.008517351001501083,
        -0.056635044515132904,
        0.044254645705223083,
        0.09144923090934753,
        0.2251993864774704,
        0.20019377768039703,
        -0.02951396442949772,
        -0.15525028109550476,
        -0.13839232921600342,
        0.09617048501968384,
        -0.0012276869965717196,
        -0.2983706295490265,
        -0.001419431297108531,
        0.1406223624944687,
        -0.19078977406024933,
        -0.1605263650417328,
        -0.1003543883562088,
        -0.11547790467739105,
        -0.057217493653297424,
        -0.04963413625955582,
        -0.11429714411497116,
        0.011769652366638184,
        0.13745354115962982,
        0.12560345232486725,
        -0.026323264464735985,
        -0.04107729345560074,
        -0.24156562983989716,
        0.1110215038061142,
        0.16531306505203247,
        0.16108237206935883,
        -0.04957185685634613,
        0.04754180833697319,
        0.03968605771660805,
        0.056279201060533524,
        -0.027671385556459427,
        -0.1420612335205078,
        -0.16503652930259705,
        0.23148322105407715,
        -0.15895205736160278,
        -0.13750967383384705,
        0.16200873255729675,
        0.034393761307001114,
        -0.031548935920000076,
        -0.08907072246074677,
        -0.16129271686077118,
        -0.1910312920808792,
        0.12914395332336426,
        0.019411349669098854,
        0.1165643259882927,
        0.030025627464056015,
        0.014700101688504219,
        0.036739058792591095,
        0.2689323127269745,
        0.07330889999866486,
        -0.031714390963315964,
        0.011792353354394436,
        -0.03104119934141636,
        -0.18619295954704285,
        0.07320942729711533,
        -0.20033571124076843,
        0.04517582058906555,
        0.05003369599580765,
        -0.2183695137500763,
        -0.07576296478509903,
        0.18723078072071075,
        -0.051320936530828476,
        -0.024657517671585083,
        0.10216794162988663,
        -0.03043358027935028,
        -0.10203567147254944,
        0.030890213325619698,
        -0.2508593797683716,
        -0.1867203712463379,
        0.07344185560941696,
        -0.28293848037719727,
        0.12353819608688354,
        0.028715141117572784,
        0.22160346806049347,
        -0.16200441122055054,
        0.15867024660110474,
        -0.2833177447319031,
        0.20543703436851501,
        -0.12084460258483887,
        -0.23182542622089386,
        0.16038082540035248,
        -0.0671783834695816,
        -0.09303354471921921,
        -0.031120846047997475,
        -0.14487813413143158,
        0.1686452180147171,
        -0.04397938400506973,
        0.17385324835777283,
        -0.23039443790912628,
        0.12761780619621277,
        -0.062035974115133286,
        0.16706839203834534,
        0.027779238298535347,
        -0.10196617245674133,
        -0.17265218496322632,
        0.23237334191799164,
        0.0051317354664206505,
        0.280557781457901,
        -0.14837513864040375,
        0.09972397238016129,
        -0.32347139716148376,
        0.07229577749967575,
        -0.02175213024020195,
        -0.1873140186071396,
        0.10304515063762665,
        0.06587739288806915,
        -0.21898484230041504,
        0.07615301758050919,
        0.09170086681842804,
        -0.24216976761817932,
        0.20114314556121826,
        -0.11116112768650055,
        -0.22484824061393738,
        0.05920428782701492,
        0.04105263948440552,
        -0.06701374799013138,
        0.0336008220911026,
        -0.136040598154068,
        0.30676597356796265,
        -0.013339035212993622,
        0.022356640547513962,
        -0.425527960062027,
        0.08116947114467621,
        0.16181550920009613,
        0.33977052569389343,
        -0.14006967842578888,
        0.06134648248553276,
        0.21628253161907196,
        0.03135346248745918,
        -0.01736678183078766,
        0.26509585976600647,
        0.05551395192742348,
        -0.15508624911308289,
        -0.2566593885421753,
        -0.07821260392665863,
        -0.013205993920564651,
        0.16992007195949554,
        0.06751412898302078,
        -0.11098548769950867,
        -0.23156188428401947,
        -0.019885139539837837,
        -0.03102976828813553,
        0.08054350316524506,
        -0.1933259665966034,
        0.05252332240343094,
        -0.32791730761528015,
        0.031878042966127396,
        0.10475748777389526,
        0.403886616230011,
        0.10793286561965942,
        0.06416729092597961,
        0.24444948136806488,
        0.0064886389300227165,
        -0.0883849561214447,
        0.2431461662054062,
        0.03386833518743515,
        0.09649786353111267,
        0.21211044490337372,
        0.09221398085355759,
        -0.10622522979974747,
        0.29678747057914734,
        0.12089921534061432,
        -0.060563284903764725,
        0.09999372065067291,
        -0.20965740084648132,
        0.0065799797885119915,
        0.17523238062858582,
        -0.4157490134239197,
        0.1580650359392166,
        -0.2471158653497696,
        0.1396869719028473,
        -0.06192374601960182,
        0.2341763973236084,
        -0.31673651933670044,
        0.11829813569784164,
        0.24926258623600006,
        -0.16849634051322937,
        -0.01907811500132084,
        0.13412316143512726,
        -0.2966555953025818,
        -0.04041874408721924,
        -0.2098676562309265,
        0.3601652681827545,
        -0.012807074934244156,
        0.18487706780433655,
        -0.2733435034751892,
        0.056618377566337585,
        -0.017896290868520737,
        0.19672469794750214,
        -0.1591627597808838,
        0.20560632646083832,
        -0.1966797411441803,
        -0.033618178218603134,
        0.027572741732001305,
        0.32925012707710266,
        -0.14216077327728271,
        0.08709578216075897,
        -0.1424688994884491,
        -0.058342233300209045,
        0.13587328791618347,
        -0.18123656511306763,
        -0.02547711320221424,
        0.2027924358844757,
        -0.18887081742286682,
        0.14367477595806122,
        0.0381341315805912,
        -0.11139369010925293,
        -0.024463312700390816,
        0.28888124227523804,
        -0.384553998708725,
        -0.051583193242549896,
        0.25491926074028015,
        -0.22086189687252045,
        0.14956383407115936,
        -0.053885944187641144,
        0.0019670359324663877,
        -0.2464856505393982,
        -0.03877400606870651,
        0.17508946359157562,
        -0.03519510477781296,
        -0.1935112476348877,
        0.03071189485490322,
        0.07164670526981354,
        -0.0164822805672884,
        -0.07139446586370468,
        -0.15704768896102905,
        -0.2120431661605835,
        -0.131957545876503,
        0.06281875818967819,
        -0.03222938999533653,
        0.4985714256763458,
        -0.2649638056755066,
        0.6732866168022156,
        -0.6089027523994446,
        0.07177769392728806,
        0.7076186537742615,
        0.8968794941902161,
        -0.43422189354896545,
        0.024795617908239365,
        0.0015999695751816034,
        -0.5361568927764893,
        -0.3714842200279236,
        0.18142323195934296,
        -0.6842744946479797,
        0.19949454069137573,
        0.37754225730895996,
        -0.17393381893634796,
        0.19178609549999237,
        -0.1783328801393509,
        0.19358192384243011,
        0.34807226061820984,
        -0.026964548975229263,
        0.1290421038866043,
        -0.023844001814723015,
        0.09612671285867691,
        0.04664323106408119,
        -0.004793591797351837,
        -0.15136827528476715,
        -0.03467739000916481,
        0.031557679176330566,
        0.15846897661685944,
        -0.1200755387544632,
        0.15769295394420624,
        -0.0788760557770729,
        -0.13311658799648285,
        -0.2291536182165146,
        0.14523859322071075,
        0.0055258315987885,
        -0.2343357503414154,
        -0.3046300411224365,
        0.1003057062625885,
        0.24088019132614136,
        -0.1605064868927002,
        -0.15771101415157318,
        0.08183018118143082,
        -0.3606417775154114,
        0.2593168318271637,
        0.5221078395843506,
        0.06696083396673203,
        -0.01236601173877716,
        0.0965348482131958,
        -0.11210750043392181,
        -0.14827175438404083,
        -0.018324658274650574,
        0.2123524248600006,
        -0.5929868221282959,
        0.3314940631389618,
        0.1027684286236763,
        0.15238407254219055,
        -0.17090754210948944,
        0.14897498488426208,
        0.11466077715158463,
        0.12763608992099762,
        0.22710257768630981,
        0.25605177879333496,
        -0.10582548379898071,
        0.0012592283310368657,
        -0.31087300181388855,
        -0.10095195472240448,
        0.14808979630470276,
        0.14367781579494476,
        -0.09971170127391815,
        -0.1672510802745819,
        0.02437550760805607,
        -0.0051445853896439075,
        -0.00011521538544911891,
        0.18034762144088745,
        0.2386564165353775,
        -0.23548905551433563,
        0.06519167125225067,
        -0.05633261799812317,
        -0.23167726397514343,
        -0.24200810492038727,
        0.05008189380168915,
        0.1898060142993927,
        0.12190090864896774,
        0.15908730030059814,
        -0.36349737644195557,
        0.11753007769584656,
        0.17653995752334595,
        -0.21916408836841583,
        0.1610889583826065,
        -0.046058643609285355,
        0.004628341645002365,
        -0.016756923869252205,
        0.2807932496070862,
        -0.3719104528427124,
        0.010925567708909512,
        0.0672881230711937,
        -0.047920167446136475,
        0.22401371598243713,
        0.192066490650177,
        0.23760651051998138,
        -0.12147307395935059,
        0.25282979011535645,
        0.03199567645788193,
        -0.1355201005935669,
        -0.12424277514219284,
        -0.088872529566288,
        -0.29128792881965637,
        0.235849991440773,
        0.25052961707115173,
        0.35196614265441895,
        0.25460508465766907,
        0.1404864341020584,
        0.6517369747161865,
        0.02429148368537426,
        -0.18202261626720428,
        0.31207865476608276,
        0.7161508798599243,
        -0.5752013325691223,
        -0.69953852891922,
        -0.36615216732025146,
        0.10623157024383545,
        0.17157477140426636,
        -0.06454107910394669,
        0.16286388039588928,
        -0.6123788952827454,
        0.09173231571912766,
        0.11143149435520172,
        0.16535446047782898,
        -0.09486116468906403,
        -0.15944702923297882,
        0.048748694360256195,
        0.12568502128124237,
        0.04785855859518051,
        0.1921033263206482,
        -0.19884324073791504,
        0.14174990355968475,
        -0.24414803087711334,
        0.007925668731331825,
        -0.17728856205940247,
        -0.018108511343598366,
        0.09784480184316635,
        -0.04129169136285782,
        -0.015037957578897476,
        -0.16808870434761047,
        -0.24753588438034058,
        0.09299840033054352,
        0.013282213360071182,
        -0.16057829558849335,
        -0.05131269991397858,
        -0.19467337429523468,
        -0.15696921944618225,
        0.10482410341501236,
        0.038961414247751236,
        0.06709062308073044,
        -0.15615369379520416,
        0.08659916371107101,
        -0.05370600149035454,
        -0.16899754106998444,
        -0.01298497337847948,
        0.28070205450057983,
        -0.3132357895374298,
        -0.39858636260032654,
        -0.05609937757253647,
        0.2718554735183716,
        -0.35393795371055603,
        0.1346704661846161,
        0.24901458621025085,
        0.2207338809967041,
        0.3022100627422333,
        0.3199160099029541,
        0.17389412224292755,
        -0.24154850840568542,
        0.16103729605674744,
        0.12430673837661743,
        0.23291294276714325,
        -0.16370466351509094,
        0.05684136226773262,
        -0.116132453083992,
        -0.17074571549892426,
        0.15872518718242645,
        -0.16853100061416626,
        0.051756858825683594,
        -0.12933169305324554,
        -0.1389232873916626,
        -0.0720146968960762,
        -0.06706354767084122,
        0.09326986223459244,
        -0.003120364621281624,
        0.200587660074234,
        -0.10150591284036636,
        -0.0966838076710701,
        0.1122579574584961,
        0.12964540719985962,
        0.005207494366914034,
        -0.08809848129749298,
        0.08370978385210037,
        0.32213711738586426,
        -0.06714130192995071,
        -0.2600366175174713,
        0.12444468587636948,
        -0.09115662425756454,
        -0.059523262083530426,
        0.39490532875061035,
        -0.29324430227279663,
        -0.5823789238929749,
        -0.07167308032512665,
        -0.08928629755973816,
        0.10092472285032272,
        -0.06870844215154648,
        0.005937052890658379,
        -0.10768696665763855,
        0.05179568752646446,
        0.32459989190101624,
        0.18977314233779907,
        -0.0009295988129451871,
        0.01081992220133543,
        0.14248837530612946,
        0.19648276269435883,
        -0.02044922672212124,
        -0.22336547076702118,
        -0.06013154983520508,
        -0.11414546519517899,
        -0.177104651927948,
        -0.10604394227266312,
        0.14572295546531677,
        -0.14721675217151642,
        0.1855488270521164,
        0.2684965431690216,
        0.11559615284204483,
        0.012770973145961761,
        -0.03343361243605614,
        0.0844099298119545,
        0.08876106142997742,
        -0.155587837100029,
        0.07837922126054764,
        -0.21080058813095093,
        0.061573855578899384,
        -0.05418866500258446,
        0.27631524205207825,
        -0.128403440117836,
        0.0045218500308692455,
        0.21266156435012817,
        0.06339675188064575,
        0.2290157526731491,
        0.28740131855010986,
        -0.26771944761276245,
        0.054996151477098465,
        -0.026950793340802193,
        -0.08667165040969849,
        0.09104406833648682,
        0.32266369462013245,
        -0.14490249752998352,
        -0.39424189925193787,
        0.2748718857765198,
        0.10845288634300232,
        0.13951967656612396,
        -0.06471096724271774,
        -0.0542568638920784,
        0.19636674225330353,
        0.08310310542583466,
        0.32670173048973083,
        -0.2127506285905838,
        -0.27793562412261963,
        -0.10145502537488937,
        -0.22647729516029358,
        0.03719016909599304,
        0.19990544021129608,
        0.01955454982817173,
        -0.008306778967380524,
        0.34862855076789856,
        -0.13931645452976227,
        0.2803703546524048,
        -0.12876786291599274,
        -0.2087153196334839,
        -0.07328542321920395,
        0.1256101280450821,
        -0.16496886312961578,
        0.12128885835409164,
        -0.24436789751052856,
        0.06622394919395447,
        0.025287507101893425,
        0.14495770633220673,
        0.11135527491569519,
        0.058473534882068634,
        0.12722328305244446,
        0.060995373874902725,
        -0.12232568114995956,
        -0.0007917620241641998,
        0.2580825686454773,
        -0.16811075806617737,
        0.037079665809869766,
        0.0679384246468544,
        0.095216304063797,
        0.11772356927394867,
        -0.23800386488437653,
        -0.01013210229575634,
        -0.02097015269100666,
        -0.14934563636779785,
        -0.030251847580075264,
        -0.002386427251622081,
        0.17651325464248657,
        -0.11060784757137299,
        0.0962207019329071,
        -0.19937998056411743,
        -0.12034480273723602,
        0.19854865968227386,
        0.023762667551636696,
        0.04006735980510712,
        -0.11287850141525269,
        0.036917559802532196,
        -0.004181915894150734,
        -0.08138471841812134,
        -0.18170344829559326,
        0.15603695809841156,
        -0.0639185979962349,
        -0.10489428788423538,
        -0.1475728154182434,
        -0.012184297665953636,
        -0.25871506333351135,
        0.00014364381786435843,
        0.05645294114947319,
        -0.13610078394412994,
        0.008368867449462414,
        -0.0827602818608284,
        -0.11634194105863571,
        0.18507252633571625,
        0.023686321452260017,
        -0.2552044093608856,
        0.039318155497312546,
        -0.0028861782047897577,
        0.08967369794845581,
        -0.08139631897211075,
        0.02082115039229393,
        -0.012224533595144749,
        0.0984208807349205,
        0.13970156013965607,
        -0.0998130589723587,
        0.055997516959905624,
        0.12553969025611877,
        -0.2637327313423157,
        -0.22742949426174164,
        0.011202520690858364,
        -0.12350838631391525,
        -0.02492206171154976,
        -0.11755350977182388,
        0.10042687505483627,
        -0.15431547164916992,
        0.1439787596464157,
        0.10170362144708633,
        0.007401353679597378,
        0.14268048107624054,
        0.1571316421031952,
        0.09668298065662384,
        -0.10952150076627731,
        0.15945959091186523,
        -0.05604800209403038,
        -0.005274982191622257,
        -0.15184909105300903,
        -0.0033329948782920837,
        -0.03205689787864685,
        0.12618356943130493,
        -0.0459786094725132,
        -0.15746700763702393,
        0.02581706829369068,
        0.1013098955154419,
        0.04887324944138527,
        -0.15867745876312256,
        -0.014190297573804855,
        0.04100802168250084,
        -0.24118930101394653,
        -0.1601451188325882,
        -0.04714883118867874,
        -0.17029747366905212,
        -0.15734252333641052,
        -0.1038389578461647,
        -0.16710297763347626,
        -0.08565133810043335,
        -0.10753793269395828,
        0.02467251755297184,
        0.21486325562000275,
        -0.2374301701784134,
        -0.179013192653656,
        -0.32782790064811707,
        -0.061717938631772995,
        0.41437602043151855,
        0.06354746222496033,
        -0.1395680159330368,
        -0.07817316055297852,
        -0.06722590327262878,
        -0.013072474859654903,
        0.10964356362819672,
        0.11256524175405502,
        -0.004643203690648079,
        0.08761774748563766,
        0.09184806793928146,
        0.049632247537374496,
        0.062069520354270935,
        -0.12987838685512543,
        -0.07562585920095444,
        -0.07692226767539978,
        -0.2037246823310852,
        -0.10382426530122757,
        -0.05058726295828819,
        -0.01883331872522831,
        0.07894157618284225,
        0.00693525280803442,
        -0.2343958616256714,
        -0.04192725569009781,
        -0.07091725617647171,
        0.2782278060913086,
        -0.07994884997606277,
        -0.1601593941450119,
        -0.2981497347354889,
        0.02326890081167221,
        -0.15122149884700775,
        0.0493292361497879,
        0.2374088317155838,
        0.02848675101995468,
        0.014163493178784847,
        0.030903588980436325,
        -0.1838056892156601,
        -0.03951640427112579,
        0.046744074672460556,
        -0.37776699662208557,
        0.026789851486682892,
        0.17062141001224518,
        -0.14935506880283356,
        0.05696386471390724,
        0.19836334884166718,
        -0.21859923005104065,
        0.028126809746026993,
        0.013979692943394184,
        -0.2830067574977875,
        0.25710538029670715,
        0.11770028620958328,
        -0.048878103494644165,
        -0.4131580889225006,
        -0.2346777319908142,
        0.18331702053546906,
        -0.0003771681513171643,
        -0.17737576365470886,
        0.12235596030950546,
        -0.1977376490831375,
        -0.00273394794203341,
        -0.10611721873283386,
        0.3272130489349365,
        0.013668973930180073,
        0.08878335356712341,
        0.21120066940784454,
        -0.05727275460958481,
        -0.05155051127076149,
        0.04449046030640602,
        0.09332301467657089,
        -0.07028038799762726,
        -0.10080745071172714,
        -0.009588614106178284,
        0.29219967126846313,
        -0.25441354513168335,
        0.05346919223666191,
        0.012943744659423828,
        -0.04375607520341873,
        -0.004885585978627205,
        0.016425076872110367,
        -0.267128586769104,
        0.009074327535927296,
        0.09011584520339966,
        -0.01210777647793293,
        -0.05272321403026581,
        0.22075389325618744,
        -0.3066701889038086,
        -0.21574652194976807,
        -0.027693353593349457,
        -0.11804695427417755,
        0.048044778406620026,
        -0.0204062070697546,
        0.18575574457645416,
        0.012064149603247643,
        -0.03452635183930397,
        -0.26778745651245117,
        -0.0668880045413971,
        0.13361497223377228,
        0.005734469275921583,
        -0.10957814007997513,
        -0.29169994592666626,
        0.10386981070041656,
        0.0008800497744232416,
        -0.2206449806690216,
        0.1562047302722931,
        0.15947888791561127,
        -0.20492751896381378,
        0.11995156854391098,
        -0.11947006732225418,
        -0.27936241030693054,
        0.09406394511461258,
        -0.151900514960289,
        0.20322291553020477,
        -0.3357519209384918,
        -0.03997747600078583,
        0.031862352043390274,
        0.2665412127971649,
        0.1795530468225479,
        0.16850101947784424,
        -0.12452376633882523,
        -0.08397805690765381,
        -0.17123249173164368,
        0.15433543920516968,
        0.12763658165931702,
        0.16059234738349915,
        -0.2132844179868698,
        -0.05244845151901245,
        0.10804253071546555,
        0.008818049915134907,
        0.22077389061450958,
        -0.19514022767543793,
        -0.17507979273796082,
        0.12445487082004547,
        -0.05087907984852791,
        0.11450909078121185,
        0.14200469851493835,
        0.08396731317043304,
        -0.3355868458747864,
        -0.12563826143741608,
        0.15360525250434875,
        -0.2198551893234253,
        -0.05204206705093384,
        -0.0987592488527298,
        0.026227781549096107,
        -0.08639639616012573,
        -0.3964376151561737,
        0.21114680171012878,
        0.11104992032051086,
        0.032116733491420746,
        -0.16552510857582092,
        -0.027850786224007607,
        0.05056679621338844,
        -0.03901941329240799,
        -0.017509886994957924,
        0.05986442789435387,
        -0.0759449228644371,
        0.08517725020647049,
        0.07412935793399811,
        0.07980240881443024,
        0.19253553450107574,
        0.1438828408718109,
        0.061117351055145264,
        -0.046109266579151154,
        0.16531537473201752,
        -0.09481014311313629,
        0.22193723917007446,
        0.011656442657113075,
        0.18218420445919037,
        -0.10886131972074509,
        0.2286156266927719,
        -0.21657982468605042,
        -0.03299511596560478,
        0.005665403325110674,
        0.1024097204208374,
        0.03732116147875786,
        0.24131996929645538,
        -0.2656293511390686,
        -0.13383884727954865,
        0.1383029818534851,
        -0.043022945523262024,
        -0.10168775171041489,
        0.1299256980419159,
        -0.19758883118629456,
        0.04768234118819237,
        0.07147744297981262,
        0.1398051232099533,
        -0.2506365180015564,
        -0.08433082699775696,
        0.1060098335146904,
        -0.033034663647413254,
        0.07766187936067581,
        0.03450949490070343,
        0.13137058913707733,
        0.3372349143028259,
        0.20832324028015137,
        -0.05234461650252342,
        0.10721465945243835,
        -0.013311583548784256,
        0.2646908164024353,
        -0.0012667253613471985,
        -0.028142323717474937,
        -0.03421934321522713,
        -0.24499355256557465,
        0.0700034499168396,
        -0.1901107281446457,
        -0.035272736102342606,
        0.0011384196113795042,
        -0.06770611554384232,
        -0.061055995523929596,
        -0.1724316030740738,
        0.1289980262517929,
        -0.10444485396146774,
        0.10577012598514557,
        -0.13866539299488068,
        0.1488068401813507,
        -0.09037232398986816,
        0.052659135311841965,
        -0.020377174019813538,
        0.11856815963983536,
        -0.07030504941940308,
        0.08568613976240158,
        -0.13313531875610352,
        0.14002737402915955,
        -0.25483348965644836,
        -0.0016060179332271218,
        0.05644562467932701,
        0.08567436784505844,
        0.0902542918920517,
        0.2262018471956253,
        -0.13425490260124207,
        0.0734105035662651,
        -0.08580542355775833,
        -0.2974551320075989,
        -0.10260561108589172,
        0.05693809688091278,
        -0.08806426078081131,
        -0.04616719111800194,
        0.11967691034078598,
        -0.20192070305347443,
        -0.0714101493358612,
        0.03507169336080551,
        0.3821793496608734,
        -0.10258631408214569,
        -0.027385467663407326,
        -0.3793907165527344,
        -0.11478327214717865,
        0.10898151248693466,
        -0.0915062353014946,
        0.014802975580096245,
        -0.021135685965418816,
        -0.0705176368355751,
        -0.11205897480249405,
        -0.1696653515100479,
        0.17359894514083862,
        -0.30401065945625305,
        -0.04302492365241051,
        -0.10625924170017242,
        -0.128513902425766,
        -0.15545904636383057,
        0.07449591159820557,
        0.019141091033816338,
        -0.04991601034998894,
        0.06845112144947052,
        -0.17363275587558746,
        0.19707685708999634,
        0.10195320844650269,
        0.2161884903907776,
        -0.03446482494473457,
        0.06409181654453278,
        -0.21408066153526306,
        0.0003515000862535089,
        -0.3540033996105194,
        0.09359816461801529,
        -0.03325346112251282,
        -0.22059385478496552,
        -0.0059095025062561035,
        -0.03249889984726906,
        -0.2694202661514282,
        -0.0015150303952395916,
        -0.1258772909641266,
        -0.2404828816652298,
        -0.01929035410284996,
        -0.1377018690109253,
        -0.0544327087700367,
        -0.03200717642903328,
        0.031125809997320175,
        0.26790523529052734,
        0.18455065786838531,
        0.08281967043876648,
        -0.04538312926888466,
        -0.08731087297201157,
        -0.2753627896308899,
        0.4370831251144409,
        0.2949525713920593,
        0.38631558418273926,
        0.0458366721868515,
        -0.01996755413711071,
        0.011605411767959595,
        0.03999048471450806,
        0.0556941032409668,
        0.043170057237148285,
        -0.10467986017465591,
        0.030946852639317513,
        -0.3144772946834564,
        -0.039436984807252884,
        -0.2836540639400482,
        0.10000152885913849,
        -0.2904708981513977,
        -0.19896437227725983,
        -0.1047220304608345,
        0.15860186517238617,
        0.018535638228058815,
        0.20323872566223145,
        -0.14651918411254883,
        0.06018594652414322,
        -0.14943479001522064,
        0.2177378088235855,
        -0.06485581398010254,
        -0.059844378381967545,
        -0.10464803874492645,
        -0.1205277070403099,
        0.40450841188430786,
        0.13843879103660583,
        0.25036880373954773,
        0.4560628831386566,
        0.1280600130558014,
        0.08607129007577896,
        0.11165869235992432,
        -0.009219394996762276,
        -0.17279060184955597,
        0.31360363960266113,
        -0.09968579560518265,
        -0.18670104444026947,
        -0.1681714951992035,
        -0.00917965080589056,
        0.02716405689716339,
        -0.045483510941267014,
        -0.07409493625164032,
        0.19579298794269562,
        0.1733158528804779,
        -0.1893927901983261,
        0.005467057228088379,
        -0.10836030542850494,
        -0.05441936478018761,
        0.13651861250400543,
        -0.010456323623657227,
        0.20469708740711212,
        0.0184523556381464,
        -0.061059921979904175,
        -0.004087480716407299,
        -0.03789949789643288,
        0.026704125106334686,
        0.02297578752040863,
        -0.1654811054468155,
        0.13396167755126953,
        0.021729400381445885,
        0.13284166157245636,
        0.26806947588920593,
        -0.16641604900360107,
        0.0652206540107727,
        -0.08582393079996109,
        0.018669236451387405,
        -0.035648610442876816,
        0.1050184965133667,
        -0.19158433377742767,
        -0.07116163522005081,
        -0.009995535016059875,
        -0.13876579701900482,
        -0.25076061487197876,
        0.0028873609844595194,
        -0.15451595187187195,
        -0.22179792821407318,
        -0.2616138458251953,
        -0.11532110720872879,
        0.0577516071498394,
        -0.003976601641625166,
        -0.1480323225259781,
        -0.3056236803531647,
        0.01946578547358513,
        -0.007712625898420811,
        0.018496155738830566,
        -0.0057303523644804955,
        -0.3476519286632538,
        0.16109131276607513,
        -0.14356771111488342,
        -0.5798218846321106,
        -0.029676830396056175,
        0.0031988914124667645,
        0.06687398254871368,
        -0.03680070489645004,
        -0.10573656857013702,
        0.13382849097251892,
        0.005187934264540672,
        -0.061253078281879425,
        0.24027462303638458,
        -0.05272989720106125,
        -0.07518324255943298,
        -0.21626922488212585,
        -0.3330129086971283,
        0.1640310138463974,
        -0.30031973123550415,
        0.14721761643886566,
        0.04288258031010628,
        0.1258668750524521,
        -0.03544436767697334,
        0.0938318595290184,
        -0.3437557816505432,
        0.0654788613319397,
        0.10186325758695602,
        0.3114829361438751,
        -0.25992995500564575,
        -0.06248233839869499,
        -0.18993432819843292,
        0.004609484225511551,
        -0.07435105741024017,
        0.2921042740345001,
        0.27848905324935913,
        -0.23822379112243652,
        0.1430995911359787,
        0.0470014289021492,
        -0.11997361481189728,
        0.35820499062538147,
        -0.07188307493925095,
        -0.10776928812265396,
        0.00029821632779203355,
        0.18599960207939148,
        -0.1564449518918991,
        -0.3131638765335083,
        -0.0933002308011055,
        -0.04027523845434189,
        0.2886829078197479,
        -0.09999782592058182,
        -0.14034010469913483,
        0.06841792166233063,
        -0.04913653805851936,
        -0.05399317294359207,
        0.1001586765050888,
        0.23743575811386108,
        0.04378131777048111,
        -0.050626613199710846,
        0.03743526339530945,
        -0.0302982609719038,
        -0.10897675156593323,
        0.11691628396511078,
        -0.1197667196393013,
        0.004586505703628063,
        0.23340392112731934,
        0.22739994525909424,
        -0.012680933810770512,
        -0.0916573628783226,
        0.28820350766181946,
        0.055654674768447876,
        0.1947930008172989,
        0.14049620926380157,
        0.2392551600933075,
        -0.2181379348039627,
        -0.13765783607959747,
        -0.28826990723609924,
        0.25854599475860596,
        0.07427331060171127,
        0.08348801732063293,
        -0.021304478868842125,
        -0.09025999903678894,
        0.06620532274246216,
        0.07040829956531525,
        -0.03906482458114624,
        0.009319941513240337,
        -0.10726787894964218,
        -0.1558801382780075,
        0.12224335223436356,
        0.10453256219625473,
        -0.053312402218580246,
        0.2990296185016632,
        0.058985255658626556,
        -0.1367471069097519,
        -0.011955869384109974,
        0.021292876452207565,
        0.2198699563741684,
        -0.09331688284873962,
        0.0630846619606018,
        -0.14084888994693756,
        -0.025999274104833603,
        0.20924074947834015,
        -0.025142481550574303,
        0.049140814691782,
        0.03452736511826515,
        -0.04212227463722229,
        0.025554979220032692,
        -0.020408736541867256,
        -0.032744526863098145,
        0.23770006000995636,
        -0.04705839231610298,
        -0.026051335036754608,
        -0.03247462213039398,
        0.10657055675983429,
        0.21002790331840515,
        -0.017934007570147514,
        -0.17223255336284637,
        -0.134006530046463,
        -0.06884650886058807,
        -0.06417924165725708,
        0.10902014374732971,
        -0.17606857419013977,
        0.06136090308427811,
        0.02277662791311741,
        0.02630526013672352,
        -0.003161956323310733,
        -0.0651060938835144,
        0.10012824088335037,
        0.15282803773880005,
        -0.011707345955073833,
        0.07906593382358551,
        -0.44933709502220154,
        -0.10522381216287613,
        0.015877243131399155,
        -0.24376221001148224,
        0.04865216091275215,
        0.03234477713704109,
        -0.11270544677972794,
        -0.11510564386844635,
        0.13016916811466217,
        -0.23867671191692352,
        -0.037774648517370224,
        0.01897881180047989,
        0.05836664140224457,
        -0.10395526885986328,
        -0.3490593731403351,
        -0.0040105232037603855,
        0.12803605198860168,
        -0.0915728211402893,
        0.03624626249074936,
        0.1930249184370041,
        0.13038934767246246,
        -0.17356641590595245,
        -0.12400563061237335,
        0.16156025230884552,
        0.05178961902856827,
        -0.0012934096157550812,
        0.2459855079650879,
        0.019127389416098595,
        0.16243809461593628,
        -0.06776241213083267,
        -0.48229512572288513,
        -0.018129633739590645,
        -0.36736729741096497,
        0.22682125866413116,
        0.14246995747089386,
        0.26191508769989014,
        -0.05059165135025978,
        -0.08137581497430801,
        -0.20227964222431183,
        -0.015724653378129005,
        0.12647029757499695,
        0.3666033446788788,
        -0.18339473009109497,
        0.037867430597543716,
        -0.20833899080753326,
        0.03305523470044136,
        0.029978616163134575,
        -0.19030535221099854,
        0.35417285561561584,
        -0.1365867406129837,
        -0.1730542778968811,
        0.06302816420793533,
        -0.06720193475484848,
        0.2134995013475418,
        0.0729089230298996,
        -0.2873593866825104,
        -0.3251791298389435,
        0.15126188099384308,
        -0.09644626080989838,
        -0.3060082197189331,
        -0.021467719227075577,
        0.11413107812404633,
        -0.01688368059694767,
        0.12350893020629883,
        -0.10604333877563477,
        0.10657375305891037,
        0.4013424515724182,
        0.0010379530722275376,
        0.2635989785194397,
        -0.38871777057647705,
        0.11996842175722122,
        -0.039103176444768906,
        -0.2969730496406555,
        0.05626126751303673,
        -0.008807633072137833,
        -0.09127334505319595,
        0.03927170857787132,
        0.1762269139289856,
        0.20502153038978577,
        0.047405995428562164,
        -0.24631629884243011,
        0.5629521012306213,
        -0.021326810121536255,
        -0.007850135676562786,
        0.13445188105106354,
        0.10574676096439362,
        0.13548840582370758,
        -0.05458088219165802,
        -0.10098502039909363,
        -0.13181309401988983,
        -0.20227879285812378,
        0.20366568863391876,
        0.0655379593372345,
        0.11797214299440384,
        0.04512665048241615,
        -0.1691208928823471,
        -0.2825842499732971,
        -0.1640206128358841,
        0.23910914361476898,
        -0.2928306758403778,
        -0.05473325774073601,
        0.10097847133874893,
        -0.253568559885025,
        0.09619791805744171,
        -0.2681260406970978,
        -0.07418455183506012,
        -0.39947623014450073,
        0.030780449509620667,
        0.27108025550842285,
        -0.03669311851263046,
        -0.024598250165581703,
        0.24552173912525177,
        -0.14832516014575958,
        -0.08967208117246628,
        0.06010882183909416,
        0.06769590079784393,
        -0.041975490748882294,
        0.12665289640426636,
        0.019761143252253532,
        -0.022062499076128006,
        -0.002564731752499938,
        -0.18773603439331055,
        -0.016055170446634293,
        -0.09099574387073517,
        0.04435284435749054,
        0.18060335516929626,
        0.04409660026431084,
        0.08573423326015472,
        0.19283078610897064,
        0.2954566478729248,
        -0.16057173907756805,
        0.12441831082105637,
        -0.12818104028701782,
        0.0015210398705676198,
        -0.17578688263893127,
        0.009324363432824612,
        -0.085999496281147,
        -0.06537648290395737,
        0.004240664653480053,
        0.20148181915283203,
        -0.020642634481191635,
        0.22514617443084717,
        -0.15100455284118652,
        -0.014589249156415462,
        -0.02513418160378933,
        -0.042841147631406784,
        -0.15174120664596558,
        -0.1248960793018341,
        -0.03379955142736435,
        0.10967551916837692,
        0.19876088201999664,
        -0.03302139416337013,
        0.17406673729419708,
        0.01424502395093441,
        0.0010722362203523517,
        0.058446891605854034,
        0.17325365543365479,
        0.0070848241448402405,
        0.18757596611976624,
        0.019856298342347145,
        -0.11480126529932022,
        0.13745863735675812,
        -0.07668699324131012,
        0.18107913434505463,
        0.18103323876857758,
        0.10369887948036194,
        0.013559210114181042,
        0.0053921169601380825,
        0.02801845408976078,
        0.09315737336874008,
        0.10435740649700165,
        -0.006522006820887327,
        0.1987154483795166,
        0.06908585876226425,
        -0.22554270923137665,
        0.3455990254878998,
        0.30859068036079407,
        -0.5709987878799438,
        0.2560165226459503,
        -0.7336813807487488,
        -0.3518621325492859,
        -0.3288305103778839,
        0.6959657669067383,
        -0.867717444896698,
        -0.5768408179283142,
        -0.8200622200965881,
        0.2114468365907669,
        -0.8488625288009644,
        0.5253739953041077,
        -0.5874208807945251,
        -0.18758563697338104,
        0.06357288360595703,
        0.08309575170278549,
        0.3127444386482239,
        0.3357589840888977,
        0.040225520730018616,
        -0.31925785541534424,
        0.003179152263328433,
        -0.31462669372558594,
        -0.1018017902970314,
        0.11348097771406174,
        0.2647431790828705,
        0.25586751103401184,
        0.20817922055721283,
        -0.18349824845790863,
        0.1135849580168724,
        -0.1200142577290535,
        -0.24936924874782562,
        -0.02292780578136444,
        0.09180480241775513,
        -0.2257516235113144,
        0.3455880284309387,
        -0.08465467393398285,
        -0.35474687814712524,
        0.34725794196128845,
        0.05636701360344887,
        0.23513169586658478,
        0.3852677643299103,
        0.15130434930324554,
        0.10152310132980347,
        0.20676760375499725,
        -0.06853392720222473,
        -0.12536528706550598,
        -0.15147152543067932,
        -0.02294328808784485,
        0.2865743339061737,
        -0.0684526115655899,
        0.3122714161872864,
        -0.15790225565433502,
        -0.02368325926363468,
        0.00026217204867862165,
        0.022634202614426613,
        -0.04286393150687218,
        -0.18118293583393097,
        0.059859924018383026,
        0.18164263665676117,
        0.07472855597734451,
        -0.02224845439195633,
        0.04143593832850456,
        0.24675510823726654,
        -0.4057137370109558,
        -0.10525524616241455,
        -0.11576081067323685,
        0.13708865642547607,
        -0.23418845236301422,
        -0.3256188929080963,
        -0.19923745095729828,
        -0.2710118889808655,
        0.0731145367026329,
        0.40339961647987366,
        0.030000586062669754,
        -0.24883779883384705,
        -0.022624751552939415,
        0.33091306686401367,
        0.23664934933185577,
        -0.05125509202480316,
        -0.0359356626868248,
        -0.20234116911888123,
        0.38464289903640747,
        -0.07054293900728226,
        -0.08117308467626572,
        0.14290966093540192,
        0.15964418649673462,
        -0.026138465851545334,
        -0.3950614035129547,
        0.19087514281272888,
        -0.03838758170604706,
        -0.29462772607803345,
        -0.044333454221487045,
        -0.06613900512456894,
        -0.20304127037525177,
        -0.13071860373020172,
        -0.323687881231308,
        -0.1390744149684906,
        0.24420110881328583,
        0.06437274068593979,
        0.0034268833696842194,
        -0.2272224873304367,
        0.10624592751264572,
        0.3149861693382263,
        -0.09449247270822525,
        0.1397296041250229,
        -0.11560260504484177,
        -0.23438014090061188,
        0.04869593307375908,
        0.12704552710056305,
        -0.11227553337812424,
        0.12993156909942627,
        -0.06326086819171906,
        -0.041773922741413116,
        0.29232391715049744,
        0.2061549872159958,
        -0.37691307067871094,
        -0.4113808572292328,
        0.19554026424884796,
        -0.3042140603065491,
        -0.23989908397197723,
        0.16864632070064545,
        0.05913277715444565,
        -0.12848861515522003,
        -0.134948268532753,
        0.3860155940055847,
        -0.007604212034493685,
        -0.13009187579154968,
        0.003918676171451807,
        0.01888296753168106,
        0.05982447415590286,
        -0.07923617959022522,
        -0.06702873855829239,
        -0.016788607463240623,
        0.11299270391464233,
        0.10648956894874573,
        -0.21461884677410126,
        -0.06157689914107323,
        -0.1687941551208496,
        0.1095021665096283,
        -0.0570409893989563,
        0.13568973541259766,
        -0.07350511848926544,
        0.27613210678100586,
        -0.2958543002605438,
        -0.07078525424003601,
        -0.3354639410972595,
        -0.10200560092926025,
        -0.08250754326581955,
        -0.13353292644023895,
        -0.04764239862561226,
        0.10895781219005585,
        0.35286104679107666,
        -0.04361225292086601,
        0.06199151277542114,
        0.22611796855926514,
        -0.09398789703845978,
        0.09661491960287094,
        -0.093028225004673,
        0.06059051305055618,
        0.0018710391595959663,
        0.02707037329673767,
        0.19350826740264893,
        -0.12642502784729004,
        0.12611128389835358,
        -0.039095908403396606,
        -0.10198380798101425,
        -0.01136384904384613,
        0.055283140391111374,
        0.19411513209342957,
        0.002061295323073864,
        -0.017430325970053673,
        0.07013143599033356,
        -0.005516421515494585,
        -0.11581326276063919,
        -0.3012997508049011,
        -0.16676583886146545,
        -0.012774352915585041,
        0.0783674344420433,
        -0.042162079364061356,
        0.01889079250395298,
        -0.11094240099191666,
        0.2123447060585022,
        0.35258182883262634,
        -0.05810866877436638,
        0.4828585088253021,
        0.01515885442495346,
        0.17449016869068146,
        -0.12584777176380157,
        -0.06631934642791748,
        -0.06847644597291946,
        0.566631019115448,
        -0.3884488344192505,
        0.09234500676393509,
        -0.12205567955970764,
        0.0019333426607772708,
        -0.13785766065120697,
        0.019663816317915916,
        -0.4604983925819397,
        -0.07561184465885162,
        0.24374230206012726,
        -0.08060509711503983,
        0.010578575544059277,
        -0.15230000019073486,
        0.16685546934604645,
        0.25617241859436035,
        -0.0521785169839859,
        -0.2482866495847702,
        -0.20577645301818848,
        0.1671895533800125,
        0.15084122121334076,
        0.06868355721235275,
        -0.04550807178020477,
        0.018886659294366837,
        -0.31839612126350403,
        0.017487308010458946,
        -0.2647159993648529,
        0.25908541679382324,
        -0.03803274407982826,
        -0.3009859323501587,
        -0.12917307019233704,
        -0.062422946095466614,
        0.05017132684588432,
        -0.0019558132626116276,
        -0.17392323911190033,
        0.32181316614151,
        -0.321768194437027,
        0.11103180050849915,
        -0.044593703001737595,
        -0.08581013232469559,
        0.19689245522022247,
        0.279559850692749,
        0.18290728330612183,
        0.03190332651138306,
        0.3145109713077545,
        0.16724905371665955,
        0.11120165139436722,
        -0.17599496245384216,
        -0.07011416554450989,
        0.45455047488212585,
        -0.021347302943468094,
        -0.04002515599131584,
        -0.15913550555706024,
        -0.07945836335420609,
        -0.104830302298069,
        0.009213142096996307,
        -0.296416312456131,
        -0.15281865000724792,
        -0.17748963832855225,
        -0.179845929145813,
        -0.03115696832537651,
        0.10744220018386841,
        0.16039951145648956,
        0.35962849855422974,
        0.03461170569062233,
        -0.130483478307724,
        -0.2745538055896759,
        0.025074264034628868,
        -0.29135164618492126,
        0.16047975420951843,
        -0.2903516888618469,
        0.09674513339996338,
        0.18771745264530182,
        -0.18279191851615906,
        0.4202866554260254,
        0.034368906170129776,
        -0.07491430640220642,
        0.3993311822414398,
        -0.350961834192276,
        -0.07155927270650864,
        0.12363165616989136,
        -0.04562841355800629,
        0.043126180768013,
        -0.11883793771266937,
        -0.27940571308135986,
        -0.049231451004743576,
        0.10094716399908066,
        0.08518762141466141,
        0.1665550023317337,
        0.016953207552433014,
        -0.08392249047756195,
        -0.11792586743831635,
        -0.004617601167410612,
        -0.21187201142311096,
        -0.07704144716262817,
        0.14404462277889252,
        0.15702450275421143,
        -0.2272161841392517,
        -0.1474408507347107,
        -0.07123757153749466,
        -0.06737127900123596,
        -0.037550073117017746,
        0.018504777923226357,
        -0.08019930869340897,
        0.10829166322946548,
        0.07324738055467606,
        -0.009975982829928398,
        -0.05008251592516899,
        0.0854567363858223,
        0.03731229528784752,
        -0.007951880805194378,
        0.04989728704094887,
        0.165829136967659,
        0.14435872435569763,
        0.2687489092350006,
        0.22415699064731598,
        0.2647647559642792,
        -0.03482196480035782,
        0.0727306678891182,
        -0.24891801178455353,
        0.0034009215887635946,
        0.09839794039726257,
        0.029754986986517906,
        0.036661043763160706,
        0.06575608998537064,
        -0.05528268590569496,
        -0.20369143784046173,
        -0.05376236513257027,
        -0.056662920862436295,
        0.17908388376235962,
        -0.09801211953163147,
        -0.13551302254199982,
        0.013890481553971767,
        -0.11653347313404083,
        0.1237386167049408,
        -0.1784515678882599,
        0.22727985680103302,
        -0.1681448221206665,
        0.2628663182258606,
        -0.006007513031363487,
        -0.29509037733078003,
        0.2566853165626526,
        -0.1310732513666153,
        -0.024417104199528694,
        -0.14255155622959137,
        -0.015162193216383457,
        0.08773967623710632,
        0.10960377752780914,
        -0.23588615655899048,
        -0.06850938498973846,
        0.343720018863678,
        0.31415241956710815,
        -0.04492207244038582,
        0.025327984243631363,
        0.1847624033689499,
        0.03131258860230446,
        0.13632437586784363,
        -0.0557914637029171,
        -0.05701335892081261,
        0.15125909447669983,
        -0.11570116132497787,
        0.003267024178057909,
        -0.19882601499557495,
        -0.23500484228134155,
        0.024642327800393105,
        -0.057957056909799576,
        0.09526916593313217,
        0.001279589836485684,
        0.023869073018431664,
        -0.18555891513824463,
        -0.0760434940457344,
        0.1515224128961563,
        0.43200168013572693,
        0.056379906833171844,
        0.08234520256519318,
        -0.2205047756433487,
        -0.12046952545642853,
        -0.1506662219762802,
        0.35609039664268494,
        0.02392898127436638,
        -0.02506219781935215,
        0.12574906647205353,
        -0.26059651374816895,
        -0.07189586013555527,
        0.10564278811216354,
        -0.3093474805355072,
        -0.03409501537680626,
        0.3168775737285614,
        0.050890881568193436,
        0.00199772953055799,
        -0.1411903202533722,
        0.06810017675161362,
        0.030451400205492973,
        -0.10974851250648499,
        -0.043223313987255096,
        0.10402270406484604,
        0.1515926718711853,
        -0.0771617665886879,
        0.11305359750986099,
        -0.05672859773039818,
        0.295637845993042,
        -0.281016081571579,
        0.03288355842232704,
        0.07130038738250732,
        -0.002757017035037279,
        -0.12285493314266205,
        0.13981157541275024,
        0.16946379840373993,
        0.24413399398326874,
        0.028107671067118645,
        -0.06643211841583252,
        0.18298697471618652,
        -0.1887005716562271,
        -0.1920594722032547,
        -0.09420890361070633,
        0.06580822169780731,
        0.07164434343576431,
        0.06817153096199036,
        -0.06468946486711502,
        -0.13384194672107697,
        -0.1479075700044632,
        -0.03386632725596428,
        -0.182178795337677,
        0.11367736011743546,
        -0.07537654042243958,
        -0.09798450022935867,
        0.23414301872253418,
        -0.03455075994133949,
        0.038346678018569946,
        -0.0406583733856678,
        -0.12149881571531296,
        -0.37851831316947937,
        -0.2973942756652832,
        0.30179867148399353,
        0.3094348907470703,
        0.224185973405838,
        -0.06633622944355011,
        0.04110649228096008,
        0.14693233370780945,
        0.21848079562187195,
        -0.1828790307044983,
        -0.44600042700767517,
        0.12375590205192566,
        -0.24747109413146973,
        0.27126601338386536,
        0.07500171661376953,
        -0.001736949197947979,
        -0.15059716999530792,
        0.1077670082449913,
        -0.03266086429357529,
        -0.4141848087310791,
        -0.023176517337560654,
        -0.0329400934278965,
        -0.04076027870178223,
        -0.10956776887178421,
        0.07710780203342438,
        0.12041106820106506,
        0.29736846685409546,
        0.318082332611084,
        0.157997265458107,
        0.01735992357134819,
        0.011210307478904724,
        -0.03573211655020714,
        0.1715969741344452,
        0.04897727444767952,
        0.07426908612251282,
        0.04579312354326248,
        -0.11147806793451309,
        -0.28488796949386597,
        -0.08223441988229752,
        -0.023463452234864235,
        0.2591995596885681,
        0.0345202311873436,
        0.34877797961235046,
        -0.4354797303676605,
        -0.10146760940551758,
        -0.00026288878871127963,
        -0.10560924559831619,
        0.022074302658438683,
        0.03903655707836151,
        -0.12034638226032257,
        0.16120922565460205,
        0.275922566652298,
        -0.282986581325531,
        0.11522899568080902,
        -0.03068656288087368,
        0.09924601763486862,
        -0.016004158183932304,
        0.14809155464172363,
        -0.06601036339998245,
        -0.15390275418758392,
        0.07601238787174225,
        0.17914773523807526,
        -0.05709800869226456,
        0.2920677363872528,
        0.23977120220661163,
        -0.17455850541591644,
        0.050345346331596375,
        0.29302725195884705,
        -0.08437474071979523,
        -0.23427002131938934,
        -0.011472153477370739,
        0.05371491238474846,
        -0.03298887237906456,
        0.22409236431121826,
        0.023449158295989037,
        -0.29776298999786377,
        0.031023221090435982,
        0.07738910615444183,
        -0.16145075857639313,
        -0.08715878427028656,
        0.1803373098373413,
        0.14872533082962036,
        -0.14245913922786713,
        0.01797034963965416,
        -0.02171311341226101,
        0.15165263414382935,
        0.18250146508216858,
        0.04439535737037659,
        -0.0934738740324974,
        -0.09440914541482925,
        0.0525871217250824,
        0.13270866870880127,
        -0.14786198735237122,
        -0.019516803324222565,
        -0.04249057173728943,
        -0.04692380875349045,
        0.13208253681659698,
        -0.03571689501404762,
        -0.08087445050477982,
        -0.05929386988282204,
        -0.06698575615882874,
        0.30648526549339294,
        0.22108522057533264,
        -0.1587085872888565,
        -0.17066824436187744,
        0.13083887100219727,
        0.11066842824220657,
        -0.12023988366127014,
        -0.011949557811021805,
        -0.11624304205179214,
        -0.0564679354429245,
        -0.04294032230973244,
        -0.05857056751847267,
        0.07769592851400375,
        -0.24410082399845123,
        -0.14310719072818756,
        -0.3765479326248169,
        -0.07197613269090652,
        -0.16849002242088318,
        0.007775403093546629,
        -0.2604668140411377,
        -0.08863407373428345,
        -0.08186714351177216,
        -0.2917645573616028,
        0.22559063136577606,
        -0.022999724373221397,
        -0.026413843035697937,
        -0.09206572920084,
        0.09100091457366943,
        0.12069118022918701,
        0.057821907103061676,
        -0.09755085408687592,
        -0.1089814156293869,
        0.002669641049578786,
        0.1043514758348465,
        0.03253347799181938,
        -0.13703809678554535,
        -0.03802012652158737,
        0.09325239807367325,
        0.24787838757038116,
        -0.038046225905418396,
        0.14249826967716217,
        -0.10917094349861145,
        -0.23020902276039124,
        0.12334054708480835,
        -0.06226583570241928,
        0.26452186703681946,
        -0.15587221086025238,
        0.19442689418792725,
        0.15182295441627502,
        0.2587447464466095,
        -0.009151416830718517,
        0.16159935295581818,
        0.022961029782891273,
        0.135490283370018,
        0.10333127528429031,
        -0.009921645745635033,
        0.03581933304667473,
        0.08162680268287659,
        0.0758209154009819,
        -0.08827175199985504,
        -0.04345422238111496,
        0.005890878848731518,
        0.11594769358634949,
        0.38165298104286194,
        0.08752984553575516,
        0.05148749426007271,
        0.09831943362951279,
        -0.08573436737060547,
        0.0447426401078701,
        0.1330122947692871,
        0.06397348642349243,
        -0.0519670732319355,
        0.12410099804401398,
        0.13416634500026703,
        0.03718873858451843,
        -0.1492699384689331,
        -0.19819799065589905,
        0.009075023233890533,
        0.06160354986786842,
        0.07978598028421402,
        0.10118993371725082,
        -0.11826294660568237,
        -0.1926773190498352,
        0.2503328323364258,
        0.0032166014425456524,
        0.03421603515744209,
        -0.39847511053085327,
        0.05596109852194786,
        -0.12084481865167618,
        -0.07223117351531982,
        0.20182108879089355,
        -0.027439728379249573,
        -0.09413227438926697,
        0.060805607587099075,
        0.05488613247871399,
        -0.2858442962169647,
        0.05829160287976265,
        0.18585261702537537,
        0.07050655037164688,
        -0.17970527708530426,
        -0.25830399990081787,
        -0.07693982869386673,
        0.06169012933969498,
        0.21410521864891052,
        0.12339115887880325,
        0.06895158439874649,
        0.020461659878492355,
        0.01671329140663147,
        -0.0125106330960989,
        -0.026094742119312286,
        0.06471646577119827,
        -0.3611258566379547,
        -0.19177787005901337,
        -0.0275728777050972,
        -0.12027902156114578,
        0.1463988721370697,
        0.06923836469650269,
        -0.09546512365341187,
        -0.26304128766059875,
        -0.08755075186491013,
        0.36212730407714844,
        -0.12789255380630493,
        0.01790454611182213,
        0.08764199167490005,
        0.010321684181690216,
        0.14399516582489014,
        -0.11681435257196426,
        -0.28818249702453613,
        -0.04310375079512596,
        -0.044309210032224655,
        0.14143356680870056,
        -0.13939426839351654,
        -0.06929023563861847,
        0.00456156674772501,
        -0.0747552290558815,
        -0.11494279652833939,
        0.1654534488916397,
        0.11079420149326324,
        -0.130466029047966,
        -0.05878415331244469,
        -0.1273072361946106,
        0.24696840345859528,
        0.006510896608233452,
        -0.18980370461940765,
        -0.012507966719567776,
        -0.3822430372238159,
        -0.11967611312866211,
        0.019032353535294533,
        -0.5978903770446777,
        -0.551446795463562,
        -0.10737904906272888,
        0.4594154953956604,
        0.08623320609331131,
        -0.04022805020213127,
        -0.12694501876831055,
        -0.11391330510377884,
        0.0282669086009264,
        0.5135259628295898,
        0.424404501914978,
        0.2944055199623108,
        -0.16477306187152863,
        -0.09588243812322617,
        0.031487174332141876,
        0.5019334554672241,
        -0.057355839759111404,
        -0.16347838938236237,
        0.33956843614578247,
        0.09924553334712982,
        -0.37641867995262146,
        -0.07769627124071121,
        -0.1275070309638977,
        0.028521902859210968,
        0.20272478461265564,
        0.05864454433321953,
        0.046013571321964264,
        -0.32428908348083496,
        -0.07359354197978973,
        0.23421819508075714,
        0.1950695961713791,
        -0.019189273938536644,
        -0.23514892160892487,
        0.19006438553333282,
        0.12591080367565155,
        -0.09843754768371582,
        0.09030833840370178,
        0.08245105296373367,
        0.09564157575368881,
        -0.007734276819974184,
        -0.050229258835315704,
        0.16352902352809906,
        0.040220145136117935,
        0.001131900236941874,
        -0.2765495479106903,
        -0.19294346868991852,
        0.08877336978912354,
        0.09448043256998062,
        -0.384102463722229,
        -0.06956747174263,
        -0.37239721417427063,
        0.1774064153432846,
        -0.2089320421218872,
        0.22557519376277924,
        0.1307906210422516,
        -0.09883614629507065,
        -0.10990436375141144,
        -0.0009177820174954832,
        0.17735297977924347,
        -0.2080477774143219,
        -0.006037561688572168,
        0.051041800528764725,
        0.05916418507695198,
        -0.033340517431497574,
        -0.16163955628871918,
        0.19430041313171387,
        -0.1196613684296608,
        0.07730990648269653,
        0.10024871677160263,
        0.10731874406337738,
        -0.15464138984680176,
        -0.1428210586309433,
        -0.2646036744117737,
        -0.19622467458248138,
        -0.027126707136631012,
        0.2843102812767029,
        -0.015014861710369587,
        -0.044617652893066406,
        -0.049154408276081085,
        -0.10487281531095505,
        0.09243128448724747,
        -0.042644672095775604,
        0.5356042981147766,
        -0.16244255006313324,
        -0.05793856084346771,
        0.1898437887430191,
        0.007343827281147242,
        0.1763785481452942,
        -0.31245407462120056,
        0.0746360570192337,
        -0.025208735838532448,
        0.3223842978477478,
        -0.2897869646549225,
        -0.16956694424152374,
        0.024090459570288658,
        -0.2096925526857376,
        -0.13397516310214996,
        -0.07729661464691162,
        -0.08302910625934601,
        -0.1133962944149971,
        0.06999345868825912,
        0.18499025702476501,
        -0.10642576962709427,
        -0.0833478793501854,
        -0.0738183856010437,
        -0.2941892445087433,
        -0.07786143571138382,
        -0.31562134623527527,
        0.25642937421798706,
        -0.1016710102558136,
        0.08221647143363953,
        -0.0904659777879715,
        -0.06957325339317322,
        -0.039067234843969345,
        -0.041725292801856995,
        0.053641919046640396,
        -0.22100074589252472,
        0.1724308729171753,
        0.08159836381673813,
        -0.10552002489566803,
        -0.11028261482715607,
        0.16200102865695953,
        0.04276546463370323,
        0.1188165619969368,
        -0.028713781386613846,
        -0.07696394622325897,
        -0.08135504275560379,
        0.008661770261824131,
        0.1529131531715393,
        0.01623985730111599,
        -0.10663944482803345,
        0.12128107994794846,
        -0.12399078160524368,
        -0.0073080649599432945,
        0.18126744031906128,
        0.08200544863939285,
        -0.13094574213027954,
        -0.19595611095428467,
        -0.18230889737606049,
        -0.054876286536455154,
        -0.10031135380268097,
        0.030665859580039978,
        -0.03847461938858032,
        -0.19072769582271576,
        -0.08219387382268906,
        0.07097628712654114,
        -0.01880022883415222,
        -0.05673617124557495,
        -0.17190192639827728,
        0.009782391600310802,
        0.13569997251033783,
        0.0089896684512496,
        0.1417817324399948,
        -0.09407947212457657,
        0.06935898959636688,
        -0.13551217317581177,
        0.06578774005174637,
        0.0025278422981500626,
        0.05409558489918709,
        -0.12048593163490295,
        -0.14283105731010437,
        -0.07153357565402985,
        -0.061288584023714066,
        0.24892361462116241,
        -0.0731697753071785,
        0.07153141498565674,
        -0.07452600449323654,
        -0.2642601430416107,
        -0.18133561313152313,
        0.06380657106637955,
        -0.14130298793315887,
        -0.10192631930112839,
        -0.11969725787639618,
        -0.20849116146564484,
        -0.18711766600608826,
        -0.12237639725208282,
        -0.07910112291574478,
        0.2458798736333847,
        0.147491917014122,
        -0.08620879799127579,
        -0.06836818158626556,
        -0.06885562092065811,
        0.09511284530162811,
        -0.0950252041220665,
        -0.20721130073070526,
        0.2170049399137497,
        0.12925414741039276,
        0.12902897596359253,
        -0.013248289003968239,
        -0.01026161015033722,
        -0.02194676361978054,
        -0.12494169920682907,
        0.015378483571112156,
        -0.20095080137252808,
        0.39531439542770386,
        0.031054997816681862,
        0.1122337132692337,
        -0.19771385192871094,
        0.12437660247087479,
        -0.09435608983039856,
        0.028569050133228302,
        -0.18998733162879944,
        0.14551423490047455,
        0.1886681169271469,
        0.11160175502300262,
        0.07418186217546463,
        0.11736288666725159,
        0.010622628964483738,
        0.011180697940289974,
        -0.08506336808204651,
        -0.2272961586713791,
        0.14515182375907898,
        0.11009665578603745,
        0.0005017145886085927,
        -0.08163335174322128,
        0.14076048135757446,
        0.0453508123755455,
        -0.11198525130748749,
        -0.004479920957237482,
        -0.12931860983371735,
        0.044932905584573746,
        0.11157803982496262,
        0.11423415690660477,
        0.16826732456684113,
        0.09187440574169159,
        -0.04253923520445824,
        -0.29409149289131165,
        -0.04369732737541199,
        0.02178436517715454,
        -0.06326702982187271,
        0.04473832994699478,
        -0.08315517008304596,
        0.27870121598243713,
        0.06155488267540932,
        0.11476151645183563,
        0.006864139344543219,
        -0.2703414857387543,
        0.11120486259460449,
        0.1880728304386139,
        0.11857534199953079,
        -0.17791596055030823,
        -0.19558130204677582,
        0.014389753341674805,
        -0.015569052658975124,
        0.031147658824920654,
        0.11025452613830566,
        0.18936491012573242,
        0.0882251039147377,
        0.10916414856910706,
        -0.1637267768383026,
        -0.1651836633682251,
        0.14599262177944183,
        -0.05143047124147415,
        0.09756012260913849,
        0.009972375817596912,
        -0.008525818586349487,
        0.09888673573732376,
        -0.015034979209303856,
        -0.10429602116346359,
        -0.018122008070349693,
        0.05979563668370247,
        0.11138201504945755,
        -0.04700383543968201,
        -0.06856802105903625,
        -0.04970915615558624,
        0.00386013463139534,
        0.09832491725683212,
        0.13554278016090393,
        -0.1317792385816574,
        0.06647033989429474,
        -0.1623109132051468,
        0.09500515460968018,
        -0.08410795032978058,
        -0.07432228326797485,
        -0.2220226675271988,
        0.09935063868761063,
        -0.21561157703399658,
        0.15884307026863098,
        -0.15441738069057465,
        -0.078040212392807,
        0.17684169113636017,
        0.13820330798625946,
        -0.1297299563884735,
        -0.2713233530521393,
        -0.014180607162415981,
        -0.20501801371574402,
        -0.06297554820775986,
        0.008187204599380493,
        0.18247100710868835,
        0.269196093082428,
        0.34174132347106934,
        -0.08222048729658127,
        0.05527195334434509,
        0.0036978423595428467,
        -0.25210651755332947,
        -0.2653215825557709,
        0.09706836193799973,
        0.01067272573709488,
        -0.3273756504058838,
        -0.07824045419692993,
        0.025349941104650497,
        -0.11750991642475128,
        -0.11641506850719452,
        0.00018699666543398052,
        -0.10143114626407623,
        -0.17157869040966034,
        0.14917761087417603,
        0.11715610325336456,
        -0.09397763013839722,
        -0.026553981006145477,
        -0.029935190454125404,
        -0.00413526501506567,
        0.03652369976043701,
        -0.07306938618421555,
        0.028902187943458557,
        0.06815271824598312,
        -0.09944716840982437,
        0.06426161527633667,
        -0.029894741252064705,
        0.22781191766262054,
        0.22542618215084076,
        0.02666345238685608,
        0.03474188223481178,
        -0.2282687872648239,
        0.030973004177212715,
        -0.19494685530662537,
        -0.051637567579746246,
        -0.17618350684642792,
        0.07738550007343292,
        0.3148423731327057,
        -0.07049594074487686,
        -0.16739380359649658,
        -0.13447584211826324,
        0.13660366833209991,
        0.22490113973617554,
        -0.015739044174551964,
        0.08164342492818832,
        -0.15884272754192352,
        0.12496263533830643,
        0.07978355884552002,
        -0.22861932218074799,
        0.2092057317495346,
        0.07545839995145798,
        -0.0797596201300621,
        0.0957217589020729,
        0.12018055468797684,
        -0.06523722410202026,
        0.15199628472328186,
        -0.0760488361120224,
        0.2617793381214142,
        -0.05807170644402504,
        0.17476080358028412,
        -0.14511077105998993,
        -0.0271866824477911,
        0.1614542305469513,
        0.10813573002815247,
        0.09939508885145187,
        -0.00511438213288784,
        0.1350889354944229,
        0.1569909304380417,
        0.04205315560102463,
        -0.28085339069366455,
        -0.008023536764085293,
        -0.14625763893127441,
        0.11191139370203018,
        -0.02360568940639496,
        0.008918064646422863,
        -0.19629552960395813,
        -0.03393860161304474,
        -0.0483015812933445,
        -0.10522835701704025,
        0.20123696327209473,
        0.027883287519216537,
        0.2442416399717331,
        -0.16873501241207123,
        0.03220988065004349,
        0.04643549397587776,
        0.006539882626384497,
        0.10350677371025085,
        -0.29499444365501404,
        0.012958611361682415,
        -0.21160238981246948,
        -0.3727051615715027,
        0.043324653059244156,
        0.19591619074344635,
        -0.050903186202049255,
        -0.034306108951568604,
        -0.021672602742910385,
        0.1343708634376526,
        0.09427127242088318,
        -0.1288234144449234,
        0.11369284987449646,
        0.22251993417739868,
        -0.0035796838346868753,
        0.007317732088267803,
        -0.02839076705276966,
        -0.0562007911503315,
        0.10575947165489197,
        -0.06464333832263947,
        0.09573706984519958,
        -0.32797908782958984,
        -0.37085989117622375,
        0.6675052642822266,
        0.439399778842926,
        -0.22750526666641235,
        0.10070527344942093,
        -0.21071156859397888,
        0.25681501626968384,
        0.5395166873931885,
        -0.7884774208068848,
        0.9374610781669617,
        0.29714900255203247,
        0.10738588869571686,
        -0.3012470602989197,
        0.035998474806547165,
        -0.5803335309028625,
        -0.13316380977630615,
        -0.010782035067677498,
        0.17743179202079773,
        -0.4187733829021454,
        0.16201114654541016,
        0.41643598675727844,
        0.005057743284851313,
        0.0279566440731287,
        0.19309039413928986,
        0.2718178331851959,
        -0.10215246677398682,
        0.10348152369260788,
        -0.5454895496368408,
        -0.03043006919324398,
        -0.016218679025769234,
        -0.2721651494503021,
        0.3242020905017853,
        0.14184047281742096,
        -0.11108237504959106,
        0.10734888911247253,
        0.24356874823570251,
        0.2480430155992508,
        -0.052460815757513046,
        -0.13191986083984375,
        -0.16458356380462646,
        -0.025977931916713715,
        0.014621362090110779,
        -0.23222623765468597,
        0.24495857954025269,
        0.2116815745830536,
        -0.11628222465515137,
        0.15997736155986786,
        0.37705129384994507,
        -0.014330525882542133,
        0.12704746425151825,
        -0.32350632548332214,
        0.12329636514186859,
        -0.19156122207641602,
        -0.030261287465691566,
        -0.20463918149471283,
        -0.1143641546368599,
        0.04917173832654953,
        -0.13646623492240906,
        0.36121127009391785,
        0.14633968472480774,
        -0.2402203381061554,
        0.05567198619246483,
        0.18225477635860443,
        0.4618605971336365,
        -0.15886269509792328,
        0.29017171263694763,
        0.03425036743283272,
        0.02352318726480007,
        0.05341828987002373,
        -0.269418865442276,
        0.25394752621650696,
        0.4391886293888092,
        0.1668710857629776,
        0.13250887393951416,
        0.26201239228248596,
        -0.18761293590068817,
        -0.020595647394657135,
        0.06941640377044678,
        0.13454078137874603,
        -0.03890002891421318,
        -0.21334302425384521,
        0.17868907749652863,
        0.01861473359167576,
        -0.018788445740938187,
        -0.1822878122329712,
        0.15028075873851776,
        -0.09271573275327682,
        0.10300386697053909,
        -0.04993686452507973,
        -0.053442057222127914,
        0.10174307227134705,
        -0.11334595084190369,
        -0.2301253378391266,
        0.043246205896139145,
        -0.09715288132429123,
        0.00507622305303812,
        -0.01874138042330742,
        -0.15365049242973328,
        -0.17857669293880463,
        -0.3201271593570709,
        -0.37677663564682007,
        0.3099327087402344,
        0.0030662703793495893,
        -0.1670084446668625,
        -0.06005524843931198,
        0.010037878528237343,
        -0.2862405478954315,
        0.3389122486114502,
        0.24415963888168335,
        0.31473442912101746,
        0.16893541812896729,
        -0.21048805117607117,
        0.11522264033555984,
        0.028881333768367767,
        -0.059741176664829254,
        0.08612964302301407,
        -0.1381734162569046,
        0.15927080810070038,
        0.0032836601603776217,
        -0.11931579560041428,
        0.24503354728221893,
        0.11039853096008301,
        -0.4984912872314453,
        0.719463050365448,
        0.17963288724422455,
        0.008307562209665775,
        0.16460780799388885,
        0.3157934546470642,
        0.08921373635530472,
        -0.31418606638908386,
        -0.03980700671672821,
        0.2767464816570282,
        -0.1989099383354187,
        0.12038402259349823,
        -0.17292259633541107,
        0.1287902593612671,
        0.051774829626083374,
        -0.02796836942434311,
        0.26994818449020386,
        -0.15268462896347046,
        0.044389642775058746,
        -0.19793801009655,
        0.17080943286418915,
        -0.20379625260829926,
        0.3237316906452179,
        0.07433848083019257,
        0.08672162890434265,
        0.05901186168193817,
        0.018634293228387833,
        -0.2223232239484787,
        0.0407164990901947,
        -0.08701395243406296,
        0.11066514998674393,
        -0.06134927272796631,
        0.2839774191379547,
        -0.3996032774448395,
        -0.06687375158071518,
        0.2069726139307022,
        -0.005917379632592201,
        0.5350326895713806,
        -0.2862361967563629,
        -0.4224921464920044,
        0.280703067779541,
        0.09686779230833054,
        0.1319376677274704,
        -0.14572688937187195,
        -0.350134938955307,
        -0.24728231132030487,
        -0.08840931206941605,
        0.06292260438203812,
        0.030573513358831406,
        -0.1628648191690445,
        -0.2251134216785431,
        0.295553058385849,
        -0.2556268572807312,
        0.2887971103191376,
        -0.06594643741846085,
        -0.030962029471993446,
        -0.14167992770671844,
        0.15318115055561066,
        -0.09521377086639404,
        0.09396912902593613,
        -0.11777806282043457,
        0.46144673228263855,
        -0.09714352339506149,
        -0.36056217551231384,
        -0.18000030517578125,
        0.07857146859169006,
        -0.17878440022468567,
        0.15859173238277435,
        0.01119307242333889,
        0.19808626174926758,
        0.05409272015094757,
        0.2362746149301529,
        0.09729211777448654,
        -0.062475960701704025,
        0.37146368622779846,
        0.14382950961589813,
        0.2501588761806488,
        -0.1883520781993866,
        -0.012580763548612595,
        -0.19126060605049133,
        0.41555237770080566,
        -0.16708895564079285,
        -0.3216148912906647,
        0.06787503510713577,
        0.07147891819477081,
        -0.18534483015537262,
        -0.28275105357170105,
        0.1055164560675621,
        -0.05622178688645363,
        -0.005246501415967941,
        0.14430196583271027,
        -0.08049333095550537,
        -0.20370034873485565,
        0.10280395299196243,
        0.10114861279726028,
        0.0463109016418457,
        0.21214650571346283,
        0.2936323285102844,
        0.27458977699279785,
        0.27892595529556274,
        -0.13446460664272308,
        -0.11020924150943756,
        0.20702095329761505,
        -0.20578381419181824,
        0.013770281337201595,
        0.049366340041160583,
        -0.17182987928390503,
        0.041365090757608414,
        -0.05853862687945366,
        0.1163628026843071,
        0.001021191361360252,
        0.01967051438987255,
        -0.4614157974720001,
        0.020930014550685883,
        0.07463625073432922,
        -0.1983431577682495,
        0.0591551847755909,
        0.016856664791703224,
        0.2602285146713257,
        0.10682692378759384,
        -0.0904637798666954,
        -0.33749061822891235,
        -0.16644684970378876,
        -0.03396426513791084,
        -0.22341616451740265,
        0.05715963616967201,
        0.4081469774246216,
        0.30378174781799316,
        0.7187797427177429,
        -0.30463528633117676,
        0.08969222009181976,
        0.007586839608848095,
        -0.03925895690917969,
        -0.0671699121594429,
        0.083402119576931,
        -0.06886498630046844,
        -0.37650206685066223,
        -0.2856534719467163,
        -0.11331968009471893,
        -0.05527703836560249,
        -0.19760553538799286,
        -0.00772611191496253,
        0.2540612816810608,
        0.24017462134361267,
        0.1997138112783432,
        -0.32199084758758545,
        -0.0051129721105098724,
        -0.0828646570444107,
        0.1980798840522766,
        0.27669116854667664,
        -0.0668630599975586,
        0.1499549150466919,
        0.008787794038653374,
        -0.1872159242630005,
        0.1948164999485016,
        0.11614979058504105,
        0.05143958330154419,
        -0.19148215651512146,
        -0.014051017351448536,
        -0.14911654591560364,
        0.00961071066558361,
        0.04905812069773674,
        0.10119115561246872,
        0.02830355241894722,
        0.0911012664437294,
        0.34958338737487793,
        -0.39117884635925293,
        -0.03798023611307144,
        -0.19908279180526733,
        0.11136320978403091,
        -0.2334597259759903,
        0.45711562037467957,
        0.06810391694307327,
        0.11254885047674179,
        0.5063762664794922,
        0.29721009731292725,
        0.13687947392463684,
        0.16256816685199738,
        -0.13094015419483185,
        -0.2065085619688034,
        0.21808145940303802,
        0.44787710905075073,
        0.01090196706354618,
        -0.2711308002471924,
        0.5492659211158752,
        -0.059351611882448196,
        -0.08872298151254654,
        0.08741066604852676,
        -0.004884167108684778,
        0.0756167322397232,
        -0.41823139786720276,
        -0.04965389892458916,
        0.0878693237900734,
        0.19462749361991882,
        -0.12414421141147614,
        -0.04195491597056389,
        -0.09127375483512878,
        0.16242840886116028,
        0.310201495885849,
        -0.18445561826229095,
        -0.01689552329480648,
        -0.011836609803140163,
        0.08525163680315018,
        -0.029524538666009903,
        -0.3303474485874176,
        -0.2819264531135559,
        -0.13028669357299805,
        -0.09230904281139374,
        -0.2025539129972458,
        -0.14722710847854614,
        -0.02628426067531109,
        -0.36468201875686646,
        -0.08215662091970444,
        -0.14543312788009644,
        0.35937997698783875,
        0.1665450483560562,
        0.0748504176735878,
        -0.20317724347114563,
        0.027470571920275688,
        -0.0010318391723558307,
        -0.029694167897105217,
        -0.13606980443000793,
        -0.05790947005152702,
        0.06352726370096207,
        0.10782303661108017,
        0.014204843901097775,
        0.16965559124946594,
        0.09325084835290909,
        0.02129501663148403,
        -0.37749239802360535,
        -0.11505959182977676,
        -0.02836412563920021,
        0.09934334456920624,
        0.20950065553188324,
        -0.07802867144346237,
        -0.12475856393575668,
        -0.21471872925758362,
        0.07666240632534027,
        0.15258833765983582,
        -0.05032852292060852,
        -0.07269679009914398,
        0.21323010325431824,
        0.03525388985872269,
        0.22299329936504364,
        0.13290898501873016,
        -0.015016797930002213,
        0.08668441325426102,
        -0.015057806856930256,
        -0.4000767171382904,
        0.012446381151676178,
        -0.02828194759786129,
        0.039783719927072525,
        -0.33412352204322815,
        -0.08669424802064896,
        0.1150650605559349,
        0.09420953691005707,
        0.16219910979270935,
        0.004094264470040798,
        -0.020421117544174194,
        0.006461735349148512,
        0.04166558384895325,
        0.05601218342781067,
        -0.40766045451164246,
        -0.0802195817232132,
        -0.06050577759742737,
        -0.2235954850912094,
        -0.10188614577054977,
        -0.3646656572818756,
        -0.18364740908145905,
        0.15740391612052917,
        0.019650913774967194,
        -0.01405981183052063,
        -0.10796612501144409,
        0.03535749018192291,
        0.05511230602860451,
        -0.06749706715345383,
        -0.20360764861106873,
        -0.5233088135719299,
        0.10265384614467621,
        0.33579203486442566,
        -0.3850131034851074,
        -0.07623255997896194,
        -0.06267653405666351,
