{
    "version": "0.5.0",
    "architecture": "WaveNet",
    "config": {
        "layers": [
            {
                "input_size": 1,
                "condition_size": 1,
                "head_size": 8,
                "channels": 16,
                "kernel_size": 3,
                "dilations": [
                    1,
                    2,
                    4,
                    8,
                    16,
                    32,
                    64,
                    128,
                    256,
                    512
                ],
                "activation": "Tanh",
                "gated": false,
                "head_bias": false
            },
            {
                "input_size": 16,
                "condition_size": 1,
                "head_size": 1,
                "channels": 8,
                "kernel_size": 3,
                "dilations": [
                    1,
                    2,
                    4,
                    8,
                    16,
                    32,
                    64,
                    128,
                    256,
                    512
                ],
                "activation": "Tanh",
                "gated": false,
                "head_bias": true
            }
        ],
        "head": null,
        "head_scale": 0.02
    },
    "weights": [
        -0.044804926961660385,
        0.7049207091331482,
        -0.9307270646095276,
        -0.7818201184272766,
        -0.25391480326652527,
        0.5901383757591248,
        0.11924533545970917,
        1.0004838705062866,
        -0.08207143098115921,
        0.31139621138572693,
        -0.3337734341621399,
        -0.3061429262161255,
        -1.1991701126098633,
        -0.7258606553077698,
        -0.5433998107910156,
        0.03233029320836067,
        -0.006662494037300348,
        0.3091825842857361,
        -0.290129154920578,
        0.005849948152899742,
        -0.19202983379364014,
        0.3761308491230011,
        -0.11229414492845535,
        0.34016332030296326,
        -0.2828977704048157,
        -0.06284698098897934,
        0.3618425130844116,
        -0.39510560035705566,
        -0.1475885659456253,
        0.20813915133476257,
        -0.29256516695022583,
        0.21670334041118622,
        -0.30614832043647766,
        0.2097511887550354,
        0.3636086881160736,
        0.059486858546733856,
        -0.02588128298521042,
        0.20473311841487885,
        -0.16913844645023346,
        0.33373942971229553,
        -0.046297840774059296,
        0.16678565740585327,
        -0.20077787339687347,
        -0.05035413056612015,
        -0.3182339668273926,
        0.20118625462055206,
        0.004052790813148022,
        0.3006463348865509,
        -0.3392797112464905,
        -0.06586513668298721,
        0.33845189213752747,
        -0.1107185110449791,
        -0.023061463609337807,
        0.25418969988822937,
        -0.16699932515621185,
        -0.16108320653438568,
        0.2620941400527954,
        -0.3645753562450409,
        -0.16392286121845245,
        0.17060160636901855,
        -0.1935460865497589,
        0.08108679950237274,
        -0.33655235171318054,
        0.29206085205078125,
        0.023911360651254654,
        0.005631798412650824,
        -0.21039927005767822,
        0.022306766360998154,
        -0.003542897757142782,
        0.2824207544326782,
        -0.08986637741327286,
        0.044759172946214676,
        -0.07881936430931091,
        0.1341903954744339,
        0.21814590692520142,
        -0.012173543684184551,
        0.03241652622818947,
        -0.035033173859119415,
        -0.12491998076438904,
        -0.10502182692289352,
        -0.22294580936431885,
        0.28076520562171936,
        -0.08090246468782425,
        -0.14936178922653198,
        0.02637670747935772,
        -0.04107072576880455,
        -0.11470326781272888,
        0.07868082076311111,
        0.052491798996925354,
        -0.004549915436655283,
        -0.10691041499376297,
        0.06843452155590057,
        0.01913534663617611,
        0.20884527266025543,
        -0.13482840359210968,
        -0.010734339244663715,
        -0.08351209759712219,
        0.03154849633574486,
        -0.02722456306219101,
        -0.23834258317947388,
        0.15189674496650696,
        0.1891973614692688,
        -0.2065122276544571,
        -0.020062457770109177,
        -0.04448358342051506,
        -0.14124943315982819,
        -0.10274355113506317,
        -0.02035038359463215,
        -0.15963397920131683,
        -0.012471410445868969,
        -0.17145851254463196,
        0.2423662692308426,
        0.018743665888905525,
        0.007031197659671307,
        0.2007368952035904,
        -0.2245442271232605,
        0.08321517705917358,
        -0.10340435802936554,
        0.11118587851524353,
        -0.08841626346111298,
        0.16021020710468292,
        0.10626950114965439,
        -0.1860274225473404,
        0.17781679332256317,
        -0.029912147670984268,
        -0.1956777274608612,
        0.07385852187871933,
        -0.1658487766981125,
        0.06480816006660461,
        -0.2409665733575821,
        0.06547233462333679,
        0.0723915621638298,
        -0.17809495329856873,
        -0.10438279807567596,
        0.21777091920375824,
        -0.127733051776886,
        0.12131477147340775,
        -0.10076966881752014,
        0.18212714791297913,
        -0.02031153067946434,
        0.23505501449108124,
        -0.0490243174135685,
        0.2435164898633957,
        -0.11203346401453018,
        0.0025063934735953808,
        0.052686724811792374,
        -0.005067869555205107,
        0.1293834000825882,
        0.025178110226988792,
        -0.227255180478096,
        -0.024891242384910583,
        -0.02544947899878025,
        -0.1444566398859024,
        0.1875561773777008,
        0.18710173666477203,
        -0.25546950101852417,
        0.2108062356710434,
        -0.1750584989786148,
        0.1249314472079277,
        -0.18948863446712494,
        -0.09876567870378494,
        0.08308008313179016,
        -0.16420207917690277,
        -0.05011845752596855,
        -0.13042548298835754,
        0.04171757772564888,
        -0.1284654289484024,
        0.16624359786510468,
        -0.1640799194574356,
        -0.07877154648303986,
        0.23325671255588531,
        -0.09842604398727417,
        0.04576672986149788,
        0.15006540715694427,
        -0.17537616193294525,
        0.15377742052078247,
        -0.1241409182548523,
        -0.017193827778100967,
        -0.0807012990117073,
        -0.1844574511051178,
        0.01571352407336235,
        0.0363946370780468,
        -0.0037577685434371233,
        0.08189158141613007,
        -0.010877016931772232,
        0.14082778990268707,
        -0.10589396208524704,
        0.05021815747022629,
        -0.21007350087165833,
        0.1450854241847992,
        0.038777414709329605,
        0.19312438368797302,
        -0.16287508606910706,
        -0.08307719230651855,
        -0.007228394970297813,
        -0.13715621829032898,
        -0.1508474498987198,
        0.15809379518032074,
        -0.12476813793182373,
        -0.0711892694234848,
        0.11153631657361984,
        0.05357407405972481,
        -0.18819734454154968,
        0.007029205095022917,
        -0.1316276490688324,
        0.14264382421970367,
        -0.18902914226055145,
        0.1742703914642334,
        0.048871930688619614,
        0.15235945582389832,
        0.001486821100115776,
        -0.020176053047180176,
        -0.10940355062484741,
        -0.03206709772348404,
        1.88030899153091e-05,
        0.15113425254821777,
        -0.11086493730545044,
        -0.08099158108234406,
        0.24324139952659607,
        -0.11944584548473358,
        -0.03558840602636337,
        0.25306227803230286,
        0.03895993158221245,
        0.0032089927699416876,
        -0.254484087228775,
        0.08028588443994522,
        -0.26145032048225403,
        -0.026384897530078888,
        0.15207615494728088,
        -0.016132595017552376,
        -0.12275034189224243,
        0.12650662660598755,
        -0.010197366587817669,
        0.22129617631435394,
        0.02937488630414009,
        -0.07296150922775269,
        -0.045083627104759216,
        -0.07337590306997299,
        -0.07235220819711685,
        0.15960511565208435,
        0.029713841155171394,
        0.09011399000883102,
        0.07034863531589508,
        -0.013255439698696136,
        0.06930975615978241,
        -0.013654989190399647,
        0.09975674748420715,
        -0.12427085638046265,
        0.12753401696681976,
        -0.02839406579732895,
        -0.09296391159296036,
        0.13754220306873322,
        0.10720899701118469,
        -0.06874613463878632,
        -0.22156769037246704,
        -0.04330424591898918,
        0.056658487766981125,
        -0.07274305820465088,
        -0.03009086661040783,
        -0.2920125722885132,
        0.04860534518957138,
        0.06932422518730164,
        0.2577330470085144,
        -0.026750268414616585,
        0.05838233232498169,
        0.13976016640663147,
        -0.17161881923675537,
        0.054109957069158554,
        0.31288278102874756,
        -0.0863005518913269,
        -0.054234717041254044,
        -0.25378280878067017,
        -2.9761022233287804e-05,
        0.011279428377747536,
        -0.006493367720395327,
        -0.053487882018089294,
        0.07788772881031036,
        -0.2815984785556793,
        0.11470181494951248,
        0.028320619836449623,
        0.2131170928478241,
        -0.2036050409078598,
        -0.059981819242239,
        -0.08343793451786041,
        0.14498905837535858,
        0.08529219776391983,
        0.1449572741985321,
        -0.0804540142416954,
        -0.0039648739621043205,
        0.20567037165164948,
        -0.20691987872123718,
        0.08157776296138763,
        0.23363494873046875,
        -0.13556087017059326,
        -0.021802617236971855,
        0.09865865111351013,
        -0.03037789650261402,
        -0.09593059867620468,
        0.2592179477214813,
        -0.17996758222579956,
        -0.04958312213420868,
        -0.13661234080791473,
        0.08034048229455948,
        -0.01423876453191042,
        0.0023429132997989655,
        -0.2801821231842041,
        0.06646085530519485,
        0.050085246562957764,
        0.1839398741722107,
        -0.13414596021175385,
        -0.11977144330739975,
        -0.15181215107440948,
        0.1587337702512741,
        -0.043875083327293396,
        -0.06470539420843124,
        0.21256552636623383,
        -0.06029989570379257,
        -0.12206041067838669,
        0.1681050956249237,
        0.004497832152992487,
        0.12559445202350616,
        -0.11136872321367264,
        -0.10215013474225998,
        -0.14842525124549866,
        -0.14487308263778687,
        0.12228232622146606,
        0.20292134582996368,
        -0.10157460719347,
        0.10432063788175583,
        -0.1537822037935257,
        0.03481088578701019,
        -0.15273910760879517,
        0.2387392669916153,
        -0.056332845240831375,
        -0.0799732506275177,
        -0.04541737213730812,
        0.2473878711462021,
        0.17223618924617767,
        0.013676238246262074,
        0.24284978210926056,
        -0.025038303807377815,
        -0.17099757492542267,
        0.2377597838640213,
        0.08694682270288467,
        -0.20770330727100372,
        0.24260488152503967,
        0.08721387386322021,
        -0.04540925472974777,
        0.035757023841142654,
        0.06703916192054749,
        0.10126902163028717,
        -0.03137669712305069,
        0.03135624900460243,
        -0.030998848378658295,
        -0.0560125932097435,
        0.009982483461499214,
        0.016065256670117378,
        0.149746835231781,
        -0.0538003109395504,
        -0.028734812512993813,
        -0.17348110675811768,
        -0.09386683255434036,
        -0.17969822883605957,
        0.03557879850268364,
        0.1362563669681549,
        0.07583939284086227,
        0.0428556390106678,
        -0.17379045486450195,
        -0.03571457043290138,
        0.055879343301057816,
        0.01991751603782177,
        -0.05293525382876396,
        -0.32156339287757874,
        -0.11682015657424927,
        -0.07501763105392456,
        -0.005260302685201168,
        0.13900427520275116,
        0.010554017499089241,
        -0.0001050643841153942,
        0.06530144065618515,
        0.1971885710954666,
        0.04749419912695885,
        0.11026012897491455,
        0.062127485871315,
        -0.031230224296450615,
        0.20723368227481842,
        0.013436823152005672,
        0.016890322789549828,
        -0.003028268227353692,
        0.004625963047146797,
        -0.060495004057884216,
        0.012083875946700573,
        -0.14583037793636322,
        -0.15893816947937012,
        -0.05498412624001503,
        0.03379049524664879,
        0.024373022839426994,
        -0.08616839349269867,
        -0.012666028924286366,
        0.17335398495197296,
        0.14060595631599426,
        -0.13340260088443756,
        0.02632623352110386,
        0.0853261724114418,
        0.18098178505897522,
        -0.20913636684417725,
        0.17350411415100098,
        -0.017202995717525482,
        0.03913235291838646,
        0.12382761389017105,
        -0.20277996361255646,
        0.07396934181451797,
        0.17624303698539734,
        -0.10985767841339111,
        -0.0076860180124640465,
        -0.09202668070793152,
        0.07916361838579178,
        -0.14087532460689545,
        0.09418501704931259,
        0.054851993918418884,
        -0.18263639509677887,
        -0.12951327860355377,
        0.12835568189620972,
        -0.02985335886478424,
        0.13278032839298248,
        -0.2353985607624054,
        0.10186395049095154,
        -0.16507086157798767,
        0.04425278678536415,
        -0.07123882323503494,
        -0.052762266248464584,
        -0.05762761831283569,
        0.23668982088565826,
        0.07446421682834625,
        -0.20317889750003815,
        0.07012399286031723,
        0.07210982590913773,
        -0.2323615401983261,
        0.16873444616794586,
        -0.09031851589679718,
        -0.25978705286979675,
        -0.04531998559832573,
        0.024397702887654305,
        -0.021593064069747925,
        -0.02700917050242424,
        0.11949732899665833,
        0.10589082539081573,
        -0.07830709964036942,
        0.00749815721064806,
        -0.22683116793632507,
        0.21758997440338135,
        0.11760927736759186,
        0.26175209879875183,
        -0.021403232589364052,
        -0.14592553675174713,
        3.0784853151999414e-05,
        0.0955842137336731,
        0.02561742067337036,
        -0.22928103804588318,
        0.051623690873384476,
        -0.1814073622226715,
        -0.17491790652275085,
        0.11211548745632172,
        -0.07007233053445816,
        0.15716828405857086,
        -0.026665516197681427,
        0.23559625446796417,
        -0.04413732886314392,
        -0.07188010960817337,
        0.0011700399918481708,
        0.17669029533863068,
        0.04613867774605751,
        0.07624036818742752,
        -0.09588336199522018,
        0.17470772564411163,
        -0.11451105773448944,
        -0.025376398116350174,
        -0.049273647367954254,
        -0.11400633305311203,
        -0.029593531042337418,
        0.01140648778527975,
        -0.09816155582666397,
        -0.22750629484653473,
        0.18275390565395355,
        -0.06026391685009003,
        -0.0037991637364029884,
        0.18416611850261688,
        0.03445519879460335,
        -0.10948777198791504,
        0.04487662762403488,
        -0.069663405418396,
        -0.10159661620855331,
        0.169756680727005,
        -0.026086166501045227,
        0.28557088971138,
        -0.11187617480754852,
        0.1951058954000473,
        -0.62906414270401,
        0.21177268028259277,
        -0.06908711045980453,
        0.5120622515678406,
        -0.01799359731376171,
        0.26888853311538696,
        -0.5516057014465332,
        0.24402734637260437,
        0.12170011550188065,
        -0.5823839902877808,
        0.18782684206962585,
        0.15490762889385223,
        -0.5652438402175903,
        0.08168703317642212,
        -0.13288861513137817,
        0.5717223882675171,
        -0.19486086070537567,
        0.018381504341959953,
        0.08045404404401779,
        0.1887778490781784,
        -0.19139069318771362,
        0.7139313817024231,
        -0.14854252338409424,
        0.2676520347595215,
        -0.6161168813705444,
        0.20391051471233368,
        -0.32195979356765747,
        0.5174164175987244,
        -0.22535641491413116,
        0.34882503747940063,
        -0.644953191280365,
        0.14994600415229797,
        0.14616140723228455,
        -0.49191513657569885,
        0.26324769854545593,
        0.09502650052309036,
        -0.7492883205413818,
        0.023521069437265396,
        0.19763396680355072,
        -0.6629302501678467,
        0.030778955668210983,
        0.15490329265594482,
        -0.6107544302940369,
        0.05504513904452324,
        -0.2764187753200531,
        0.5391862392425537,
        -0.2096739113330841,
        0.1317429393529892,
        0.042953040450811386,
        -0.09982955455780029,
        -0.06310917437076569,
        -0.005685070063918829,
        0.16410481929779053,
        -0.06623341888189316,
        -0.18218758702278137,
        0.12194681167602539,
        -0.01732747256755829,
        -0.01683003641664982,
        -0.0337374284863472,
        0.05049268901348114,
        -0.07516120374202728,
        0.07067259401082993,
        -0.07061218470335007,
        -0.08715976029634476,
        -0.055521078407764435,
        0.21303893625736237,
        -0.04873349890112877,
        -0.31999024748802185,
        0.06772083044052124,
        0.012309555895626545,
        -0.006591095123440027,
        0.17116057872772217,
        -0.01675124652683735,
        0.07786491513252258,
        -0.0014882386894896626,
        0.0017980297561734915,
        -0.06957919895648956,
        0.06878858804702759,
        0.0752267986536026,
        -0.0699014961719513,
        -0.05188801884651184,
        0.017588047310709953,
        0.1279795914888382,
        0.027320006862282753,
        -0.16339772939682007,
        -0.14944501221179962,
        0.10500723123550415,
        -0.057124655693769455,
        -0.09346070140600204,
        0.10398361831903458,
        0.01117672212421894,
        0.09281475841999054,
        0.08674060553312302,
        0.08296136558055878,
        -0.06552194803953171,
        0.03675160929560661,
        -0.15250566601753235,
        0.14849382638931274,
        -0.1057228296995163,
        0.171946182847023,
        0.014823493547737598,
        0.29457905888557434,
        -0.16736945509910583,
        -0.00744793564081192,
        0.11239488422870636,
        -0.3867241144180298,
        0.2568610608577728,
        0.10163947939872742,
        -0.3576897382736206,
        0.1821681410074234,
        -0.24255229532718658,
        0.2065184861421585,
        -0.15259899199008942,
        -0.2662560045719147,
        -0.29750609397888184,
        -0.2383931428194046,
        -0.2321062684059143,
        0.33689120411872864,
        -0.001101717702113092,
        0.240622416138649,
        -0.24525360763072968,
        0.26275894045829773,
        -0.16644538938999176,
        0.1981692910194397,
        -0.010591656900942326,
        0.21419768035411835,
        -0.4085875451564789,
        0.10150764137506485,
        0.09430164098739624,
        -0.14605122804641724,
        0.1178835779428482,
        0.036183129996061325,
        -0.29781752824783325,
        0.21465164422988892,
        0.20397011935710907,
        -0.24047191441059113,
        0.13303163647651672,
        0.22584637999534607,
        -0.3310205340385437,
        0.06805615872144699,
        -0.29058799147605896,
        0.1491239368915558,
        -0.12486599385738373,
        -0.41322124004364014,
        0.10510163754224777,
        0.13314656913280487,
        0.35671883821487427,
        -0.1603996902704239,
        0.022338898852467537,
        -0.4186646640300751,
        0.19266006350517273,
        0.00589428935199976,
        -0.3723950982093811,
        0.14952485263347626,
        0.05913836136460304,
        -0.22259047627449036,
        -0.03928498551249504,
        -0.013663474470376968,
        0.27071768045425415,
        -0.05641952157020569,
        0.015148213133215904,
        -0.1185600608587265,
        -0.0978141725063324,
        -0.024258211255073547,
        0.3056468963623047,
        0.03387010097503662,
        -0.2301211953163147,
        -0.3152368664741516,
        0.21001285314559937,
        0.08541236817836761,
        0.4528600871562958,
        -0.11579456180334091,
        0.0063310833647847176,
        -0.47634753584861755,
        0.050213929265737534,
        0.08461867272853851,
        -0.31215590238571167,
        0.11165546625852585,
        0.20709149539470673,
        -0.35877764225006104,
        0.0669260248541832,
        0.2192661166191101,
        -0.37615373730659485,
        0.19718077778816223,
        0.02064216509461403,
        -0.3655182719230652,
        0.058436766266822815,
        0.17822471261024475,
        0.3869921565055847,
        -0.10703343152999878,
        -0.21726877987384796,
        0.1577674299478531,
        0.02432277426123619,
        -0.004570122808218002,
        -0.23648568987846375,
        0.03162156417965889,
        0.21210184693336487,
        0.15098349750041962,
        -0.07952234148979187,
        0.023744096979498863,
        0.030405353754758835,
        0.08356764912605286,
        -0.06244020536541939,
        0.08465754985809326,
        0.10997534543275833,
        -0.2025727480649948,
        -0.09622974693775177,
        -0.12794020771980286,
        0.07796604931354523,
        0.00702488049864769,
        -0.04647114500403404,
        -0.2899107038974762,
        -0.04311855882406235,
        -0.06888627260923386,
        0.01474741380661726,
        -0.0011127835605293512,
        -0.118433378636837,
        0.03543182834982872,
        -0.15847048163414001,
        -0.019826877862215042,
        0.1500539928674698,
        0.21728287637233734,
        0.15116804838180542,
        0.011332256719470024,
        0.0428614616394043,
        0.03436221182346344,
        -0.16257096827030182,
        0.05489395186305046,
        0.08689892292022705,
        0.0534534677863121,
        0.023135079070925713,
        0.1400282233953476,
        -0.1533588021993637,
        0.12360919266939163,
        0.17549389600753784,
        -0.11477683484554291,
        -0.1575675755739212,
        -0.1458277851343155,
        0.2298744171857834,
        -0.043113283812999725,
        -0.11533857136964798,
        0.15833911299705505,
        -0.09386409819126129,
        -0.12803420424461365,
        -0.009641117416322231,
        0.09372049570083618,
        -0.03450546786189079,
        0.07915196567773819,
        0.1078227087855339,
        0.10042590647935867,
        -0.06648635864257812,
        -0.011144735850393772,
        -0.043500397354364395,
        -0.10540438443422318,
        0.025441421195864677,
        0.10666695982217789,
        0.10713828355073929,
        0.1405903846025467,
        -0.08550459146499634,
        -0.08208437263965607,
        0.12872779369354248,
        -0.06777774542570114,
        -0.11188846826553345,
        0.017446624115109444,
        0.0762750506401062,
        -0.11096782237291336,
        0.15130023658275604,
        0.05995357781648636,
        -0.09773294627666473,
        -0.05831357091665268,
        0.11709672212600708,
        -0.11231087148189545,
        -0.04072657227516174,
        0.0645282119512558,
        -0.09605290740728378,
        0.06090843677520752,
        0.08303669095039368,
        0.10062675178050995,
        -0.10704821348190308,
        0.15017250180244446,
        -0.07309948652982712,
        0.14246392250061035,
        -0.12651318311691284,
        -0.113990917801857,
        0.03942207619547844,
        -0.002339310944080353,
        -0.04446655139327049,
        -0.013827147893607616,
        -0.016491824761033058,
        -0.061021607369184494,
        -0.06241416186094284,
        0.015628613531589508,
        -0.017848629504442215,
        -0.0342419296503067,
        -0.00942282099276781,
        0.013609018176794052,
        0.06199297308921814,
        -0.056070685386657715,
        0.0038284573238343,
        -0.015445143915712833,
        -0.06115637347102165,
        -0.03618036210536957,
        -0.022992655634880066,
        0.7061678171157837,
        -0.291477769613266,
        0.698920726776123,
        -0.6728748679161072,
        -0.0015801083063706756,
        0.8986368775367737,
        0.8860316276550293,
        -0.504286527633667,
        0.09191793948411942,
        0.033564381301403046,
        -0.5989271402359009,
        -0.3274330496788025,
        0.15478721261024475,
        -0.8213591575622559,
        0.24384166300296783,
        0.4245007634162903,
        -0.16726985573768616,
        0.015969613566994667,
        0.04213134944438934,
        0.09292168915271759,
        0.13243958353996277,
        -0.010469785891473293,
        0.11104115843772888,
        0.06889881193637848,
        -0.003968349192291498,
        -0.04679025337100029,
        0.12993952631950378,
        0.07291536033153534,
        0.04143839329481125,
        0.03898666426539421,
        0.26868656277656555,
        0.03970875218510628,
        0.27250543236732483,
        -0.04399453103542328,
        -0.25316718220710754,
        0.14999717473983765,
        0.08245375752449036,
        -0.07332585006952286,
        -0.08830635994672775,
        0.01482541672885418,
        -0.04952685534954071,
        0.0470433309674263,
        -0.3378545045852661,
        0.03780921548604965,
        0.17339740693569183,
        -0.12386785447597504,
        0.17466898262500763,
        0.07176017016172409,
        0.12363553792238235,
        0.11777845770120621,
        0.18060819804668427,
        0.0870828703045845,
        -0.15926122665405273,
        0.08766069263219833,
        0.09447484463453293,
        0.022611865773797035,
        0.060849688947200775,
        -0.17571891844272614,
        0.3738078474998474,
        0.012055788189172745,
        0.1628313511610031,
        0.0033637401647865772,
        0.3465133309364319,
        0.08307819068431854,
        0.27786117792129517,
        -0.11781328916549683,
        -0.0067249140702188015,
        -0.34492751955986023,
        -0.1555951088666916,
        0.27768951654434204,
        0.08053600043058395,
        -0.10822738707065582,
        -0.07860974222421646,
        0.2041071057319641,
        -0.04309432953596115,
        0.008135606534779072,
        -0.03640805184841156,
        0.09070490300655365,
        -0.1054983139038086,
        -0.058170925825834274,
        0.018348313868045807,
        -0.4327719509601593,
        -0.10355310142040253,
        -0.061434388160705566,
        0.07183874398469925,
        0.15015383064746857,
        0.18260158598423004,
        -0.06584683805704117,
        0.26827871799468994,
        0.3589566648006439,
        -0.3331533372402191,
        0.0864235907793045,
        -0.1518426090478897,
        0.15964752435684204,
        -0.28422144055366516,
        -0.11097178608179092,
        -0.19800277054309845,
        0.05773604288697243,
        0.03406649827957153,
        0.04949655011296272,
        0.2508902847766876,
        0.17035764455795288,
        0.26963454484939575,
        -0.08377913385629654,
        0.13983207941055298,
        0.009473847225308418,
        -0.259507954120636,
        -0.13889914751052856,
        0.04965852200984955,
        -0.20142224431037903,
        -0.009531996212899685,
        0.09387893974781036,
        0.0033588979858905077,
        -0.08762568980455399,
        0.4146234691143036,
        0.021174943074584007,
        -0.4911234974861145,
        -0.1407877802848816,
        0.31319692730903625,
        0.05637761205434799,
        0.16766829788684845,
        -0.07618384808301926,
        -0.30534878373146057,
        0.057787422090768814,
        0.5164842009544373,
        -0.11100819706916809,
        0.016490986570715904,
        -0.14247570931911469,
        0.1830161213874817,
        0.09334360063076019,
        0.21459072828292847,
        -0.0935182124376297,
        -0.18087801337242126,
        0.056641072034835815,
        0.26070523262023926,
        0.03955551236867905,
        0.05673470348119736,
        -0.20081783831119537,
        0.08433264493942261,
        -0.10171783715486526,
        0.06373100727796555,
        -0.14989443123340607,
        -0.15905357897281647,
        0.09022486954927444,
        0.03149819374084473,
        0.030618460848927498,
        -0.16587111353874207,
        -0.185831218957901,
        0.027733249589800835,
        0.05093732476234436,
        -0.1844063550233841,
        -0.04431075602769852,
        -0.23457671701908112,
        -0.312594473361969,
        0.18463796377182007,
        0.05158040672540665,
        -0.11273141205310822,
        -0.08422640711069107,
        0.26390883326530457,
        -0.009261253289878368,
        -0.27237990498542786,
        0.06464998424053192,
        0.1941816806793213,
        -0.26387643814086914,
        -0.3344443738460541,
        0.036256298422813416,
        0.26088276505470276,
        -0.02816425822675228,
        0.050334956496953964,
        0.30326178669929504,
        0.11497560888528824,
        -0.0003134816943202168,
        0.10265689343214035,
        0.026535501703619957,
        -0.15553048253059387,
        0.11066766828298569,
        0.22810883820056915,
        0.2503076493740082,
        -0.1414012312889099,
        0.0602816566824913,
        -0.16135504841804504,
        -0.0892968475818634,
        0.06017445772886276,
        -0.010685855522751808,
        0.03947046026587486,
        -0.2194744199514389,
        -0.1428578794002533,
        -0.1175035908818245,
        -0.12419266253709793,
        0.2211107313632965,
        0.15279389917850494,
        0.21765555441379547,
        0.12255832552909851,
        -0.03803948685526848,
        0.08405966311693192,
        -0.01049416046589613,
        0.08913898468017578,
        -0.04138532280921936,
        -0.10425453633069992,
        0.03680704906582832,
        -0.028992529958486557,
        -0.27006322145462036,
        0.05415794625878334,
        -0.04868170619010925,
        -0.35499098896980286,
        0.17054522037506104,
        -0.13060012459754944,
        -0.21258267760276794,
        0.03721318766474724,
        0.04967357963323593,
        0.05715218186378479,
        0.020179690793156624,
        0.13293154537677765,
        -0.09151365607976913,
        -0.09473662078380585,
        0.030351165682077408,
        0.18026314675807953,
        -0.10788172483444214,
        -0.07744524627923965,
        -0.05637044832110405,
        0.07022774964570999,
        -0.207428976893425,
        0.003528507426381111,
        0.103131502866745,
        -0.07793788611888885,
        -0.23424749076366425,
        0.013888034038245678,
        0.12368034571409225,
        -0.24281875789165497,
        0.2565609812736511,
        0.25801146030426025,
        0.05648154392838478,
        0.03649962320923805,
        -0.04641711711883545,
        0.34303537011146545,
        -0.00876533705741167,
        -0.046629466116428375,
        -0.054373547434806824,
        -0.043063875287771225,
        0.06640686839818954,
        -0.05186967924237251,
        0.23701751232147217,
        0.0029490564484149218,
        -0.2374979555606842,
        0.10898593068122864,
        0.13243725895881653,
        0.08085804432630539,
        0.042976029217243195,
        -0.19194386899471283,
        0.05502678081393242,
        0.02431609481573105,
        -0.02916567586362362,
        0.0735875591635704,
        0.1044197678565979,
        -0.01760959066450596,
        0.020086612552404404,
        0.18790434300899506,
        0.10993989557027817,
        0.2679710388183594,
        -0.14289964735507965,
        -0.0851554349064827,
        0.25711339712142944,
        0.10014492273330688,
        0.09950607270002365,
        0.008516086265444756,
        -0.10425728559494019,
        -0.02474091947078705,
        0.03583172708749771,
        0.36222389340400696,
        -0.008689019829034805,
        0.023865297436714172,
        -0.06384657323360443,
        0.055051039904356,
        -0.1104954406619072,
        0.09077298641204834,
        -0.07154730707406998,
        -0.0004731847729999572,
        -0.008367069065570831,
        0.0382283590734005,
        -0.02272670716047287,
        0.002979793818667531,
        -0.08354904502630234,
        0.04903438687324524,
        0.02673133835196495,
        0.03601764515042305,
        0.04983566701412201,
        0.06263919174671173,
        -0.05303648114204407,
        -0.044914357364177704,
        -0.010208961553871632,
        -0.10167190432548523,
        0.5722447633743286,
        -0.1779405176639557,
        0.32426583766937256,
        -0.18920829892158508,
        0.2858947813510895,
        -0.022706888616085052,
        -0.1300429105758667,
        0.06094187870621681,
        0.040588781237602234,
        -0.03211395815014839,
        -0.356251984834671,
        0.030661018565297127,
        0.2635931968688965,
        0.06179359555244446,
        0.03999435529112816,
        -0.22474588453769684,
        0.1147087961435318,
        0.11121130734682083,
        0.029572974890470505,
        0.14524944126605988,
        -0.13608258962631226,
        0.10304475575685501,
        0.10317773371934891,
        -0.11992814391851425,
        -0.32825180888175964,
        0.2553921341896057,
        -0.14882996678352356,
        0.13077586889266968,
        -0.45147979259490967,
        0.10757168382406235,
        -0.0011225516209378839,
        -0.48938387632369995,
        0.019788134843111038,
        -0.14564532041549683,
        -0.0531512051820755,
        -0.1218821257352829,
        -0.5664577484130859,
        0.4213874042034149,
        -0.16774114966392517,
        -0.21594960987567902,
        -0.04682094603776932,
        -0.042004384100437164,
        0.12772907316684723,
        0.09716793149709702,
        -0.032133549451828,
        -0.005076350644230843,
        0.09759781509637833,
        0.19915148615837097,
        0.12293669581413269,
        0.046180661767721176,
        0.12300457805395126,
        -0.0760425329208374,
        0.04583891108632088,
        0.1990308165550232,
        0.02057572454214096,
        0.09377055615186691,
        0.008707759901881218,
        0.014356907457113266,
        -0.12805913388729095,
        -0.010951854288578033,
        -0.22284743189811707,
        -0.3070005476474762,
        -0.09260811656713486,
        0.23923155665397644,
        -0.6667225360870361,
        0.04749187454581261,
        0.15895967185497284,
        -0.16838335990905762,
        -0.06527947634458542,
        -0.07607496529817581,
        0.2029813826084137,
        0.11664903163909912,
        0.02305266447365284,
        -0.12637849152088165,
        -0.26909661293029785,
        0.16994503140449524,
        0.21102821826934814,
        0.16438724100589752,
        -0.018468160182237625,
        0.20263971388339996,
        0.23712314665317535,
        -0.25369277596473694,
        -0.07078547775745392,
        0.00707576097920537,
        -0.07448160648345947,
        0.10648801922798157,
        0.12443576008081436,
        -0.16399727761745453,
        -0.04948117211461067,
        -0.023688485845923424,
        0.10500640422105789,
        0.05410895496606827,
        -0.07505138963460922,
        -0.14438201487064362,
        -0.0930834487080574,
        0.012152232229709625,
        0.1726180464029312,
        0.07932943105697632,
        -0.1278434842824936,
        -0.2262924164533615,
        0.06906681507825851,
        0.09744634479284286,
        0.07973034679889679,
        0.029205696657299995,
        -0.02709975652396679,
        0.16915848851203918,
        0.03602970764040947,
        0.11121521145105362,
        0.04268720746040344,
        0.024375926703214645,
        0.10096711665391922,
        0.15489435195922852,
        -0.04892684146761894,
        -0.1387692242860794,
        0.16484613716602325,
        -0.10270708054304123,
        -0.007338013034313917,
        -0.15904225409030914,
        -0.05402394384145737,
        0.07107017189264297,
        0.08633264154195786,
        0.11524687707424164,
        -0.19054755568504333,
        -0.27448371052742004,
        -0.19613692164421082,
        0.196571946144104,
        0.05808861181139946,
        -0.01014311145991087,
        0.16881346702575684,
        -0.143925279378891,
        0.03926018252968788,
        0.08240102976560593,
        -0.04375053942203522,
        -0.06519095599651337,
        0.09759571403265,
        -0.24159327149391174,
        0.12392669916152954,
        0.20003584027290344,
        -0.061242494732141495,
        0.0637674629688263,
        0.08400937914848328,
        -0.12416777014732361,
        -0.13136368989944458,
        -0.034267157316207886,
        -0.1243073120713234,
        0.0536566860973835,
        -0.06941093504428864,
        0.09701022505760193,
        -0.1358223259449005,
        -0.21135500073432922,
        0.13832005858421326,
        0.09963760524988174,
        -0.11990106850862503,
        -0.020415576174855232,
        -0.10694614797830582,
        -0.033772800117731094,
        -0.2164505422115326,
        0.08258001506328583,
        0.001606326550245285,
        -0.19234882295131683,
        -0.0985238254070282,
        0.0771951675415039,
        -0.3329993188381195,
        -0.030839543789625168,
        0.12566207349300385,
        0.16406291723251343,
        -0.15261945128440857,
        -0.06341372430324554,
        0.08538995683193207,
        -0.12708644568920135,
        0.19120898842811584,
        0.19242677092552185,
        -0.08202705532312393,
        -0.16707152128219604,
        0.2188582420349121,
        0.10547053068876266,
        0.05955052375793457,
        0.23624849319458008,
        0.1476321965456009,
        -0.1097160205245018,
        0.0717378631234169,
        -0.15321186184883118,
        -0.14816096425056458,
        0.020061669871211052,
        -0.018941909074783325,
        0.03277361020445824,
        0.05613794922828674,
        0.1547703593969345,
        0.19029280543327332,
        -0.3418129086494446,
        -0.1000165194272995,
        0.03510482236742973,
        0.17561621963977814,
        0.040854312479496,
        -0.04962633177638054,
        -0.5260763764381409,
        0.05156312137842178,
        0.0408361591398716,
        -0.09580057114362717,
        0.20368647575378418,
        0.22439104318618774,
        -0.10069132596254349,
        -0.19348007440567017,
        -0.21550248563289642,
        0.00017128685431089252,
        0.1003534197807312,
        -0.1773054599761963,
        -0.01611308567225933,
        -0.09796351939439774,
        -0.1809273511171341,
        0.36003240942955017,
        0.29320770502090454,
        0.029440786689519882,
        -0.21968547999858856,
        -0.041743747889995575,
        0.023624539375305176,
        0.23922774195671082,
        0.19043195247650146,
        0.04565128684043884,
        -0.10190851986408234,
        -0.37090355157852173,
        0.045777514576911926,
        -0.15333807468414307,
        -0.044988419860601425,
        0.2395814210176468,
        -0.6340956687927246,
        -0.3154619634151459,
        0.10931948572397232,
        -0.1412847936153412,
        0.05761421471834183,
        0.08884233236312866,
        -0.3592025637626648,
        -0.25930970907211304,
        -0.05052735656499863,
        0.26003018021583557,
        0.14550067484378815,
        -0.0318465456366539,
        -0.050086501985788345,
        -0.236057847738266,
        -0.16341014206409454,
        -0.1509164273738861,
        0.28119975328445435,
        0.05415649712085724,
        0.06496134400367737,
        -0.1781138777732849,
        -0.062230657786130905,
        0.0725712850689888,
        0.14066024124622345,
        0.1091146469116211,
        -0.0636354386806488,
        0.0004440720076672733,
        0.07499945163726807,
        -0.03379939869046211,
        0.10677922517061234,
        0.04025932773947716,
        -0.10793230682611465,
        0.030477801337838173,
        0.03414409980177879,
        -0.17017486691474915,
        -0.08176080882549286,
        0.21342754364013672,
        0.2866981625556946,
        0.06821011751890182,
        -0.1700168401002884,
        0.030312221497297287,
        -0.032599542289972305,
        0.1320052146911621,
        0.21328683197498322,
        0.04325104504823685,
        -0.14299297332763672,
        0.31121742725372314,
        -0.20855286717414856,
        -0.04019460082054138,
        0.34713754057884216,
        0.08209866285324097,
        -0.012321467511355877,
        -0.10143116861581802,
        -0.2243373990058899,
        0.0652935802936554,
        0.08597418665885925,
        -0.042782384902238846,
        -0.30801814794540405,
        -0.11931928992271423,
        0.17471235990524292,
        0.0966109037399292,
        -0.04240943863987923,
        0.1133289709687233,
        0.003949615638703108,
        0.41782113909721375,
        0.17347906529903412,
        0.10914768278598785,
        -0.174850195646286,
        -0.05146310105919838,
        0.18301990628242493,
        0.11945986747741699,
        0.027212126180529594,
        0.008557895198464394,
        -0.24353770911693573,
        0.14425653219223022,
        -0.1345919370651245,
        0.42907217144966125,
        -0.07539648562669754,
        0.2638413608074188,
        0.32372820377349854,
        -0.4674302339553833,
        0.33271828293800354,
        0.18840378522872925,
        0.03650123253464699,
        -0.019660191610455513,
        0.0633760318160057,
        -0.03293029963970184,
        -0.024727538228034973,
        0.048652276396751404,
        -0.03242569789290428,
        -0.03785982355475426,
        0.005602727178484201,
        -0.08561330288648605,
        0.11386705935001373,
        -0.26052579283714294,
        0.20369049906730652,
        -0.09837399423122406,
        -0.1276502162218094,
        0.13696253299713135,
        0.10715660452842712,
        -0.25888293981552124,
        0.13196943700313568,
        -0.190224751830101,
        -0.34366944432258606,
        0.025976570323109627,
        -0.04283778741955757,
        0.14591184258460999,
        -0.1318400651216507,
        0.11586195975542068,
        -0.15468858182430267,
        -0.010642359964549541,
        0.04547619819641113,
        0.15020470321178436,
        -0.013345260173082352,
        0.033824481070041656,
        -0.20023569464683533,
        -0.043158452957868576,
        0.1137852668762207,
        -0.05999842658638954,
        -0.0277238842099905,
        0.03663064166903496,
        -0.08686551451683044,
        -0.12499108910560608,
        -0.16849768161773682,
        0.23983514308929443,
        -0.11512240767478943,
        -0.023571370169520378,
        0.14583444595336914,
        -0.05546848848462105,
        0.05741037428379059,
        0.2208545058965683,
        -0.023262994363904,
        -0.04400055482983589,
        -0.05234210938215256,
        -0.12196733057498932,
        0.153688445687294,
        0.1969602406024933,
        0.11369451135396957,
        -0.09732694178819656,
        0.015490560792386532,
        -0.11632943153381348,
        0.08427148312330246,
        -0.17633497714996338,
        -0.031008027493953705,
        0.07345603406429291,
        -0.21079951524734497,
        -0.029668064787983894,
        -0.03121252916753292,
        -0.10759111493825912,
        -0.06501071155071259,
        -0.07879038155078888,
        -0.0803036242723465,
        0.005201814696192741,
        0.09859205782413483,
        -0.006794256158173084,
        -0.03494305536150932,
        0.06270457804203033,
        0.25833743810653687,
        0.1053125336766243,
        -0.13201448321342468,
        -0.25583603978157043,
        -0.0990823358297348,
        0.16990213096141815,
        0.2437589019536972,
        0.011478685773909092,
        0.06454391032457352,
        -0.08758791536092758,
        -0.04658793658018112,
        -0.2853589355945587,
        0.05064088851213455,
        -0.05691872909665108,
        -0.1471116542816162,
        -0.03768542781472206,
        0.16146312654018402,
        0.12924224138259888,
        0.10275249183177948,
        0.1819888800382614,
        -0.4017295837402344,
        -0.13705606758594513,
        0.11553199589252472,
        0.21676310896873474,
        0.15761999785900116,
        -0.14715497195720673,
        0.35550209879875183,
        -0.01210733037441969,
        0.2154081165790558,
        -0.1681014746427536,
        -0.05282311141490936,
        -0.21929408609867096,
        -0.10309144854545593,
        -0.04345225170254707,
        -0.20926089584827423,
        0.06263339519500732,
        0.15489564836025238,
        0.1424388289451599,
        0.07006031274795532,
        0.005242550279945135,
        -0.19126929342746735,
        -0.43289950489997864,
        0.10642466694116592,
        -0.17534641921520233,
        -0.030212653800845146,
        -0.1460229605436325,
        0.019211044535040855,
        -0.08338230848312378,
        0.10160946846008301,
        0.11336568742990494,
        0.028755974024534225,
        -0.022137008607387543,
        0.028991587460041046,
        0.06193312630057335,
        -0.12269821763038635,
        -0.008608575910329819,
        -0.10753454267978668,
        -0.006162364035844803,
        0.0403067022562027,
        -0.18773023784160614,
        0.207260861992836,
        0.03310756757855415,
        0.02764587290585041,
        -0.1655755192041397,
        -0.06287023425102234,
        0.1089005321264267,
        -0.17274463176727295,
        -0.35366901755332947,
        0.1421099454164505,
        -0.290580153465271,
        -0.020019996911287308,
        0.21508817374706268,
        0.03837708383798599,
        0.06303420662879944,
        -0.16024743020534515,
        -0.23695002496242523,
        -0.09778831154108047,
        0.15397916734218597,
        0.09094052761793137,
        0.08968581259250641,
        -0.030252456665039062,
        0.176553413271904,
        0.062354471534490585,
        -0.06560755521059036,
        0.008814416825771332,
        -0.16358818113803864,
        -0.26457667350769043,
        -0.2281481921672821,
        0.02020295150578022,
        -0.09946267306804657,
        -0.014940999448299408,
        -0.09843872487545013,
        -0.02000906877219677,
        -0.02984234131872654,
        -0.004928917624056339,
        -0.049963369965553284,
        -0.058096177875995636,
        0.036338675767183304,
        -0.19820182025432587,
        -0.20729610323905945,
        0.1772078275680542,
        -0.056333720684051514,
        0.023689184337854385,
        -0.0972023531794548,
        -0.1110929548740387,
        -0.09774865210056305,
        -0.0353829562664032,
        -0.026690172031521797,
        -0.003648479701951146,
        0.023508118465542793,
        -0.0664590448141098,
        -0.0692913830280304,
        0.11606115847826004,
        0.1007407084107399,
        -0.20378966629505157,
        0.18252551555633545,
        0.22725951671600342,
        -0.23983274400234222,
        0.030474523082375526,
        0.15303407609462738,
        0.020930200815200806,
        -0.05163194611668587,
        0.024292100220918655,
        -0.09639197587966919,
        -0.16961230337619781,
        0.036633145064115524,
        0.2019418627023697,
        0.05442674458026886,
        -0.15734465420246124,
        0.19631589949131012,
        0.0035158530808985233,
        -0.145899698138237,
        0.1896975189447403,
        -0.02422947622835636,
        -0.05631577968597412,
        0.013618760742247105,
        -0.1294897496700287,
        -0.12426839768886566,
        0.16607065498828888,
        0.009453775361180305,
        -0.12852005660533905,
        -0.03843829780817032,
        -0.07738941162824631,
        0.06831218302249908,
        0.03917433321475983,
        -0.061169713735580444,
        -0.21907250583171844,
        -0.11742308735847473,
        0.06986850500106812,
        0.08495146036148071,
        -0.34268638491630554,
        0.011277002282440662,
        0.0460611917078495,
        -0.06800583750009537,
        0.051630496978759766,
        -0.013935327529907227,
        0.19168759882450104,
        0.13034874200820923,
        -0.13432766497135162,
        -0.07022801786661148,
        0.1106102392077446,
        0.10125312209129333,
        -0.2221480906009674,
        0.08614391833543777,
        0.12771132588386536,
        0.3121739327907562,
        0.18816159665584564,
        0.06728002429008484,
        -0.13671351969242096,
        -0.08603920042514801,
        0.048805225640535355,
        0.10142222046852112,
        0.09292425960302353,
        -0.06441707164049149,
        -0.23347486555576324,
        -0.0063166506588459015,
        -0.06412776559591293,
        -0.005147191230207682,
        0.034594058990478516,
        -0.005958844907581806,
        -0.3757230341434479,
        -0.14477185904979706,
        0.04777708277106285,
        0.09864674508571625,
        -0.12050602585077286,
        -0.18000788986682892,
        0.0982837975025177,
        0.014107123017311096,
        -0.14715470373630524,
        -0.25703442096710205,
        0.05479798465967178,
        0.192798912525177,
        -0.02761090360581875,
        0.062345314770936966,
        -0.09572598338127136,
        0.004873871803283691,
        0.08371303230524063,
        -0.1494322568178177,
        0.2961429953575134,
        0.12842127680778503,
        -0.05975790321826935,
        0.11719024181365967,
        0.03255787864327431,
        -0.03569331020116806,
        0.0974825918674469,
        -0.0990278497338295,
        -0.09350315481424332,
        -0.12810178101062775,
        -0.12969303131103516,
        0.12557224929332733,
        -0.07093413174152374,
        -0.29047632217407227,
        0.05837210640311241,
        -0.275276243686676,
        -0.15518949925899506,
        0.09614083915948868,
        -0.010821422562003136,
        0.09201927483081818,
        -0.011989536695182323,
        -0.09993062913417816,
        -0.031548283994197845,
        0.004370161332190037,
        0.16133743524551392,
        0.17272672057151794,
        -0.10412824898958206,
        0.11807182431221008,
        -0.1518494039773941,
        -0.07633852958679199,
        0.2817576825618744,
        -0.03162052109837532,
        0.09151795506477356,
        0.09000080078840256,
        0.039289068430662155,
        -0.08605989813804626,
        0.17746740579605103,
        -0.079527348279953,
        -0.02103583514690399,
        0.09042520076036453,
        0.1359342634677887,
        0.022334514185786247,
        -0.10333721339702606,
        0.12759827077388763,
        0.06421694904565811,
        0.4602396786212921,
        -0.39172887802124023,
        0.5151329636573792,
        -0.00923758652061224,
        0.06520780920982361,
        0.05010020732879639,
        -0.08552049845457077,
        0.06623581796884537,
        0.012723722495138645,
        0.00809444673359394,
        0.25895121693611145,
        0.017985312268137932,
        -0.24749812483787537,
        -0.48490849137306213,
        0.1568436324596405,
        -0.221700981259346,
        -0.4842180907726288,
        0.3065685033798218,
        -0.0011520482366904616,
        -0.26024606823921204,
        0.10179008543491364,
        0.0990065485239029,
        -0.162663996219635,
        0.14899690449237823,
        -0.03878099471330643,
        -0.023113630712032318,
        0.14189794659614563,
        0.22651222348213196,
        0.19419485330581665,
        -0.05388364940881729,
        0.16421228647232056,
        0.5167649984359741,
        -0.28000301122665405,
        -0.22969166934490204,
        0.031720347702503204,
        -0.17169681191444397,
        -0.18454383313655853,
        0.308411568403244,
        -0.17752842605113983,
        -0.11668691039085388,
        0.18677525222301483,
        -0.3803357481956482,
        -0.012881306931376457,
        -0.49673983454704285,
        0.23065489530563354,
        0.13374865055084229,
        0.01524075772613287,
        -0.05659176781773567,
        0.37023118138313293,
        0.9266894459724426,
        -0.22605955600738525,
        0.08877649903297424,
        -0.09029035270214081,
        0.09364231675863266,
        -0.12034189701080322,
        -0.25290435552597046,
        -0.09074591100215912,
        -0.03826756030321121,
        -0.12176970392465591,
        -0.10229628533124924,
        -0.14264778792858124,
        0.10071994364261627,
        0.05852903425693512,
        -0.039227813482284546,
        -0.045870378613471985,
        0.18748396635055542,
        -0.10380371659994125,
        0.24182230234146118,
        -0.07134867459535599,
        0.3445250988006592,
        0.17576473951339722,
        -0.00508131505921483,
        -0.3131624460220337,
        -0.35119396448135376,
        0.23543371260166168,
        0.1482255756855011,
        0.08888227492570877,
        -0.14726875722408295,
        0.2775701880455017,
        -0.18598806858062744,
        -0.08759196847677231,
        0.03584054112434387,
        -0.21333163976669312,
        -0.06727788597345352,
        0.14085327088832855,
        -0.1306079626083374,
        0.09128819406032562,
        -0.031317807734012604,
        -0.24687553942203522,
        -0.0647764578461647,
        0.08862978219985962,
        0.34104424715042114,
        0.11541879177093506,
        -0.02380998805165291,
        0.07420579344034195,
        -0.12987084686756134,
        0.051566269248723984,
        0.15623754262924194,
        0.13029320538043976,
        0.2437189817428589,
        0.03592653200030327,
        -0.07014584541320801,
        0.16862118244171143,
        0.00813790038228035,
        -0.21672436594963074,
        -0.047916751354932785,
        -0.07243473827838898,
        0.022810546681284904,
        -0.08752365410327911,
        -0.04523048177361488,
        0.07307955622673035,
        0.043842416256666183,
        -0.02038400061428547,
        -0.08331457525491714,
        -0.21768027544021606,
        -0.18400362133979797,
        -0.034998077899217606,
        0.05233628675341606,
        -0.0432569682598114,
        -0.15733250975608826,
        -0.28041648864746094,
        0.05388586223125458,
        0.23243752121925354,
        0.15364395081996918,
        0.18210192024707794,
        -0.22180309891700745,
        0.034588366746902466,
        -0.0314214788377285,
        -0.10168004035949707,
        0.16647659242153168,
        -0.14793361723423004,
        -0.10860377550125122,
        0.03289386257529259,
        0.08558384329080582,
        -0.19619791209697723,
        0.19111281633377075,
        -0.11009318381547928,
        -0.1028270274400711,
        0.06310292333364487,
        0.23117198050022125,
        0.19363175332546234,
        0.10428782552480698,
        0.02045680768787861,
        -0.012460002675652504,
        0.039093486964702606,
        -0.35179728269577026,
        -0.02094017155468464,
        0.09332894533872604,
        0.11797788739204407,
        -0.01949610561132431,
        -0.054016318172216415,
        0.0075605581514537334,
        0.10294055193662643,
        0.0683538168668747,
        0.03617873787879944,
        0.06583702564239502,
        -0.1088213175535202,
        -0.23700152337551117,
        0.35048040747642517,
        0.2548554837703705,
        -0.6102220416069031,
        0.14952169358730316,
        -0.8135051727294922,
        -0.21974796056747437,
        -0.34394577145576477,
        0.9173352122306824,
        -0.7619003057479858,
        -0.579924464225769,
        -0.9066891670227051,
        0.091227225959301,
        -0.5073888301849365,
        0.5316091775894165,
        -0.607826828956604,
        -0.5035672783851624,
        -0.2807346284389496,
        -0.022926999256014824,
        0.2736671566963196,
        0.22379089891910553,
        0.025783628225326538,
        -0.3361877501010895,
        -0.06600221246480942,
        0.13087818026542664,
        -0.11456160247325897,
        0.21260443329811096,
        0.22804217040538788,
        0.15421448647975922,
        -0.2632730305194855,
        -0.3884929418563843,
        -0.03434748202562332,
        -0.3299473524093628,
        -0.10931345075368881,
        -0.2242640107870102,
        0.29918399453163147,
        -0.2986639440059662,
        0.43539875745773315,
        -0.3053034543991089,
        -0.5094845294952393,
        0.14933204650878906,
        0.17718110978603363,
        0.3113937973976135,
        0.031654417514801025,
        0.27290791273117065,
        0.06923207640647888,
        -0.045238714665174484,
        0.4527719020843506,
        -0.4679953455924988,
        -0.15311267971992493,
        -0.20326951146125793,
        0.395428329706192,
        -0.14010067284107208,
        0.3891041576862335,
        -0.07872727513313293,
        -0.12172587215900421,
        0.042243704199790955,
        0.18381406366825104,
        -0.02126585692167282,
        -0.39165523648262024,
        0.2797708511352539,
        -0.12765377759933472,
        -0.03214436396956444,
        0.2133171707391739,
        0.01285094115883112,
        0.09700053930282593,
        -0.19824612140655518,
        -0.13143880665302277,
        -0.29230111837387085,
        0.07666639238595963,
        -0.13948799669742584,
        -0.08602671325206757,
        0.2670527696609497,
        0.1499338448047638,
        0.0829368308186531,
        0.36676347255706787,
        0.16617922484874725,
        -0.2195810228586197,
        0.15857505798339844,
        0.05799237638711929,
        0.10277155041694641,
        0.09826600551605225,
        -0.14612188935279846,
        -0.132074236869812,
        0.2527276873588562,
        -0.09150660783052444,
        0.05116749927401543,
        0.2214658409357071,
        0.17929281294345856,
        -0.14767935872077942,
        -0.1601696014404297,
        0.18561780452728271,
        -0.12797020375728607,
        -0.06183339282870293,
        -0.0032821185886859894,
        -0.23972903192043304,
        -0.18627896904945374,
        0.48437318205833435,
        -0.34211617708206177,
        -0.08086329698562622,
        0.06428816169500351,
        -0.12847627699375153,
        -0.06910581141710281,
        -0.1273871809244156,
        0.09092973172664642,
        0.2696675658226013,
        -0.011952193453907967,
        -0.3360121548175812,
        -0.07804816961288452,
        0.43248409032821655,
        0.05112934857606888,
        0.04612470418214798,
        0.11795303225517273,
        -0.6567324995994568,
        -0.02178807556629181,
        -0.1430160403251648,
        0.32045701146125793,
        0.3163433372974396,
        -0.39818137884140015,
        -0.2690456211566925,
        0.3693807125091553,
        0.03816409409046173,
        -0.11143696308135986,
        0.03872428461909294,
        0.1265203207731247,
        0.05281591787934303,
        -0.20544682443141937,
        0.3922796845436096,
        0.2836349904537201,
        0.17791593074798584,
        0.05495079606771469,
        0.03874422609806061,
        0.3211079239845276,
        -0.11198458820581436,
        -0.09033481776714325,
        0.04844832792878151,
        -0.05887487158179283,
        0.238287091255188,
        -0.26155221462249756,
        0.04815021902322769,
        -0.19729749858379364,
        0.17631027102470398,
        0.11275815963745117,
        -0.0020880387164652348,
        0.16534540057182312,
        0.24236473441123962,
        -0.10482355207204819,
        -0.1220972090959549,
        -0.24579916894435883,
        -0.13711991906166077,
        0.23087526857852936,
        -0.13835901021957397,
        -0.05664801225066185,
        0.12368953973054886,
        0.20777933299541473,
        -0.18497003614902496,
        0.0518769696354866,
        0.04774216562509537,
        -0.24319493770599365,
        0.34665465354919434,
        0.10585727542638779,
        -0.02157576009631157,
        0.08356472849845886,
        -0.044374190270900726,
        0.3383871614933014,
        -0.24923352897167206,
        0.23726008832454681,
        0.15543554723262787,
        0.3197357952594757,
        -0.20049256086349487,
        -0.020938698202371597,
        0.5128119587898254,
        -0.19614233076572418,
        0.061180923134088516,
        0.4358287751674652,
        -0.3704468607902527,
        -0.0932307243347168,
        -0.1818876564502716,
        -0.11164532601833344,
        0.12876836955547333,
        0.013386686332523823,
        -0.1109636127948761,
        -0.17166107892990112,
        -0.02180190198123455,
        0.41950318217277527,
        0.321540892124176,
        -0.23666197061538696,
        -0.020627038553357124,
        0.19404949247837067,
        -0.12866857647895813,
        0.08944831043481827,
        0.1308283656835556,
        0.3024286925792694,
        0.3183736205101013,
        -0.2682318687438965,
        -0.06982536613941193,
        -0.20454110205173492,
        -0.14078718423843384,
        0.312433660030365,
        0.1667376607656479,
        -0.21740053594112396,
        0.275269091129303,
        0.25244587659835815,
        -0.260206013917923,
        0.19408145546913147,
        0.07806367427110672,
        -0.018688853830099106,
        -0.009815938770771027,
        0.14294731616973877,
        -0.290715754032135,
        -0.11224924027919769,
        0.1770295798778534,
        -0.00844910740852356,
        -0.03937981277704239,
        0.023007947951555252,
        0.17106445133686066,
        -0.10821937769651413,
        0.013176515698432922,
        -0.23775716125965118,
        -0.257534384727478,
        0.23705443739891052,
        -0.03131173178553581,
        -0.13677720725536346,
        0.03879254311323166,
        0.40832552313804626,
        -0.08804916590452194,
        -0.09880005568265915,
        0.1437486708164215,
        -0.4400846064090729,
        -0.11607825756072998,
        0.025140102952718735,
        0.1081424131989479,
        0.2532835602760315,
        0.18550635874271393,
        0.018950363621115685,
        -0.07282712310552597,
        0.22528159618377686,
        -0.057280924171209335,
        -0.09821763634681702,
        -0.1067003607749939,
        0.08822327107191086,
        0.26240208745002747,
        0.07079517096281052,
        -0.07141298800706863,
        -0.20377963781356812,
        -0.1788395345211029,
        -0.22796402871608734,
        -0.04761844500899315,
        -0.13559500873088837,
        0.15198177099227905,
        -0.18695393204689026,
        -0.0746060386300087,
        0.005272590555250645,
        0.20770114660263062,
        -0.24990925192832947,
        0.19600160419940948,
        0.1683737188577652,
        -0.3442012667655945,
        0.008516942150890827,
        -0.13117913901805878,
        -0.3358725905418396,
        0.030317196622490883,
        -0.16175952553749084,
        0.16481144726276398,
        0.38315263390541077,
        -0.3448333740234375,
        0.010254846885800362,
        0.15089578926563263,
        -0.2973026931285858,
        0.4513261914253235,
        -0.6234651803970337,
        -0.22220478951931,
        -0.0009105156059376895,
        -0.06927681714296341,
        -0.039003342390060425,
        -0.1250832974910736,
        -0.018873801454901695,
        0.04704536497592926,
        0.2087911069393158,
        0.22584137320518494,
        0.015300794504582882,
        0.1371413916349411,
        -0.04725745692849159,
        -0.16965746879577637,
        -0.06168118491768837,
        -0.2878274917602539,
        -0.11558929830789566,
        -0.15725679695606232,
        0.3398411273956299,
        -0.10052458196878433,
        -0.373489111661911,
        0.05963285639882088,
        -0.4887712299823761,
        0.06456125527620316,
        0.1324523538351059,
        -0.11867177486419678,
        -0.039731912314891815,
        0.19652430713176727,
        -0.18022726476192474,
        -0.15562179684638977,
        0.14138248562812805,
        0.18520794808864594,
        -0.03595578297972679,
        -0.055567361414432526,
        -0.7210063934326172,
        1.0190237760543823,
        -0.02257774956524372,
        -0.3118569552898407,
        0.07102485746145248,
        -0.184465691447258,
        0.032340046018362045,
        -0.0803385078907013,
        -0.037994589656591415,
        -0.0032027417328208685,
        -0.02725384198129177,
        -0.028439221903681755,
        0.14494545757770538,
        -0.013262414373457432,
        -0.0813889428973198,
        -0.12447136640548706,
        -0.08650027960538864,
        -0.020773064345121384,
        -0.05003398284316063,
        -0.05304096266627312,
        0.06624379754066467,
        -0.09305082261562347,
        -0.07598218321800232,
        0.1755189597606659,
        0.03518388792872429,
        -0.029496580362319946,
        0.3179951310157776,
        0.1775747537612915,
        -0.04579510539770126,
        0.4498702585697174,
        -0.5364300012588501,
        -0.05902019888162613,
        -0.2483816295862198,
        -0.26769375801086426,
        0.07227074354887009,
        0.04028673470020294,
        0.05562945082783699,
        -0.187959685921669,
        0.08574263751506805,
        0.007402973249554634,
        0.10258094221353531,
        -0.08747710287570953,
        -0.22259211540222168,
        -0.010507484897971153,
        0.05211903154850006,
        -0.08305538445711136,
        -0.018035100772976875,
        0.5742100477218628,
        0.29089900851249695,
        -0.10294785350561142,
        -0.03130603954195976,
        -0.1668906956911087,
        -0.3200627863407135,
        0.192969411611557,
        0.27998587489128113,
        0.17535707354545593,
        0.06675544381141663,
        -0.022224217653274536,
        -0.14892669022083282,
        0.09450498223304749,
        0.223682701587677,
        0.18538102507591248,
        0.3714824914932251,
        -0.2320055067539215,
        -0.44821280241012573,
        -0.15087130665779114,
        -0.059985220432281494,
        -0.10599470138549805,
        -0.08502904325723648,
        0.03415403142571449,
        -0.09616869688034058,
        -0.23108145594596863,
        -0.10518882423639297,
        -0.37980008125305176,
        -0.1714363694190979,
        0.1217629536986351,
        -0.01659780740737915,
        -0.19874611496925354,
        -0.3137390911579132,
        -0.10547870397567749,
        0.23155832290649414,
        0.07484345138072968,
        -0.041935209184885025,
        -0.006990417838096619,
        0.0872223824262619,
        -0.008216357789933681,
        -0.0865267738699913,
        0.03534260764718056,
        0.13636231422424316,
        -0.22234328091144562,
        -0.00047688427730463445,
        0.4182283580303192,
        0.107362300157547,
        -0.12362093478441238,
        0.013923955149948597,
        0.09016099572181702,
        0.2900763750076294,
        -0.27435004711151123,
        0.03236391022801399,
        0.1337672770023346,
        -0.12416808307170868,
        0.08696989715099335,
        0.08019525557756424,
        -0.07931980490684509,
        -0.1624005287885666,
        -0.05875319242477417,
        0.00903482735157013,
        0.23098888993263245,
        0.08024366945028305,
        -0.125758558511734,
        -0.22273065149784088,
        0.07506638020277023,
        0.11515290290117264,
        -0.17194630205631256,
        0.0950751081109047,
        0.22505967319011688,
        -0.11313305050134659,
        -0.03462360054254532,
        0.09002533555030823,
        -0.27489954233169556,
        -0.02422376535832882,
        0.3112639784812927,
        0.03407466411590576,
        -0.008458193391561508,
        0.019106300547719002,
        0.0009328182204626501,
        0.16787973046302795,
        0.029380235821008682,
        -0.08398833870887756,
        -0.08388608694076538,
        0.4606819748878479,
        -0.036990609019994736,
        0.31391629576683044,
        -0.036731377243995667,
        -0.05619903281331062,
        0.21669922769069672,
        -0.11910045146942139,
        -0.00588622409850359,
        -0.019031347706913948,
        -0.19370681047439575,
        0.05805729702115059,
        -0.13705891370773315,
        -0.02400388941168785,
        -0.05635213479399681,
        0.1763676404953003,
        -0.10482589900493622,
        0.034014031291007996,
        -0.16124573349952698,
        0.12117516994476318,
        0.08297750353813171,
        0.0803145095705986,
        0.17033857107162476,
        -0.10112638771533966,
        0.015881581231951714,
        0.01205411832779646,
        -0.1106133684515953,
        -0.16969546675682068,
        -0.15474814176559448,
        0.09500226378440857,
        0.09949659556150436,
        -0.03092106431722641,
        0.00032308249501511455,
        0.044963546097278595,
        -0.13439203798770905,
        -0.12216739356517792,
        -0.06763879209756851,
        -0.058030515909194946,
        -0.18706239759922028,
        -0.053268030285835266,
        -0.0818171575665474,
        0.02017541229724884,
        0.11644697934389114,
        0.14493609964847565,
        0.06333906203508377,
        -0.3460170328617096,
        0.19271689653396606,
        0.19459684193134308,
        -0.09153997153043747,
        0.009906143881380558,
        0.09553956985473633,
        0.0016683979192748666,
        0.04468643292784691,
        0.20399941504001617,
        0.039217349141836166,
        -0.06187139451503754,
        0.2337346225976944,
        0.11781120300292969,
        -0.20317210257053375,
        -0.13296271860599518,
        0.11612682789564133,
        0.05414698272943497,
        0.07036247849464417,
        -0.04702857881784439,
        0.1310277283191681,
        0.2065698504447937,
        -0.10461301356554031,
        -0.04170195013284683,
        -0.21518710255622864,
        -0.16032256186008453,
        0.0641041249036789,
        0.051823318004608154,
        -0.18424801528453827,
        -0.0022969688288867474,
        0.0027827732264995575,
        0.14049135148525238,
        0.09833157807588577,
        0.19713148474693298,
        -0.11904976516962051,
        -0.16133005917072296,
        0.09458580613136292,
        0.05228450521826744,
        -0.21263214945793152,
        0.05855192616581917,
        0.08972631394863129,
        -0.09884895384311676,
        0.18759238719940186,
        -0.0936615914106369,
        -0.018719520419836044,
        -0.03867648169398308,
        -0.07582567632198334,
        0.12695281207561493,
        0.1131332665681839,
        -0.18620525300502777,
        -0.10796944797039032,
        0.41166168451309204,
        -0.1046522706747055,
        -0.026536520570516586,
        0.659582257270813,
        -0.006049029994755983,
        -0.009220990352332592,
        0.3979809582233429,
        -0.056675877422094345,
        -0.07122842967510223,
        0.22801615297794342,
        -0.13732433319091797,
        0.08351635932922363,
        -0.30947673320770264,
        -0.08732308447360992,
        0.14950723946094513,
        0.10688851028680801,
        0.04028636962175369,
        -0.3328467905521393,
        -0.23445037007331848,
        0.14027085900306702,
        -0.018139339983463287,
        -0.4235617518424988,
        -0.1638299822807312,
        -0.027720123529434204,
        0.27124443650245667,
        -0.05866410583257675,
        -0.13134406507015228,
        -0.49869972467422485,
        -0.03059769980609417,
        -0.09065736830234528,
        0.26512742042541504,
        0.05070153996348381,
        0.03577512502670288,
        0.26040884852409363,
        0.04930174723267555,
        0.13701201975345612,
        0.36942651867866516,
        -0.10665546357631683,
        -0.07276377826929092,
        0.4228159189224243,
        0.025433573871850967,
        0.10307395458221436,
        0.2683069109916687,
        -0.1529557704925537,
        0.09259765595197678,
        0.017075935378670692,
        0.04113925248384476,
        0.19398240745067596,
        -0.25155651569366455,
        -0.10099539905786514,
        0.01004848163574934,
        -0.07800311595201492,
        0.17481280863285065,
        -0.0864405632019043,
        0.06663548946380615,
        0.0633234828710556,
        -0.11118905246257782,
        0.02034573443233967,
        0.2351161390542984,
        0.018054062500596046,
        0.04446379095315933,
        -0.18426592648029327,
        0.028456874191761017,
        -0.1774115264415741,
        0.19447088241577148,
        0.015940716490149498,
        -0.15109634399414062,
        -0.1791994720697403,
        -0.01707180216908455,
        0.20599408447742462,
        -0.009325184859335423,
        -0.1452895998954773,
        -0.2302321046590805,
        0.1428288221359253,
        0.16263824701309204,
        0.15967099368572235,
        -0.04381965473294258,
        -0.1224813386797905,
        -0.22727832198143005,
        0.15592804551124573,
        -0.04864255338907242,
        -0.02388266660273075,
        0.15940123796463013,
        0.10067111253738403,
        -0.15808333456516266,
        0.08839061856269836,
        0.19161376357078552,
        -0.1525377631187439,
        0.06346709281206131,
        -0.13799084722995758,
        -0.22496403753757477,
        0.21314069628715515,
        0.024508455768227577,
        -0.10580755770206451,
        -0.04552410542964935,
        0.11587590724229813,
        0.23243650794029236,
        0.13055266439914703,
        -0.060981009155511856,
        0.15119831264019012,
        -0.019217146560549736,
        0.1460905373096466,
        0.07047983258962631,
        0.05076855421066284,
        0.020915934816002846,
        -0.11925402283668518,
        -0.13959497213363647,
        0.02180555649101734,
        -0.19962899386882782,
        0.14867863059043884,
        -0.05000878870487213,
        0.08771660178899765,
        0.16762864589691162,
        0.37461087107658386,
        0.000395328359445557,
        0.13829530775547028,
        -0.08228515088558197,
        -0.22762437164783478,
        0.07238473743200302,
        -0.014709011651575565,
        0.10420265793800354,
        0.010056695900857449,
        -0.1084541529417038,
        -0.29196277260780334,
        0.08799397945404053,
        -0.14411869645118713,
        0.2903183698654175,
        -0.19645407795906067,
        -0.05990942567586899,
        0.10088182985782623,
        -0.06372993439435959,
        -0.19033166766166687,
        0.13752669095993042,
        -0.01881076581776142,
        0.07412969321012497,
        0.11791516095399857,
        -0.14620523154735565,
        0.1636374145746231,
        0.07845043390989304,
        -0.1593136042356491,
        0.04978955537080765,
        -0.2202749401330948,
        0.05483231693506241,
        -0.12205959856510162,
        -0.40496310591697693,
        -0.2635749578475952,
        -0.09562194347381592,
        0.16476494073867798,
        0.10512429475784302,
        0.1968304067850113,
        0.05913505703210831,
        0.10334202647209167,
        -0.003509947331622243,
        -0.018897224217653275,
        0.2963825464248657,
        0.15198083221912384,
        -0.21746531128883362,
        -0.07838781923055649,
        -0.03210296109318733,
        -0.09794395416975021,
        -0.2741634249687195,
        0.10392198711633682,
        0.17676261067390442,
        -0.037499990314245224,
        -0.2862321436405182,
        0.05727369338274002,
        -0.1330404132604599,
        0.013256520964205265,
        0.3280639946460724,
        0.04439283907413483,
        0.1654237061738968,
        -0.19345572590827942,
        -0.007577096112072468,
        0.028346791863441467,
        0.05896686390042305,
        -0.26224735379219055,
        -0.10899264365434647,
        0.21250100433826447,
        0.11576016247272491,
        -0.09033509343862534,
        -0.09990157186985016,
        0.08824784308671951,
        -0.047685787081718445,
        0.09355780482292175,
        -0.009649594314396381,
        0.0879724770784378,
        0.09557665884494781,
        0.038142282515764236,
        0.058847956359386444,
        -0.11890960484743118,
        0.6661481261253357,
        0.19006386399269104,
        0.1256137192249298,
        0.26997682452201843,
        -0.22908295691013336,
        0.17298713326454163,
        0.40165969729423523,
        -0.16519643366336823,
        -0.009942665696144104,
        0.16020968556404114,
        -0.10870160162448883,
        -0.03631886467337608,
        0.3091123700141907,
        -0.009337659925222397,
        0.10701582580804825,
        -0.12253837287425995,
        0.1905316263437271,
        -0.14819756150245667,
        0.4180065393447876,
        -0.5042272210121155,
        -0.0980490893125534,
        0.26429417729377747,
        -0.3995662331581116,
        -0.11012223362922668,
        -0.28132128715515137,
        -0.13584810495376587,
        -0.09238839894533157,
        -0.13049821555614471,
        -0.08524096012115479,
        0.14355917274951935,
        -0.12913212180137634,
        0.202823206782341,
        0.33021780848503113,
        0.256595641374588,
        -0.09735522419214249,
        0.05544377863407135,
        0.2918251156806946,
        -0.07057837396860123,
        0.06386734545230865,
        0.10590822249650955,
        -0.09971603006124496,
        0.06702086329460144,
        0.20612160861492157,
        -0.060918476432561874,
        0.00017105868028011173,
        0.06854110956192017,
        -0.39153069257736206,
        0.24528245627880096,
        -0.015815217047929764,
        -0.42128196358680725,
        -0.11633925139904022,
        0.1094750389456749,
        0.060140982270240784,
        0.012169119901955128,
        0.24052803218364716,
        0.02533918246626854,
        -0.04911765083670616,
        -0.022404683753848076,
        -0.040319427847862244,
        0.07814713567495346,
        0.0705459713935852,
        0.1531548649072647,
        0.16706843674182892,
        -0.04213951528072357,
        0.13045068085193634,
        0.4085187315940857,
        0.3113306164741516,
        -0.15399567782878876,
        -0.030557604506611824,
        -0.020772984251379967,
        -0.3527573347091675,
        0.1459302306175232,
        0.11008485406637192,
        -0.03298734128475189,
        -0.08288358151912689,
        0.11461449414491653,
        -0.0523911789059639,
        -0.03708074614405632,
        -0.11680827289819717,
        0.06168743968009949,
        0.023232320323586464,
        0.10874474048614502,
        0.1324024349451065,
        0.09832753241062164,
        -0.023177053779363632,
        0.22481310367584229,
        -0.061904728412628174,
        -0.013668237254023552,
        -0.005819110199809074,
        0.006623351015150547,
        -0.07472812384366989,
        -0.06075061485171318,
        -0.02906610816717148,
        0.15911135077476501,
        -0.1239309310913086,
        -0.29559019207954407,
        0.6983861923217773,
        -0.3410225212574005,
        -0.009087247774004936,
        -0.27881672978401184,
        0.0944424718618393,
        0.018273815512657166,
        -0.213706374168396,
        0.08967959135770798,
        0.07617051154375076,
        0.02347812056541443,
        0.14658980071544647,
        -0.16868442296981812,
        -0.07230591773986816,
        0.04168190434575081,
        0.08163043111562729,
        -0.10584715753793716,
        -0.04352155327796936,
        0.06050240620970726,
        0.05639384314417839,
        -0.02286623790860176,
        0.1428365558385849,
        0.1838165819644928,
        0.06285979598760605,
        0.15376324951648712,
        -0.00828271359205246,
        -0.1603742241859436,
        -0.22862623631954193,
        0.06434977799654007,
        -0.150386780500412,
        -0.025464696809649467,
        0.009121687151491642,
        -0.09315039217472076,
        0.06961655616760254,
        -0.27751246094703674,
        -0.0687256008386612,
        -0.05623694136738777,
        -0.03686011582612991,
        0.0939781442284584,
        -0.036629676818847656,
        -0.008969816379249096,
        -0.0016433058772236109,
        -0.06668666005134583,
        0.06291531026363373,
        0.04413206875324249,
        -0.033316925168037415,
        -0.01351933740079403,
        -0.045656368136405945,
        -0.11696788668632507,
        -0.15357224643230438,
        -0.46164244413375854,
        0.15238413214683533,
        0.2543589174747467,
        0.17629878222942352,
        -0.07192899286746979,
        -0.11626963317394257,
        -0.12554694712162018,
        -0.12572941184043884,
        -0.12560439109802246,
        0.046823836863040924,
        -0.06705886125564575,
        -0.11640351265668869,
        0.021230753511190414,
        0.16783763468265533,
        0.11624374240636826,
        -0.0400753989815712,
        0.00924221333116293,
        0.09556269645690918,
        -0.11624259501695633,
        -0.1250675767660141,
        0.30908963084220886,
        -0.2121412754058838,
        0.1618230640888214,
        -0.026820367202162743,
        -0.051713671535253525,
        -0.09899473935365677,
        -0.2033747136592865,
        0.14010103046894073,
        0.10737375169992447,
        0.12288074195384979,
        -0.052545659244060516,
        -0.1002715677022934,
        0.1722886860370636,
        0.047652777284383774,
        -0.18222114443778992,
        -0.16088691353797913,
        0.1866442710161209,
        -0.14303918182849884,
        0.07751776278018951,
        0.019725507125258446,
        -0.1391768604516983,
        0.01830012910068035,
        0.12911459803581238,
        -0.08651440590620041,
        -0.012557984329760075,
        -0.16787146031856537,
        0.08650223165750504,
        -0.2375488430261612,
        0.26074832677841187,
        -0.05374380573630333,
        0.1877637803554535,
        -1.071702241897583,
        0.2600562274456024,
        0.033498041331768036,
        -0.70713871717453,
        0.28984370827674866,
        -0.09876495599746704,
        -0.7241089940071106,
        0.09585718810558319,
        -0.10420197993516922,
        -0.37685728073120117,
        -0.2859236001968384,
        0.20973840355873108,
        0.6090821623802185,
        0.031089555472135544,
        0.3961832821369171,
        -0.8617602586746216,
        -0.040551457554101944,
        0.6103065609931946,
        -0.24420416355133057,
        -0.23325741291046143,
        0.1366545855998993,
        0.1408490538597107,
        0.06436827033758163,
        -0.10198207199573517,
        -0.2438475638628006,
        -0.14310239255428314,
        -0.0911114439368248,
        0.3591286540031433,
        -0.0796213448047638,
        0.5565807223320007,
        0.03095240145921707,
        0.13656650483608246,
        -0.11293116956949234,
        0.07287357747554779,
        0.03662796691060066,
        -0.13866545259952545,
        -0.2927524447441101,
        0.5447737574577332,
        0.1757955551147461,
        -0.3409413993358612,
        0.1947733610868454,
        -0.23978760838508606,
        -0.1539410948753357,
        0.38675999641418457,
        0.7495812773704529,
        -0.5632666945457458,
        -0.5356611609458923,
        -0.2132073938846588,
        0.03954813629388809,
        -0.025666728615760803,
        -0.13560141623020172,
        0.11555475741624832,
        -0.11354946345090866,
        0.009738353081047535,
        0.10093700885772705,
        -0.15216374397277832,
        -0.3005489110946655,
        -0.14734064042568207,
        -0.04461410269141197,
        -0.09291550517082214,
        -0.2906239330768585,
        -0.039613183587789536,
        0.07344406098127365,
        0.28893542289733887,
        -0.542543351650238,
        -0.04053739830851555,
        -0.10343685746192932,
        0.07717236131429672,
        0.04209791123867035,
        0.06539317220449448,
        0.08735893666744232,
        -0.05900472775101662,
        0.11142414808273315,
        0.00892148818820715,
        -0.0504586361348629,
        0.03873349353671074,
        0.24783273041248322,
        0.044458042830228806,
        0.07112506777048111,
        -0.005622988101094961,
        0.19572420418262482,
        -0.1363140344619751,
        -0.10481216758489609,
        0.008195064030587673,
        -0.036928653717041016,
        -0.20328329503536224,
        -0.11803354322910309,
        -0.11309878528118134,
        0.046794719994068146,
        0.1277662217617035,
        0.005784204229712486,
        -0.5629279017448425,
        -0.07207965850830078,
        -0.08346792310476303,
        0.41221296787261963,
        0.3376576006412506,
        -0.045137930661439896,
        0.025462111458182335,
        -0.2418307512998581,
        0.3855329155921936,
        -0.01688549853861332,
        0.0049865515902638435,
        0.20275631546974182,
        -0.06582179665565491,
        0.20219694077968597,
        0.1624717265367508,
        0.061593662947416306,
        0.1946893185377121,
        -0.0029890385922044516,
        -0.10049261152744293,
        -0.462536096572876,
        0.06702066957950592,
        0.218132883310318,
        -0.008682156912982464,
        -0.356358140707016,
        -0.062500961124897,
        0.012889322824776173,
        0.01682169735431671,
        0.025584252551198006,
        -0.22656723856925964,
        0.06271001696586609,
        -0.026708755642175674,
        0.2711640000343323,
        -0.06496139615774155,
        -0.16036257147789001,
        -0.23491938412189484,
        -0.07581377029418945,
        -0.15406662225723267,
        0.015266146510839462,
        0.158238023519516,
        0.03122970648109913,
        0.07788217067718506,
        -0.05472699925303459,
        0.1422027051448822,
        -0.03891177475452423,
        0.060270756483078,
        0.01101350225508213,
        -0.2636396586894989,
        -0.041366808116436005,
        0.42287203669548035,
        -1.2397880554199219,
        0.09710992872714996,
        0.060174278914928436,
        0.10394037514925003,
        -0.14899103343486786,
        0.01601516082882881,
        0.010205836966633797,
        -0.09485962241888046,
        -0.037272874265909195,
        -0.11439070850610733,
        0.28230205178260803,
        -0.08770632743835449,
        -0.018214058130979538,
        0.009273708797991276,
        -0.18039605021476746,
        -0.1111091747879982,
        0.028752723708748817,
        -0.0321701318025589,
        0.10567615926265717,
        -0.11116065829992294,
        0.7587108016014099,
        0.28338852524757385,
        -0.4807468056678772,
        -0.15759436786174774,
        -0.28991788625717163,
        0.026446016505360603,
        0.4704713523387909,
        -0.9217671155929565,
        0.888288676738739,
        0.6945450305938721,
        0.04957709461450577,
        -0.39344698190689087,
        0.2534498870372772,
        -0.5704647302627563,
        0.15379805862903595,
        -0.09824691712856293,
        -0.09809363633394241,
        -0.2943534553050995,
        0.1262420266866684,
        0.13597476482391357,
        0.15834562480449677,
        -0.029394295066595078,
        -0.030719706788659096,
        0.0014413216849789023,
        -0.05736113339662552,
        -0.21947047114372253,
        -0.10674702376127243,
        0.4571891725063324,
        -0.18683220446109772,
        -0.08677078038454056,
        0.2529469430446625,
        -0.05107289180159569,
        -0.12228377163410187,
        0.08805592358112335,
        0.13800863921642303,
        0.02300727367401123,
        -0.041482407599687576,
        -0.2447597235441208,
        -0.31714892387390137,
        0.04724004119634628,
        -0.2745717763900757,
        -0.33900031447410583,
        0.16818147897720337,
        0.42241331934928894,
        -0.04046639800071716,
        0.26408281922340393,
        0.055803339928388596,
        -0.2141922414302826,
        0.15143482387065887,
        -0.23652128875255585,
        -0.003382167313247919,
        -0.19621211290359497,
        0.12464313954114914,
        -0.15682101249694824,
        -0.2131310999393463,
        0.07045606523752213,
        -0.1810232400894165,
        0.2132073938846588,
        0.2966139316558838,
        -0.262533575296402,
        0.0811217650771141,
        0.32820209860801697,
        0.24352958798408508,
        0.009762879461050034,
        0.11066737025976181,
        0.017432887107133865,
        -0.09319180250167847,
        0.23657888174057007,
        -0.18787771463394165,
        0.30926352739334106,
        0.2644962966442108,
        -0.07797085493803024,
        0.14110460877418518,
        0.1106499433517456,
        0.03134770318865776,
        0.13534052670001984,
        0.038844332098960876,
        -0.1756041944026947,
        -0.10688357800245285,
        -0.2618815302848816,
        0.22263161838054657,
        -0.07943770289421082,
        -0.07646804302930832,
        -0.2389708012342453,
        0.14208945631980896,
        -0.10073386132717133,
        0.019426174461841583,
        0.04012100026011467,
        0.016857227310538292,
        0.15731143951416016,
        0.07679484039545059,
        -0.20465266704559326,
        0.13612690567970276,
        -0.23935532569885254,
        -0.13617847859859467,
        -0.1169981136918068,
        0.2860223054885864,
        -0.025907719507813454,
        -0.3883267343044281,
        0.1078239232301712,
        0.4880947470664978,
        -0.08538565039634705,
        -0.4279825985431671,
        -0.008390278555452824,
        -0.26948484778404236,
        0.17977319657802582,
        0.290365606546402,
        0.1445738524198532,
        0.12993194162845612,
        0.1789117306470871,
        -0.07401447743177414,
        0.023622451350092888,
        -0.099090076982975,
        0.17735345661640167,
        0.1975039690732956,
        -0.1102944165468216,
        -0.10197623074054718,
        0.12082254886627197,
        -0.179888516664505,
        0.26884591579437256,
        0.1952771693468094,
        0.04116680845618248,
        -0.010078934021294117,
        -0.004112914204597473,
        0.24424442648887634,
        0.21803654730319977,
        0.3596348762512207,
        -0.1619931012392044,
        -0.06916084885597229,
        -0.10401608794927597,
        -0.02132861129939556,
        -0.03009580820798874,
        0.02908073365688324,
        -0.18361663818359375,
        -0.038956016302108765,
        0.05131838470697403,
        -0.005988469813019037,
        0.20242160558700562,
        0.10376834869384766,
        0.08675311505794525,
        -0.02873792126774788,
        -0.08049572259187698,
        -0.1335660219192505,
        0.2254532426595688,
        -0.23380088806152344,
        0.28279900550842285,
        0.14964526891708374,
        0.014267649501562119,
        -0.12362276762723923,
        0.09446138143539429,
        -0.053875043988227844,
        0.12278368324041367,
        0.0011716386070474982,
        0.14274048805236816,
        -0.38335922360420227,
        0.05386030301451683,
        0.09768888354301453,
        -0.024168463423848152,
        0.20347949862480164,
        -0.21733728051185608,
        -0.2185961753129959,
        0.14312060177326202,
        0.11796621978282928,
        0.2653486430644989,
        -0.24747800827026367,
        -0.04843781515955925,
        -0.06238998845219612,
        -0.029637319967150688,
        0.09461798518896103,
        -0.21325871348381042,
        -0.06366393715143204,
        0.07974934577941895,
        0.08731994032859802,
        -0.21177811920642853,
        0.4065696895122528,
        0.01196697074919939,
        -0.09455060958862305,
        -0.2276657521724701,
        0.24701789021492004,
        -0.21298986673355103,
        0.03546098247170448,
        -0.03544270992279053,
        0.32377341389656067,
        -0.06950048357248306,
        -0.21656304597854614,
        0.15013349056243896,
        -0.15291650593280792,
        -0.22314754128456116,
        0.09022652357816696,
        0.36100199818611145,
        0.042939912527799606,
        0.06116276979446411,
        -0.17276038229465485,
        0.206682026386261,
        -0.061974819749593735,
        0.2659214437007904,
        0.3759133219718933,
        -0.004682794213294983,
        -0.10945204645395279,
        -0.11357060074806213,
        -0.19420145452022552,
        0.1394442468881607,
        -0.3659690022468567,
        -0.12982077896595,
        0.2133321911096573,
        0.2938280403614044,
        -0.2739815413951874,
        -0.33690890669822693,
        -0.23282822966575623,
        0.0846707746386528,
        0.26438668370246887,
        0.19358067214488983,
        -0.22501172125339508,
        -0.11087333410978317,
        0.2789069414138794,
        0.057680122554302216,
        -0.020788662135601044,
        -0.21808920800685883,
        -0.16539593040943146,
        0.14715798199176788,
        -0.04901653900742531,
        -0.2092626839876175,
        -0.45398086309432983,
        0.2548586428165436,
        -0.19335055351257324,
        0.18018564581871033,
        0.2438214272260666,
        -0.2206147015094757,
        0.14804482460021973,
        -0.05286279693245888,
        0.08970281481742859,
        0.031663622707128525,
        0.11991965770721436,
        -0.41483041644096375,
        -0.0992201641201973,
        0.15758486092090607,
        -0.14026156067848206,
        -0.06579414010047913,
        -0.10506300628185272,
        0.15153449773788452,
        0.23494970798492432,
        -0.13003955781459808,
        -0.46199357509613037,
        -0.25329381227493286,
        0.38707342743873596,
        -0.46256181597709656,
        -0.009276690892875195,
        0.18147513270378113,
        0.10819319635629654,
        0.30423063039779663,
        0.20190179347991943,
        -0.0071361977607011795,
        0.2668851912021637,
        -0.10589510202407837,
        -0.10718061029911041,
        0.010957715101540089,
        0.11290472000837326,
        -0.2740395665168762,
        -0.16944527626037598,
        -0.16931815445423126,
        -0.09542068094015121,
        0.005584004335105419,
        0.15571200847625732,
        0.19795860350131989,
        0.31984943151474,
        0.25661346316337585,
        -0.10886973142623901,
        -0.1030656024813652,
        -0.23525004088878632,
        0.14673352241516113,
        0.07709351927042007,
        0.1883089244365692,
        0.15304851531982422,
        0.025108831003308296,
        -0.03798163682222366,
        0.2785341441631317,
        0.12909358739852905,
        0.09105974435806274,
        -0.13245411217212677,
        -0.08330940455198288,
        -0.15158098936080933,
        -0.02999110519886017,
        0.10901754349470139,
        -0.012563263066112995,
        0.0915183499455452,
        -0.03707076236605644,
        0.13409346342086792,
        0.06660645455121994,
        0.19021618366241455,
        0.34358611702919006,
        -0.14855462312698364,
        0.3523697853088379,
        0.07326963543891907,
        -0.43108364939689636,
        0.2860631048679352,
        -0.00025074632139876485,
        0.07129271328449249,
        -0.02022985741496086,
        -0.005544011946767569,
        -0.06424257904291153,
        -0.10093077272176743,
        0.23008793592453003,
        -0.014195495285093784,
        0.4870476722717285,
        0.31008100509643555,
        -0.14494280517101288,
        0.047760188579559326,
        -0.12073744833469391,
        0.32266363501548767,
        0.13370993733406067,
        0.09764482825994492,
        -0.2691529393196106,
        -0.025087131187319756,
        -0.05686803534626961,
        0.3539685010910034,
        -0.16694001853466034,
        -0.14984264969825745,
        -0.6134765148162842,
        0.26876774430274963,
        0.09952232986688614,
        -0.5127026438713074,
        -0.08563559502363205,
        -0.10277003049850464,
        -0.04566902294754982,
        -0.09290438890457153,
        -0.06223272159695625,
        0.4287853240966797,
        -0.2708282768726349,
        -0.07738548517227173,
        -0.12099388241767883,
        0.2449578195810318,
        -0.5481162667274475,
        -0.02049889788031578,
        0.3479025959968567,
        -0.07960812747478485,
        0.051061708480119705,
        -0.02750726416707039,
        -0.2258923500776291,
        -0.20386859774589539,
        -0.43582624197006226,
        -0.0206983033567667,
        0.053397294133901596,
        -0.07044339925050735,
        -0.08272969722747803,
        0.07761061191558838,
        0.09410840272903442,
        0.049372993409633636,
        -0.050809767097234726,
        0.1287638247013092,
        0.05523134022951126,
        -0.07412328571081161,
        -0.15880484879016876,
        0.15441939234733582,
        -0.1965370774269104,
        -0.15026693046092987,
        0.06156450882554054,
        -0.1603955179452896,
        -0.14772513508796692,
        -0.1993286907672882,
        0.13487334549427032,
        -0.25491777062416077,
        0.21786051988601685,
        -0.0635513886809349,
        0.16892731189727783,
        -0.17865349352359772,
        -0.06056671217083931,
        -0.19626344740390778,
        0.00905386172235012,
        0.11543357372283936,
        -0.1334766298532486,
        -0.076028011739254,
        0.11066032946109772,
        0.16550283133983612,
        -0.17878267168998718,
        0.0506194643676281,
        -0.032538093626499176,
        -0.013951636850833893,
        0.2681444585323334,
        -0.020600324496626854,
        -0.18887053430080414,
        0.23904338479042053,
        -0.5018131136894226,
        -0.4596583843231201,
        -0.26556482911109924,
        0.03348612040281296,
        0.8732430934906006,
        -1.6088147163391113,
        -0.24611712992191315,
        -0.365937739610672,
        -0.4984685182571411,
        0.08236508071422577,
        -0.10867194831371307,
        0.12032975256443024,
        -0.02646409533917904,
        0.020745571702718735,
        0.20061933994293213,
        0.04756639897823334,
        -0.14064808189868927,
        -0.21268488466739655,
        -0.08690864592790604,
        -0.3755228817462921,
        -0.8982986807823181,
        -0.08284460008144379,
        -0.03719374164938927,
        -0.07128841429948807,
        0.054937317967414856,
