{
    "version": "0.5.0",
    "architecture": "WaveNet",
    "config": {
        "layers": [
            {
                "input_size": 1,
                "condition_size": 1,
                "head_size": 8,
                "channels": 16,
                "kernel_size": 3,
                "dilations": [
                    1,
                    2,
                    4,
                    8,
                    16,
                    32,
                    64,
                    128,
                    256,
                    512
                ],
                "activation": "Tanh",
                "gated": false,
                "head_bias": false
            },
            {
                "input_size": 16,
                "condition_size": 1,
                "head_size": 1,
                "channels": 8,
                "kernel_size": 3,
                "dilations": [
                    1,
                    2,
                    4,
                    8,
                    16,
                    32,
                    64,
                    128,
                    256,
                    512
                ],
                "activation": "Tanh",
                "gated": false,
                "head_bias": true
            }
        ],
        "head": null,
        "head_scale": 0.02
    },
    "weights": [
        -0.016634143888950348,
        0.48516562581062317,
        -0.8477112650871277,
        -0.6703743934631348,
        -0.19281326234340668,
        0.34624001383781433,
        0.005131932441145182,
        0.7552676200866699,
        0.004445597995072603,
        0.28047826886177063,
        -0.22152544558048248,
        -0.15173453092575073,
        -1.0144133567810059,
        -0.38582372665405273,
        -0.48196151852607727,
        6.111761467764154e-05,
        0.2633845806121826,
        0.08958400785923004,
        0.1322801262140274,
        -0.2523561120033264,
        0.18551389873027802,
        0.04224883392453194,
        0.1537366509437561,
        -0.028775697574019432,
        0.05519772693514824,
        0.19577856361865997,
        -0.00875835306942463,
        -0.05892664194107056,
        0.1098593920469284,
        -0.15525805950164795,
        0.0320512019097805,
        -0.05960064008831978,
        0.04070693999528885,
        -0.14934805035591125,
        0.035287294536828995,
        -0.261507123708725,
        -0.03534815087914467,
        -0.059856146574020386,
        0.20037779211997986,
        -0.0076678721234202385,
        0.20014400780200958,
        -0.1614759862422943,
        0.13470520079135895,
        -0.3092477321624756,
        0.04257167503237724,
        -0.1406087726354599,
        0.25901922583580017,
        -0.06285401433706284,
        -0.0003132168494630605,
        0.20248383283615112,
        -0.018494706600904465,
        0.2440924495458603,
        0.2421112358570099,
        -0.11824624240398407,
        0.1734546422958374,
        0.09581372886896133,
        -0.1094634085893631,
        -0.03669923543930054,
        0.08529473096132278,
        -0.2111198902130127,
        0.14473950862884521,
        0.07278995215892792,
        -0.2561246454715729,
        -0.3584846556186676,
        -0.13261771202087402,
        -0.12320810556411743,
        -0.1632954180240631,
        0.12234382331371307,
        -0.0388704277575016,
        0.21263305842876434,
        -0.1994169056415558,
        0.08139606565237045,
        -0.015195095911622047,
        0.030456893146038055,
        0.2575302720069885,
        0.055536121129989624,
        -0.06157856434583664,
        -6.25304746790789e-05,
        -0.061465464532375336,
        -0.0009779121028259397,
        -0.2707016170024872,
        0.1938052922487259,
        0.07249622792005539,
        0.10156884789466858,
        0.07831636816263199,
        0.06822629272937775,
        -0.15021257102489471,
        0.010070008225739002,
        -0.010726537555456161,
        0.04770490899682045,
        -0.03431905806064606,
        0.16695035994052887,
        -0.01881440170109272,
        0.13777461647987366,
        -0.2349395900964737,
        0.0224305372685194,
        -0.010936356149613857,
        -0.06282897293567657,
        0.0034360578283667564,
        -0.1592579036951065,
        0.044123515486717224,
        0.22742319107055664,
        -0.13876815140247345,
        -0.12256497889757156,
        -0.009697774425148964,
        -0.07587571442127228,
        -0.19933642446994781,
        0.02096143737435341,
        -0.0855703353881836,
        -0.02991577796638012,
        -0.16035552322864532,
        -0.029898393899202347,
        -0.05430440232157707,
        0.0080008739605546,
        0.1874992847442627,
        -0.19545313715934753,
        0.10513802617788315,
        -0.11592664569616318,
        0.08766328543424606,
        -0.11190932244062424,
        0.17288561165332794,
        0.07949086278676987,
        -0.21171681582927704,
        0.1875453144311905,
        -0.05684925615787506,
        -0.21858856081962585,
        0.08909104019403458,
        -0.14059054851531982,
        0.09639313817024231,
        -0.2339281588792801,
        0.05122629180550575,
        -0.11007489264011383,
        -0.006141853053122759,
        -0.08280737698078156,
        0.2372257560491562,
        -0.1385248303413391,
        0.06372565031051636,
        -0.11507131904363632,
        0.18519364297389984,
        0.009287107735872269,
        0.2611185312271118,
        -0.04729995131492615,
        0.20967847108840942,
        -0.1364852786064148,
        0.0016968382988125086,
        0.0014370698481798172,
        -0.04729219526052475,
        0.11410614848136902,
        0.002184629440307617,
        -0.2493007481098175,
        -0.0118350088596344,
        -0.0514519177377224,
        -0.16533105075359344,
        0.20005694031715393,
        0.15340417623519897,
        -0.2799328565597534,
        0.21762657165527344,
        -0.16395466029644012,
        -0.06520310789346695,
        -0.056139424443244934,
        -0.10341331362724304,
        0.08294739574193954,
        -0.2604376971721649,
        -0.03941944241523743,
        -0.21181465685367584,
        0.08325005322694778,
        -0.14333418011665344,
        0.24678634107112885,
        -0.20822133123874664,
        -0.08993526548147202,
        0.3178596794605255,
        -0.13693466782569885,
        0.032852038741111755,
        0.2304002046585083,
        -0.2177911251783371,
        0.1684926599264145,
        -0.21124397218227386,
        0.012966250069439411,
        0.042253658175468445,
        0.10564558953046799,
        -0.02591313049197197,
        0.0559195801615715,
        -0.07876357436180115,
        0.12501433491706848,
        -0.0008857821230776608,
        0.22157426178455353,
        -0.14509955048561096,
        0.060991980135440826,
        -0.295377254486084,
        0.17298971116542816,
        0.033105406910181046,
        0.2757970988750458,
        -0.19169938564300537,
        -0.08396551012992859,
        0.08164674788713455,
        -0.16550233960151672,
        -0.16831836104393005,
        0.23670046031475067,
        -0.16860468685626984,
        -0.08463387191295624,
        0.19082872569561005,
        0.011653287336230278,
        -0.19353510439395905,
        0.0920826718211174,
        -0.16837315261363983,
        0.08011362701654434,
        -0.10139477252960205,
        0.1601654440164566,
        0.0413222461938858,
        0.1918419599533081,
        -0.052339062094688416,
        0.02576342225074768,
        -0.18938954174518585,
        0.04306818172335625,
        -0.04873540997505188,
        0.23263446986675262,
        -0.18313173949718475,
        -0.12803864479064941,
        0.32466310262680054,
        -0.18959903717041016,
        -0.07361145317554474,
        0.33782535791397095,
        -0.027526918798685074,
        0.050904735922813416,
        -0.3469274342060089,
        0.1393696814775467,
        -0.1604364663362503,
        0.17646481096744537,
        -0.09541048109531403,
        0.03731762617826462,
        -0.19694142043590546,
        0.1968427449464798,
        -0.02950156480073929,
        0.2968460023403168,
        -0.018139874562621117,
        -0.0228424035012722,
        -0.12148816883563995,
        -0.009058013558387756,
        -0.11910894513130188,
        0.23155345022678375,
        -0.03784967213869095,
        0.06472162902355194,
        0.16659432649612427,
        -0.06419052928686142,
        0.01718522049486637,
        0.06425393372774124,
        0.02698970027267933,
        -0.17207872867584229,
        0.20194199681282043,
        -0.09890835732221603,
        -0.1324707567691803,
        0.22498595714569092,
        0.04048653319478035,
        -0.00677428487688303,
        -0.09214571118354797,
        -0.0416109524667263,
        -0.1272919625043869,
        -0.02835271693766117,
        0.024583712220191956,
        -0.17517392337322235,
        0.02480093017220497,
        0.012789040803909302,
        0.14945635199546814,
        0.0014037181390449405,
        0.11878586560487747,
        0.026765326038002968,
        -0.14819131791591644,
        0.1111278086900711,
        0.20249274373054504,
        -0.06290580332279205,
        0.003552475944161415,
        -0.14712683856487274,
        -0.032474666833877563,
        -0.03781643882393837,
        -0.024677792564034462,
        -0.21938657760620117,
        0.20622268319129944,
        -0.17169314622879028,
        0.08570684492588043,
        -0.031245168298482895,
        0.046885088086128235,
        -0.18385007977485657,
        -0.024397393688559532,
        0.03548957407474518,
        0.12316660583019257,
        0.03911956027150154,
        0.0211432296782732,
        -0.06058268994092941,
        0.04052228108048439,
        0.07640023529529572,
        -0.19094318151474,
        0.12323446571826935,
        0.12272555381059647,
        -0.10923180729150772,
        0.03808455914258957,
        -0.016539661213755608,
        -0.006257955450564623,
        -0.03895371034741402,
        0.13629071414470673,
        -0.1568947732448578,
        0.002946758409962058,
        -0.012276540510356426,
        -0.17803896963596344,
        -0.10384644567966461,
        -0.08666379004716873,
        -0.2903737723827362,
        0.03369491919875145,
        0.0717012882232666,
        0.1674456149339676,
        -0.1511099934577942,
        -0.13333186507225037,
        -0.13850083947181702,
        0.17581596970558167,
        -0.06192832440137863,
        -0.05645515024662018,
        0.22534140944480896,
        -0.08430307358503342,
        -0.10859432816505432,
        0.18886920809745789,
        0.025090740993618965,
        0.1272641271352768,
        -0.10842029005289078,
        -0.08186456561088562,
        -0.0450969897210598,
        0.23036856949329376,
        0.13348901271820068,
        0.19022047519683838,
        -0.11342312395572662,
        0.067560113966465,
        -0.13250751793384552,
        0.029409363865852356,
        -0.1331065446138382,
        0.23528072237968445,
        -0.058587197214365005,
        -0.09913389384746552,
        -0.03863100707530975,
        0.25051432847976685,
        0.11416641622781754,
        -0.0029069813899695873,
        0.22467809915542603,
        -0.039413876831531525,
        -0.15900811553001404,
        0.25164857506752014,
        0.07242593169212341,
        -0.19446691870689392,
        0.2591233551502228,
        0.0597921758890152,
        -0.03383287787437439,
        0.04303443059325218,
        -0.022416191175580025,
        -0.07351498305797577,
        0.12103350460529327,
        -0.04462408274412155,
        0.07050066441297531,
        -0.09065038710832596,
        0.13016164302825928,
        -0.08460167050361633,
        0.1451965570449829,
        -0.16209280490875244,
        0.07027126848697662,
        -0.16937795281410217,
        -0.2039899080991745,
        -0.07744445651769638,
        0.040630683302879333,
        0.0012667662231251597,
        0.16012655198574066,
        0.03286544233560562,
        -0.06568047404289246,
        -0.13116590678691864,
        0.04880336672067642,
        -0.05504390224814415,
        0.20611530542373657,
        -0.10121859610080719,
        -0.004589317366480827,
        -0.17109766602516174,
        -0.0033705749083310366,
        0.0965031161904335,
        0.1615462303161621,
        0.04303093999624252,
        0.1756184846162796,
        0.0946095883846283,
        0.04178086668252945,
        0.007470162585377693,
        0.166469007730484,
        -0.023411067202687263,
        0.07200627774000168,
        0.1017150953412056,
        0.0049658105708658695,
        -0.11602813750505447,
        0.10356424748897552,
        -0.0596829429268837,
        -0.09524852782487869,
        -0.0460079088807106,
        -0.15514877438545227,
        -0.17238587141036987,
        0.1333383172750473,
        0.027411850169301033,
        -0.06769698858261108,
        -0.11324387043714523,
        0.18004760146141052,
        0.23691536486148834,
        0.028165452182292938,
        0.1294376701116562,
        0.05088525637984276,
        0.21899640560150146,
        -0.17995890974998474,
        0.21518728137016296,
        -0.053709544241428375,
        0.015740979462862015,
        0.1570332795381546,
        -0.2453998625278473,
        0.044141583144664764,
        0.21205323934555054,
        -0.14446106553077698,
        -0.02729848586022854,
        -0.12819893658161163,
        0.12464495748281479,
        -0.09550698101520538,
        0.03976619243621826,
        -0.09667909145355225,
        -0.02160227671265602,
        -0.1700141429901123,
        0.1636682003736496,
        -0.002888414543122053,
        0.15415172278881073,
        -0.24269871413707733,
        0.10038278251886368,
        -0.1872560679912567,
        0.0951414480805397,
        -0.02366611734032631,
        -0.028612179681658745,
        -0.09969833493232727,
        0.19590136408805847,
        0.1033703163266182,
        -0.2390044778585434,
        0.03279435262084007,
        0.11168878525495529,
        -0.2712889015674591,
        0.14243744313716888,
        -0.05439199134707451,
        -0.2957712709903717,
        -0.06993339955806732,
        0.051850445568561554,
        -0.06578496098518372,
        -0.06214137375354767,
        0.23244495689868927,
        -0.007615095470100641,
        -0.004265309777110815,
        -0.012382573448121548,
        -0.23291917145252228,
        0.22647413611412048,
        0.07941093295812607,
        0.2897794544696808,
        -0.0028667908627539873,
        -0.10332546383142471,
        -0.028578471392393112,
        0.07969320565462112,
        0.06292904168367386,
        -0.26224395632743835,
        0.031539011746644974,
        -0.1429641842842102,
        -0.2035834789276123,
        0.1004919707775116,
        -0.1022174283862114,
        0.20287968218326569,
        0.011618547141551971,
        0.00552343437448144,
        -0.22338062524795532,
        0.011245925910770893,
        -0.04395237937569618,
        0.2031930685043335,
        0.06592075526714325,
        0.0671711266040802,
        -0.1378583014011383,
        0.15029416978359222,
        -0.14871078729629517,
        0.00700306287035346,
        -0.021817363798618317,
        -0.08255671709775925,
        -0.06296011060476303,
        -0.017696458846330643,
        -0.06860875338315964,
        -0.2613391876220703,
        0.15231508016586304,
        -0.01762949489057064,
        -0.03352399170398712,
        0.1648138016462326,
        0.0744837298989296,
        -0.13789384067058563,
        0.02931790240108967,
        -0.038753312081098557,
        -0.1315571516752243,
        0.1457514762878418,
        0.028622733429074287,
        0.278074711561203,
        0.15173649787902832,
        -0.3305826485157013,
        -0.2285471260547638,
        0.031067220494151115,
        0.35094961524009705,
        -0.021310698240995407,
        0.07194183021783829,
        -0.14784245193004608,
        -0.033427149057388306,
        0.14750324189662933,
        -0.29162347316741943,
        -0.06716199219226837,
        0.08845795691013336,
        -0.25531846284866333,
        -0.06204571574926376,
        -0.013578626327216625,
        0.3107905089855194,
        0.08270063251256943,
        -0.07642120867967606,
        0.012192880734801292,
        0.013959480449557304,
        -0.042322445660829544,
        0.2250056117773056,
        0.1957934945821762,
        -0.04529400169849396,
        -0.1159348338842392,
        -0.13886375725269318,
        0.06027291715145111,
        0.09457697719335556,
        0.012921986170113087,
        -0.1193665936589241,
        -0.06608717143535614,
        -0.1371428370475769,
        0.042842768132686615,
        -0.30712607502937317,
        0.01159842498600483,
        0.14547395706176758,
        -0.32320234179496765,
        -0.229426771402359,
        -0.07776779681444168,
        -0.20988579094409943,
        -0.14621838927268982,
        -0.06389326602220535,
        -0.26247531175613403,
        -0.08363997936248779,
        -0.04359181597828865,
        0.0049804807640612125,
        0.054904524236917496,
        0.12502095103263855,
        0.228375643491745,
        0.24811029434204102,
        0.09429094195365906,
        -0.24426838755607605,
        -0.1614985316991806,
        -0.06711768358945847,
        0.11574379354715347,
        -0.025287896394729614,
        0.35684236884117126,
        0.15926313400268555,
        0.13779424130916595,
        0.199422225356102,
        0.22546668350696564,
        0.07590090483427048,
        0.29896318912506104,
        -0.24604260921478271,
        -0.25244808197021484,
        -0.29268530011177063,
        0.09139613062143326,
        0.06439764052629471,
        0.06769051402807236,
        -0.11906112730503082,
        -0.14784318208694458,
        -0.24215616285800934,
        0.2828896641731262,
        0.11426041275262833,
        0.30669328570365906,
        -0.17075704038143158,
        -0.16079707443714142,
        -0.3180455267429352,
        0.2363692671060562,
        0.2349984049797058,
        0.17151300609111786,
        0.12771372497081757,
        0.17765535414218903,
        0.35598015785217285,
        0.21230660378932953,
        -0.007281286641955376,
        0.08315791189670563,
        0.2840209901332855,
        0.09817701578140259,
        0.13936787843704224,
        0.2840612828731537,
        0.16686277091503143,
        0.3313681483268738,
        0.06000413000583649,
        -0.013715234585106373,
        -0.02449929341673851,
        -0.08883403241634369,
        0.016536135226488113,
        0.16701474785804749,
        -0.008238682523369789,
        0.06423841416835785,
        0.029894458130002022,
        0.20361429452896118,
        -0.06796621531248093,
        -0.025297461077570915,
        0.016591619700193405,
        -0.2916730046272278,
        0.23600761592388153,
        0.011462576687335968,
        -0.2499333769083023,
        0.17925065755844116,
        -0.13092175126075745,
        0.13278324902057648,
        -0.10599648207426071,
        0.029003214091062546,
        -0.3360011577606201,
        0.15400093793869019,
        -0.14287829399108887,
        0.2350897490978241,
        0.020680591464042664,
        0.1664787381887436,
        -0.10824885219335556,
        0.2755732536315918,
        -0.07123568654060364,
        0.10440642386674881,
        0.01734165847301483,
        0.11653653532266617,
        -0.31258052587509155,
        0.07207479327917099,
        -0.039558716118335724,
        -0.06722179055213928,
        0.07060061395168304,
        -0.05415601655840874,
        -0.1970241516828537,
        0.19552932679653168,
        0.11029550433158875,
        -0.13894543051719666,
        0.11559521406888962,
        0.12547071278095245,
        -0.22945813834667206,
        0.04532541707158089,
        -0.053989868611097336,
        -0.09280276298522949,
        -0.003503417130559683,
        -0.23685979843139648,
        0.03929062932729721,
        0.004802096635103226,
        0.17388489842414856,
        -0.17101944983005524,
        0.04906003922224045,
        -0.24455249309539795,
        0.1925814002752304,
        -0.029108475893735886,
        -0.1932942420244217,
        0.15592575073242188,
        0.028971876949071884,
        -0.05321463942527771,
        -0.02952972613275051,
        -0.04065052419900894,
        0.09726478904485703,
        -0.046411462128162384,
        0.04801492393016815,
        -0.19289758801460266,
        0.13272851705551147,
        0.01812625490128994,
        0.12858277559280396,
        0.03130258619785309,
        -0.1980951577425003,
        -0.10407307744026184,
        0.22495609521865845,
        0.0606301911175251,
        0.26630812883377075,
        -0.12615211308002472,
        0.025056157261133194,
        -0.2870137095451355,
        0.06173931434750557,
        0.0648592859506607,
        -0.13710930943489075,
        0.11391697824001312,
        0.173447385430336,
        -0.1809450089931488,
        0.07173216342926025,
        0.1883968859910965,
        -0.19737492501735687,
        0.2032061219215393,
        -0.010469784028828144,
        -0.18043796718120575,
        0.06700035184621811,
        0.14882193505764008,
        0.06553394347429276,
        -0.08039100468158722,
        -0.16752925515174866,
        0.031470708549022675,
        0.05149443820118904,
        -0.03019743785262108,
        -0.11462627351284027,
        -0.027209307998418808,
        0.23600319027900696,
        0.03118007257580757,
        -0.007869464345276356,
        0.0036717045586556196,
        -0.0875617042183876,
        0.1563129872083664,
        -0.07570845633745193,
        -0.037378232926130295,
        0.1706705391407013,
        -0.22221897542476654,
        0.003412084188312292,
        -0.23361335694789886,
        0.07202127575874329,
        0.043383434414863586,
        0.2697017192840576,
        -0.07912687957286835,
        0.07991478592157364,
        -0.13572053611278534,
        0.03311997279524803,
        -0.1261691004037857,
        -0.05663786828517914,
        0.016673190519213676,
        -0.0427183173596859,
        -0.10152444243431091,
        0.14938898384571075,
        0.102819062769413,
        0.22775256633758545,
        0.007953728549182415,
        -0.06750322878360748,
        0.10170325636863708,
        -0.17006680369377136,
        -0.06729791313409805,
        0.15483784675598145,
        0.0334235318005085,
        -0.09776229411363602,
        0.2040751576423645,
        -0.1726154088973999,
        -0.0034971386194229126,
        0.244577556848526,
        -0.12577098608016968,
        -0.15935492515563965,
        -0.2009398192167282,
        0.07150522619485855,
        0.09911121428012848,
        -0.16283845901489258,
        0.06691272556781769,
        -0.26836758852005005,
        0.011479614302515984,
        0.1504000723361969,
        0.274371862411499,
        -0.16526414453983307,
        -0.07281915098428726,
        0.28181102871894836,
        -0.03242148831486702,
        -0.21805039048194885,
        0.15998880565166473,
        -0.16759352385997772,
        -0.2512589991092682,
        -0.16261835396289825,
        0.22385670244693756,
        0.2566963732242584,
        0.13850054144859314,
        -0.0391094870865345,
        -0.04648100584745407,
        -0.05161379277706146,
        0.06454862654209137,
        0.03985438868403435,
        0.13884702324867249,
        -0.03982001543045044,
        -0.23352614045143127,
        -0.026115622371435165,
        0.18182018399238586,
        0.04259265586733818,
        0.11413245648145676,
        -0.007223986089229584,
        -0.2547938823699951,
        0.142756849527359,
        -0.0600794292986393,
        -0.24044981598854065,
        0.2393965870141983,
        -0.052570100873708725,
        -0.054752450436353683,
        0.0645078495144844,
        0.01579325459897518,
        -0.22524864971637726,
        0.3082905113697052,
        -0.26709139347076416,
        -0.2703976631164551,
        0.06887226551771164,
        -0.04925375059247017,
        -0.12515704333782196,
        -0.0016679937252774835,
        -0.07215549796819687,
        -0.09039001166820526,
        -0.08752482384443283,
        0.030380306765437126,
        0.012760438024997711,
        -0.12473661452531815,
        0.045036498457193375,
        0.014883935451507568,
        0.14285409450531006,
        -0.2578059136867523,
        0.2221137434244156,
        -0.06953132152557373,
        -0.011872200295329094,
        -0.04718634858727455,
        -0.12919947504997253,
        0.36346277594566345,
        -0.35490739345550537,
        0.6822739243507385,
        -0.6238904595375061,
        0.07342618703842163,
        0.8342397212982178,
        0.8699949979782104,
        -0.5029555559158325,
        0.10902359336614609,
        0.0480022132396698,
        -0.49404215812683105,
        -0.555500864982605,
        0.1711794137954712,
        -0.7837510108947754,
        0.264158695936203,
        0.5758684873580933,
        -0.18723870813846588,
        0.23138833045959473,
        -0.23257829248905182,
        0.4125450849533081,
        0.41276249289512634,
        -0.19141885638237,
        0.09934668987989426,
        0.1163618415594101,
        -0.27939465641975403,
        -0.20160098373889923,
        0.11232393980026245,
        -0.26543378829956055,
        -0.12362626940011978,
        0.27215340733528137,
        0.20062001049518585,
        -0.15714384615421295,
        0.18711933493614197,
        -0.06474673002958298,
        -0.3546191453933716,
        0.13849107921123505,
        0.31011584401130676,
        -0.05975274741649628,
        -0.24593353271484375,
        -0.08770409971475601,
        -0.07367219775915146,
        0.13341045379638672,
        -0.4368724822998047,
        -0.14330723881721497,
        -0.05242975428700447,
        -0.2137753814458847,
        0.12626463174819946,
        0.28553295135498047,
        0.06641178578138351,
        -0.017324091866612434,
        0.08647000044584274,
        0.1331299990415573,
        -0.1319507658481598,
        -0.07352537661790848,
        0.13315944373607635,
        -0.15104512870311737,
        0.2045329511165619,
        -0.12129303812980652,
        0.17626596987247467,
        -0.2601158320903778,
        0.20268864929676056,
        0.2560463547706604,
        0.07827390730381012,
        -0.10312182456254959,
        0.17923302948474884,
        -0.2750023603439331,
        0.09184785187244415,
        -0.38672512769699097,
        -0.2406281679868698,
        0.22659577429294586,
        0.06528374552726746,
        -0.09363193064928055,
        0.05908386409282684,
        0.1427156627178192,
        0.012526999227702618,
        -0.04555691033601761,
        0.20918215811252594,
        0.05098794773221016,
        -0.1930229514837265,
        0.02846364676952362,
        -0.3172612190246582,
        -0.3307168185710907,
        -0.05890585109591484,
        0.07070742547512054,
        -0.01716061681509018,
        0.14767101407051086,
        0.2652214765548706,
        -0.09081286936998367,
        0.16449977457523346,
        0.3391173779964447,
        0.24601387977600098,
        0.26480919122695923,
        0.1205143854022026,
        0.1513294130563736,
        -0.17301231622695923,
        0.15856778621673584,
        -0.09522341191768646,
        0.06327784806489944,
        -0.0006592386052943766,
        0.15449243783950806,
        0.3520076870918274,
        0.222295880317688,
        0.15685108304023743,
        0.0031638408545404673,
        0.04945987090468407,
        -0.08318691700696945,
        -0.3873315751552582,
        0.0038703298196196556,
        -0.050951067358255386,
        -0.2575785219669342,
        0.18368521332740784,
        0.2634982168674469,
        0.38641276955604553,
        0.04519875347614288,
        0.4575071632862091,
        -0.12616468966007233,
        -0.5539800524711609,
        -0.1534847915172577,
        0.08468972891569138,
        -0.09090859442949295,
        0.5274102091789246,
        -0.263473778963089,
        -0.21765609085559845,
        0.05451592803001404,
        0.5073509216308594,
        -0.23812267184257507,
        -0.16068725287914276,
        -0.20824289321899414,
        0.17078222334384918,
        0.1133926510810852,
        0.2087709754705429,
        -0.11481611430644989,
        -0.20442761480808258,
        -0.018497589975595474,
        0.19098757207393646,
        0.2238374501466751,
        0.07341044396162033,
        -0.22175484895706177,
        0.1563890278339386,
        -0.025850782170891762,
        0.12464769929647446,
        -0.09566690772771835,
        -0.22536510229110718,
        0.00903670210391283,
        -0.14317913353443146,
        -0.010757599025964737,
        -0.2349022626876831,
        -0.19665038585662842,
        0.08626826107501984,
        -0.0778232142329216,
        -0.1405511498451233,
        -0.09413043409585953,
        -0.19463449716567993,
        -0.23305056989192963,
        0.1258743554353714,
        -0.019086547195911407,
        0.0858258306980133,
        -0.07107920944690704,
        0.010292217135429382,
        0.010520470328629017,
        -0.22133493423461914,
        -0.07807605713605881,
        0.3724437355995178,
        -0.3364087641239166,
        -0.38100630044937134,
        0.08346550166606903,
        0.32466158270835876,
        -0.12657883763313293,
        0.17607960104942322,
        0.362970769405365,
        0.28371065855026245,
        0.1337745189666748,
        0.3196282386779785,
        0.029116645455360413,
        0.01272546499967575,
        0.1741795539855957,
        0.18717771768569946,
        0.11987507343292236,
        -0.22286231815814972,
        0.0915755107998848,
        -0.18916183710098267,
        -0.1795647293329239,
        0.05444639176130295,
        -0.16617587208747864,
        0.12005840241909027,
        -0.13867391645908356,
        -0.21309977769851685,
        -0.2892991602420807,
        -0.02883826568722725,
        0.19608448445796967,
        -0.07664375007152557,
        0.17988832294940948,
        -0.09836231172084808,
        -0.15474791824817657,
        0.11868008226156235,
        0.0978044867515564,
        0.024799879640340805,
        -0.15079981088638306,
        0.0407981239259243,
        0.13384497165679932,
        -0.0039378926157951355,
        -0.24753698706626892,
        0.28411829471588135,
        -0.2771986126899719,
        -0.09783647209405899,
        0.3531694710254669,
        -0.2101334035396576,
        -0.4188559353351593,
        -0.032000523060560226,
        0.02094322443008423,
        0.12857019901275635,
        -0.013959052041172981,
        0.04875144734978676,
        -0.0777171328663826,
        0.01670350506901741,
        0.11998087167739868,
        0.0936347246170044,
        -0.02758960798382759,
        -0.07954243570566177,
        0.012510082684457302,
        0.11562280356884003,
        -0.1716676652431488,
        -0.02344927191734314,
        0.054223719984292984,
        0.16148386895656586,
        -0.19981840252876282,
        -0.01734877936542034,
        0.000989470281638205,
        -0.1707504689693451,
        0.3334118723869324,
        0.20941860973834991,
        -0.10061655193567276,
        0.18904392421245575,
        -0.1199471652507782,
        0.016550671309232712,
        -0.009011691436171532,
        -0.10084319859743118,
        -0.1151852011680603,
        0.047624122351408005,
        0.21031874418258667,
        -0.0765945315361023,
        0.2600606083869934,
        -0.05386942997574806,
        -0.1411779373884201,
        0.13462311029434204,
        0.012138872407376766,
        0.16740936040878296,
        0.10446365177631378,
        -0.22961124777793884,
        0.061416685581207275,
        0.025405272841453552,
        -0.13535645604133606,
        0.12352073937654495,
        0.2512742877006531,
        -0.12187658250331879,
        -0.2043910175561905,
        0.22548548877239227,
        0.0681430920958519,
        0.08614887297153473,
        -0.10105486214160919,
        -0.03419787809252739,
        0.09202028065919876,
        -0.0604894682765007,
        0.22904232144355774,
        -0.010516062378883362,
        -0.13980068266391754,
        -0.23672151565551758,
        -0.22961974143981934,
        -0.0070710997097194195,
        0.19082342088222504,
        -0.220626562833786,
        -0.2106448858976364,
        0.13776341080665588,
        -0.12268254160881042,
        0.15138469636440277,
        -0.03083500824868679,
        0.0008220738964155316,
        -0.09992827475070953,
        0.05117186903953552,
        -0.08623760938644409,
        0.026829363778233528,
        -0.19164986908435822,
        0.05720300227403641,
        0.040013447403907776,
        0.03667538985610008,
        0.032720524817705154,
        0.0693412646651268,
        -0.019276509061455727,
        -0.12618966400623322,
        -0.040469296276569366,
        -0.1584898978471756,
        0.022396685555577278,
        0.048369526863098145,
        0.04005232825875282,
        -0.10955112427473068,
        -0.290223091840744,
        -0.025032227858901024,
        -0.09823956340551376,
        -0.33664917945861816,
        -0.13181215524673462,
        0.042735155671834946,
        -0.08989208936691284,
        0.09994767606258392,
        0.07426135241985321,
        0.11438313871622086,
        -0.019741293042898178,
        -0.02148464508354664,
        -0.3152048587799072,
        0.28105324506759644,
        0.15658532083034515,
        0.04448067396879196,
        -0.22740665078163147,
        -0.2147584855556488,
        0.1198611930012703,
        -0.11198393255472183,
        0.042571451514959335,
        0.11087246984243393,
        -0.16339008510112762,
        -0.27885133028030396,
        -0.07875391840934753,
        -0.2032288908958435,
        -0.03490379825234413,
        -0.40387439727783203,
        0.013258750550448895,
        -0.2541227638721466,
        -0.11768073588609695,
        0.05000103637576103,
        -0.1928294599056244,
        -0.18079891800880432,
        -0.11435340344905853,
        -0.11264962702989578,
        -0.17659412324428558,
        0.024010032415390015,
        0.25147539377212524,
        -0.2031252384185791,
        -0.1658307909965515,
        0.15174053609371185,
        0.3807836174964905,
        -0.04856569692492485,
        -0.11117973923683167,
        -0.007416334003210068,
        0.08466766774654388,
        -0.09274273365736008,
        -0.013506364077329636,
        0.10353793203830719,
        -0.04812714830040932,
        0.06855674088001251,
        0.02700319141149521,
        0.06291615962982178,
        -0.1293129175901413,
        0.06279569119215012,
        -0.14588548243045807,
        -0.1387406587600708,
        -0.14919228851795197,
        -0.05461600050330162,
        -0.2874651849269867,
        0.1967606395483017,
        0.20423626899719238,
        -0.0323292575776577,
        -0.10986153781414032,
        -0.046451546251773834,
        0.1900586485862732,
        0.1243094801902771,
        0.18746794760227203,
        -0.005370992235839367,
        -0.2629278898239136,
        0.2335260957479477,
        0.32627537846565247,
        0.18316243588924408,
        -0.044611211866140366,
        -0.055741917341947556,
        0.062414199113845825,
        -0.19113697111606598,
        -0.12511034309864044,
        0.13737790286540985,
        -0.03729084134101868,
        -0.02353455312550068,
        0.10600690543651581,
        -0.041177090257406235,
        -0.10799847543239594,
        -0.006035842467099428,
        0.047598544508218765,
        0.10724765807390213,
        -0.26365989446640015,
        -0.21844136714935303,
        -0.3098728060722351,
        -0.3376544713973999,
        0.2743791937828064,
        0.2147519588470459,
        -0.02433403581380844,
        -0.33145827054977417,
        -0.186899796128273,
        -0.11643604934215546,
        0.0920310765504837,
        -0.044651661068201065,
        -0.062425222247838974,
        0.06417563557624817,
        -0.029712406918406487,
        0.14150470495224,
        0.1866779774427414,
        0.28551551699638367,
        0.16913214325904846,
        -0.004283905494958162,
        -0.20783206820487976,
        0.028626134619116783,
        0.12295228242874146,
        0.15279799699783325,
        0.15861831605434418,
        -0.09082391113042831,
        -0.1274874061346054,
        0.036414872854948044,
        0.14203399419784546,
        0.43136653304100037,
        -0.0181987676769495,
        -0.09880275279283524,
        -0.25703760981559753,
        0.014178033918142319,
        0.04191203415393829,
        -0.21624933183193207,
        -0.011921037919819355,
        -0.09754767268896103,
        -0.14697130024433136,
        0.01871214248239994,
        -0.14803212881088257,
        -0.16230198740959167,
        0.07023779302835464,
        -0.29574084281921387,
        -0.20539847016334534,
        -0.010113603435456753,
        -0.1162596121430397,
        -0.01890861615538597,
        -0.06995756924152374,
        -0.14609746634960175,
        0.1176096722483635,
        -0.008954447694122791,
        -0.3000302016735077,
        0.1446203589439392,
        0.13812145590782166,
        0.15785455703735352,
        -0.18134282529354095,
        -0.36246153712272644,
        0.23331597447395325,
        0.006605282425880432,
        -0.12281055748462677,
        -0.09369581937789917,
        -0.004773321561515331,
        -0.11974804103374481,
        -0.011468473821878433,
        0.1543063074350357,
        0.20579616725444794,
        0.2631477415561676,
        -0.21892380714416504,
        -0.09205400943756104,
        -0.12239008396863937,
        -0.03359687328338623,
        0.11167760193347931,
        0.04061664640903473,
        -0.034546948969364166,
        -0.03875560313463211,
        0.20983555912971497,
        -0.30127477645874023,
        0.05367407202720642,
        0.1089121475815773,
        -0.1166597530245781,
        -0.0015417987015098333,
        0.24120014905929565,
        0.03173498809337616,
        0.01128571480512619,
        0.18968136608600616,
        0.16019563376903534,
        -0.10248417407274246,
        0.24353158473968506,
        -0.30207109451293945,
        -0.20768116414546967,
        -0.05607850104570389,
        0.03812867030501366,
        0.0028678085654973984,
        0.09437686949968338,
        0.011723300442099571,
        0.03216548636555672,
        -0.1957109123468399,
        -0.12741103768348694,
        0.14408931136131287,
        0.22089405357837677,
        -0.025083208456635475,
        0.028883470222353935,
        -0.22900088131427765,
        0.19562141597270966,
        0.0573587492108345,
        -0.1629602164030075,
        0.25028061866760254,
        0.16560573875904083,
        -0.029556576162576675,
        0.04322876036167145,
        -0.052627600729465485,
        -0.07647717744112015,
        -0.00016652880003675818,
        -0.14221476018428802,
        0.0811467170715332,
        0.009350886568427086,
        -0.12826520204544067,
        0.0668540745973587,
        0.17390058934688568,
        0.08887169510126114,
        0.1282530277967453,
        -0.01913004368543625,
        0.19015726447105408,
        -0.0744444727897644,
        0.09650228172540665,
        -0.009001011960208416,
        0.12049403786659241,
        -0.06441310048103333,
        0.16064907610416412,
        -0.13082420825958252,
        0.19175565242767334,
        0.17463497817516327,
        -0.30929043889045715,
        -0.17420849204063416,
        0.10383816808462143,
        -0.08323979377746582,
        0.07789679616689682,
        0.10266266763210297,
        -0.04804610460996628,
        -0.05122965946793556,
        -0.040755584836006165,
        0.12483029067516327,
        0.12780113518238068,
        0.04677169397473335,
        -0.17465181648731232,
        0.04803862422704697,
        -0.22516970336437225,
        -0.4827878475189209,
        0.15807192027568817,
        0.06693073362112045,
        0.12475484609603882,
        -0.10267757624387741,
        -0.13809309899806976,
        0.22050967812538147,
        -0.015555069781839848,
        0.03741001710295677,
        -0.031930111348629,
        0.15563781559467316,
        -0.0003248958964832127,
        0.060673173516988754,
        -0.008044593967497349,
        0.1316780298948288,
        0.3599446415901184,
        -0.4505026936531067,
        0.14265076816082,
        0.12081817537546158,
        -0.14101412892341614,
        0.14549674093723297,
        0.024416495114564896,
        0.23767076432704926,
        -0.1106254979968071,
        0.20329752564430237,
        -0.23334456980228424,
        -0.05991941690444946,
        0.03186170756816864,
        0.07981773465871811,
        0.02399449050426483,
        0.3488421142101288,
        -0.2680211067199707,
        -0.06669443845748901,
        0.21377404034137726,
        0.12909488379955292,
        0.10418503731489182,
        0.11697331815958023,
        -0.2759840488433838,
        0.07327558100223541,
        -0.025623757392168045,
        0.13518047332763672,
        -0.22764846682548523,
        -0.01263354904949665,
        -0.10468585044145584,
        -0.0919431820511818,
        -0.2551243305206299,
        -0.11104746907949448,
        0.13313838839530945,
        0.7180707454681396,
        -0.0001427891693310812,
        -0.030210521072149277,
        -0.5405367016792297,
        -0.015621272847056389,
        0.14338316023349762,
        -0.007813735865056515,
        0.07524462044239044,
        -0.1958419382572174,
        -0.33196836709976196,
        0.21540576219558716,
        0.005591189488768578,
        0.4425845444202423,
        0.04190067946910858,
        0.0684562399983406,
        0.19091181457042694,
        0.3482220470905304,
        -0.11103354394435883,
        0.021499205380678177,
        0.22357115149497986,
        -0.025646481662988663,
        0.0968194529414177,
        -0.3081463575363159,
        0.011952918022871017,
        0.01841672882437706,
        0.26474058628082275,
        -0.04643934220075607,
        0.19637611508369446,
        -0.36633890867233276,
        -0.047829318791627884,
        -0.6026089191436768,
        0.05803625285625458,
        0.004816601052880287,
        -0.031243938952684402,
        0.08568460494279861,
        0.1347542107105255,
        -0.08271297812461853,
        0.08062659204006195,
        -0.19581978023052216,
        -0.4241691529750824,
        -0.11030381172895432,
        -0.023205174133181572,
        -0.036398377269506454,
        0.13112792372703552,
        -0.003559740027412772,
        -0.3889178931713104,
        -0.0022727507166564465,
        -0.11623542010784149,
        0.07830027490854263,
        -0.02938082441687584,
        0.05877279117703438,
        -0.2037903070449829,
        -0.05332581326365471,
        0.03171275556087494,
        0.109596386551857,
        0.0001944778487086296,
        -0.009917637333273888,
        0.07528800517320633,
        -0.09465116262435913,
        -0.18365833163261414,
        0.07088812440633774,
        -0.034166641533374786,
        -0.041409656405448914,
        0.1795421689748764,
        0.09693174064159393,
        0.21261665225028992,
        0.12927210330963135,
        -0.0005286388332024217,
        -0.0793750062584877,
        -0.0729571059346199,
        -0.06486288458108902,
        0.30045774579048157,
        0.2579706609249115,
        0.18984641134738922,
        -0.08112793415784836,
        0.024470966309309006,
        -0.11385563760995865,
        0.07651383429765701,
        -0.026719804853200912,
        -0.17735275626182556,
        -0.03192577138543129,
        -0.09390164911746979,
        -0.0324099026620388,
        0.04440174251794815,
        -0.07712911069393158,
        -0.045750826597213745,
        -0.04676144942641258,
        0.08106629550457001,
        -0.009231168776750565,
        0.07845287024974823,
        0.04947388172149658,
        0.10393596440553665,
        0.10656463354825974,
        0.019559161737561226,
        0.19419749081134796,
        -0.026907946914434433,
        -0.5367538928985596,
        -0.21423976123332977,
        0.028980804607272148,
        0.29088205099105835,
        0.12202991545200348,
        0.08333845436573029,
        0.17270967364311218,
        0.03963780775666237,
        0.07842964679002762,
        0.2473163902759552,
        0.138602152466774,
        -0.13005274534225464,
        -0.27654364705085754,
        0.011224093846976757,
        0.15154196321964264,
        0.3438519239425659,
        -0.041516054421663284,
        0.01696016825735569,
        -0.1656285524368286,
        -0.16016142070293427,
        0.09662982821464539,
        -0.24260057508945465,
        -0.1743336319923401,
        0.03962135314941406,
        0.03904210403561592,
        0.017398713156580925,
        -0.09626603871583939,
        -0.3168647885322571,
        -0.05152559280395508,
        0.26124846935272217,
        0.3166508078575134,
        0.0398249514400959,
        0.07437433302402496,
        0.11894842982292175,
        0.23141111433506012,
        -0.007880098186433315,
        0.024121997877955437,
        -0.2277052402496338,
        -0.1491442173719406,
        0.09676916152238846,
        0.003346777521073818,
        -0.06055835261940956,
        -0.2787535488605499,
        -0.15509763360023499,
        -0.005660425405949354,
        0.2727360725402832,
        0.13208723068237305,
        0.16145507991313934,
        -0.016146428883075714,
        -0.30293354392051697,
        0.27232271432876587,
        -0.07812284678220749,
        0.35337409377098083,
        0.0712720975279808,
        -0.22687625885009766,
        0.5593769550323486,
        -0.05974589288234711,
        0.1450009047985077,
        0.11234068870544434,
        -0.08703192323446274,
        -0.15751613676548004,
        -0.5461835265159607,
        0.08863427489995956,
        -0.24932661652565002,
        0.378099262714386,
        -0.07954660803079605,
        -0.19460470974445343,
        -0.17147569358348846,
        0.18249845504760742,
        0.10541673749685287,
        0.03599809110164642,
        0.05193016678094864,
        -0.22463221848011017,
        -0.22340475022792816,
        0.031503841280937195,
        -0.07454779744148254,
        0.017732048407197,
        0.21460622549057007,
        -0.07108766585588455,
        0.5798559784889221,
        0.0046825651079416275,
        -0.025876756757497787,
        0.06426218152046204,
        -0.2405262142419815,
        -0.19258907437324524,
        0.19260859489440918,
        -0.0205898005515337,
        -0.056067876517772675,
        0.248243048787117,
        0.005623137578368187,
        -0.056876201182603836,
        0.1766858696937561,
        0.06688764691352844,
        0.1488129049539566,
        0.23285093903541565,
        -0.3040170669555664,
        -0.1263781189918518,
        0.04496581107378006,
        -0.17608819901943207,
        -0.07953117787837982,
        -0.11177518963813782,
        -0.10468003153800964,
        -0.23244795203208923,
        -0.0780591294169426,
        -0.11934179812669754,
        -0.027419421821832657,
        0.20772825181484222,
        -0.025773297995328903,
        0.16278745234012604,
        0.11442721635103226,
        0.11134663969278336,
        -0.13566763699054718,
        0.032174669206142426,
        0.3271358013153076,
        0.014038979075849056,
        0.05389248579740524,
        0.15365855395793915,
        -0.08487807214260101,
        -0.10140666365623474,
        -0.09679266810417175,
        -0.02840091846883297,
        -0.24624840915203094,
        0.010600065812468529,
        0.07745781540870667,
        -0.19919990003108978,
        -0.4076862931251526,
        0.1873084455728531,
        -0.020633338019251823,
        -0.22837093472480774,
        -0.021206405013799667,
        -0.06082466244697571,
        -0.04526933655142784,
        0.05209053307771683,
        -0.07824018597602844,
        0.0170785840600729,
        0.016557728871703148,
        0.04317226633429527,
        -0.1294516921043396,
        0.009507943876087666,
        -0.30493471026420593,
        -0.16591782867908478,
        0.09963613748550415,
        -0.22398288547992706,
        -0.2078363299369812,
        -0.008646955713629723,
        0.14095070958137512,
        -0.0025001673493534327,
        -0.0667024478316307,
        -0.004237513989210129,
        0.05455784872174263,
        0.0249989852309227,
        -0.0438840277493,
        -0.12918725609779358,
        -0.047708697617053986,
        -0.029596110805869102,
        -0.10583441704511642,
        -0.05233127996325493,
        0.2747051417827606,
        0.04513324797153473,
        -0.021797506138682365,
        0.0812138244509697,
        0.10512348264455795,
        0.12376632541418076,
        0.2120722383260727,
        0.004104955121874809,
        0.08011554926633835,
        -0.06335201114416122,
        0.09946965426206589,
        -0.05692489817738533,
        0.2671155333518982,
        -0.018725406378507614,
        0.03569465130567551,
        0.07246631383895874,
        0.025357961654663086,
        0.01657216064631939,
        -0.15690240263938904,
        -0.05754967778921127,
        -0.16606910526752472,
        -0.1968003213405609,
        0.07353179901838303,
        0.1764659285545349,
        0.03208346664905548,
        -0.061490945518016815,
        0.16105562448501587,
        -0.13368761539459229,
        -0.16240628063678741,
        -0.12065532803535461,
        -0.03501468896865845,
        0.046738944947719574,
        -0.08924451470375061,
        -0.0408969447016716,
        -0.22097530961036682,
        0.2247970998287201,
        0.19060233235359192,
        -0.09120813757181168,
        -0.024872712790966034,
        -0.0967555046081543,
        -0.16558389365673065,
        -0.049337130039930344,
        -0.042787518352270126,
        -0.055351417511701584,
        0.16972549259662628,
        -0.0203065387904644,
        -0.01864868588745594,
        0.02054940164089203,
        0.0043466235511004925,
        0.16090744733810425,
        -0.18014587461948395,
        -0.06805922836065292,
        0.09157899767160416,
        -0.18063747882843018,
        -0.1414487659931183,
        0.09444621950387955,
        -0.041726209223270416,
        0.07274260371923447,
        -0.14202405512332916,
        -0.10997217148542404,
        -0.06702855974435806,
        -0.0672929435968399,
        0.16943414509296417,
        0.07384694367647171,
        -0.20646339654922485,
        -0.09571308642625809,
        -0.35080650448799133,
        -0.05647745728492737,
        0.14414359629154205,
        -0.07975301891565323,
        0.05853753909468651,
        -0.08951522409915924,
        -0.047841571271419525,
        -0.14492307603359222,
        0.021211378276348114,
        -0.22560089826583862,
        -0.04629087820649147,
        0.010015556588768959,
        -0.027490878477692604,
        -0.04595398157835007,
        0.10068738460540771,
        0.11368796974420547,
        -0.01964390091598034,
        -0.07963692396879196,
        0.5297263860702515,
        0.17111420631408691,
        0.23950409889221191,
        -0.24104848504066467,
        -0.03972150757908821,
        0.057127099484205246,
        -0.022385725751519203,
        0.04814976453781128,
        -0.07739615440368652,
        -0.00914486963301897,
        0.10235133767127991,
        -0.10265236347913742,
        0.14588096737861633,
        -0.055958718061447144,
        0.016248252242803574,
        -0.23636119067668915,
        0.2649683356285095,
        0.14458227157592773,
        0.03252670168876648,
        -0.024881888180971146,
        0.020038215443491936,
        0.02034541219472885,
        0.07454949617385864,
        0.17127567529678345,
        -0.1796364188194275,
        0.14242738485336304,
        0.10505988448858261,
        0.18556781113147736,
        -0.01481588464230299,
        0.42807742953300476,
        -0.07943432033061981,
        -0.13180367648601532,
        -0.17763009667396545,
        -0.12848758697509766,
        -0.04439444839954376,
        0.18242566287517548,
        0.03512553870677948,
        -0.09395744651556015,
        0.027235884219408035,
        -0.1079275831580162,
        -0.15813563764095306,
        0.06830248236656189,
        -0.10296128690242767,
        -0.011797442100942135,
        -0.22178193926811218,
        -0.004422065336257219,
        -0.10917100310325623,
        0.260516881942749,
        -0.4433938264846802,
        0.3021621108055115,
        -0.2723217308521271,
        0.30308815836906433,
        -0.09486332535743713,
        -0.18092791736125946,
        -0.07721689343452454,
        -0.09150116890668869,
        0.05308535322546959,
        0.2944461405277252,
        -0.013482575304806232,
        0.1432083696126938,
        -0.3357526659965515,
        0.039452917873859406,
        0.036256093531847,
        0.13903772830963135,
        -0.02117062360048294,
        -0.02486122027039528,
        -0.033414337784051895,
        -0.02529447339475155,
        0.10639382898807526,
        -0.19066861271858215,
        -0.0038645961321890354,
        -0.2023371160030365,
        -0.08811504393815994,
        0.10182934254407883,
        -0.11398491263389587,
        -0.10653377324342728,
        0.09597857296466827,
        -0.2711693346500397,
        0.45620596408843994,
        -0.1864999532699585,
        0.06588765978813171,
        0.13716888427734375,
        -0.025129761546850204,
        -0.19257275760173798,
        -0.0595984160900116,
        -0.12698723375797272,
        -0.1927434802055359,
        0.16201470792293549,
        -0.2374027669429779,
        0.1293153613805771,
        0.06984535604715347,
        0.08369184285402298,
        0.19815035164356232,
        0.11038170009851456,
        -0.17529039084911346,
        -0.047095246613025665,
        0.12870515882968903,
        0.03347344323992729,
        0.37105992436408997,
        0.17624010145664215,
        0.05862264707684517,
        0.08323201537132263,
        0.10476552695035934,
        -0.058343857526779175,
        -0.05286860466003418,
        -0.06974269449710846,
        -0.03058311529457569,
        -0.2105102241039276,
        -0.21826781332492828,
        0.07191450893878937,
        -0.06956520676612854,
        0.016749918460845947,
        -0.1510629951953888,
        -0.12001021951436996,
        -0.27660253643989563,
        0.02356492169201374,
        0.008394922129809856,
        -0.06756006926298141,
        -0.37465327978134155,
        -0.29511722922325134,
        -0.07179238647222519,
        0.30687418580055237,
        0.22883109748363495,
        0.2344282567501068,
        -0.26550015807151794,
        0.06132585182785988,
        0.07005202770233154,
        -0.034315064549446106,
        0.1369221806526184,
        0.005589502397924662,
        -0.0863216295838356,
        0.04157523065805435,
        0.16465698182582855,
        -0.10888554155826569,
        0.26205161213874817,
        0.02894485555589199,
        -0.05348654463887215,
        0.1291811466217041,
        0.2850010395050049,
        0.25957655906677246,
        0.1008545458316803,
        0.021665193140506744,
        -0.16920655965805054,
        0.046405915170907974,
        -0.08237855136394501,
        0.06326805800199509,
        0.11710168421268463,
        0.10725198686122894,
        -0.09140139073133469,
        -0.0511212982237339,
        0.0765211284160614,
        0.15865392982959747,
        0.09944624453783035,
        0.013492484577000141,
        0.05255410447716713,
        -0.056469131261110306,
        -0.4903566539287567,
        0.1848694533109665,
        0.28337281942367554,
        -0.5642622709274292,
        0.21135787665843964,
        -0.8493852019309998,
        -0.2791250944137573,
        -0.48893579840660095,
        0.90741366147995,
        -0.7637662887573242,
        -0.46989163756370544,
        -0.930209755897522,
        0.1646541804075241,
        -0.7581853866577148,
        0.4240625202655792,
        -0.6255111694335938,
        -0.3323468863964081,
        -0.29409366846084595,
        0.09055262058973312,
        0.1352633684873581,
        0.17006084322929382,
        -0.07135865092277527,
        -0.2273489385843277,
        -0.8323544263839722,
        -0.16719841957092285,
        -0.1978011131286621,
        0.35016191005706787,
        0.015857765451073647,
        0.389129102230072,
        0.12028054147958755,
        0.01763947866857052,
        0.01676947809755802,
        -0.11899057030677795,
        -0.21318310499191284,
        -0.11400821805000305,
        0.2114328145980835,
        -0.3847620189189911,
        0.3327384889125824,
        -0.3409131169319153,
        -0.42141348123550415,
        0.3499476909637451,
        -0.19589515030384064,
        0.1438976675271988,
        0.15699590742588043,
        0.1648818999528885,
        0.0637485459446907,
        -0.03390198573470116,
        0.30520346760749817,
        -0.19070468842983246,
        -0.10428787022829056,
        -0.0815286934375763,
        0.35792630910873413,
        -0.07778769731521606,
        0.35787996649742126,
        -0.138236865401268,
        -0.0769285187125206,
        -4.028841431136243e-05,
        -0.014293194748461246,
        -0.17798903584480286,
        -0.34786105155944824,
        0.19147607684135437,
        0.12746693193912506,
        0.004215202759951353,
        0.07811851054430008,
        0.41999348998069763,
        -0.28384914994239807,
        -0.13814011216163635,
        -0.2736019194126129,
        -0.1434004157781601,
        -0.07657657563686371,
        0.19300314784049988,
        -0.032168131321668625,
        -0.25565141439437866,
        0.15248535573482513,
        0.1581343710422516,
        0.7340143322944641,
        0.1800222098827362,
        -0.19278626143932343,
        0.13269738852977753,
        0.12234190851449966,
        0.16164322197437286,
        0.042673997581005096,
        -0.14813359081745148,
        -0.19409695267677307,
        0.18945245444774628,
        -0.05915527790784836,
        -0.1423257738351822,
        0.03292694687843323,
        0.26905539631843567,
        -0.1419302523136139,
        0.033066216856241226,
        0.4116518497467041,
        -0.12383957952260971,
        0.058933842927217484,
        -0.25169458985328674,
        -0.18583181500434875,
        -0.378023236989975,
        -0.16159199178218842,
        -0.34058934450149536,
        -0.11277874559164047,
        0.10355430841445923,
        -0.2808329463005066,
        -0.21704179048538208,
        -0.1789066195487976,
        0.20536331832408905,
        0.3805161416530609,
        -0.08572250604629517,
        -0.32109689712524414,
        -0.24404805898666382,
        -0.33622029423713684,
        0.2990347146987915,
        0.10406467318534851,
        -0.16920500993728638,
        -0.20239967107772827,
        0.11094717681407928,
        -0.10558656603097916,
        0.05591163411736488,
        0.3888758420944214,
        -0.28596335649490356,
        -0.009435142390429974,
        0.15684182941913605,
        -0.03435160592198372,
        -0.6738742589950562,
        0.4642658829689026,
        -0.24670729041099548,
        -0.24863065779209137,
        -0.17862127721309662,
        0.37163782119750977,
        -0.09165409952402115,
        0.1237153708934784,
        -0.024479940533638,
        -0.013853728771209717,
        0.2042194902896881,
        -0.2517314553260803,
        -0.1873706728219986,
        0.08502674847841263,
        0.04920162260532379,
        0.32553139328956604,
        -0.2769101858139038,
        0.009271396324038506,
        -0.2769924998283386,
        -0.0664559081196785,
        0.2004839926958084,
        -0.00671751843765378,
        0.04264878109097481,
        0.14437103271484375,
        -0.31294357776641846,
        -0.10117210447788239,
        -0.3193756341934204,
        -0.04870153218507767,
        -0.08578594028949738,
        -0.2576337158679962,
        0.0042560892179608345,
        0.19914746284484863,
        0.3653722405433655,
        -0.23797276616096497,
        0.07467519491910934,
        0.07625824213027954,
        -0.00900264736264944,
        0.39460885524749756,
        -0.1244988739490509,
        -0.04603414610028267,
        0.020319616422057152,
        0.040318917483091354,
        0.16946029663085938,
        -0.32761672139167786,
        0.12888245284557343,
        -0.035315874963998795,
        0.0471670888364315,
        -0.1118554100394249,
        -0.010485931299626827,
        0.09852669388055801,
        0.05888407677412033,
        -0.042900200933218,
        0.149881049990654,
        -0.27237680554389954,
        -0.22621466219425201,
        -0.5171955227851868,
        -0.2294405996799469,
        0.052729249000549316,
        0.04563967511057854,
        -0.12941975891590118,
        -0.01336553692817688,
        -0.11223433911800385,
        0.11669450998306274,
        0.3981352746486664,
        -0.21176430583000183,
        0.30158448219299316,
        0.19544430077075958,
        -0.26624149084091187,
        0.1074737161397934,
        0.2428199052810669,
        0.3910456597805023,
        0.5188796520233154,
        -0.08851657807826996,
        -0.08739127963781357,
        -0.0778198316693306,
        0.0025504915975034237,
        0.27799057960510254,
        0.08281363546848297,
        -0.27424514293670654,
        0.011005121283233166,
        0.5568151473999023,
        -0.2325129359960556,
        0.19612692296504974,
        0.21879224479198456,
        0.02831626869738102,
        -0.24363717436790466,
        -0.0582316555082798,
        -0.29798534512519836,
        -0.16547252237796783,
        0.2771700322628021,
        -0.04808980971574783,
        0.0028585318941622972,
        0.046966154128313065,
        0.2521345615386963,
        -0.1597832441329956,
        -0.037879470735788345,
        -0.3008437156677246,
        -0.010733460076153278,
        0.24883054196834564,
        -0.30332058668136597,
        -0.10358548909425735,
        -0.012741507031023502,
        0.34044501185417175,
        -0.21008668839931488,
        -0.2290416955947876,
        0.3533366620540619,
        -0.2478131800889969,
        0.08402319252490997,
        0.041119348257780075,
        0.1465395838022232,
        0.30595579743385315,
        0.21864067018032074,
        0.04436078667640686,
        -0.030325237661600113,
        0.20573166012763977,
        -0.0304546020925045,
        0.2435060739517212,
        -0.06396652013063431,
        -0.02613491378724575,
        0.4212186634540558,
        0.008250043727457523,
        -0.13478751480579376,
        -0.18215510249137878,
        -0.1485549956560135,
        0.06365728378295898,
        -0.20380637049674988,
        -0.2592999339103699,
        0.13577133417129517,
        -0.015494510531425476,
        -0.059732262045145035,
        -0.010464548133313656,
        0.21683570742607117,
        0.11092005670070648,
        0.2091355174779892,
        0.0499657541513443,
        -0.03530988097190857,
        -0.23158030211925507,
        0.15448275208473206,
        -0.3080434203147888,
        0.23069673776626587,
        -0.38913336396217346,
        0.03405125066637993,
        0.2707682251930237,
        -0.20931124687194824,
        0.27895447611808777,
        0.03243757411837578,
        -0.15069429576396942,
        0.44778159260749817,
        -0.3775709867477417,
        -0.09903810173273087,
        0.010773006826639175,
        0.058735255151987076,
        0.010130860842764378,
        -0.053104981780052185,
        -0.1333850622177124,
        -0.023858346045017242,
        0.10947223007678986,
        0.04312514886260033,
        0.04411717504262924,
        0.08355095982551575,
        0.028105152770876884,
        -0.13725639879703522,
        0.022242479026317596,
        -0.10106157511472702,
        -0.07747362554073334,
        -0.026942580938339233,
        0.4067884087562561,
        0.0698196068406105,
        -0.006145557854324579,
        0.033258166164159775,
        -0.19649118185043335,
        -0.054999321699142456,
        0.0652780532836914,
        -0.08602651953697205,
        -0.05366279184818268,
        -0.036167990416288376,
        -0.3061927855014801,
        0.14949361979961395,
        0.24111707508563995,
        0.13152384757995605,
        -0.1565989851951599,
        0.2513915002346039,
        -0.11702391505241394,
        0.012998671270906925,
        0.028979668393731117,
        0.24177321791648865,
        0.0011998062254860997,
        -0.015542935580015182,
        0.15657836198806763,
        -0.13425467908382416,
        -0.12095164507627487,
        -0.1288670003414154,
        0.04550246521830559,
        -0.022056307643651962,
        0.1526506394147873,
        0.012779139913618565,
        -0.018861565738916397,
        -0.0426628440618515,
        -0.01138161402195692,
        0.11382307857275009,
        -0.2885577976703644,
        0.11659662425518036,
        -0.11724197864532471,
        -0.1507699191570282,
        0.0002812447492033243,
        -0.05240564048290253,
        -0.1009863093495369,
        -0.013984981924295425,
        0.1707487404346466,
        -0.09378408640623093,
        -0.10775403678417206,
        0.09226592630147934,
        -0.14955489337444305,
        -0.07257550954818726,
        0.49697211384773254,
        0.24912124872207642,
        -0.04624331742525101,
        -0.14838890731334686,
        0.07060374319553375,
        -0.08747240155935287,
        0.09177768975496292,
        0.1163647323846817,
        0.21072247624397278,
        -0.2287435233592987,
        -0.09572948515415192,
        0.13684384524822235,
        0.12283002585172653,
        -0.2305094599723816,
        -0.33736246824264526,
        0.12474767118692398,
        -0.21120429039001465,
        -0.25548839569091797,
        -0.2141985297203064,
        -0.12421344220638275,
        0.09617920964956284,
        0.056203778833150864,
        -0.05911282077431679,
        -0.16207517683506012,
        0.00952326599508524,
        -0.011063571088016033,
        -0.07535134255886078,
        0.21555788815021515,
        0.21972237527370453,
        -0.004733737092465162,
        0.12063033133745193,
        -0.028012942522764206,
        0.06081533804535866,
        0.15356135368347168,
        -0.05638645961880684,
        -0.013579202815890312,
        -0.24443699419498444,
        0.048315297812223434,
        0.14283542335033417,
        -0.058884698897600174,
        -0.058254875242710114,
        0.090342678129673,
        -0.19264662265777588,
        -0.03389995917677879,
        -0.11803116649389267,
        0.1349511295557022,
        0.03364621102809906,
        -0.10162606090307236,
        0.3685280680656433,
        0.0718679130077362,
        -0.2617153525352478,
        -0.06575857102870941,
        0.3174111545085907,
        -0.025214679539203644,
        -0.016354747116565704,
        0.07339292764663696,
        0.1532590240240097,
        -0.32693958282470703,
        0.17470237612724304,
        -0.12159383296966553,
        -0.020388560369610786,
        -0.08554282039403915,
        0.14588555693626404,
        -0.05308712646365166,
        0.7081900835037231,
        -0.13154512643814087,
        -0.6358852982521057,
        0.20799486339092255,
        0.06085539236664772,
        -0.019657926633954048,
        0.023389782756567,
        -0.017393620684742928,
        -0.0670490711927414,
        0.1438436359167099,
        -0.07594335079193115,
        0.10363029688596725,
        0.03487606346607208,
        -0.1492418646812439,
        -0.22120587527751923,
        0.11414821445941925,
        -0.09505200386047363,
        0.1753489226102829,
        0.1109662726521492,
        -0.12037570029497147,
        -0.01717253401875496,
        -0.06117263063788414,
        0.0445450022816658,
        -0.2216806709766388,
        0.1683897078037262,
        0.055100616067647934,
        0.20630985498428345,
        0.06945081800222397,
        -0.10110244899988174,
        -0.29000866413116455,
        0.4278949797153473,
        0.35443851351737976,
        -0.42563414573669434,
        -0.2154124677181244,
        0.104050412774086,
        0.021019423380494118,
        0.25460150837898254,
        0.035297006368637085,
        0.054781731218099594,
        0.18484905362129211,
        -0.13728691637516022,
        0.013039923273026943,
        0.021592501550912857,
        -0.15012194216251373,
        0.01845887303352356,
        -0.10003946721553802,
        0.027531864121556282,
        0.34887975454330444,
        0.35534903407096863,
        0.08963669091463089,
        -0.37605714797973633,
        -0.1346246600151062,
        0.1895359754562378,
        -0.027288582175970078,
        0.04684697464108467,
        0.18220731616020203,
        0.07386206090450287,
        0.09350954741239548,
        -0.018201684579253197,
        -0.14676439762115479,
        -0.0953853502869606,
        -0.05947558581829071,
        0.04557136818766594,
        0.09120643138885498,
        -0.01635352335870266,
        0.330454021692276,
        0.22396351397037506,
        -0.24317070841789246,
        0.008800623938441277,
        -0.049375806003808975,
        -0.09035898745059967,
        0.16095972061157227,
        0.026799341663718224,
        0.04446898773312569,
        0.08962970972061157,
        -0.04538316652178764,
        0.045962754637002945,
        0.0024990264791995287,
        0.12491388618946075,
        0.12340127676725388,
        0.12219429761171341,
        0.46873924136161804,
        0.16647477447986603,
        0.05881310626864433,
        0.0225842148065567,
        -0.15227876603603363,
        0.23683252930641174,
        0.06925497949123383,
        0.014452479779720306,
        0.07499950379133224,
        0.2315005362033844,
        -0.34607481956481934,
        -0.29896560311317444,
        0.004445658065378666,
        0.0831775963306427,
        -0.2004191279411316,
        -0.48952117562294006,
        -0.04042027145624161,
        0.0177510604262352,
        -0.002115837065503001,
        0.17159688472747803,
        -0.22323445975780487,
        -0.16522985696792603,
        0.17947441339492798,
        0.08440613746643066,
        -0.1717759370803833,
        0.07966747134923935,
        -0.06623987853527069,
        0.14880485832691193,
        0.13098828494548798,
        0.14348962903022766,
        -0.07092750072479248,
        -0.08055975288152695,
        -0.29760316014289856,
        0.16809408366680145,
        0.1643703132867813,
        0.21950161457061768,
        0.04285929352045059,
        -0.13892506062984467,
        0.0251100305467844,
        -0.22460711002349854,
        -0.07543453574180603,
        -0.02509325183928013,
        -0.09552768617868423,
        0.32685792446136475,
        -0.07273431122303009,
        -0.12372817099094391,
        0.048294797539711,
        0.09792723506689072,
        -0.08388300240039825,
        -0.050233155488967896,
        0.14219775795936584,
        -0.07209180295467377,
        -0.006835596635937691,
        -0.09384939819574356,
        -0.14570032060146332,
        -0.07586052268743515,
        2.9859675123589113e-05,
        -0.2393333911895752,
        -0.00243247183971107,
        0.0832475945353508,
        0.011040009558200836,
        0.13688288629055023,
        -0.60014408826828,
        -0.05363815277814865,
        0.15571826696395874,
        -0.06357195973396301,
        0.008481457829475403,
        0.031155206263065338,
        -0.2240922749042511,
        -0.0773039311170578,
        0.105353444814682,
        0.07500547170639038,
        -0.08427099883556366,
        -0.10492128878831863,
        -0.2251131534576416,
        0.03592252731323242,
        0.0395004004240036,
        0.10716845095157623,
        -0.03760411962866783,
        -0.03480754420161247,
        -0.06808531284332275,
        0.09862376004457474,
        0.07762283086776733,
        0.20683492720127106,
        -0.104490265250206,
        -0.17934127151966095,
        -0.035945113748311996,
        -0.059668730944395065,
        -0.0023765384685248137,
        -0.0076990858651697636,
        -0.06053007021546364,
        0.07549384236335754,
        0.012681419961154461,
        -0.10954169929027557,
        0.13674868643283844,
        -0.4719826579093933,
        -0.13230052590370178,
        -0.05708421766757965,
        -0.06217397749423981,
        0.01568746753036976,
        0.019134147092700005,
        -0.0964134931564331,
        -0.11837849020957947,
        -0.12080517411231995,
        -0.07699021697044373,
        0.16960978507995605,
        0.16814281046390533,
        0.15085093677043915,
        -0.1230337992310524,
        -0.2820562720298767,
        -0.23746632039546967,
        -0.12497130781412125,
        -0.1493135243654251,
        0.0325346402823925,
        0.11738375574350357,
        -0.13098987936973572,
        0.1849869340658188,
        0.04338674992322922,
        -0.16324704885482788,
        -0.3597056567668915,
        -0.03332200273871422,
        0.11919943988323212,
        0.04706939309835434,
        0.11739835143089294,
        -0.07434413582086563,
        -0.22149351239204407,
        0.019344229251146317,
        -0.05907624959945679,
        -0.05718519911170006,
        -0.14562343060970306,
        -0.019798584282398224,
        -0.28323832154273987,
        -0.13272468745708466,
        0.12207554280757904,
        -0.0475638248026371,
        -0.09778876602649689,
        0.10204506665468216,
        -0.28097158670425415,
        0.025478724390268326,
        -0.0255063995718956,
        -0.014595705084502697,
        -0.1569860577583313,
        -0.12221964448690414,
        0.11929456144571304,
        -0.09457311034202576,
        -0.13366489112377167,
        0.24343936145305634,
        0.09999298304319382,
        -0.013367242179811,
        0.027816463261842728,
        0.14196839928627014,
        -0.06369660049676895,
        0.05491773039102554,
        -0.06614519655704498,
        0.024732597172260284,
        -0.2297886312007904,
        0.08267481625080109,
        0.05498151481151581,
        -0.04336076229810715,
        0.2627825140953064,
        0.15972250699996948,
        -0.13702228665351868,
        0.1297423541545868,
        0.1203739270567894,
        -0.2591168284416199,
        0.09784097969532013,
        0.03314334899187088,
        0.14734908938407898,
        0.002281570341438055,
        -0.15468457341194153,
        -0.23801866173744202,
        0.1002347394824028,
        -0.06548096984624863,
        0.23944127559661865,
        -0.12092683464288712,
        -0.033942706882953644,
        0.11602849513292313,
        -0.18784193694591522,
        -0.11167905479669571,
        0.13903509080410004,
        0.060048408806324005,
        0.01507512480020523,
        0.037364598363637924,
        -0.10012529790401459,
        -0.04371974244713783,
        0.07454151660203934,
        -0.2147102802991867,
        -0.05268698185682297,
        -0.19375716149806976,
        -0.11924894899129868,
        -0.03156893700361252,
        -0.3028135299682617,
        -0.21012260019779205,
        0.1676543951034546,
        0.13420487940311432,
        0.1882489174604416,
        -0.02248057909309864,
        0.08648421615362167,
        0.2023666352033615,
        -0.1308346539735794,
        0.17321458458900452,
        0.11729628592729568,
        0.10275141149759293,
        -0.258361279964447,
        -0.13976646959781647,
        0.056683484464883804,
        -0.15184496343135834,
        0.4451487064361572,
        -0.27493390440940857,
        0.1357867568731308,
        0.2631944715976715,
        0.3258253335952759,
        -0.07924535870552063,
        -0.07665988802909851,
        0.06253897398710251,
        0.19748064875602722,
        -0.005414873361587524,
        -0.006711105350404978,
        -0.12293887138366699,
        0.03919881954789162,
        0.19469143450260162,
        0.17295807600021362,
        0.15124960243701935,
        -0.1883184015750885,
        -0.06705313175916672,
        -0.23891857266426086,
        -0.22166280448436737,
        -0.0454135462641716,
        0.1584666222333908,
        -0.16987742483615875,
        0.09630695730447769,
        0.012725260108709335,
        -0.01717611402273178,
        0.18250006437301636,
        0.040676478296518326,
        -0.043732430785894394,
        -0.05794917792081833,
        0.09287708252668381,
        0.1518803983926773,
        -0.11663210391998291,
        -0.22094865143299103,
        -0.2151430994272232,
        -0.0193916168063879,
        -0.15278862416744232,
        0.23141278326511383,
        -0.028185032308101654,
        -0.08584259450435638,
        0.17472000420093536,
        -0.13228410482406616,
        0.06992607563734055,
        -0.14398594200611115,
        0.0755888819694519,
        0.16163405776023865,
        -0.048685476183891296,
        -0.09672911465167999,
        -0.5326523184776306,
        0.12757256627082825,
        0.24454094469547272,
        -0.14953076839447021,
        -0.23585420846939087,
        0.17861312627792358,
        -0.18709765374660492,
        -0.15059593319892883,
        -0.15550175309181213,
        -0.21681585907936096,
        0.154635950922966,
        0.2589654326438904,
        -0.04012833163142204,
        -0.019545530900359154,
        -0.07286155223846436,
        -0.09468832612037659,
        0.004937302321195602,
        -0.2577188014984131,
        0.4974662661552429,
        -0.17674751579761505,
        -0.09511112421751022,
        -0.0011460072128102183,
        0.0455024391412735,
        -0.12479482591152191,
        -0.18464325368404388,
        0.1331578940153122,
        -0.12680895626544952,
        0.18353645503520966,
        -0.14292462170124054,
        0.24692653119564056,
        0.0036120982840657234,
        -0.005489739123731852,
        0.22093020379543304,
        -0.32821378111839294,
        0.17220377922058105,
        0.00903018657118082,
        0.04712642729282379,
        0.3592698276042938,
        -0.12858934700489044,
        0.0708451122045517,
        0.15103524923324585,
        0.03644118085503578,
        0.03888055682182312,
        0.3443543016910553,
        0.3403714597225189,
        -0.06327128410339355,
        -0.06306933611631393,
        0.15923918783664703,
        0.051970407366752625,
        0.04172997921705246,
        0.08781230449676514,
        0.16758789122104645,
        -0.3155880272388458,
        0.13432244956493378,
        0.13742128014564514,
        -0.11849740892648697,
        -0.06984221935272217,
        0.05193580314517021,
        0.16081728041172028,
        0.03458983078598976,
        -0.01609223708510399,
        0.06599795073270798,
        -0.008246641606092453,
        0.013680091127753258,
        0.0396403931081295,
        0.1601758450269699,
        -0.16660864651203156,
        0.3074292242527008,
        -0.10234115272760391,
        0.0483078807592392,
        0.017350666224956512,
        0.029627477750182152,
        -0.13247299194335938,
        0.22300174832344055,
        -0.009377273730933666,
        0.12104607373476028,
        -0.14403676986694336,
        0.19122888147830963,
        -0.09401840716600418,
        0.13124051690101624,
        0.16379724442958832,
        0.07137434929609299,
        -0.1027989387512207,
        -0.18127356469631195,
        -0.26352378726005554,
        0.21415983140468597,
        -0.06240309402346611,
        -0.032144300639629364,
        0.25284281373023987,
        -0.2154502123594284,
        0.094814233481884,
        0.1857547014951706,
        0.21999695897102356,
        0.09793715924024582,
        -0.04292783886194229,
        0.032979998737573624,
        -0.6367080807685852,
        0.048126012086868286,
        0.26507678627967834,
        -0.13608163595199585,
        0.18049536645412445,
        0.2771941125392914,
        -0.14295172691345215,
        -0.28183555603027344,
        -0.3205997347831726,
        0.06954720616340637,
        0.01412124466150999,
        0.04989615082740784,
        -0.11658768355846405,
        -0.31980374455451965,
        -0.20609717071056366,
        -0.1971188634634018,
        0.04708971083164215,
        -0.3603077828884125,
        0.31739211082458496,
        0.18790867924690247,
        -0.09376315027475357,
        0.008252601139247417,
        0.1643023043870926,
        -0.24728679656982422,
        -0.14364244043827057,
        0.30570122599601746,
        -0.07482116669416428,
        0.07839156687259674,
        0.23782873153686523,
        0.12372051924467087,
        0.07144477963447571,
        -0.027747809886932373,
        -0.3458089828491211,
        -0.18759776651859283,
        -0.07949753105640411,
        -0.1937381625175476,
        -0.11066215485334396,
        -0.09031381458044052,
        -0.16037335991859436,
        -0.17567194998264313,
        0.04186355695128441,
        -0.14017613232135773,
        0.08719616383314133,
        0.1612389087677002,
        0.2798759937286377,
        0.08055569976568222,
        0.007306939922273159,
        -0.002877954626455903,
        -0.12608128786087036,
        0.08951099216938019,
        -0.17075635492801666,
        0.21342560648918152,
        -0.06703164428472519,
        0.20020215213298798,
        -0.06254712492227554,
        0.002544814022257924,
        -0.018455425277352333,
        -0.08494599163532257,
        0.17968761920928955,
        -0.01643073558807373,
        0.05915353074669838,
        -0.05917941778898239,
        -0.06206800043582916,
        0.20501576364040375,
        0.11171625554561615,
        0.11783751845359802,
        -0.010622594505548477,
        0.20084843039512634,
        -0.09571697562932968,
        0.09191755950450897,
        0.0566285103559494,
        0.0016180468956008554,
        0.17265787720680237,
        0.17665758728981018,
        -0.098298579454422,
        0.03993416950106621,
        -0.1583554893732071,
        0.21910633146762848,
        -0.04765178635716438,
        0.01998095028102398,
        0.05897905305027962,
        -0.32842007279396057,
        -0.35812684893608093,
        0.039358023554086685,
        -0.08173719793558121,
        0.16934648156166077,
        -0.022764218971133232,
        0.05341468006372452,
        -0.030870232731103897,
        -0.12086348980665207,
        -0.12980292737483978,
        -0.01685064099729061,
        -0.018296729773283005,
        0.11224572360515594,
        0.12340264022350311,
        -0.024826666340231895,
        0.46039876341819763,
        0.1979110687971115,
        0.005730876699090004,
        -0.2824152112007141,
        0.1558506041765213,
        0.12689168751239777,
        0.054803602397441864,
        -0.03649875149130821,
        -0.005832035094499588,
        0.15778766572475433,
        0.009616871364414692,
        0.11085548251867294,
        -0.11169067025184631,
        0.06430757790803909,
        -0.0836275964975357,
        -0.03183351084589958,
        -0.09104333072900772,
        0.3435570299625397,
        0.5335472822189331,
        -0.3553145229816437,
        -0.17612190544605255,
        0.05176732689142227,
        0.032546088099479675,
        -0.01763196475803852,
        0.203943133354187,
        -0.04611821472644806,
        -0.0558798685669899,
        0.3239053189754486,
        -0.053741563111543655,
        0.08314827084541321,
        0.07695669680833817,
        0.21231529116630554,
        0.18885912001132965,
        -0.00692533515393734,
        0.21991577744483948,
        -0.13817855715751648,
        -0.0475834384560585,
        -0.015823926776647568,
        -0.07187695056200027,
        -0.04284115880727768,
        0.07696383446455002,
        -0.1753309667110443,
        0.03726658597588539,
        0.19178839027881622,
        0.10960564762353897,
        -0.11442853510379791,
        -0.2598418891429901,
        0.24344608187675476,
        -0.11216874420642853,
        -0.324576735496521,
        -0.19505111873149872,
        0.11273331195116043,
        -0.10991030186414719,
        0.06839265674352646,
        -0.060071010142564774,
        -0.07758750021457672,
        0.02199173904955387,
        -0.11781273782253265,
        0.06266742199659348,
        0.08355313539505005,
        -0.023503722622990608,
        -0.024048080667853355,
        -0.07611806690692902,
        0.09316325932741165,
        0.15205715596675873,
        0.20338639616966248,
        0.050451647490262985,
        -0.07208682596683502,
        -0.20559197664260864,
        0.012571163475513458,
        0.11212719976902008,
        -0.07661448419094086,
        -0.0597798153758049,
        0.16152900457382202,
        0.02763006091117859,
        -0.15510283410549164,
        -0.037574030458927155,
        -0.008280576206743717,
        -0.06120779737830162,
        -0.22797735035419464,
        -0.035748694092035294,
        -0.2059275358915329,
        0.010421141982078552,
        -0.09479765594005585,
        -0.19305260479450226,
        0.17924368381500244,
        -0.04454927146434784,
        -0.024971740320324898,
        0.17486163973808289,
        -0.04961935058236122,
        0.09319930523633957,
        0.06366965919733047,
        -0.012856226414442062,
        0.20915471017360687,
        -0.033252865076065063,
        0.036809444427490234,
        -0.2139132171869278,
        0.14562475681304932,
        0.4641155004501343,
        0.2830843925476074,
        0.00478789396584034,
        0.07880330830812454,
        0.1265239268541336,
        0.10343720763921738,
        0.017710497602820396,
        -0.1416449397802353,
        0.0799541026353836,
        -0.08240979164838791,
        0.07585107535123825,
        -0.0873207151889801,
        -0.008447220548987389,
        -0.18115539848804474,
        0.10581111162900925,
        -0.07332605868577957,
        -0.30549782514572144,
        0.30049842596054077,
        -0.07712185382843018,
        0.11701039969921112,
        -0.06986793130636215,
        -0.03954846039414406,
        0.0033770736772567034,
        -0.005082367453724146,
        0.11144446581602097,
        -0.14562806487083435,
        0.08959701657295227,
        -0.25874650478363037,
        -0.30195000767707825,
        0.1755274534225464,
        -0.00836112629622221,
        0.02013493701815605,
        -0.0140944579616189,
        -0.08805549144744873,
        0.18206095695495605,
        0.051218535751104355,
        -0.08248341083526611,
        -0.05664290860295296,
        0.17516548931598663,
        0.02469543367624283,
        -0.07199035584926605,
        -0.03879683464765549,
        -0.0344877727329731,
        0.09574680775403976,
        -0.05451098456978798,
        0.032527387142181396,
        -0.12705840170383453,
        -0.5912436246871948,
        0.5999059677124023,
        0.391787052154541,
        -0.4003971219062805,
        0.18504922091960907,
        -0.20518648624420166,
        -0.032792795449495316,
        0.5521484613418579,
        -0.7458968758583069,
        0.997326135635376,
        0.4793790280818939,
        0.04654454067349434,
        -0.513231635093689,
        0.09171722829341888,
        -0.6406949758529663,
        0.058378275483846664,
        -0.08928649127483368,
        0.0012674822937697172,
        -0.27412834763526917,
        0.3354116678237915,
        0.38624030351638794,
        -0.0013691751519218087,
        0.009249837137758732,
        0.13688543438911438,
        0.17782287299633026,
        0.13273076713085175,
        0.13987700641155243,
        -0.6242398023605347,
        0.16044875979423523,
        -0.40456581115722656,
        -0.20387478172779083,
        0.1547730267047882,
        -0.007689121179282665,
        0.0371733084321022,
        0.14738844335079193,
        0.03592549264431,
        0.06147066876292229,
        0.05562571436166763,
        -0.27130061388015747,
        -0.2832571864128113,
        0.09222083538770676,
        -0.0020957982633262873,
        -0.07675199955701828,
        0.08231857419013977,
        0.24171623587608337,
        0.20298412442207336,
        -0.009683427400887012,
        -0.08110310137271881,
        -0.20760253071784973,
        0.3473902642726898,
        -0.23084136843681335,
        0.057661280035972595,
        -0.0645504742860794,
        -0.01440928503870964,
        -0.2448030412197113,
        -0.23202882707118988,
        0.15903735160827637,
        -0.3346693515777588,
        0.5233182311058044,
        0.14334720373153687,
        -0.1178380623459816,
        -0.0010482457000762224,
        -0.06675305217504501,
        0.31458204984664917,
        0.02950432151556015,
        -0.07058487832546234,
        -0.07751421630382538,
        -0.13377824425697327,
        0.12919200956821442,
        -0.28269970417022705,
        0.2382420003414154,
        0.07360464334487915,
        0.0103872399777174,
        0.227178156375885,
        0.24722637236118317,
        0.034932903945446014,
        0.25306788086891174,
        0.1139976754784584,
        -0.05764544755220413,
        0.10540106892585754,
        0.024022147059440613,
        0.3600125014781952,
        -0.08796655386686325,
        0.010299256071448326,
        -0.2071605622768402,
        0.22893334925174713,
        -0.07059885561466217,
        0.23753142356872559,
        -0.1584991216659546,
        -0.045703303068876266,
        -0.014648047275841236,
        -0.09488332271575928,
        -0.17221824824810028,
        0.16028113663196564,
        -0.1755395233631134,
        -0.04016001895070076,
        -0.027856523171067238,
        0.05402698740363121,
        -0.016559090465307236,
        -0.1748874932527542,
        -0.14414438605308533,
        0.27975112199783325,
        -0.04247074946761131,
        -0.2197364717721939,
        -0.08714783191680908,
        0.05357654020190239,
        0.2097567468881607,
        0.014125524088740349,
        0.13123172521591187,
        0.2679407000541687,
        -0.03545784205198288,
        0.03914567455649376,
        0.2944369912147522,
        -0.019660433754324913,
        -0.036358196288347244,
        0.2502215802669525,
        0.06877901405096054,
        0.013679028488695621,
        0.008158163167536259,
        -0.1825094372034073,
        0.22965994477272034,
        0.02609805203974247,
        -0.12717266380786896,
        0.020107554271817207,
        -0.0983135849237442,
        -0.03191160783171654,
        0.1158999353647232,
        0.3012027144432068,
        0.24178974330425262,
        -0.20685522258281708,
        -0.13016842305660248,
        0.1950753778219223,
        0.024747885763645172,
        0.19146670401096344,
        -0.17557640373706818,
        0.12665659189224243,
        0.04621706157922745,
        -0.042059410363435745,
        0.12951874732971191,
        -0.04230063408613205,
        -0.1283193677663803,
        0.025855861604213715,
        -0.09705431014299393,
        -0.2369806170463562,
        0.21131156384944916,
        -0.06129547581076622,
        0.12440471351146698,
        0.23466655611991882,
        0.04763750359416008,
        -0.27556777000427246,
        0.08655207604169846,
        -0.18762491643428802,
        0.2781390845775604,
        -0.2953433692455292,
        0.3969521224498749,
        -0.26502615213394165,
        -0.007526918780058622,
        0.03778203949332237,
        0.07165384292602539,
        0.3790788948535919,
        -0.20020326972007751,
        -0.2438269406557083,
        0.14086443185806274,
        0.045335929840803146,
        0.28727471828460693,
        -0.19499388337135315,
        -0.11767344176769257,
        -0.15197370946407318,
        -0.02167060412466526,
        0.10256806761026382,
        -0.10835623741149902,
        0.0916585847735405,
        -0.2651166617870331,
        0.3200336694717407,
        -0.06333815306425095,
        0.2033141851425171,
        -0.3640195429325104,
        -0.09212115406990051,
        -0.2067805975675583,
        0.17857536673545837,
        0.007554307114332914,
        0.15355780720710754,
        -0.06040812283754349,
        0.17642292380332947,
        0.030486835166811943,
        0.07233118265867233,
        0.05580286681652069,
        -0.02984226681292057,
        -0.4858415424823761,
        -0.12791888415813446,
        0.21354101598262787,
        -0.17085906863212585,
        0.12316890805959702,
        0.3220730721950531,
        0.2724980115890503,
        -0.0994320809841156,
        -0.0022917191963642836,
        0.1406419724225998,
        0.17315120995044708,
        -0.13780991733074188,
        -0.39128541946411133,
        -0.37320268154144287,
        0.07064636051654816,
        -0.41856953501701355,
        0.09399488568305969,
        0.06819766014814377,
        -0.1348520666360855,
        -0.4214887320995331,
        -0.31334906816482544,
        -0.06319952756166458,
        0.08700826019048691,
        0.2376519739627838,
        -0.04626335948705673,
        -0.2558361291885376,
        -0.14477255940437317,
        0.25672850012779236,
        -0.17362891137599945,
        -0.13893795013427734,
        -0.0639045238494873,
        0.01917278952896595,
        0.07247550785541534,
        0.04980791360139847,
        -0.05066182091832161,
        -0.19077558815479279,
        -0.0858265608549118,
        -0.21591004729270935,
        -0.07791455835103989,
        0.08411366492509842,
        0.04506204277276993,
        0.08658623695373535,
        -0.072755366563797,
        0.032059717923402786,
        0.1748526394367218,
        0.3806574046611786,
        -0.1704692393541336,
        -0.06676945835351944,
        0.27215826511383057,
        -0.2917158603668213,
        0.14784614741802216,
        0.05361715704202652,
        0.36483073234558105,
        -0.16199235618114471,
        0.04737437888979912,
        -0.03647745028138161,
        -0.22803595662117004,
        0.11367882788181305,
        -0.2254040539264679,
        0.14634330570697784,
        0.2694348394870758,
        0.06329256296157837,
        0.31119412183761597,
        -0.05209700018167496,
        0.13599948585033417,
        0.19757777452468872,
        -0.22392778098583221,
        -0.1491592526435852,
        0.07755612581968307,
        0.05167480185627937,
        -0.2878459393978119,
        -0.25381913781166077,
        -0.1257469803094864,
        0.01779135689139366,
        -0.24187225103378296,
        -0.031122246757149696,
        0.2574136257171631,
        0.13228851556777954,
        0.4355142116546631,
        -0.1830422431230545,
        -0.08552653342485428,
        -0.13419310748577118,
        -0.029502687975764275,
        0.11551064997911453,
        0.04439126327633858,
        0.142861008644104,
        0.08554139733314514,
        -0.110205739736557,
        0.1210634857416153,
        0.14280129969120026,
        0.051511023193597794,
        -0.2397821843624115,
        -0.06677297502756119,
        -0.04998215287923813,
        0.07697411626577377,
        0.07955314964056015,
        0.0042625232599675655,
        0.015878384932875633,
        0.011562983505427837,
        0.1738215535879135,
        -0.167006716132164,
        0.012203598394989967,
        -0.039513472467660904,
        -0.28937262296676636,
        0.013681826181709766,
        -0.0028831230010837317,
        -0.285390168428421,
        -0.004101626109331846,
        0.15192699432373047,
        0.16965264081954956,
        0.20245283842086792,
        -0.08413427323102951,
        -0.08257771283388138,
        -0.13306531310081482,
        -0.10483618080615997,
        -0.09754840284585953,
        0.11663953214883804,
        -0.03816155716776848,
        -0.041503626853227615,
        -0.03821013495326042,
        -0.2572494447231293,
        0.14488698542118073,
        0.05154402181506157,
        0.09638036787509918,
        -0.2975432574748993,
        -0.0791364535689354,
        -0.060162510722875595,
        0.2781107425689697,
        -0.030936406925320625,
        -0.03683668002486229,
        -0.24996531009674072,
        0.16432949900627136,
        0.13401179015636444,
        -0.12104980647563934,
        -0.056132033467292786,
        -0.02326647937297821,
        -0.07354319840669632,
        -0.07223431766033173,
        0.10525240749120712,
        -0.10508042573928833,
        -0.09786604344844818,
        -0.2920774221420288,
        -0.20526959002017975,
        0.03159768134355545,
        -0.22419072687625885,
        -0.3140416741371155,
        0.0411522351205349,
        0.07930158078670502,
        0.5396769642829895,
        -0.361158162355423,
        0.055482108145952225,
        0.06515149027109146,
        0.11494466662406921,
        -0.18851976096630096,
        -0.12122666090726852,
        0.17516838014125824,
        0.17291463911533356,
        0.1782604157924652,
        -0.0495120994746685,
        -0.033567946404218674,
        0.0031281125266104937,
        0.3568200469017029,
        -0.16033238172531128,
        -0.29513901472091675,
        0.35280653834342957,
        0.0622594952583313,
        0.5796337723731995,
        -0.09863747656345367,
        -0.17511433362960815,
        -0.04953427612781525,
        -0.04290631413459778,
        -0.004048261325806379,
        0.2900581359863281,
        -0.18003691732883453,
        -0.00481021124869585,
        0.17940199375152588,
        0.13577325642108917,
        0.030634978786110878,
        0.35161665081977844,
        -0.12773533165454865,
        0.21790112555027008,
        -0.43799421191215515,
        -0.09999608248472214,
        0.12958286702632904,
        0.11081106215715408,
        -0.03886295109987259,
        0.19313816726207733,
        0.16787125170230865,
        -0.24441683292388916,
        -0.279602587223053,
        0.2191346287727356,
        0.4336155354976654,
        -0.3797055780887604,
        0.13803230226039886,
        0.007526989094913006,
        -0.10833236575126648,
        -0.46805518865585327,
        -0.025337526574730873,
        0.22717882692813873,
        0.0864623412489891,
        -0.16867919266223907,
        -0.02259512059390545,
        -0.2378082126379013,
        0.0014716467121616006,
        0.2084852159023285,
        -0.07938283681869507,
        -0.37711068987846375,
        0.09156960994005203,
        -0.0204322449862957,
        0.13768288493156433,
        -0.17417564988136292,
        0.11377806961536407,
        -0.19014142453670502,
        -0.004703078418970108,
        -0.28416943550109863,
        0.02955799363553524,
        -0.2107362002134323,
        -0.03121127001941204,
